275 128
136 0.002122 0.050193 0.158673 -0.141897 -0.045686 0.110062 -0.053034 -0.037792 -0.013747 0.044629 0.030717 0.101238 0.079027 -0.117516 -0.063602 0.006870 -0.033156 0.023057 -0.127965 -0.072545 -0.060908 -0.031355 -0.055701 -0.159352 -0.073540 0.056499 -0.106324 -0.124699 0.070908 -0.004892 0.034310 0.073163 0.015314 -0.078076 -0.100114 0.072881 0.155829 -0.010252 0.035027 -0.024228 -0.076213 0.025430 -0.120610 -0.057061 0.013779 0.095494 0.064579 -0.000095 0.189469 0.020159 -0.072863 -0.015501 -0.053559 -0.029226 -0.215488 -0.103658 0.009459 0.196228 -0.009672 0.056202 0.028291 -0.073874 -0.015697 0.092869 -0.026544 0.084457 -0.018350 -0.037513 -0.017045 -0.120012 0.257184 -0.029736 0.030658 -0.048802 0.156483 -0.129268 0.135527 0.047692 -0.058399 0.014030 0.022311 -0.003963 -0.085301 -0.134420 0.005121 -0.069652 -0.067486 0.138614 -0.058747 -0.106707 -0.058450 -0.016338 -0.079124 -0.104829 0.020013 0.017996 -0.007104 -0.082685 -0.021273 -0.053863 -0.082027 -0.013194 0.083783 -0.062758 0.134767 0.066698 0.158098 -0.049129 -0.022753 0.087704 -0.059989 0.123019 -0.030691 -0.076995 -0.025322 0.044672 0.030848 0.056512 -0.118628 -0.145349 -0.123802 0.020337 -0.015300 0.133412 0.123813 -0.082379 0.186448 -0.028899
1447 0.050534 -0.010420 0.136523 -0.182237 0.049635 0.058966 -0.109627 -0.004695 0.047368 0.042405 0.048556 0.099401 0.062886 -0.100250 -0.126225 0.080435 0.068242 -0.084537 0.015428 -0.041261 -0.136644 -0.055655 -0.071354 -0.076719 -0.018561 0.111684 -0.054368 -0.072114 0.098876 -0.111993 -0.012465 0.024604 0.026781 -0.014197 -0.076910 0.135445 0.210890 0.003230 -0.057779 -0.081603 -0.052345 0.002202 -0.064501 0.061731 -0.000987 0.124494 -0.013254 -0.012503 0.151468 -0.081073 0.009850 -0.066734 -0.068491 -0.069144 -0.150281 -0.097240 0.002049 0.132272 -0.037249 0.113459 -0.064659 -0.077260 0.017426 0.022408 -0.026564 -0.005891 -0.058533 -0.059971 -0.045262 -0.103733 0.292560 -0.092048 0.011697 -0.081106 0.157785 -0.087486 0.149846 0.002143 -0.009963 0.038367 0.018537 0.044486 -0.011164 -0.038222 -0.034489 -0.081843 -0.095884 0.127181 -0.051981 -0.059637 -0.097728 -0.031031 0.006334 -0.074037 -0.007177 0.030399 -0.003710 -0.104305 -0.108352 -0.003505 -0.096952 0.019607 0.086087 -0.052141 0.158626 -0.012766 -0.007453 -0.066843 -0.002973 0.021195 -0.019282 0.114270 -0.018671 -0.073091 0.023181 0.079027 0.082163 0.168163 -0.062374 -0.105355 -0.065616 -0.034897 0.000275 0.097526 0.125017 -0.096590 0.221597 0.036603
998 0.040810 -0.004666 0.105433 -0.077687 0.026782 0.172304 -0.052612 -0.007910 0.064889 0.016799 0.098152 0.128396 0.097021 -0.100254 -0.089949 -0.000306 -0.105702 -0.054069 -0.136653 -0.065790 -0.047609 -0.135648 -0.143992 -0.110606 -0.018184 0.065994 0.016068 -0.026311 0.126286 -0.071393 0.006441 0.042783 -0.015350 -0.105233 -0.118788 0.188745 0.205401 0.120715 -0.001935 -0.097291 0.070919 -0.069157 -0.111156 0.003319 0.088739 0.034550 -0.058018 0.027241 0.125564 -0.092867 0.002203 -0.004388 -0.004856 -0.187512 -0.176769 -0.109513 -0.022521 0.092607 -0.085594 0.164511 0.044617 -0.083445 -0.009087 0.071938 -0.003533 0.082517 0.060237 0.010715 -0.032549 -0.107164 0.214740 -0.136636 0.058113 -0.107289 0.085174 -0.117995 0.200426 -0.031253 -0.005720 0.004082 -0.083419 -0.019734 -0.091763 -0.019150 0.076610 -0.007985 -0.071405 0.109333 -0.126496 -0.070691 -0.076539 0.013783 -0.005453 -0.098621 -0.054554 0.095129 0.040096 -0.009284 -0.134585 -0.053672 -0.151285 -0.091222 0.093379 -0.105837 0.151074 0.009728 0.160600 -0.025882 0.052265 -0.029611 -0.081354 -0.029602 0.006540 -0.065851 -0.075736 0.208233 -0.095408 0.034644 -0.015469 -0.077433 -0.109178 0.035852 0.170172 0.073506 0.018620 0.003273 0.206722 -0.107855
1113 0.005571 -0.024305 0.045760 -0.098680 0.018393 0.146235 -0.103177 0.005231 -0.012481 0.018556 0.107227 0.043689 0.086504 -0.211424 -0.126142 0.069384 -0.108118 0.035522 -0.019779 -0.125838 -0.036880 -0.111800 -0.073179 -0.112754 0.013458 0.096334 -0.063729 -0.029238 0.013217 -0.120410 0.080554 0.038766 -0.032490 0.065110 -0.099300 0.100728 0.185934 -0.032457 0.010843 -0.108554 0.028902 -0.008576 -0.132121 -0.005437 0.047034 0.073252 0.067944 0.044650 0.087266 -0.076817 0.039260 -0.034392 -0.005212 -0.006804 -0.196161 -0.018639 0.027714 0.170348 -0.021394 0.068410 0.009177 -0.062209 0.056804 0.021558 0.006781 -0.013133 -0.019343 -0.086425 0.014705 -0.091983 0.240322 -0.027625 0.007335 -0.045031 0.165993 -0.086823 0.140991 0.038666 -0.063724 0.035614 0.024690 0.013890 -0.099885 -0.053952 0.021899 -0.133939 -0.073311 -0.021521 -0.084453 -0.092671 -0.036998 0.140916 0.000664 -0.069921 -0.092840 0.025009 0.074766 -0.037179 -0.051503 -0.115029 -0.075762 -0.027094 -0.023279 -0.074960 0.140021 0.007716 0.006463 -0.031777 0.049622 0.049645 -0.046282 -0.008283 -0.013776 0.017380 0.062190 0.035594 0.080338 0.102126 0.039143 -0.067116 -0.057533 0.023275 -0.013243 0.100246 -0.029069 -0.004275 0.201251 0.027835
1179 0.012730 0.082637 0.218914 -0.108223 0.229278 -0.010794 -0.317483 0.136997 -0.043685 0.200180 0.186156 0.065004 0.061971 -0.076362 -0.062904 0.071264 -0.171750 -0.004070 -0.020522 -0.186539 -0.045655 -0.142955 0.096944 -0.038479 -0.014879 0.178945 -0.027423 -0.111742 0.007835 -0.160115 0.164682 -0.042894 0.056679 0.016041 -0.224482 0.068291 0.261210 0.046350 -0.014633 0.014772 -0.085191 0.096186 -0.201208 0.118599 -0.034232 0.155684 0.109486 0.126865 0.112042 -0.103341 0.055863 0.125276 -0.012396 -0.014515 -0.067169 0.002162 0.151484 0.027338 -0.069075 0.033118 -0.082215 -0.040214 -0.015701 0.047892 0.088264 0.129059 -0.014148 -0.087984 -0.032061 -0.097328 0.199039 0.106553 -0.086411 -0.046906 0.108176 -0.063380 0.100090 0.106468 0.011868 0.140082 -0.071101 0.048630 -0.094156 -0.083912 -0.054251 -0.009490 -0.114228 0.019192 -0.071633 0.014862 0.095100 0.026272 -0.096206 -0.030807 -0.122072 -0.071403 -0.021750 0.011703 -0.151415 -0.048766 -0.032596 0.062960 -0.029706 -0.213299 0.179852 -0.147075 0.065285 0.013204 0.109548 -0.058948 -0.158089 0.090967 0.063269 0.156317 -0.055708 0.056044 0.009792 0.036726 -0.020362 0.000917 -0.159983 0.043771 0.036276 -0.021822 0.065550 -0.132433 -0.063164 0.066334
7 0.083169 -0.051077 0.169524 -0.086712 -0.009356 0.162024 0.010043 0.028161 -0.039361 0.155014 0.096024 0.043239 0.120735 -0.159171 -0.119206 0.029794 -0.059875 -0.047857 -0.084224 -0.054456 -0.034737 -0.058686 -0.044591 -0.151145 -0.015721 0.023141 -0.007003 -0.044438 0.054746 -0.042995 0.096853 0.065484 -0.066053 -0.044894 -0.008665 0.178348 0.157647 -0.047517 -0.012678 -0.074597 0.042866 -0.092243 -0.122481 0.040634 0.066007 0.071100 0.054113 -0.010084 0.151682 -0.024747 -0.069622 0.057197 0.005828 -0.116192 -0.205851 -0.186815 0.096016 0.122971 -0.046036 0.045177 0.035692 0.015026 0.081246 0.036900 0.055099 0.096396 -0.043791 -0.042910 0.031384 -0.123920 0.272603 -0.108284 -0.020091 -0.044317 0.067468 -0.092129 0.145745 0.062956 -0.074305 -0.014143 0.001116 0.019700 -0.021592 -0.102542 0.013089 -0.070286 -0.030675 -0.048992 0.002621 -0.072528 -0.099873 0.107643 -0.035589 -0.012318 -0.036894 0.022832 -0.011381 -0.055078 -0.156254 -0.011861 -0.156247 0.046226 0.108432 -0.118998 0.111806 0.069814 0.106906 0.003641 0.037432 0.014842 0.024300 0.140118 -0.037210 -0.041981 -0.023452 0.073827 0.089011 0.118429 -0.022144 -0.044831 -0.095043 0.046898 -0.032518 0.140860 0.042234 -0.103574 0.202244 -0.025192
663 0.037408 0.035525 0.122768 -0.184851 -0.034616 0.150046 -0.017079 0.053533 -0.143573 0.017147 0.096411 0.100655 0.034414 -0.149044 -0.142628 0.002301 -0.096570 -0.048594 -0.060862 -0.028281 -0.058977 -0.057175 -0.061927 -0.157760 0.055376 0.035468 -0.069811 -0.132132 0.031945 -0.052863 0.080198 0.000141 0.042694 -0.131908 -0.020249 0.255643 0.143390 -0.016177 0.008774 -0.119366 0.044849 -0.023130 -0.081247 -0.071816 0.066073 0.061779 0.122410 -0.006590 0.056075 0.012765 -0.024529 0.031053 -0.084348 -0.009033 -0.287100 -0.085242 -0.003565 0.208956 0.059426 -0.002146 0.085526 -0.004943 -0.028360 0.039893 0.023054 0.051610 -0.056690 -0.016345 0.029786 -0.207383 0.383753 -0.049518 0.003922 0.033277 0.043381 -0.128970 0.123582 0.123457 -0.060633 0.039567 0.001167 0.011481 -0.091386 -0.039102 -0.023434 0.019347 0.018125 -0.062906 -0.008289 -0.070005 -0.079789 -0.039587 0.015202 -0.060071 -0.033113 0.057237 -0.038115 -0.071709 -0.057664 -0.024261 -0.084939 -0.025682 0.066297 -0.119697 0.030760 0.000152 0.012176 -0.001782 -0.032906 0.049785 0.001253 0.140306 0.013131 -0.052094 -0.055701 -0.016021 0.046570 0.064685 -0.108175 -0.088437 -0.091872 0.032783 -0.050681 0.041986 0.024532 -0.000842 0.300954 -0.115843
915 -0.079305 -0.013563 0.158211 -0.154153 -0.043217 0.165659 -0.202983 0.052960 -0.099192 0.020482 0.082766 0.094231 0.082390 -0.153478 -0.090714 0.128168 -0.098777 0.036805 0.037684 0.049784 -0.076432 -0.078533 -0.122758 -0.248699 0.045096 0.119204 -0.124170 -0.083155 0.040115 -0.089100 0.080433 0.018933 0.024646 -0.006716 -0.012664 0.087516 0.179250 -0.066727 -0.037281 -0.011837 0.018833 -0.093492 -0.030120 -0.118949 -0.096034 0.134182 0.028704 0.073832 0.108548 -0.129202 0.106985 -0.056051 -0.022251 0.026070 -0.220833 -0.114354 -0.037792 0.215506 -0.036524 0.019652 -0.012597 0.147969 -0.052832 -0.023270 -0.004773 -0.006548 -0.165914 -0.037009 0.032672 -0.167664 0.323990 -0.141043 0.053035 0.142430 0.124857 -0.081672 0.119183 0.129443 0.064554 0.034334 0.076255 -0.044791 -0.120462 0.039097 0.085874 -0.130634 -0.090419 -0.070438 -0.053947 -0.083090 -0.025546 -0.033282 -0.020525 -0.027703 -0.163494 0.075717 -0.017398 -0.115087 -0.129932 0.106424 -0.089807 -0.088524 0.088696 0.021653 0.140854 0.070350 0.029063 -0.005383 -0.009602 0.113665 0.073876 0.058715 -0.012664 -0.072342 -0.126050 -0.005292 0.065316 0.021418 0.018221 -0.069165 -0.113738 0.064174 0.021849 0.106465 -0.030488 -0.003223 0.188101 -0.037824
1471 0.101158 -0.069262 0.144819 -0.139166 -0.007443 0.044849 -0.091818 -0.007806 -0.043869 -0.005481 0.094655 0.121867 0.160789 -0.158584 -0.028758 -0.010504 -0.145826 -0.088714 -0.071001 -0.035665 0.005217 -0.155130 -0.069094 -0.135255 -0.030903 0.084799 0.017402 -0.080153 0.010070 -0.077856 0.016648 0.061906 0.019940 -0.119067 -0.002311 0.114888 0.133835 0.002591 0.006401 -0.030224 -0.006400 -0.068547 -0.063051 0.007144 -0.014835 0.065368 0.062434 -0.020452 0.153805 -0.019716 -0.008996 -0.022255 -0.046487 -0.148219 -0.155554 -0.158928 0.069735 0.128861 0.051220 0.058199 0.040284 0.038664 -0.038668 0.093966 -0.069438 0.068173 -0.017500 -0.030474 0.007841 -0.069931 0.292712 -0.099238 -0.017983 -0.034560 0.156285 -0.064560 0.038943 0.043604 -0.012905 0.086235 0.067532 0.063593 -0.051574 0.002797 0.052668 -0.112656 0.007650 0.072868 -0.091736 -0.083403 -0.111093 0.106148 -0.034843 -0.055499 -0.010627 0.091572 -0.038487 -0.041445 -0.078125 -0.056097 -0.075374 0.001911 0.115445 -0.112660 0.188217 -0.007693 0.031371 -0.020642 0.019703 0.125572 -0.060650 0.037237 0.018428 -0.044044 0.002171 0.098493 0.155976 0.056601 -0.023238 -0.129035 -0.105708 0.025377 -0.036187 -0.035006 0.082129 -0.048810 0.222152 -0.078248
1012 0.047848 -0.026826 0.085432 -0.069849 -0.032806 0.179456 -0.146371 -0.034913 0.005603 -0.099045 0.073199 0.030997 0.077565 -0.082131 -0.042942 0.119533 -0.125689 0.015792 -0.045867 -0.097407 -0.009839 -0.138932 -0.085076 -0.087760 0.027318 -0.047635 -0.080648 0.061817 0.152292 -0.109333 -0.060625 0.006225 0.021987 -0.097829 0.055512 0.092905 0.157651 0.009648 0.031501 -0.138636 0.020892 -0.000124 -0.113113 -0.081325 0.024743 0.038610 0.068562 0.092469 0.207370 -0.082236 -0.010231 0.025590 0.080539 -0.077968 -0.150445 -0.081861 0.070266 0.239706 -0.031954 -0.000003 -0.129596 -0.062585 0.043363 -0.037938 0.013990 0.105772 -0.090300 -0.028542 0.022592 -0.159450 0.382829 -0.173212 -0.040902 -0.011041 0.193650 -0.149054 0.165725 0.043022 0.001496 0.106751 0.141507 0.001747 0.043907 -0.045444 0.025380 -0.058690 -0.070681 0.042282 0.027513 -0.052224 -0.124761 -0.030504 -0.011465 0.061366 -0.006735 0.041427 0.041415 -0.089431 -0.157263 -0.014403 -0.050349 -0.104699 -0.007047 -0.183085 0.171883 -0.017328 0.024484 -0.033955 -0.018886 0.052063 -0.049280 0.033212 0.089035 -0.061531 -0.055706 0.021978 -0.037626 0.042168 -0.107480 -0.047620 0.021497 0.025594 0.102047 0.068752 0.102059 -0.077154 0.196613 0.044714
544 -0.021784 -0.060222 0.134333 -0.185067 0.020183 0.063669 -0.349262 -0.040799 -0.049125 0.155669 0.091875 0.164370 0.058091 -0.109222 -0.034175 0.059695 -0.150774 -0.066948 -0.031712 -0.112361 -0.065582 -0.075589 0.029684 -0.071264 0.048157 0.082741 0.096468 -0.027027 0.052683 -0.192161 -0.033038 0.030762 0.019630 0.050975 -0.069182 0.075800 0.190000 0.050580 -0.053142 0.034880 -0.146832 0.150464 -0.042544 -0.004861 -0.077468 0.061810 0.118448 0.139088 0.114465 0.027010 0.020481 0.022694 0.052827 -0.062960 -0.089922 0.032160 0.038549 0.108871 0.058656 0.053372 -0.115532 -0.057023 0.023081 -0.048337 0.003576 0.048822 -0.043701 -0.179850 -0.027988 -0.177383 0.268973 -0.045680 -0.074883 0.057854 0.075502 -0.111729 0.158032 0.136818 -0.114791 0.079650 -0.039032 0.008136 -0.017951 -0.021770 -0.023287 -0.069599 -0.047578 -0.008254 -0.032628 -0.002928 0.043494 0.040608 -0.020262 0.000959 -0.097438 -0.070025 0.071716 -0.066365 -0.173612 -0.165116 0.050107 0.068211 -0.055429 -0.106232 0.168923 -0.096449 -0.013761 0.037754 0.246406 -0.004550 -0.093718 0.007352 -0.003115 0.043182 -0.092247 -0.115975 -0.073945 0.114879 0.009540 0.053912 -0.057836 0.057835 -0.061980 0.139603 0.055494 -0.108669 0.055512 0.078803
1183 -0.160693 0.108495 0.144829 -0.122719 -0.025905 0.126450 -0.234422 0.039394 -0.082163 -0.060668 0.080056 0.155398 0.031970 -0.160922 -0.140148 0.108286 -0.082226 0.175672 -0.122486 0.000355 -0.046459 -0.101927 -0.115743 -0.274492 0.142105 0.046344 -0.077105 0.032961 0.022508 -0.045540 0.161939 -0.009910 -0.109848 0.106354 -0.106753 0.166345 0.159952 0.000607 0.028557 -0.034980 0.028013 -0.067209 0.056684 -0.044708 -0.020465 0.060918 0.095363 0.133691 0.160194 -0.027462 0.050599 0.016559 -0.145907 -0.017486 -0.287394 -0.071236 0.084561 0.286626 -0.064704 -0.040503 0.033857 0.104198 -0.077280 0.052440 -0.026050 0.045901 -0.110570 -0.089666 -0.018395 -0.061026 0.230583 -0.140219 -0.027095 0.162056 0.208816 -0.118637 0.048597 0.077275 0.128473 0.110307 0.056675 -0.073269 -0.073497 -0.088431 0.037477 -0.225110 -0.047872 -0.073906 0.023857 -0.078851 0.027634 -0.005983 -0.007921 0.004243 -0.150385 0.164091 -0.016849 -0.132963 -0.145229 0.086218 -0.031307 -0.163078 0.097248 -0.001190 0.199732 0.084085 -0.004197 0.166841 -0.111428 0.110096 -0.055433 -0.052294 0.131398 -0.139849 -0.137553 0.008613 -0.000577 0.018969 -0.061590 -0.034664 -0.159948 0.006428 -0.097058 0.235829 -0.013404 -0.073313 0.169192 -0.039182
1240 0.086008 0.057125 0.116713 -0.035171 -0.023317 0.088771 -0.080497 -0.059708 -0.035818 0.032287 0.168097 0.003235 0.052079 -0.155958 -0.021505 -0.021077 -0.062753 -0.001309 -0.012928 -0.056098 -0.007737 -0.108311 -0.105266 -0.043839 0.028007 0.062702 -0.010709 -0.106514 0.139068 -0.014350 0.077832 0.021217 0.014557 -0.078426 -0.000100 0.070820 0.051168 -0.013409 0.004817 -0.060625 0.047673 -0.017359 -0.155202 0.023600 0.049909 0.012560 0.166560 0.072608 0.083615 -0.116304 -0.057551 0.052069 -0.067183 -0.101651 -0.158101 -0.096159 -0.028880 0.136504 0.006340 0.035497 0.019091 -0.038637 0.104818 0.027754 -0.005228 0.081736 -0.070857 -0.067335 -0.015621 -0.127004 0.381097 -0.060519 -0.014635 -0.076700 0.122029 -0.250004 0.158168 0.040291 0.009933 0.087825 -0.086397 0.027312 -0.043888 0.006619 0.054384 0.010495 -0.001450 0.084912 -0.114869 -0.055656 -0.235044 0.023245 -0.019625 0.034439 0.111370 0.114799 0.009497 -0.104086 -0.191770 -0.040153 -0.105136 0.121844 -0.030043 -0.070644 0.067383 0.010153 0.040273 0.074831 -0.018875 0.107989 -0.090057 0.048811 0.016910 -0.078347 0.041606 0.044377 0.049871 0.063197 -0.162018 -0.115606 -0.191076 0.047327 0.066740 0.117268 0.067645 -0.070340 0.237501 -0.037855
875 -0.013415 0.062729 0.110152 -0.201707 -0.063689 0.003849 0.001293 -0.064568 0.082421 0.051554 0.028866 0.120103 0.089755 -0.202778 -0.070342 0.102492 -0.153431 -0.052107 -0.033335 -0.137393 -0.100425 -0.068762 -0.165878 -0.181770 -0.088195 0.188453 0.046899 -0.004066 0.099099 0.046063 0.009518 -0.018838 -0.181719 -0.039718 -0.040781 0.078346 0.110028 -0.043194 0.018804 -0.041000 0.026486 -0.117212 -0.156865 0.045474 -0.033016 0.012332 -0.051024 0.024111 0.049408 -0.057339 -0.092649 0.018027 -0.078335 -0.093091 -0.205643 -0.220515 0.171432 0.087539 -0.052111 0.146164 -0.028803 0.060627 0.057491 0.016198 -0.038115 0.030724 0.026170 -0.023010 -0.019823 -0.053706 0.233445 -0.142620 0.152016 0.025490 0.206408 -0.133933 0.157078 0.060286 0.070904 0.030273 -0.026390 0.041294 -0.095071 -0.076660 0.031062 -0.104357 -0.031436 -0.036257 -0.068978 -0.092691 -0.067796 0.102495 -0.028722 -0.148135 -0.055315 0.074562 0.066076 -0.027203 -0.149716 -0.028056 -0.083752 -0.073949 0.233564 -0.138875 0.279563 -0.021341 0.087056 -0.138492 0.057556 -0.007630 -0.129524 0.144848 0.090243 -0.030481 -0.016573 0.031834 0.035184 0.078443 -0.097655 0.003894 0.007020 0.023938 0.054417 0.047894 0.008091 -0.027371 0.069199 -0.078181
848 -0.071946 -0.026849 0.120073 -0.137597 0.038247 0.135570 -0.203473 0.020581 -0.004660 0.050217 0.143622 0.109209 0.030909 -0.153857 -0.051978 0.102573 -0.099983 -0.008167 -0.044263 -0.230478 0.002527 -0.140112 -0.006998 -0.058107 -0.123936 0.022483 -0.088065 -0.107012 0.045928 -0.163906 -0.010457 0.040240 0.084526 0.066952 -0.086277 0.101944 0.229752 -0.078020 -0.020466 0.034214 0.057182 0.086725 -0.128381 0.058523 0.013252 0.131520 0.065759 0.174547 0.100291 -0.085335 -0.040876 -0.006966 0.115791 -0.031843 -0.017669 0.011734 0.049300 0.056468 -0.103565 -0.085582 -0.140139 -0.031172 -0.012739 0.135081 -0.049299 0.130152 0.042129 -0.129778 0.012612 -0.086935 0.162694 -0.033202 -0.011933 0.020254 -0.026771 -0.104041 0.112998 0.093872 -0.063118 0.160155 0.008890 0.007759 -0.104455 -0.076097 0.043917 -0.033087 -0.087463 0.095145 -0.153400 -0.026098 0.153136 0.060817 0.036810 -0.062668 -0.173630 -0.110733 0.055919 -0.096030 -0.042813 -0.144289 0.060221 0.128372 -0.054062 -0.109281 0.047781 -0.115333 -0.008377 0.117309 0.067215 0.086881 -0.008724 0.130703 -0.027508 0.023464 0.065843 0.082482 0.124006 0.153544 -0.005737 0.026519 -0.151925 -0.069671 0.015471 0.038027 0.068439 -0.113639 0.138609 0.033730
1382 0.096403 -0.056076 0.053475 -0.104357 -0.045525 0.143152 0.132101 -0.025979 0.037642 0.011674 0.072240 0.125735 0.073887 -0.089343 -0.107971 0.066751 -0.000456 -0.086223 0.064923 -0.098597 -0.088199 -0.167812 -0.216882 0.059992 -0.055575 0.120573 0.039758 -0.075200 0.162843 0.048661 -0.027602 0.013421 -0.041058 0.048832 0.027030 0.179330 0.114192 0.091409 -0.045085 0.021573 0.044772 0.068442 -0.087638 0.053790 0.120221 0.094199 0.084359 -0.060160 0.138756 -0.114676 -0.036708 0.000399 -0.032687 0.005278 -0.152913 -0.012847 -0.002083 0.176383 0.003001 0.138122 0.058589 0.028484 0.003463 0.059891 0.047627 0.088941 0.019381 0.069103 0.040611 -0.202637 0.312601 -0.052766 0.046056 0.071482 0.285441 -0.094981 0.172783 0.150186 -0.024397 -0.077714 -0.039659 -0.059199 -0.018261 0.016371 -0.079084 -0.072621 -0.119067 0.168142 -0.075190 0.063258 -0.142626 0.033977 0.090342 -0.127453 0.068172 0.016028 -0.012821 -0.087790 -0.083081 -0.073644 -0.062376 0.167347 0.125792 -0.139474 0.094998 0.138938 0.065457 -0.049056 0.091690 0.075122 -0.050307 0.162216 0.086678 -0.108917 -0.096305 0.062743 0.082027 0.035925 -0.048370 -0.072477 -0.238474 0.042544 0.055481 -0.022259 0.092410 -0.208683 0.343680 -0.098134
390 0.034444 -0.051115 0.145180 -0.088752 0.015121 0.070763 -0.186640 0.005828 -0.022349 -0.018215 0.072422 0.069824 0.060839 -0.059715 -0.107038 0.004659 -0.231640 -0.013528 -0.204248 -0.046696 0.050681 -0.043996 -0.061825 -0.006820 0.019840 0.127241 -0.056083 -0.134428 0.130711 -0.207862 0.000708 0.081625 -0.020310 -0.103163 -0.033577 0.039851 0.125716 0.057189 0.014320 0.037794 -0.018674 0.062424 -0.077989 -0.016729 0.005478 0.152891 0.051533 0.134870 0.078398 -0.050775 0.020906 0.025600 0.161240 -0.082342 -0.119381 -0.166341 -0.035689 0.140328 -0.144838 0.044187 0.050624 0.011581 0.006073 0.110260 0.019702 -0.030009 -0.046288 -0.040016 0.057391 -0.064058 0.344692 -0.025334 0.048490 -0.037871 0.016720 -0.106669 0.199274 0.111097 -0.114451 -0.109620 0.071686 0.114948 -0.171480 0.006726 -0.017169 -0.075747 -0.106375 0.054836 -0.008393 0.083783 -0.076872 0.089612 -0.047820 -0.048956 -0.100979 -0.007435 0.047660 0.020504 -0.068123 -0.074977 -0.095850 -0.012217 0.028923 -0.071444 0.122425 -0.024032 0.104799 -0.038640 0.033193 0.059613 -0.031273 -0.010721 0.022297 -0.062822 0.003926 0.177991 0.080536 0.070450 -0.041792 -0.228112 -0.028956 0.013416 0.031073 0.096020 0.053989 0.042463 0.125796 0.052096
256 0.023939 -0.075131 0.122322 -0.091359 0.083445 0.153793 -0.097992 0.015479 0.080235 0.138240 -0.042750 0.089494 0.189395 -0.123243 -0.159844 -0.038857 -0.093377 -0.151230 -0.144864 -0.077038 -0.071232 -0.126392 -0.084452 -0.082947 -0.064931 0.045072 -0.050153 -0.107504 0.072767 0.081022 0.004378 0.021512 -0.014435 -0.004767 -0.042035 0.122287 0.183562 0.085227 0.027064 -0.127601 0.025939 -0.112507 -0.143651 0.006796 0.048545 0.052529 0.027152 0.007892 0.109270 -0.079141 0.040270 0.113150 -0.043308 -0.065465 -0.260343 -0.194172 0.011223 0.097418 -0.054667 0.049311 0.050442 -0.110583 0.005056 0.100893 -0.058602 0.033414 0.007076 0.089838 -0.058337 -0.082656 0.126808 -0.089028 -0.025819 0.025168 0.190862 -0.060894 0.092281 0.045999 -0.082217 0.040269 -0.072989 -0.077275 -0.147551 0.050305 0.038060 -0.066768 0.045406 0.172429 -0.050384 -0.082145 -0.184397 0.052372 0.014739 -0.134345 -0.058523 -0.036127 -0.058270 -0.106977 -0.184369 -0.043563 -0.127886 0.028630 -0.062267 -0.095504 0.129379 0.022491 0.255065 -0.095227 0.051589 0.051963 0.012070 0.161563 0.113218 -0.102381 -0.050428 0.255586 0.047303 0.069775 -0.162423 -0.151955 -0.218167 0.026703 -0.037835 0.049806 0.014043 -0.144250 0.216877 -0.115965
251 0.042222 -0.014803 0.115771 -0.171519 -0.008118 0.143287 -0.169721 -0.028775 -0.003972 0.111459 0.134829 0.130584 0.104098 -0.217603 -0.090884 0.016182 -0.090309 -0.064312 -0.029454 -0.102426 0.080684 -0.147195 0.007573 -0.065814 -0.059626 -0.011014 -0.083682 0.026680 0.082402 -0.040276 0.049896 0.053073 -0.097898 -0.067740 -0.079119 0.087578 0.085860 0.025945 0.029728 -0.068600 0.109042 -0.126382 -0.124765 -0.044580 -0.031100 0.087771 -0.007531 0.026036 0.140079 -0.158872 0.008173 0.046918 -0.007350 -0.065045 -0.133876 -0.178846 0.038673 0.073184 -0.061162 0.041187 -0.083975 0.084906 0.012622 0.084461 0.041083 0.058493 -0.022728 -0.004487 -0.065037 -0.073475 0.268172 -0.167852 0.041705 -0.121166 0.123465 -0.073792 0.140652 0.107748 -0.225743 0.020253 -0.083649 0.057241 -0.132042 -0.056870 0.037933 -0.027376 -0.011399 0.115009 -0.091648 -0.100369 -0.098288 0.121696 -0.057311 -0.057954 -0.113730 0.136074 0.070488 0.052471 -0.190867 0.069527 -0.097803 0.004121 0.083710 -0.187933 0.102757 0.038756 0.074171 0.014377 0.007006 -0.020178 -0.031537 0.139717 -0.031181 -0.090443 -0.021493 0.265872 0.065995 0.109314 0.033848 -0.045806 0.005606 -0.038274 0.036046 0.054130 0.050322 -0.037857 0.165039 -0.040311
579 0.154236 -0.062474 0.059202 -0.197881 0.007991 0.010261 -0.176624 -0.092287 -0.051871 0.042617 0.014732 0.116532 0.079028 -0.116909 -0.081606 0.024349 -0.050616 -0.038754 -0.172038 0.008825 -0.062491 0.030944 0.004900 -0.082603 0.056395 0.035577 0.074375 -0.097385 -0.049588 0.026784 0.020901 0.018977 -0.041939 -0.068604 -0.039751 0.120713 0.233924 -0.010658 0.111801 -0.113765 -0.013901 -0.059097 -0.126832 0.041407 -0.038007 0.149507 0.041093 0.074560 0.169681 -0.109077 -0.099256 -0.219259 -0.087235 -0.005364 -0.214007 -0.127552 0.002717 0.085537 -0.086444 0.164012 0.054401 -0.067811 0.038176 0.001436 -0.071730 -0.023092 -0.023016 -0.098540 0.076589 -0.194924 0.260588 -0.006579 0.009551 -0.013050 0.137075 -0.085328 0.183500 0.006575 0.096385 0.091199 0.130391 0.064576 -0.048382 -0.014335 -0.030848 -0.165855 -0.004357 -0.129536 0.034507 -0.016193 -0.073840 0.175929 0.073482 -0.121515 -0.020446 0.054409 -0.030714 -0.115490 -0.020098 0.095905 -0.093788 0.113028 0.148318 0.003497 0.192447 -0.143114 0.018871 -0.051480 0.165249 -0.037449 -0.083883 0.113017 -0.024784 -0.086391 -0.039166 -0.046285 0.008712 0.001097 -0.073450 -0.196473 0.007750 0.137291 0.004236 0.108561 0.132270 0.055544 0.325316 -0.127313
1292 0.149003 0.037403 0.143780 -0.146746 -0.028939 0.127736 -0.067775 -0.064209 -0.010261 0.109230 0.080766 0.120249 0.089084 -0.043970 -0.028797 0.048393 -0.089072 -0.020809 -0.024219 -0.011379 -0.035518 -0.024072 -0.055475 -0.177123 -0.098836 0.096610 0.030549 -0.105979 0.006499 -0.017883 0.013403 -0.035652 -0.062115 -0.114309 -0.016191 0.053430 0.139079 0.005001 0.032081 -0.085546 0.076214 -0.055852 -0.094870 -0.030973 0.019239 0.002586 0.012979 0.084363 0.165571 -0.109785 0.001561 -0.024116 -0.005361 -0.002112 -0.134065 -0.178664 0.029313 0.117557 0.010685 0.120343 0.037123 0.058952 0.040093 0.001934 0.024036 0.043344 0.000223 -0.003760 0.031987 -0.102897 0.314347 -0.194569 -0.038591 0.011138 0.129102 -0.133214 0.101376 0.098819 -0.027839 0.038023 -0.047365 0.010330 0.004820 -0.020784 0.051807 -0.055091 0.059219 0.001913 -0.114814 -0.092273 -0.146348 0.090397 0.022794 -0.038370 0.042566 0.044937 0.022137 -0.037811 -0.111590 -0.091887 -0.040248 0.118824 0.024445 -0.202029 0.214103 0.090114 0.040024 0.066417 0.046622 0.076089 -0.033615 0.059459 0.034463 -0.016352 -0.048613 0.117492 0.138776 0.069444 -0.137628 -0.102723 -0.061106 0.124120 0.004702 0.062042 0.091736 -0.031207 0.233438 -0.069291
724 0.000115 0.038858 0.135438 -0.196551 0.131991 0.027438 -0.199551 0.047431 0.038034 0.031114 0.176350 0.094062 -0.038728 -0.158992 -0.174411 0.093254 -0.195942 -0.058079 -0.045844 -0.225695 -0.037784 -0.010857 -0.139829 0.028163 -0.148166 0.081197 -0.024441 -0.161130 0.055502 -0.164551 0.093181 0.034304 -0.008273 0.081607 -0.127468 0.031036 0.155709 -0.010001 -0.110240 0.043736 0.009835 0.034172 -0.162871 -0.024279 -0.020760 0.159164 0.102188 0.181377 0.122523 -0.025493 -0.020622 0.089846 0.152332 -0.076730 -0.100100 -0.010196 0.087401 0.000800 -0.052059 0.040739 0.026534 -0.019958 0.011200 0.117963 0.062650 0.055989 0.009832 0.051651 0.003406 -0.028188 0.171913 0.054369 0.050631 0.009237 0.106824 -0.092156 0.202171 0.085191 -0.076769 0.015287 -0.055747 0.001866 -0.046972 -0.010248 0.041738 -0.113892 -0.042432 -0.045854 -0.099361 -0.005365 -0.031324 -0.075814 -0.001208 -0.003700 -0.111345 -0.145540 0.045824 0.030121 -0.092397 -0.012156 -0.091576 0.097859 0.048276 -0.130527 0.179860 -0.163678 0.054968 0.051154 0.036877 -0.024340 -0.046556 0.067341 0.029226 0.109989 0.018754 0.080660 0.085212 0.075630 -0.162927 -0.014817 -0.045782 0.112748 0.072088 0.227862 0.018073 -0.029158 0.054961 -0.034992
298 -0.108975 0.008079 0.038351 -0.248492 0.009803 0.067370 -0.214156 -0.008537 0.069378 0.066539 0.250260 0.094806 -0.061875 -0.197842 -0.075998 0.076354 -0.066059 -0.036212 0.020328 -0.241041 -0.021978 -0.066588 -0.103390 -0.049827 -0.010526 -0.054872 -0.002078 -0.046326 0.036487 -0.168096 0.075669 0.050320 0.112183 0.068432 -0.130162 0.147267 0.092723 -0.038959 -0.053764 -0.026224 -0.068610 0.021823 -0.200621 0.062167 0.047879 0.080803 -0.021334 0.191192 0.154863 -0.012429 -0.011743 -0.043960 0.152395 -0.030052 -0.123937 0.018283 0.037826 0.024823 -0.021844 -0.019687 -0.146491 0.013998 0.007390 0.093532 -0.130787 0.089610 0.099491 -0.060349 -0.070911 -0.155314 0.149407 0.080765 0.008257 -0.066353 0.010967 -0.036376 0.094200 -0.053755 -0.024760 0.139610 -0.126580 -0.057311 -0.094350 -0.035754 0.017859 -0.052050 -0.092535 -0.021239 -0.167547 -0.129766 0.026284 0.008908 0.034134 -0.152246 -0.150168 -0.026308 0.073979 -0.088034 -0.198991 -0.184912 -0.065254 0.110943 -0.055809 -0.103866 0.099394 -0.123901 -0.084334 0.130253 0.174390 0.042425 0.063832 0.039647 0.072951 0.020559 0.022858 0.034033 0.139330 0.167313 -0.051145 0.019651 -0.087697 -0.001305 0.054212 0.060460 0.049728 -0.121756 0.122820 -0.021805
1140 -0.006432 0.037627 -0.000465 -0.148073 -0.073469 0.166909 -0.111672 0.032835 0.063044 0.073507 0.165313 0.160621 0.063021 -0.130166 -0.189268 0.000060 -0.189113 0.017194 0.025968 -0.040544 0.065385 -0.214779 -0.024025 -0.078925 -0.009037 -0.019424 -0.124445 -0.003049 0.034796 -0.119863 -0.059304 0.061807 -0.013663 -0.079529 0.072479 0.135226 0.126693 -0.035474 -0.003915 -0.078759 -0.035976 0.047838 -0.092998 -0.002306 0.009833 0.066844 0.194970 0.074574 0.140417 -0.071984 0.060427 0.090727 -0.059008 -0.029117 -0.161192 -0.118332 -0.015452 0.165761 0.041302 0.024116 -0.055258 0.018134 0.128365 0.107490 0.021863 0.010399 0.006837 0.054255 0.057361 -0.159896 0.299345 -0.103877 -0.003370 -0.117028 0.188313 -0.019406 0.191923 0.074762 -0.149097 0.055148 0.018022 0.074753 0.056123 -0.091887 0.047348 -0.083402 -0.000195 -0.006523 -0.119093 -0.088099 -0.107010 0.104675 -0.115700 0.038100 -0.084567 0.048952 0.119186 -0.012221 -0.122971 -0.105181 -0.093446 -0.095359 0.035974 -0.190586 0.118438 0.021014 0.012658 -0.000042 0.025520 0.057116 -0.094324 -0.021631 -0.026269 0.009379 0.040906 0.113532 -0.006845 0.056131 -0.084092 -0.212038 0.015589 0.031963 -0.081861 0.075361 -0.038734 0.069617 0.116913 -0.021555
675 0.009224 -0.104598 0.197317 -0.187815 0.039092 0.126580 -0.007282 0.087421 -0.043269 0.077523 -0.004394 0.121531 0.126661 -0.129729 -0.170858 -0.042396 0.019492 0.005861 0.005477 -0.012765 0.012756 -0.173092 -0.074706 -0.137945 0.086380 0.129815 0.081355 0.035987 0.044385 0.014585 0.190637 0.027095 -0.016274 -0.106696 -0.053784 0.200407 0.120549 -0.059887 0.030704 -0.124209 0.002284 -0.098738 -0.069408 0.056701 -0.029087 0.053948 0.092498 0.030238 0.113960 -0.077188 -0.193513 -0.001735 -0.053367 -0.040865 -0.190257 -0.229331 0.088536 -0.002817 0.003654 0.135457 -0.082522 0.160862 0.105375 0.084525 0.150110 0.057918 0.009558 -0.079459 -0.140544 -0.191657 0.273564 -0.132375 0.036338 0.005624 0.100788 -0.051836 0.239722 -0.079895 -0.145715 0.020359 -0.107723 0.029309 -0.059365 0.022986 0.049836 -0.056297 0.008330 0.116770 -0.048763 -0.026966 -0.118064 0.079647 -0.039667 -0.181644 -0.043795 0.082860 0.102167 0.067939 -0.189805 -0.033947 -0.164901 -0.063710 0.119316 -0.199425 0.130421 -0.040299 0.322726 0.023909 0.074583 -0.002084 -0.102229 0.126479 0.062845 0.025239 0.010763 0.210727 -0.072831 0.142198 -0.149549 0.010695 -0.186382 0.080834 0.125971 -0.015602 0.107904 -0.034319 -0.002759 -0.032559
638 0.160043 0.030861 0.132441 -0.115280 0.040568 0.109501 -0.068819 0.030842 -0.026987 0.169298 0.014368 0.174281 0.136190 -0.051182 -0.134347 -0.056333 -0.061951 -0.104623 0.048647 -0.027222 0.009522 -0.107863 -0.146118 -0.091850 -0.169822 0.042873 -0.035116 -0.072116 0.084389 -0.076195 -0.025119 -0.079155 0.038737 0.002586 0.049430 0.129277 0.030966 0.048884 -0.018279 0.018297 0.036751 0.005241 -0.198959 -0.081657 0.026217 0.140478 -0.062268 -0.010928 0.111434 -0.113149 0.070286 0.020116 -0.013634 -0.171794 -0.277373 -0.097682 -0.003522 0.086127 0.050003 0.145685 0.065243 -0.084771 -0.092053 0.080628 0.012639 0.065564 0.046193 0.016541 -0.034030 -0.083948 0.106735 -0.103611 0.008445 -0.002458 0.128863 0.015979 0.132894 0.103224 -0.088852 -0.185801 0.024874 -0.089815 -0.160956 -0.071805 0.017561 -0.073433 -0.036738 0.177625 -0.141892 -0.107033 -0.133172 -0.091068 -0.039466 -0.193459 -0.196106 -0.019652 0.060581 0.003912 -0.191030 -0.075432 -0.160504 0.011282 0.071431 -0.182604 0.095089 0.084643 0.131425 -0.102524 0.031711 0.099496 -0.025226 0.169092 0.086625 -0.093486 -0.045392 0.217282 0.023070 -0.023107 -0.194477 -0.079558 -0.133382 -0.037741 0.145128 -0.022447 0.096203 -0.077773 0.367492 -0.086296
164 -0.008815 -0.026688 0.121008 -0.161156 -0.031743 0.108612 -0.251875 -0.023427 -0.198042 -0.014282 0.105526 0.119861 0.078552 -0.186513 -0.034540 0.073318 -0.203462 0.102500 -0.073494 -0.084025 0.026557 -0.026655 -0.058244 -0.153081 0.097589 0.103188 -0.036163 -0.015295 -0.010804 -0.074196 0.178799 0.042028 -0.029749 -0.085106 -0.129247 0.151773 0.240385 -0.032368 0.040057 -0.100451 0.029698 -0.034152 -0.024314 -0.081298 0.042347 0.057539 0.085471 0.092600 0.076971 -0.020903 0.002984 0.036614 0.096669 -0.152491 -0.191095 -0.106257 0.010317 0.179120 0.018802 -0.010647 -0.085311 0.147921 0.012703 -0.108436 0.086906 0.016884 0.061111 0.008519 0.062693 -0.112017 0.213647 -0.121336 -0.026704 -0.013176 0.095930 -0.229205 0.090396 0.129547 0.130731 0.117926 -0.012561 -0.018106 -0.016210 -0.149578 0.039699 -0.176685 -0.098998 -0.044444 -0.035391 -0.197125 -0.005595 -0.016951 0.133928 -0.023969 -0.034704 0.082567 0.036816 -0.037103 -0.021879 0.074669 -0.065145 -0.016543 0.144850 0.007975 0.071289 0.027544 0.031772 -0.043492 -0.186577 0.033073 0.104275 -0.018446 0.086698 -0.067809 -0.095112 0.013563 0.018971 -0.029738 -0.073780 -0.046651 -0.298752 -0.038823 -0.196670 0.054682 0.010345 -0.092514 0.183122 0.046438
1216 -0.003347 -0.010005 0.121876 -0.078919 0.023922 0.100157 -0.066066 -0.059704 -0.003590 0.052466 0.106502 0.146105 0.063577 -0.163185 -0.061121 0.095396 -0.044163 -0.023250 -0.051815 -0.039379 0.005402 -0.026215 -0.108880 -0.246496 0.125668 -0.005162 -0.158128 0.130585 0.008654 -0.055035 0.165249 -0.069089 -0.034031 -0.027737 -0.127247 0.108670 0.120116 -0.119821 -0.008196 -0.190194 -0.015926 -0.071691 -0.014764 0.016573 -0.040168 0.056743 -0.029707 0.012650 0.094222 -0.216289 -0.129663 -0.135936 -0.062178 -0.114386 -0.234063 -0.271372 0.150628 0.173223 -0.019060 0.134429 -0.066703 0.139391 0.083712 0.089171 -0.045923 0.051651 -0.055444 0.065654 -0.100874 -0.094304 0.300283 -0.133252 0.001909 0.037030 0.080688 -0.032486 0.183580 0.022820 -0.034763 0.055803 0.068861 -0.084661 -0.050952 -0.161189 0.084796 -0.098980 0.003803 -0.065950 -0.062159 -0.053349 -0.189811 -0.007474 0.155075 -0.093027 -0.047540 0.075663 -0.031655 0.103814 -0.069573 0.103568 -0.012345 0.021602 0.119636 -0.243589 0.177536 0.017804 0.047450 -0.030358 0.091851 0.000484 -0.093179 0.023616 0.109994 0.057707 -0.166623 0.110999 0.103361 0.117086 0.017021 0.003170 -0.199572 0.053147 0.024611 -0.036869 0.150071 -0.012113 0.159211 0.000645
658 0.075616 0.121148 0.029307 -0.081302 -0.064704 -0.008129 -0.085253 -0.017933 0.061848 -0.033388 0.181941 0.147913 0.121414 -0.122657 -0.067790 0.012094 -0.017880 0.059616 -0.186114 -0.032554 -0.158745 0.131663 -0.023418 -0.079307 -0.092073 0.029093 0.016351 -0.084290 0.041425 -0.017136 0.032095 -0.004779 0.054240 -0.116132 0.010253 0.192395 0.140845 -0.049876 0.024608 -0.124606 -0.009075 -0.059102 -0.082473 0.060087 0.036042 0.182350 0.102260 0.024190 0.041051 0.011554 -0.131469 -0.061732 -0.157071 -0.017789 -0.181964 -0.125511 0.057788 0.228726 -0.017529 0.242986 0.165285 -0.038411 0.003290 -0.119849 -0.101912 -0.091967 0.142307 -0.099807 0.093733 -0.189565 0.260029 -0.032231 0.056841 0.134264 0.249475 -0.288844 0.167520 0.058615 0.172905 0.111994 -0.058400 0.031086 -0.077686 -0.043321 0.086793 -0.212209 -0.167413 -0.134300 0.065066 0.008367 -0.126636 0.021618 -0.029477 -0.039696 -0.107376 0.053705 -0.002512 -0.129735 -0.269920 -0.011368 -0.020780 0.050130 0.149590 -0.020614 0.235486 -0.004041 0.015856 0.063218 -0.000425 0.080916 -0.018030 0.085882 0.027236 -0.054999 -0.090125 0.019795 -0.045345 0.028105 -0.098518 -0.201508 -0.076132 -0.001159 -0.057774 -0.011727 -0.102966 -0.068684 0.204789 -0.042285
127 -0.083208 0.037578 0.092632 -0.056901 -0.224170 0.103289 -0.237368 0.138877 -0.129371 0.161659 0.021884 0.092625 -0.052291 -0.220987 0.008832 0.313076 -0.140305 -0.000616 0.021046 -0.000318 -0.079847 0.015051 -0.047828 -0.234506 0.159003 0.073356 -0.180861 -0.020606 0.013890 0.048272 0.141853 -0.053237 0.074722 0.106537 -0.028421 0.208476 0.235023 0.023119 -0.040439 -0.005239 0.171536 -0.231215 0.003766 -0.025027 -0.018385 0.120892 0.090229 0.120532 0.043203 0.012503 0.068704 -0.068225 -0.124878 0.043397 -0.223541 -0.053174 0.011535 0.392354 0.071774 -0.219363 0.122262 0.094752 0.008341 0.040106 0.115656 0.052736 -0.085967 -0.114353 -0.041921 -0.163299 0.315557 -0.153105 -0.044528 0.146613 0.231685 -0.090348 0.147551 0.161616 0.221005 0.080180 0.087023 -0.149300 -0.098570 -0.186601 0.211351 -0.184258 -0.164719 -0.159804 0.017785 -0.028219 0.088123 -0.071655 0.176139 -0.094165 -0.216005 0.022352 0.053053 -0.090579 -0.076635 0.092900 -0.130317 -0.115517 0.106050 0.023949 0.133338 0.179474 -0.022909 -0.086269 -0.173545 0.170803 -0.141517 -0.147385 0.093123 -0.150381 -0.124305 0.085490 -0.127007 -0.103090 0.041774 0.029371 -0.291918 -0.115929 -0.152031 0.227002 -0.079990 0.051127 0.198165 -0.082792
439 -0.001278 0.018222 0.210674 -0.141473 0.021873 0.106574 -0.385240 -0.000228 -0.044422 0.111815 0.166583 0.193167 0.037357 -0.209968 -0.109729 0.128087 -0.183821 0.018825 -0.074506 -0.158532 0.100332 -0.134026 -0.163342 -0.076029 0.089712 0.118306 0.060496 -0.047940 0.001559 -0.185031 0.104567 -0.007426 -0.033774 -0.057882 -0.187812 0.183316 0.257189 0.006530 0.070996 0.009840 0.015026 -0.016545 -0.067852 0.023809 -0.007891 0.154505 -0.085578 0.061613 0.032983 0.065548 0.048307 -0.019273 0.019913 0.023487 -0.092410 0.019223 0.127179 0.007262 -0.028503 -0.037433 -0.112078 -0.076059 -0.055212 0.061864 -0.057862 0.143338 0.127206 -0.049436 0.041620 -0.144091 0.098419 0.011946 0.102804 -0.110426 0.006067 -0.183995 0.133341 -0.067153 -0.023980 0.069308 -0.076600 0.177725 -0.120090 -0.182887 -0.011093 -0.168126 -0.140094 -0.037335 -0.109525 0.012189 0.096972 0.062061 0.075157 -0.073565 -0.022735 -0.095133 -0.075692 0.069227 0.127180 -0.039826 0.139552 0.148345 -0.113807 -0.075544 0.061166 -0.224247 -0.012407 0.090834 0.078341 0.059279 -0.145569 0.013935 -0.049472 0.147990 0.085622 -0.053014 -0.047501 0.115500 -0.147312 0.079595 -0.215718 0.078948 -0.203493 0.005124 0.066331 0.006417 0.058304 0.003137
1344 -0.077259 -0.113058 0.178064 -0.243833 -0.003251 0.036739 -0.317801 0.021765 -0.066195 -0.011898 -0.030136 0.191280 0.001901 0.025977 -0.004367 0.090899 -0.142298 -0.019134 0.043108 -0.159364 0.016684 -0.023941 0.013519 -0.090344 0.094105 -0.026624 -0.061566 0.060621 -0.069971 -0.234380 0.101345 0.044004 -0.071147 0.061319 -0.005848 0.140647 0.194642 -0.075607 0.002981 0.108467 -0.062095 -0.016580 0.057579 -0.058018 0.032932 0.070905 0.039823 0.066922 0.123748 -0.015454 -0.020360 0.023624 0.067823 0.044396 -0.100466 0.007514 -0.071926 0.146977 -0.003654 -0.020339 -0.080171 0.135835 0.015689 0.207192 0.036930 0.065686 -0.087639 -0.132586 0.013460 0.001529 0.249976 -0.071878 -0.005027 0.034197 0.123691 -0.192019 0.130763 0.189986 0.128095 0.156095 -0.016795 0.011741 -0.021581 -0.164816 0.033504 -0.038650 -0.140045 -0.182494 -0.008162 0.012913 0.004851 0.083355 0.121280 -0.142933 -0.064993 -0.022687 0.028641 -0.002574 -0.149035 -0.029027 -0.078141 0.019643 0.064609 -0.156717 0.145491 -0.028901 0.080757 -0.131092 -0.072334 0.211882 -0.144706 -0.137844 0.034653 0.120153 0.006933 -0.069961 -0.066113 0.091318 -0.061686 -0.071836 -0.077964 0.042571 0.041521 0.116471 -0.040753 -0.030920 0.220065 0.025369
202 0.087287 -0.070936 0.168801 -0.114241 -0.012762 0.077241 -0.087945 -0.031839 0.038394 -0.061849 0.002396 0.020117 0.063152 -0.140927 -0.051914 0.054087 0.113604 -0.005906 0.079704 -0.026218 -0.082302 -0.109786 -0.225014 -0.192753 0.013658 0.001316 0.050750 -0.118380 0.027332 -0.113465 0.097805 -0.074326 -0.183782 -0.076707 0.045713 0.078980 0.142913 0.036622 -0.075887 -0.174993 0.020407 0.004807 -0.086023 0.069735 -0.065554 0.006843 0.013443 -0.008275 0.144112 -0.181874 -0.114917 -0.023949 0.040433 -0.084764 -0.279320 -0.259872 0.118704 0.016150 -0.081665 0.129228 -0.080457 0.094444 0.057571 0.026255 -0.035028 0.127745 -0.036026 0.029761 0.012626 -0.134743 0.392612 -0.032501 0.059886 0.047024 0.048924 -0.042125 0.263619 -0.061160 -0.020251 0.047961 -0.013082 -0.016977 -0.041742 -0.115003 0.008204 -0.091030 0.013451 0.055710 -0.133197 -0.124727 -0.056278 -0.010066 -0.002067 0.023100 -0.043580 0.054725 0.047171 0.002507 -0.103464 -0.042650 -0.040606 -0.075708 0.170606 -0.168743 0.177589 0.004533 0.120292 -0.020325 0.109199 -0.001041 -0.085960 0.025734 0.024450 -0.013885 -0.016961 0.128920 0.055867 0.155547 -0.025271 -0.011072 -0.139932 0.107131 0.120712 0.031361 0.136494 -0.027309 0.093835 0.017579
1338 0.047668 0.001334 0.158411 -0.143834 0.042875 0.044917 -0.094323 -0.076600 0.013624 -0.012190 0.083990 0.136744 -0.028715 -0.131546 -0.067479 0.026856 -0.110925 0.001237 0.039612 -0.097317 0.019946 -0.036476 -0.169473 -0.156711 -0.070382 0.142197 -0.020291 0.021613 0.091557 -0.020051 0.089575 0.051033 -0.031048 -0.115187 -0.034353 0.037231 0.039816 -0.000927 0.051074 0.015477 0.075706 0.045438 -0.080632 -0.022987 -0.008508 0.027986 0.052914 0.071866 0.159969 -0.039540 -0.162825 0.037829 -0.033632 0.002143 -0.186441 -0.044422 0.059872 0.041685 -0.078399 0.116364 -0.067720 -0.016020 0.066397 0.059309 -0.016365 -0.030892 -0.131137 -0.057744 -0.082111 -0.175310 0.193574 -0.046524 0.036273 0.053693 0.125063 -0.029421 0.217142 -0.076579 0.068484 0.123637 0.022960 0.138848 -0.069512 -0.068641 0.054327 -0.115955 -0.092230 0.059856 -0.162184 -0.076427 -0.101309 -0.065484 -0.043195 -0.042783 -0.004897 0.079012 0.024600 -0.167867 -0.126250 -0.031148 -0.087667 -0.058674 0.058306 -0.052038 0.150210 0.006352 -0.013134 0.043424 0.047329 0.043106 -0.029312 -0.071815 0.020004 -0.117066 0.088171 0.062715 0.108074 0.099503 -0.180707 -0.058023 -0.176685 0.006168 -0.038386 0.101725 0.091657 -0.075270 0.257134 -0.125479
248 0.050943 -0.143495 0.100455 -0.076500 0.024001 0.081207 -0.049585 -0.066733 0.012981 0.035853 0.100533 0.135169 0.010019 -0.200638 -0.087085 -0.020547 -0.009629 0.051626 -0.002050 -0.054525 -0.078965 -0.062971 -0.054487 -0.064043 0.047420 -0.037022 -0.112034 0.056450 0.054833 -0.039275 0.049543 -0.002021 0.040249 -0.004462 0.034919 0.061775 0.098940 0.059046 -0.119111 0.026097 0.028568 0.132523 -0.002780 -0.084601 0.004502 -0.036544 0.033938 -0.001629 0.161498 -0.030144 -0.091997 0.031177 -0.078418 -0.009338 -0.215729 -0.058123 0.068704 0.185889 -0.029499 0.026912 -0.126375 -0.021049 0.145381 -0.009710 0.014501 0.090765 -0.196407 -0.048017 -0.002259 -0.123518 0.270588 -0.120474 0.021570 -0.020857 0.133371 -0.125485 0.250539 -0.084204 -0.032898 0.145180 -0.012483 -0.073404 0.002078 -0.092057 0.053657 -0.141557 -0.047578 0.035246 -0.056139 -0.142771 -0.161580 -0.081649 0.135966 -0.046140 -0.040796 0.079447 0.054076 -0.100734 -0.131638 -0.068987 -0.051513 -0.049578 0.071876 -0.176181 0.127937 0.031972 0.026989 0.065801 0.090185 0.060685 -0.063689 -0.001058 -0.020348 -0.070528 -0.033413 0.019136 0.103861 0.177134 -0.053871 -0.039600 -0.207562 -0.064715 0.095566 0.112191 0.078949 -0.158553 0.162811 -0.054348
1267 0.234699 -0.029774 0.035020 -0.286745 -0.011477 -0.166875 -0.188580 -0.098506 -0.175343 0.021364 0.175797 0.128438 0.109506 -0.185311 0.080703 -0.046980 -0.156539 0.030023 -0.146842 -0.077379 0.178710 0.121683 0.041949 -0.216287 -0.079040 0.087980 0.095511 -0.130119 0.044030 0.100328 0.037825 0.234262 0.114695 -0.039309 -0.149501 0.164496 0.149812 -0.029833 -0.018203 0.026108 0.012321 -0.147184 0.038621 0.100624 -0.127933 0.120958 0.151962 -0.107395 0.094378 -0.055287 -0.249656 -0.033473 -0.015719 -0.149904 -0.209010 -0.108493 0.120537 0.029759 -0.054989 0.188484 0.114015 0.134568 0.149374 -0.127491 -0.083746 0.008559 0.063891 -0.140338 -0.024803 -0.245579 0.241407 -0.074190 0.051138 0.189473 0.153661 0.002759 0.119494 -0.015041 0.134353 0.157263 0.155759 0.022183 -0.039554 -0.231961 0.011724 -0.279983 -0.107891 -0.013673 -0.102783 -0.071035 -0.121885 0.229932 0.108911 -0.048028 -0.073069 -0.045775 -0.066547 -0.080391 -0.086802 0.116622 -0.103481 0.083921 0.075513 0.073590 0.133933 0.027197 -0.067127 -0.019298 -0.014089 0.002961 -0.035660 -0.179205 0.059943 -0.243810 0.022350 0.009421 0.055708 -0.000973 -0.140918 -0.301426 0.078999 0.166737 0.047154 -0.067437 0.073176 0.045488 0.382077 -0.089639
1114 0.134287 0.011602 0.206972 -0.195382 0.074258 0.205447 -0.060514 -0.114537 0.092987 -0.020290 0.023398 0.098068 0.296000 -0.150814 -0.150545 0.207818 -0.031588 -0.096198 0.110495 -0.035322 -0.164894 -0.070378 -0.078244 0.036069 -0.000050 0.029856 0.013853 -0.077461 0.078818 -0.037269 0.151918 0.015374 -0.134142 -0.047761 0.134892 0.055976 0.028036 -0.034014 0.033012 -0.199430 0.028325 -0.012562 -0.033354 -0.061478 0.001846 -0.018719 0.071032 0.034279 0.204169 -0.142979 -0.068695 -0.087496 -0.019118 0.001713 -0.265329 -0.062308 -0.126792 0.199296 0.059484 0.021722 0.066236 -0.194656 -0.039762 0.074810 -0.009098 0.066673 0.018955 -0.099267 0.032953 -0.145643 0.366511 -0.224319 -0.107471 -0.006044 0.198322 -0.049785 0.080155 0.018858 0.018557 0.037387 -0.084139 -0.081860 0.063409 0.103235 -0.012996 -0.136818 0.135807 0.009249 -0.146044 -0.026446 -0.190306 0.016240 0.076309 -0.072556 -0.042855 0.045629 -0.047511 0.003580 -0.025359 -0.001841 -0.029692 0.035654 0.057762 -0.090835 0.144968 -0.029400 0.044649 -0.093381 0.065292 0.111171 -0.200369 0.073710 0.009635 -0.100989 -0.045256 0.127563 0.147370 0.082951 -0.176705 -0.031993 -0.018824 -0.015606 0.084442 -0.025932 0.103358 -0.026345 0.189474 -0.046474
1399 -0.058043 0.064189 0.136732 -0.090474 0.076355 0.129212 -0.369121 0.032605 -0.066039 0.091625 0.321688 0.188922 -0.039009 -0.065412 0.003095 0.064870 -0.201925 0.053433 -0.040151 -0.272510 -0.005009 0.051229 -0.027966 0.025479 0.025465 0.135389 0.076516 -0.128889 0.006035 -0.183654 -0.043367 -0.041535 0.002204 0.110806 -0.180539 0.148754 0.202267 -0.044619 -0.127425 0.061554 -0.049098 0.012864 -0.147600 -0.078030 0.010557 0.173782 -0.024412 0.197873 0.206234 -0.032355 0.079445 -0.030065 0.216686 -0.039758 0.052294 0.131344 0.042532 0.000525 -0.078158 -0.028289 -0.258465 -0.095363 -0.045360 0.214887 0.013242 0.115146 0.069659 -0.138414 -0.008111 -0.032189 0.179464 0.022716 0.031657 -0.078571 0.015115 -0.082724 0.035701 0.144129 -0.033268 0.131739 -0.002716 -0.061778 -0.079819 -0.156767 -0.007740 -0.094501 -0.140186 -0.108175 -0.185498 -0.034405 0.131742 0.047420 -0.003247 -0.063810 -0.062594 -0.118376 0.081440 -0.065027 -0.111106 -0.172864 0.008296 0.182197 -0.103654 -0.258268 0.137888 -0.225140 -0.012479 0.091163 0.146286 0.119887 -0.033812 0.057835 0.006079 0.167642 0.095743 -0.078588 0.061184 0.085846 0.033689 0.152264 -0.059939 0.024686 -0.025477 0.013280 0.090462 -0.131764 0.046523 0.097159
396 -0.142855 0.038300 0.161111 -0.274796 -0.044264 0.029778 -0.288956 0.085303 -0.014952 0.068407 0.138741 0.125069 0.005556 -0.080949 -0.116654 -0.008355 -0.231600 -0.102109 0.003271 -0.280864 -0.029901 -0.017876 -0.143551 -0.008962 -0.003599 -0.084916 -0.114505 -0.127242 -0.024084 -0.176159 -0.004780 0.047616 0.040829 0.042820 -0.075794 0.034516 0.181013 -0.072915 -0.123327 0.008111 0.044685 -0.009738 -0.104110 0.073090 0.000601 0.095278 0.057937 0.252519 0.137232 0.035050 -0.061392 -0.097988 0.039432 0.000164 -0.004689 0.032593 0.053184 0.035081 -0.011548 -0.120887 -0.068918 0.051399 0.108746 0.090516 -0.090090 0.072746 0.098056 -0.075477 0.011553 -0.100249 0.165325 0.119054 0.105984 -0.078793 -0.072173 -0.115560 0.143490 0.143211 -0.100011 0.133755 -0.025562 -0.095699 -0.058782 -0.090082 0.015208 -0.122574 -0.064092 0.011165 -0.075870 -0.117786 0.077133 -0.021710 0.100611 -0.018044 -0.115175 -0.112479 0.043613 -0.083761 -0.070801 -0.263004 -0.025741 0.198541 -0.079520 -0.138172 0.050448 -0.284170 -0.077808 0.121637 0.091690 0.048453 0.014230 0.066460 0.090612 0.053274 0.007324 0.043525 0.107223 0.135861 -0.060955 0.079124 -0.132995 0.093395 0.016308 0.089229 0.025128 -0.154176 0.144598 -0.019105
215 0.060729 -0.244849 0.219169 0.003976 -0.153777 0.285575 -0.072619 -0.033387 0.132999 0.119406 0.033699 -0.033273 0.113193 -0.009590 -0.191113 -0.006332 -0.185294 -0.040696 0.199960 -0.005974 -0.127309 -0.081190 -0.103981 0.011906 -0.018448 0.207633 -0.067752 -0.081683 0.010222 -0.035452 0.097077 0.068273 -0.006765 -0.101377 -0.078193 0.143436 0.220628 0.134894 -0.099717 -0.123037 0.001296 0.071779 0.127600 0.202628 -0.004921 0.003970 -0.263841 -0.125005 0.023792 -0.011911 -0.152360 0.039925 -0.021251 -0.180042 -0.270307 -0.291914 0.087032 0.124612 0.049853 0.122433 -0.045954 0.172110 -0.030452 0.053586 0.019590 0.072375 -0.050267 -0.058541 -0.071408 -0.310610 0.333990 -0.054835 0.030934 -0.091750 -0.032342 -0.021842 0.325140 -0.076548 0.048974 -0.086032 -0.148445 -0.025729 -0.015120 -0.162329 0.070153 -0.234493 0.074663 -0.137732 -0.085910 -0.086970 -0.099308 0.108927 -0.038349 -0.170401 -0.112856 0.170003 0.005318 -0.027382 -0.121348 0.140964 -0.083925 0.146953 0.173896 -0.120580 0.144168 0.133748 0.099561 -0.023835 -0.009723 0.105299 -0.233499 0.170659 0.014519 0.011757 0.022216 0.043592 0.055040 -0.034495 -0.035525 -0.072038 -0.039105 -0.042996 -0.078867 0.081566 0.010416 -0.101317 0.111763 -0.113069
849 0.210456 -0.083175 0.027202 -0.263206 0.028455 -0.019223 -0.291249 -0.189518 -0.098217 -0.022904 -0.025059 -0.001211 0.165128 -0.129416 0.092967 -0.069575 -0.121390 -0.055677 -0.149692 0.025960 0.137798 0.055995 0.101147 -0.097531 -0.144948 0.040355 0.175244 -0.117570 -0.090986 0.045612 -0.032775 0.159157 0.019581 -0.018774 -0.173745 0.114074 0.250212 0.008676 -0.006660 -0.101418 0.083326 -0.154773 -0.178136 0.101428 -0.148988 0.164264 0.115697 0.035100 0.085942 -0.098926 -0.180406 -0.287004 0.007664 -0.100044 -0.186058 -0.066755 -0.018536 0.061921 -0.035015 0.286842 0.122041 -0.021683 0.075635 -0.074888 -0.038260 -0.029932 -0.133105 0.005811 -0.037284 -0.169402 0.289376 -0.038152 -0.016457 0.066666 0.024994 -0.024092 0.247421 -0.044562 0.206005 0.150380 -0.004928 0.138741 -0.164341 -0.241751 -0.107360 -0.288719 0.037098 -0.093940 -0.122331 -0.078104 -0.042400 0.142872 0.062283 -0.053367 -0.077428 -0.074195 -0.027716 -0.055764 -0.050980 0.094321 -0.056710 0.295097 0.121434 0.175572 0.071679 0.073045 -0.043991 -0.125229 -0.023752 -0.000029 0.004276 -0.126277 0.041828 -0.167492 0.023151 -0.048565 0.134517 0.030022 -0.133182 -0.171124 0.027074 0.325451 -0.063672 0.167373 0.110876 0.090201 0.466828 -0.106802
427 0.028998 -0.027679 0.190737 -0.125024 0.019047 0.083906 -0.121205 -0.036770 -0.039900 0.092134 0.115857 -0.023549 0.017540 -0.252059 -0.143218 -0.067296 -0.034826 -0.053761 0.033601 -0.107074 -0.126510 -0.070327 -0.042890 -0.076300 -0.136696 -0.025371 0.020013 -0.092502 0.047567 -0.006273 -0.044307 0.063707 0.075138 -0.110928 0.067660 0.087933 0.083911 0.065858 0.048369 -0.059560 -0.138327 0.094846 -0.068668 0.003486 0.035115 0.000382 0.103641 0.134451 0.172557 0.061593 -0.054523 -0.023362 -0.078591 -0.027492 -0.165657 -0.053917 -0.060068 0.262715 0.169455 0.011435 0.001793 -0.013734 0.019964 -0.034128 -0.076129 0.055149 0.006460 -0.057478 -0.009407 -0.266874 0.282932 -0.196058 0.101806 0.032759 0.023090 -0.263764 0.173680 0.151954 0.033971 0.184529 0.132149 0.053868 0.087527 -0.086003 -0.000906 -0.053880 -0.136032 0.141884 0.004337 -0.075281 -0.087906 -0.007097 0.051810 -0.067784 0.033825 -0.034367 0.111273 -0.117541 -0.101801 -0.191385 -0.093409 0.035384 -0.051225 -0.136430 0.157944 -0.009502 -0.010407 -0.014637 -0.048299 0.042844 -0.122674 0.184955 -0.020678 0.096273 -0.044537 -0.078901 -0.063896 0.086624 -0.099307 -0.043069 -0.123552 0.012636 -0.028940 0.139735 0.035877 -0.103870 0.156751 0.100318
285 0.068785 -0.033425 0.156027 -0.177359 -0.064032 0.202768 -0.184125 0.169518 -0.124793 0.139428 0.006352 0.092449 0.035014 -0.290687 -0.087929 0.167501 -0.040038 -0.054908 -0.045997 -0.004223 0.002810 0.012920 0.065579 -0.321634 -0.024144 0.014277 -0.084586 0.113940 0.077157 0.095354 0.209860 -0.030701 0.008812 0.062317 -0.080663 0.241601 0.031233 -0.176852 -0.184300 -0.014780 0.143859 0.044064 -0.105090 -0.148616 -0.066420 0.078129 0.087143 0.000208 0.194156 -0.038878 -0.014777 -0.098517 0.115749 0.053500 -0.203224 -0.104719 0.118764 0.254911 -0.015103 0.053680 0.037416 0.077343 0.025640 0.077868 0.024556 0.067903 -0.092785 0.046824 -0.117448 -0.173983 0.210225 -0.033317 0.020509 0.073144 0.164869 -0.055648 0.047477 0.113288 0.155387 0.008977 -0.000145 -0.136322 -0.091141 -0.155106 -0.093236 -0.163666 -0.205581 -0.184743 -0.036046 -0.006534 0.004528 -0.083528 0.138240 -0.185500 -0.055426 0.002386 -0.117541 0.073284 -0.213167 0.127809 -0.049747 0.002486 0.110365 -0.028749 0.170879 0.140714 0.086376 -0.077866 0.010339 0.044231 -0.090621 0.104995 -0.042474 -0.076293 -0.020659 -0.006844 -0.033546 0.093731 -0.070941 -0.067221 -0.214168 -0.004074 -0.121418 0.105705 0.046356 0.175069 0.191972 0.079629
1415 0.228008 -0.082011 -0.001451 -0.343950 -0.120700 0.099863 -0.161568 0.021232 -0.084095 0.052753 0.155060 0.170056 0.033998 -0.075922 0.142635 0.016941 -0.186953 0.181652 -0.169086 0.012589 0.130249 0.247894 0.184583 -0.069322 -0.102448 0.077758 0.196814 0.088037 0.136736 0.210712 -0.054740 0.056412 0.214629 -0.061831 -0.016487 0.260914 0.078568 -0.011806 -0.043143 0.149270 0.017075 -0.058978 -0.051524 0.018612 -0.268663 0.020174 -0.013853 0.092979 0.222329 -0.039571 -0.098730 -0.102930 -0.067566 -0.154213 -0.260554 -0.135765 0.163707 -0.110781 -0.067238 0.298338 0.222833 -0.082835 0.196878 -0.039149 -0.052591 -0.070466 -0.178461 -0.108235 0.042118 -0.270388 0.266868 -0.109946 -0.038979 0.122915 0.210536 -0.020203 0.283089 0.051480 0.268423 0.159393 0.068844 0.199588 -0.203370 0.130452 -0.067072 -0.276446 -0.004778 0.094900 -0.064897 -0.046211 -0.028733 0.147518 0.112429 -0.008446 -0.023420 -0.017266 -0.071276 -0.032434 -0.144317 0.007361 0.055474 0.129240 0.156532 -0.068604 0.178719 0.023580 -0.223723 -0.134563 -0.069909 -0.036253 -0.205110 -0.063299 -0.026001 -0.188898 -0.127983 -0.035259 0.041740 0.038794 -0.119427 -0.204564 0.075449 0.112413 -0.039363 0.160402 0.281376 0.040789 0.190659 -0.174137
205 -0.077014 -0.020240 0.153730 -0.177799 -0.038487 0.107734 -0.138173 -0.007259 -0.047124 -0.081062 0.129342 0.044186 -0.007928 -0.109212 -0.054079 0.045546 -0.062820 0.094752 0.043670 0.032469 0.022841 0.070352 -0.069276 -0.228204 -0.065369 0.166988 -0.039606 0.118932 0.071863 0.047479 0.034774 -0.047111 -0.080243 -0.044646 0.041732 0.053180 0.117685 0.008440 -0.082351 -0.070193 0.228859 0.062651 -0.024599 0.058828 0.019322 0.078584 0.029989 0.065634 0.032422 -0.123523 -0.065783 -0.066852 -0.062691 -0.105534 -0.222020 -0.115527 0.055807 0.211746 -0.117448 0.037264 -0.079678 0.027031 0.087633 0.005120 0.029757 0.012608 -0.081930 -0.127389 0.104978 -0.098728 0.245934 -0.000337 0.040557 -0.015685 0.166727 -0.145869 0.105908 0.006684 0.139234 0.072523 0.056442 0.044633 -0.080225 -0.105034 0.000056 -0.286827 -0.031200 -0.059328 -0.031987 -0.111894 -0.030520 0.090716 0.083332 -0.048113 -0.102203 0.017590 -0.009644 -0.106297 -0.109669 -0.075352 -0.090932 -0.023772 0.146626 -0.013402 0.171704 0.001599 0.105771 0.073344 -0.078177 0.083584 -0.056576 0.048366 0.034265 -0.059764 -0.054689 0.022752 0.046038 0.039987 -0.067238 -0.049807 -0.182230 -0.026415 -0.047962 0.097889 -0.057212 -0.036279 0.251369 -0.105297
407 -0.057658 -0.044333 0.099486 -0.132672 0.030039 0.063144 -0.299396 0.033614 0.070224 0.199333 0.177699 0.274676 -0.009470 -0.094842 -0.068516 0.097979 -0.210107 -0.081278 -0.002848 -0.038939 -0.113765 -0.107315 -0.201725 -0.077209 0.060084 0.072423 -0.035545 -0.158099 -0.083511 -0.162071 0.011872 0.044774 -0.020860 0.025597 -0.112122 0.143013 0.172688 -0.121788 -0.101566 -0.029123 -0.136585 0.051708 -0.113805 -0.065487 -0.067628 0.039180 -0.067352 0.122082 0.076671 -0.143031 0.087605 0.115393 -0.002575 0.051531 -0.134301 0.017152 0.110221 -0.002747 0.029780 0.063950 -0.112562 -0.086193 -0.042342 0.153734 0.075254 -0.016449 0.070977 -0.146850 0.000358 0.009073 0.000853 -0.042643 0.107564 -0.090952 0.115169 -0.064633 0.056392 0.148861 -0.016240 0.152007 0.073443 -0.002600 -0.157574 -0.174703 -0.045674 -0.067191 0.088802 0.165830 -0.075271 0.031736 0.041129 0.155950 -0.070040 -0.047140 -0.034061 -0.127810 0.125975 -0.062306 -0.135184 -0.097751 0.012465 0.077352 0.011695 -0.235382 0.098430 -0.138394 -0.056617 -0.112281 0.131944 0.050197 -0.078233 0.084454 -0.028325 0.034164 -0.021748 -0.002903 0.049353 0.055075 -0.132480 -0.041327 -0.150063 0.028157 0.044440 0.108172 0.052545 -0.078451 0.096207 0.065490
105 0.016757 -0.034612 0.068700 -0.091689 -0.020286 0.102242 -0.058884 -0.002005 0.037358 0.120138 0.068087 0.055079 -0.002969 -0.152451 -0.141347 0.000545 -0.108737 -0.057714 0.043057 -0.047972 -0.055743 -0.113264 -0.137213 -0.030196 0.033438 0.067764 -0.115750 -0.041641 0.126004 -0.043673 -0.052277 0.064739 -0.025774 -0.021752 -0.103185 0.136009 0.117644 0.005442 0.023299 -0.050944 0.054045 -0.021043 -0.078968 0.037503 -0.010812 0.084528 0.112854 0.083648 0.062431 -0.054907 -0.055215 -0.011960 -0.009361 -0.049890 -0.210379 -0.095530 -0.023892 0.119279 0.011024 -0.043743 -0.024458 0.045810 0.084259 0.057754 0.073609 -0.004328 0.031647 -0.035513 -0.004364 -0.173192 0.182288 -0.018422 0.023404 -0.097180 0.089108 -0.097654 0.191244 0.144846 0.003714 0.036368 0.136046 0.032258 -0.112230 0.012868 0.004895 -0.130053 0.007542 0.207812 -0.141624 -0.021114 -0.153762 -0.061582 -0.030081 -0.092723 -0.030807 0.026319 0.176284 -0.083907 -0.123459 -0.169954 -0.136578 0.086240 0.140507 -0.138654 0.095555 0.021441 0.026450 -0.033593 0.002754 0.062759 -0.052192 0.000706 -0.025331 -0.108975 -0.006405 0.108814 -0.015533 0.057554 -0.095803 -0.146979 -0.176368 0.067310 0.043226 0.114552 0.062040 -0.031285 0.156870 0.059845
243 0.050768 -0.059061 0.021957 -0.006173 -0.185003 0.038297 -0.070020 -0.152963 -0.154811 -0.012043 0.223708 -0.007777 -0.029903 -0.145182 -0.092387 0.043648 -0.278506 0.107881 -0.256451 0.021653 -0.017589 0.165095 0.000654 0.004670 0.094762 0.140020 -0.118650 -0.151229 -0.091343 -0.056469 0.022740 0.031942 0.190532 -0.178606 -0.042103 0.144299 0.246063 0.057422 -0.033167 0.019243 -0.054541 0.080904 0.002690 0.026282 0.038161 0.083121 0.246938 -0.134095 0.105162 0.054397 -0.143171 -0.128934 -0.237847 0.099565 -0.331427 -0.006369 -0.049794 0.202681 -0.214886 0.092402 0.187043 -0.299268 -0.113314 0.002599 0.100565 -0.181177 0.104205 -0.058173 0.118775 -0.116512 0.322963 -0.140038 0.060032 0.248740 0.084926 -0.198151 0.077587 0.191285 0.156129 0.133117 -0.054349 0.062382 -0.304800 -0.051014 0.234234 -0.208614 -0.079977 -0.098570 0.107759 -0.099972 -0.160507 0.033182 -0.017328 0.232550 -0.108923 0.163625 -0.042132 -0.104237 -0.259995 -0.123263 -0.196672 0.179825 0.263980 0.129329 0.224365 -0.075859 0.001832 0.100688 -0.116706 0.035207 0.060855 0.147908 -0.120240 0.103639 -0.235223 0.059121 0.179670 -0.060707 -0.154597 -0.076928 -0.021516 0.155514 0.029953 -0.038831 -0.169626 -0.042227 0.131181 -0.062647
878 -0.168466 -0.023417 0.151016 0.008478 -0.042245 0.185429 -0.242716 -0.114044 -0.112763 0.029782 -0.012372 0.055770 -0.038822 -0.137014 0.038062 0.139529 -0.151804 0.130512 -0.275553 0.007380 -0.018277 -0.018356 -0.066416 -0.079677 -0.117036 0.018655 -0.160096 0.064813 0.080418 -0.046678 0.028752 0.139006 0.022975 0.008407 -0.090593 0.092207 0.121940 0.074922 -0.098977 0.027294 0.115321 0.010822 -0.140635 -0.109221 0.086901 0.126168 0.109565 0.080202 -0.094835 -0.050073 -0.184490 -0.142936 -0.065845 -0.165033 -0.208482 -0.072191 0.082924 0.202661 -0.050684 -0.025495 -0.131359 -0.045609 0.005773 0.094301 0.017248 0.008042 0.018742 -0.108485 0.026973 -0.104326 0.213829 -0.009630 -0.014044 0.046571 0.121679 -0.265796 0.098879 -0.070033 0.098694 0.221153 0.098470 0.026544 -0.224578 -0.104588 0.019154 -0.273617 -0.024998 -0.057579 0.052287 0.023941 -0.196847 0.100361 0.126867 -0.021900 -0.058931 0.000698 -0.037681 0.042903 -0.220657 0.044048 -0.151989 -0.099184 0.173999 -0.063583 0.200592 0.103850 -0.166709 -0.050794 -0.021970 -0.031551 0.080393 0.049643 0.082347 -0.135014 -0.122979 -0.044613 0.022497 -0.024194 -0.064739 -0.086676 -0.216705 -0.083635 0.011350 0.129642 -0.027310 0.045551 0.275708 -0.099078
260 0.051825 -0.028452 0.192513 -0.124699 0.023615 0.112454 0.000654 0.050679 -0.044538 0.027170 0.019107 0.169744 0.110146 -0.232717 -0.104337 0.008956 -0.039306 0.030832 0.164580 0.060710 0.024002 -0.019915 -0.162957 -0.156741 0.026014 0.016890 -0.081740 -0.000044 0.079045 0.017500 0.005145 -0.018304 -0.043878 0.055618 -0.061518 0.165464 0.006595 0.001591 -0.140916 0.109515 0.074672 0.010061 -0.047573 -0.106048 -0.055664 -0.013251 0.082881 0.082734 0.138718 -0.085202 -0.025152 0.049390 -0.070481 0.000359 -0.221144 -0.144092 0.082317 0.023901 -0.113069 0.069386 -0.166484 0.013963 0.089900 -0.021493 0.055954 0.086107 -0.073467 0.017590 0.023417 -0.001377 0.236636 -0.181765 -0.000743 0.034182 -0.033670 -0.135274 0.291155 0.062698 0.017764 0.012189 -0.047386 0.045243 -0.108519 -0.080760 0.053882 -0.190814 0.037237 0.142398 -0.143498 -0.098666 -0.123841 -0.023181 -0.060821 -0.111934 -0.072413 0.027724 0.062763 -0.042744 -0.162876 -0.094184 -0.148209 0.034393 0.079948 -0.103319 0.119777 -0.014328 0.003241 -0.071956 0.048252 0.122161 -0.050638 -0.050112 0.109548 0.010347 0.085047 0.137498 0.071134 0.140833 -0.057971 -0.032144 -0.163110 -0.037567 0.169223 0.085673 0.081815 -0.145639 0.221102 0.024706
1044 -0.132981 -0.039674 0.265516 -0.051165 -0.119313 0.115520 -0.084068 0.006067 0.023061 -0.058628 0.161350 0.043347 -0.020465 -0.196868 -0.177802 0.264476 -0.176895 -0.141926 0.080700 -0.094326 0.064809 -0.159899 0.019468 -0.097617 -0.144668 -0.038675 -0.052943 0.037307 0.117929 0.106163 0.078391 0.065474 0.077811 -0.028586 0.040755 -0.027572 0.051079 -0.013107 0.074559 -0.098411 -0.077279 0.138969 -0.176985 -0.005690 -0.017098 0.177140 0.042986 0.075768 0.032758 -0.166431 0.010398 -0.174540 0.045113 -0.057971 -0.248402 0.019641 -0.046044 0.173595 -0.122256 0.109969 -0.138887 0.087980 0.131739 0.048495 0.212312 -0.010590 -0.018901 0.019742 0.186332 -0.000436 0.302754 -0.040197 -0.009647 0.031602 0.218913 -0.163515 0.204201 0.125071 -0.035032 0.109836 0.093594 -0.017549 -0.200365 -0.072599 -0.019854 -0.323311 -0.114411 0.171690 -0.107246 -0.040430 -0.105419 0.063471 -0.064863 0.194890 -0.265131 -0.055562 0.030726 -0.101211 -0.136223 0.077576 -0.115481 0.088329 0.026411 -0.128148 0.081632 0.162549 -0.056269 0.097113 0.037852 0.086896 -0.009043 -0.084157 -0.038728 0.048459 0.225102 0.128176 -0.049229 0.100358 0.097578 -0.159287 -0.074236 -0.087281 -0.123290 -0.027979 -0.020587 0.120549 0.131397 0.033609
1428 0.163977 0.047692 0.168089 -0.132056 -0.010612 0.171122 -0.032677 -0.051251 0.154748 0.160458 0.136460 0.021575 0.054972 0.038649 -0.049084 -0.007362 -0.171334 -0.051676 0.100226 -0.082852 0.117508 0.069505 -0.138708 -0.121486 -0.032771 0.254083 -0.247769 0.095869 0.078061 -0.061594 0.088093 0.156165 0.014054 -0.106323 -0.142281 0.052130 0.112697 -0.014688 0.040683 0.009021 0.058579 -0.026486 -0.135145 -0.020950 0.197745 0.095353 0.015104 -0.044758 0.075551 -0.085139 -0.047900 0.009596 -0.094610 -0.054724 -0.254167 -0.254923 -0.028547 0.186082 -0.101507 -0.019454 -0.069517 0.018914 -0.008704 0.037767 -0.057472 0.105508 -0.100824 -0.098142 -0.142243 -0.095825 0.192450 -0.097027 -0.005900 -0.086893 -0.080491 -0.215548 0.098434 0.126714 -0.108434 -0.027563 -0.079590 0.017909 -0.224556 -0.132069 0.191189 -0.171029 -0.026500 0.044669 -0.064811 0.019268 -0.251659 0.041234 0.091103 -0.190689 -0.064289 0.075126 0.156908 -0.006147 -0.221998 0.046137 -0.051251 0.126411 0.170034 -0.121937 0.051997 0.014380 -0.069185 0.006019 -0.043228 0.026586 0.061206 0.128185 0.045597 -0.029390 -0.007845 0.243111 0.015276 -0.061805 -0.033699 -0.042946 -0.054872 0.020887 0.159859 0.187222 0.073456 0.044779 0.080202 -0.006110
1086 0.071282 -0.016429 0.025632 -0.101298 0.050187 0.032320 -0.323955 0.047589 0.031148 0.001014 0.179476 0.118055 0.002255 -0.075604 -0.055172 0.149138 -0.127962 -0.117141 0.108742 -0.178939 0.122420 -0.083837 -0.105863 -0.122572 0.068308 0.045290 -0.107980 -0.176472 -0.075578 -0.209755 0.029461 0.047242 0.001805 0.003301 -0.085056 0.128568 0.245976 -0.006828 -0.011074 0.049743 -0.092151 0.010631 0.020150 -0.050524 0.050697 0.113495 0.043501 0.186041 0.041703 0.041626 0.067499 -0.014882 0.004527 0.041817 -0.092537 -0.098450 0.084760 -0.036427 0.006225 -0.055339 -0.193216 -0.143753 0.009503 0.201260 -0.054843 -0.015947 0.059387 -0.128780 -0.065221 -0.037116 0.091257 -0.031374 0.031649 -0.019136 0.157555 -0.065806 0.031192 0.114148 -0.146181 0.203480 -0.123110 0.089900 -0.164433 -0.093226 0.012772 -0.194184 -0.047022 0.003623 -0.086282 -0.035669 0.109345 0.099391 0.048350 -0.112831 -0.184512 -0.065796 0.118324 0.117389 -0.044913 -0.114169 -0.009760 0.078570 -0.175997 -0.214252 0.181801 -0.294862 -0.097536 -0.026077 0.246254 -0.022547 -0.158398 0.035891 0.091188 -0.060279 0.056758 0.058063 0.010538 0.002204 -0.075303 -0.053890 -0.025053 0.066138 -0.057657 0.019247 0.039831 -0.127847 0.051494 0.112253
112 0.120010 -0.096545 0.075819 -0.130068 -0.127486 0.157569 0.074117 -0.091068 -0.018446 0.229443 -0.188023 0.117675 0.048822 -0.178610 -0.097485 0.017343 0.134399 -0.101769 -0.062863 -0.080861 -0.112973 -0.226324 -0.231271 -0.136128 0.034411 0.127334 0.007347 -0.072048 0.126527 0.032080 0.039128 -0.048090 -0.121389 0.105897 -0.114669 0.048271 0.098453 0.030874 -0.034970 -0.085604 -0.061750 -0.136104 -0.059436 0.173503 0.190956 -0.014993 0.094494 0.012358 0.095114 -0.015190 0.013434 0.055592 -0.029856 -0.018013 -0.092385 -0.196383 0.067875 0.153644 -0.086325 0.153231 0.054028 0.029226 0.006185 0.158185 -0.011203 0.040582 0.154372 -0.054852 -0.114836 -0.073495 0.177109 -0.121740 0.161178 0.162077 -0.040359 -0.029234 0.174102 0.058423 -0.156965 -0.010217 -0.100805 0.039576 -0.062895 -0.119198 0.024737 -0.186183 0.046699 0.135352 -0.115655 -0.135083 -0.044026 0.194924 -0.058558 0.014273 -0.023563 0.064717 0.136675 -0.069807 -0.087155 -0.125470 -0.117674 0.078289 0.126420 -0.308232 0.250591 -0.055143 0.248307 -0.122947 0.034119 -0.053827 -0.125538 0.112870 0.014729 -0.088764 0.003414 0.204804 0.016145 0.153852 -0.137335 -0.214933 -0.233633 -0.029949 0.090774 0.028723 0.089777 0.023800 0.174016 -0.138359
64 0.012554 0.031818 0.172554 -0.163260 -0.028150 0.061010 -0.301012 -0.114285 -0.101392 -0.106774 0.021405 0.125549 -0.017061 -0.210327 -0.093890 0.072104 -0.140628 -0.064197 -0.122132 -0.142210 0.050895 0.047235 -0.120385 -0.102967 0.019080 0.162083 0.089077 0.005499 -0.042410 -0.131066 0.047468 0.016102 0.060494 -0.115348 -0.155088 0.197593 0.284025 0.014405 -0.083191 -0.055638 0.081533 0.021182 -0.087960 0.095300 0.126954 0.117897 -0.092009 0.005149 0.289814 0.051413 0.050085 0.031386 0.044285 -0.111544 -0.049262 -0.141612 -0.037897 0.069186 -0.059190 0.059581 -0.195264 -0.040658 -0.108874 0.038710 0.010425 0.018062 0.070079 -0.132212 0.070668 -0.122931 0.181970 -0.065475 -0.006192 0.034010 0.123314 -0.083857 0.154019 0.106748 -0.034278 0.095357 0.114842 0.064073 -0.079637 -0.098248 -0.013365 -0.024115 -0.124770 0.022004 0.113434 0.094306 0.009874 0.088350 0.029687 -0.137464 0.049002 -0.023319 0.103601 -0.011125 -0.054865 -0.208606 -0.048509 -0.021871 -0.266668 -0.157377 0.098606 0.077464 0.136992 -0.039141 0.041821 0.076601 -0.092346 -0.180841 -0.041199 -0.222649 0.082251 -0.089063 -0.003867 0.020742 -0.004926 0.026845 -0.124255 -0.017455 -0.136073 0.174890 -0.071053 -0.022660 0.092714 -0.017545
1305 0.221403 -0.023804 0.078999 -0.171171 -0.021220 0.251972 -0.147202 -0.082120 -0.255217 0.040938 -0.202278 0.175309 -0.003219 -0.063798 -0.063344 0.118122 -0.099058 0.108950 -0.149292 -0.097418 -0.162754 0.141334 0.028015 -0.133745 -0.107873 0.142572 -0.119620 0.083912 0.229311 -0.112364 -0.255384 0.240943 -0.047881 -0.169852 -0.130227 0.045791 0.221402 0.142099 0.068563 -0.096687 0.157675 -0.160538 -0.141312 -0.088170 0.070327 0.100883 0.067941 -0.088228 0.050393 0.079250 -0.004474 0.019928 -0.083300 -0.042678 -0.077617 -0.235655 0.150821 0.192148 -0.028796 -0.050004 -0.123917 0.194594 0.038512 -0.016631 -0.007895 0.057119 0.196892 -0.134637 0.057777 -0.035632 0.270474 -0.272191 0.128909 -0.051141 0.110812 -0.211176 0.058549 0.087728 0.008936 0.009800 -0.152718 -0.097172 -0.023207 0.025756 0.049155 -0.169451 -0.023886 0.024959 -0.087845 -0.225904 -0.210879 0.105092 -0.096114 -0.277761 -0.257553 -0.015620 0.245234 -0.057672 -0.286412 0.046029 -0.152294 0.040157 0.294801 -0.072328 0.213906 0.076325 -0.011590 -0.022816 0.075602 -0.152053 -0.102199 -0.113250 -0.015311 -0.048362 -0.059383 0.073052 -0.070500 -0.075270 0.061664 -0.110034 -0.029174 0.046004 0.048935 0.289155 -0.104853 -0.155935 0.016710 -0.026735
694 -0.113625 0.064949 0.085101 -0.007620 -0.019749 0.323793 -0.175664 0.002938 -0.106427 0.105189 -0.002623 0.101955 -0.149266 -0.131919 -0.189620 0.025856 -0.183708 0.114359 -0.115174 0.042833 -0.039875 0.123409 -0.127000 -0.105324 -0.024277 0.030447 -0.120835 0.150063 0.090765 -0.067532 0.087709 0.072531 0.113472 0.029216 -0.059158 0.125107 0.129058 0.104594 -0.135348 -0.050637 0.090229 0.145672 -0.092196 -0.002202 0.085659 0.076332 0.127756 0.052868 -0.077462 -0.078193 -0.116986 0.006092 -0.169863 -0.041097 -0.085796 -0.082258 0.057857 0.218597 -0.091185 -0.070172 -0.055236 0.097586 0.086704 -0.053256 -0.015172 0.014653 -0.133243 -0.114533 0.039616 -0.102279 0.297563 -0.130785 0.077505 0.113406 0.124033 -0.153885 0.243609 0.049101 -0.012895 0.201794 -0.008260 0.006811 -0.112303 -0.320152 -0.014490 -0.233278 -0.096725 -0.048173 -0.011024 -0.006491 -0.125324 0.079939 0.117157 -0.115196 0.004856 0.152163 -0.051720 0.002304 -0.155645 0.071747 0.059918 -0.029582 0.235332 -0.013816 0.104196 0.081731 0.027163 -0.061681 -0.039580 0.063889 0.173813 0.119255 -0.036604 -0.072210 -0.102528 0.021893 0.070584 -0.101481 -0.052495 -0.108799 -0.206615 0.071813 -0.023757 0.076938 -0.013878 -0.035791 0.280552 -0.073275
1401 0.148749 0.075121 0.175683 -0.158960 0.060163 0.131537 -0.071082 -0.051764 -0.042703 0.136703 0.018394 0.087994 0.101545 -0.019857 -0.154747 0.008199 -0.050644 -0.173500 0.101689 -0.069158 -0.004029 -0.015601 -0.149300 -0.071643 -0.111172 0.146064 -0.097009 -0.008755 0.146768 0.100648 0.036610 0.051315 0.031203 -0.124793 -0.086684 0.014931 0.033644 -0.008395 -0.053750 0.114996 0.114116 -0.032766 -0.100005 -0.011474 -0.006426 0.005609 0.046595 0.037048 0.059150 -0.048492 -0.090243 -0.017865 -0.058154 -0.002014 -0.167077 -0.098523 -0.011403 0.034745 0.040837 0.162782 -0.095145 -0.057080 0.121077 0.098154 -0.108561 0.059930 -0.134187 0.011434 -0.107959 -0.032256 0.188489 -0.133119 0.097927 0.000539 0.067847 -0.004432 0.195954 0.177136 -0.143059 0.022465 -0.131671 0.002842 -0.210907 -0.048825 0.259839 0.080138 -0.110155 0.178114 -0.162223 0.006712 -0.237996 -0.097288 -0.064975 -0.208647 0.079819 0.048132 0.056120 0.011525 -0.200655 -0.091207 -0.119872 0.112676 0.069011 -0.143260 0.120858 -0.024417 0.137158 0.031019 0.012889 0.178487 -0.106140 0.066008 0.003136 -0.088985 0.079045 0.248615 -0.055942 0.065485 -0.227638 0.005904 -0.219282 0.046952 0.000477 0.183411 0.126119 -0.067482 0.320610 -0.022579
1356 0.033586 -0.110451 0.122035 -0.282991 0.022908 0.007883 -0.340459 -0.100149 0.027197 0.176098 0.271746 0.209982 0.101487 -0.273272 -0.107041 0.194567 -0.099406 0.030810 -0.221661 -0.155948 0.027158 -0.150428 -0.221505 -0.107598 0.048278 0.194825 0.000318 -0.141970 0.049387 -0.209293 0.132071 0.026852 -0.033750 -0.080606 -0.205675 0.279571 0.175375 -0.034400 -0.006018 0.013589 -0.000953 0.158458 -0.042802 -0.052082 0.119282 0.212857 -0.091686 0.061661 0.082219 0.053205 -0.050906 -0.103444 0.066142 -0.085344 -0.102171 -0.026436 0.008448 0.034184 -0.057958 0.005768 -0.063360 -0.039003 0.082151 0.166557 -0.098973 0.027845 0.006513 0.090773 0.032739 0.029696 -0.073195 0.015119 0.150171 -0.032850 0.083534 -0.137901 0.087685 0.062016 -0.073030 -0.062264 -0.078057 0.102034 -0.087718 -0.102686 -0.045531 -0.052899 -0.177877 -0.056970 -0.034528 -0.175248 0.056897 -0.059742 0.099922 -0.143226 -0.081547 -0.052051 -0.100271 0.059907 0.092776 -0.059411 -0.020272 0.257350 -0.034101 -0.163439 0.134308 -0.169889 0.026112 0.021895 0.089287 0.058479 -0.155875 0.024832 0.041047 0.271397 0.100239 -0.031632 -0.158260 0.153724 -0.141713 0.107703 -0.062119 0.008093 -0.244121 0.109450 0.093647 -0.001529 0.011072 0.020123
525 0.084004 -0.073813 0.096103 -0.142694 0.056159 0.097433 0.050339 0.063053 -0.036699 0.135910 0.097465 0.129295 0.074658 -0.137034 -0.226636 0.048900 -0.069133 -0.147049 -0.051430 -0.035460 -0.053499 0.002989 -0.077354 -0.002683 -0.028867 0.128009 -0.014050 0.033546 0.020202 -0.027152 -0.019017 -0.016571 0.038023 -0.015707 0.032224 0.162130 0.058309 -0.073686 -0.128595 0.095297 0.003842 0.001588 -0.141188 -0.043126 0.019009 0.143426 0.066556 0.023987 0.072447 -0.111803 -0.031099 -0.022924 -0.095142 -0.144629 -0.130137 0.019512 0.074093 0.065727 0.017297 0.027575 -0.047934 -0.053178 -0.028678 0.105600 -0.029339 -0.110635 0.007680 0.016642 -0.049744 -0.106303 0.175263 -0.009270 0.005850 0.023113 0.173770 -0.076266 0.164347 0.192605 -0.028473 0.027172 -0.049303 -0.000637 -0.126750 0.021254 0.010053 -0.079919 -0.082733 0.128174 -0.058964 0.004044 -0.230196 -0.258428 -0.029613 -0.130841 0.007454 -0.067016 0.107484 -0.098050 -0.129593 -0.157333 -0.054053 0.119726 0.076659 -0.197476 0.130113 0.082580 0.111085 0.045598 -0.027686 0.149902 -0.006136 0.121324 0.035621 -0.100679 -0.140862 0.112159 0.091682 0.230025 -0.192610 -0.075863 -0.183735 0.125043 0.002309 0.019315 -0.012078 -0.186040 0.306416 0.008140
141 -0.023522 0.059460 0.165147 -0.074845 -0.091272 0.152204 -0.011492 -0.022151 0.015559 0.124629 0.126726 0.038817 0.173211 -0.305102 -0.060577 -0.038959 -0.158777 0.031844 -0.174960 0.164667 -0.152941 0.012521 0.071872 0.014124 0.079185 -0.022305 0.007551 -0.002135 0.104325 -0.249707 0.028307 0.011390 0.203154 -0.149903 0.118060 0.026650 0.102073 -0.006446 0.092570 -0.076825 0.001787 0.091765 -0.177621 -0.005658 0.293616 0.119053 0.105343 0.118819 0.085765 -0.194770 0.048488 0.018051 -0.110835 -0.068127 -0.073764 -0.211930 -0.007520 0.124301 -0.118370 0.224239 0.086834 0.082618 -0.118813 0.127332 -0.083026 -0.100532 0.019536 -0.031031 0.078405 -0.114462 0.437734 0.006597 0.086920 0.113505 0.252062 -0.118445 0.100815 0.074299 -0.095602 -0.156364 0.152749 -0.144720 0.037717 -0.084316 0.067313 -0.180499 -0.178880 -0.145758 -0.104263 0.142896 -0.099079 -0.088301 -0.051186 0.014951 -0.186955 -0.015947 -0.060588 -0.078734 -0.111811 -0.059181 -0.199933 -0.028521 0.105643 -0.263937 -0.020796 0.050236 -0.129047 -0.144773 0.019875 0.040786 -0.196720 -0.085110 0.083303 -0.175478 0.076488 0.136254 -0.034838 0.117827 -0.021273 -0.200773 -0.191980 0.027993 0.219796 -0.029825 -0.106696 0.053844 0.156795 -0.104245
18 -0.113565 -0.096729 0.185177 -0.149009 0.166074 0.024588 -0.233252 0.004082 -0.016281 0.050804 0.315455 0.238336 0.056598 -0.037424 -0.209786 0.144015 -0.138292 -0.099252 -0.087962 -0.235461 0.205947 0.097970 -0.166777 0.082795 0.138950 0.271434 -0.033222 -0.021044 -0.015310 -0.237058 0.050091 0.063324 -0.036758 0.108040 -0.075013 0.086165 0.299616 0.005226 -0.005584 0.104492 -0.093363 -0.044334 -0.225877 0.013880 0.045467 0.119680 0.071819 0.202098 0.169597 -0.186700 -0.029309 0.078432 0.265601 0.021835 0.038027 0.100459 0.003282 0.059490 -0.260541 0.017742 0.159271 -0.159421 0.018542 0.019528 -0.042579 -0.027189 -0.111508 -0.204574 0.055831 0.025077 0.265524 0.185109 0.042773 0.000363 -0.107217 -0.072324 0.250108 0.094474 -0.025102 0.076032 -0.053920 0.070921 0.026009 -0.267813 0.076081 -0.052238 -0.104368 0.036805 -0.109146 0.094177 0.007431 0.145138 -0.001811 -0.121455 -0.022665 0.038445 -0.001204 0.125096 -0.002480 -0.148442 -0.169204 0.018910 -0.100832 -0.170321 0.226695 -0.000794 -0.037382 -0.081806 0.125343 -0.102536 -0.133392 -0.078837 0.019555 0.049704 0.042668 -0.138465 0.121378 0.053017 0.166355 0.021890 -0.060338 0.048924 0.102771 0.181375 0.029528 0.094954 0.033844 -0.094406
142 0.213865 -0.050910 0.102349 -0.035044 0.020451 0.165260 -0.154307 0.049246 -0.013430 0.003367 0.076864 0.069886 0.128723 -0.202382 -0.145773 -0.061820 -0.102914 0.052792 0.025659 -0.095341 -0.106694 -0.175076 -0.132305 0.007361 -0.017612 0.055679 0.007196 0.003398 0.063276 -0.090834 -0.064929 0.018929 0.035961 -0.175415 0.024830 0.106335 -0.022348 -0.028565 -0.066799 -0.195413 -0.153970 0.099996 -0.056255 -0.035914 -0.013597 -0.019799 0.203677 0.148414 0.103260 0.097476 -0.086486 0.093634 -0.033371 -0.061853 -0.101936 -0.001517 -0.113061 0.250346 0.017751 -0.067749 0.074668 0.123091 -0.046563 0.059644 -0.058524 0.105357 -0.018104 -0.108805 -0.171792 -0.143948 0.242778 -0.056896 0.099771 -0.071760 0.119510 -0.222426 0.249610 -0.050917 -0.054921 0.209531 0.114003 0.016631 0.180308 -0.086360 -0.133434 -0.245284 0.048125 -0.082419 -0.015006 -0.169513 -0.139026 0.092248 0.128596 -0.014111 -0.038755 0.154284 0.133052 -0.243344 -0.174008 -0.002429 -0.114452 0.131663 -0.071025 -0.088318 0.193114 0.035786 0.133099 0.089236 -0.160049 0.109054 -0.147391 0.076347 0.040677 -0.028009 0.000992 -0.011557 0.093383 0.064287 -0.132122 -0.250896 -0.047816 -0.076103 -0.012549 0.029867 0.192306 0.000116 0.111784 0.179992
385 -0.014328 -0.004409 0.042797 -0.030276 0.057467 0.064414 -0.008969 0.071518 0.117907 0.008083 -0.012047 0.052792 0.154432 -0.153431 -0.113248 0.018359 -0.030739 0.034800 -0.003973 -0.118167 0.068727 -0.067407 -0.131495 -0.203734 -0.059234 0.008694 0.017831 0.027180 -0.075492 0.047393 0.087450 0.186541 0.072530 -0.047874 -0.084908 0.046497 -0.077106 -0.009395 -0.030748 0.010998 0.003147 0.014986 -0.179101 0.133235 -0.017762 0.076585 -0.036349 -0.046523 -0.001547 -0.032258 -0.142352 -0.177624 -0.104675 -0.122603 -0.213818 -0.141802 0.075374 0.096310 -0.039132 0.128148 -0.091661 0.017808 0.141916 0.027157 0.048499 0.127918 -0.026622 -0.056926 -0.203679 -0.258545 0.290846 -0.126407 0.097960 -0.155907 0.156687 -0.049986 0.236413 0.000428 -0.077820 0.139117 0.024014 -0.022168 -0.091667 -0.116518 0.007958 -0.128476 -0.089130 -0.066965 -0.025747 -0.040601 -0.095450 -0.046657 -0.015081 -0.053563 -0.121942 -0.035079 0.167614 -0.077703 -0.075961 -0.007095 -0.171564 0.050455 0.150091 -0.256936 0.258100 -0.048396 -0.041529 0.001726 0.239132 -0.062766 -0.161556 0.031622 0.048567 -0.100720 -0.075736 0.062062 0.147678 0.150705 -0.021455 -0.025905 -0.194693 -0.035056 0.043411 0.096058 0.055892 -0.029888 0.059529 -0.099448
466 0.142069 0.079549 0.232263 0.148218 -0.128813 0.199084 0.002448 -0.008315 0.011836 -0.034676 0.043836 0.085546 0.201819 -0.183401 -0.150031 0.008334 -0.038217 -0.125793 -0.008602 0.075299 -0.060396 0.044587 -0.170069 -0.133116 -0.049386 0.169337 -0.018338 -0.157838 0.179484 0.054797 -0.010454 0.098553 -0.008748 0.009581 -0.024670 0.177838 0.026115 0.004789 -0.042869 -0.081898 0.114070 0.061630 -0.090008 0.035264 0.118773 0.152019 -0.028635 0.089084 0.117709 -0.212630 0.051799 0.080705 -0.159467 0.024522 -0.209121 -0.042628 0.183701 0.035114 -0.078569 0.001082 -0.079434 -0.076224 0.058390 -0.000252 -0.047842 0.057497 0.024814 -0.085501 -0.064420 -0.089844 0.312946 -0.186800 0.134547 -0.028141 0.172626 -0.185457 0.214927 0.096771 -0.047976 0.078245 0.019762 0.152768 0.000177 -0.040546 -0.045168 -0.061163 -0.006348 0.271928 -0.055883 0.038535 -0.243555 0.248808 -0.092911 -0.024661 -0.065653 -0.076182 0.079114 -0.060143 -0.114252 -0.106887 -0.183206 0.028127 -0.020135 -0.140679 -0.001302 0.233632 -0.021936 -0.051796 0.031182 0.040157 0.045842 -0.006436 0.125071 -0.086907 0.069100 0.218795 0.037642 -0.018799 -0.272087 -0.082717 -0.098156 0.006567 0.233175 -0.044413 0.193739 0.031368 0.248491 0.029248
1255 -0.023448 -0.050836 0.088572 -0.077046 0.061736 0.145017 -0.365856 -0.009721 -0.029296 0.008712 0.250929 -0.054613 0.115355 -0.135756 -0.014651 0.000834 -0.188103 -0.068887 -0.046990 -0.191880 0.162516 -0.267560 -0.061699 -0.159279 0.110523 0.155345 -0.105252 -0.200937 0.029184 -0.082408 0.043847 0.129309 -0.003059 0.101908 -0.031567 0.195937 0.116679 -0.094185 -0.009029 0.030670 -0.097315 0.023788 -0.140559 -0.033074 0.090136 0.123046 0.011709 0.143780 0.087789 -0.023011 0.092834 -0.014861 0.164273 -0.072318 -0.014948 0.066408 0.008854 -0.115248 -0.082563 -0.077153 -0.050580 0.020076 -0.016706 0.151261 -0.135394 0.103525 0.005208 -0.261789 0.076243 0.022938 0.181690 -0.027502 -0.070091 0.121567 -0.022066 -0.167634 0.057601 0.175762 -0.025626 0.108061 -0.173652 0.159430 -0.202859 -0.117644 0.018243 -0.067677 0.034615 -0.128867 -0.180146 0.026188 0.136177 0.029080 0.077335 -0.064548 -0.295507 -0.137107 0.081549 0.127067 0.010341 -0.340177 0.110238 0.055846 -0.119346 -0.197414 0.080966 -0.062514 0.041916 -0.009830 0.072655 -0.036357 -0.258809 -0.104545 -0.011318 0.049319 0.077842 -0.127911 -0.022335 0.104978 -0.044496 -0.104795 -0.171442 0.026744 0.014650 -0.071637 0.038985 -0.094910 0.024737 0.056563
417 0.150237 -0.127603 0.124986 -0.094625 -0.088511 0.038483 -0.168021 0.001810 0.058292 -0.030972 -0.052221 0.141213 0.088580 -0.197063 -0.080325 0.046229 -0.030198 -0.025368 0.000432 -0.047857 -0.001180 -0.143407 -0.068376 -0.038622 0.087226 0.002256 -0.175303 -0.016196 0.039458 -0.109425 -0.005230 0.035425 0.019591 -0.011792 -0.082556 0.068002 0.058697 0.002097 0.066382 -0.147972 -0.035204 0.099121 0.101625 -0.012725 0.001349 0.098763 0.147360 0.072437 0.125415 0.008757 -0.138807 0.025392 0.040972 -0.029248 -0.112128 -0.039037 -0.051061 0.244639 0.012455 0.124590 -0.034339 -0.022247 -0.000909 0.115470 0.120695 0.032559 -0.000166 -0.148688 -0.064418 -0.203722 0.194662 -0.179946 0.018549 0.025119 0.031903 -0.184107 0.047209 0.002488 0.154263 0.093710 0.055356 0.013083 0.065293 -0.124278 0.088800 -0.180299 -0.008657 0.005083 0.076492 -0.127633 -0.073470 0.023177 0.152542 -0.007226 0.102911 0.059919 0.116053 -0.199703 -0.085689 -0.115551 -0.049022 -0.128522 0.215035 -0.158677 0.078609 0.076118 0.078973 0.008960 -0.058536 -0.066900 -0.102163 -0.058968 0.125733 -0.125114 -0.054023 0.021398 -0.021058 0.176391 -0.158101 -0.068687 -0.351808 0.053962 0.062348 0.203159 0.115729 -0.056937 0.238792 -0.017971
1132 0.142713 0.041808 0.106224 0.008912 -0.053186 0.115982 -0.222934 -0.075256 0.107764 0.010032 0.195046 0.177216 0.047392 -0.022880 -0.061909 0.020641 -0.212241 -0.028465 -0.025494 -0.027071 -0.022954 -0.017334 -0.126639 0.043928 -0.046015 0.144251 -0.078314 -0.106462 0.060070 -0.191205 0.049736 0.112462 -0.017248 -0.090581 -0.060427 0.087812 0.150463 -0.017612 0.014435 0.038122 0.076777 -0.032322 -0.137203 0.015032 0.042429 0.093127 0.046349 0.129305 0.047001 -0.140103 0.105113 0.015304 0.067226 -0.113677 -0.259359 -0.215177 -0.072202 0.018701 0.002519 -0.040174 0.060356 0.012285 0.059063 0.094678 -0.051569 0.089547 -0.037157 0.043108 0.007523 -0.059987 0.212255 -0.179287 0.093656 -0.086636 -0.106689 -0.142811 0.248319 0.175623 0.078279 0.099020 0.046416 0.022846 -0.150524 0.018616 0.080200 -0.032313 -0.058894 0.109100 -0.075460 0.007973 -0.100554 0.122676 0.018709 -0.059795 -0.203227 -0.050783 -0.025869 -0.070110 -0.140865 -0.048737 -0.153740 0.154729 -0.004358 -0.135933 0.139210 -0.093867 0.079917 -0.014468 -0.117809 -0.095749 0.189284 -0.169567 0.044201 -0.055011 0.073365 0.044330 0.021535 0.090140 -0.168055 0.027677 -0.037667 0.025766 -0.018845 0.040946 0.108632 -0.051223 0.062114 0.085991
133 -0.022060 -0.041712 0.273142 -0.261810 0.074987 0.059094 -0.315551 -0.110957 -0.055086 0.100972 0.207178 0.041551 -0.005456 -0.066134 -0.122735 -0.001573 -0.151006 -0.046437 -0.096364 -0.126748 0.114248 0.023143 -0.082700 -0.065019 0.088083 0.295150 -0.038710 -0.006917 0.009009 -0.172997 0.014616 -0.064964 0.040837 0.047421 -0.123963 0.109738 0.195346 -0.023229 0.042274 -0.150267 -0.002962 0.071949 -0.081612 0.087093 0.091858 0.185135 -0.159559 0.126548 0.195433 -0.054450 0.085165 -0.140437 0.185431 -0.093277 0.057463 0.119151 0.038844 0.044440 -0.061183 0.027392 -0.025651 -0.095867 0.030150 0.061308 -0.118352 -0.093126 -0.111250 -0.263959 -0.026258 -0.093097 0.127576 -0.054672 0.020552 0.107072 -0.104096 -0.126295 0.029065 0.056100 -0.095047 0.109101 -0.068968 0.159969 -0.091142 -0.175038 -0.043730 -0.043005 -0.067812 -0.009019 -0.174838 -0.002136 0.076848 0.034100 0.083102 -0.242684 -0.114918 -0.009696 0.124666 0.098803 0.154972 -0.357898 0.093885 0.109365 -0.197587 -0.295719 0.073578 -0.013814 0.017158 -0.031815 0.100720 -0.003106 -0.095290 -0.113912 -0.126088 -0.032676 0.238452 -0.160604 0.122585 0.091420 -0.119846 0.074013 -0.244439 -0.020678 -0.128430 0.070054 -0.037813 0.021419 0.121837 -0.113415
16 0.078158 -0.081597 0.063921 -0.085409 -0.165381 0.160961 -0.093729 -0.045286 0.060187 0.067585 -0.006456 0.175647 0.196894 -0.014644 -0.018062 -0.113538 -0.070426 0.022138 -0.048581 -0.162037 -0.051533 -0.192934 -0.152824 -0.097244 0.104731 0.032857 0.056019 0.096554 0.139576 -0.160711 0.000625 -0.018724 -0.018946 0.020310 -0.108339 0.104324 0.297342 -0.104581 -0.043244 -0.152149 -0.206670 0.023738 0.035707 -0.039801 0.126066 -0.132210 0.328001 0.099179 0.081662 -0.065382 0.047402 -0.142735 0.071734 0.108147 -0.161563 0.058774 -0.147742 0.167187 -0.052115 0.184939 -0.030357 -0.144327 -0.039156 -0.028966 0.086046 0.110213 -0.294229 -0.112663 -0.222113 -0.088591 0.398698 -0.055670 -0.164093 0.029874 0.155494 -0.362991 0.237732 0.018951 -0.288249 0.004799 0.027995 -0.108245 0.133915 0.035665 -0.107598 -0.071148 0.106862 -0.146926 -0.084753 -0.077037 -0.067343 -0.049997 0.014651 0.018401 -0.026487 0.109367 0.024412 -0.104413 -0.244748 -0.064700 -0.047573 -0.118128 -0.041640 -0.070211 -0.073813 -0.114940 0.044797 0.077128 0.067599 0.032455 -0.086920 0.026898 -0.209561 -0.219469 -0.128697 -0.119528 -0.008197 0.066273 -0.127985 -0.292107 0.017804 -0.104058 -0.106456 0.094265 0.053073 -0.202277 0.279567 0.134666
1348 0.036041 0.080151 0.188654 -0.102940 0.155468 -0.021066 -0.086859 0.092508 0.018307 0.114516 0.190214 -0.047304 0.079802 -0.184820 -0.063186 0.049973 0.008613 0.078427 0.189906 -0.034309 -0.056821 0.018930 -0.007099 -0.191746 0.065702 -0.047231 0.066692 -0.028804 -0.077151 -0.031452 -0.032764 -0.057432 -0.097741 -0.045425 0.170095 0.192503 -0.010096 0.071969 -0.007355 -0.104792 0.110332 0.045373 -0.088213 0.008617 -0.021899 0.089189 0.086239 -0.016286 0.237453 -0.103513 -0.100657 -0.078336 -0.011896 0.189868 -0.178820 -0.161001 -0.100897 0.307770 -0.126361 0.144446 -0.038731 0.025731 0.116898 0.030570 -0.084175 -0.090820 0.081362 -0.069255 0.053141 -0.138396 0.234808 -0.125353 -0.032802 -0.017000 0.078037 -0.090545 0.200306 0.059035 0.087152 0.124311 0.007403 -0.103004 -0.033779 -0.044202 -0.054937 -0.119127 -0.034700 -0.008951 -0.048068 -0.077061 -0.254061 0.014391 0.060749 -0.100469 -0.052488 -0.002498 0.136538 0.041484 -0.203542 -0.094923 0.015949 -0.009357 0.197875 -0.141447 0.253916 0.065852 0.120508 -0.060866 0.123444 0.079744 -0.211155 0.102402 -0.005075 -0.179060 -0.046060 -0.007878 -0.050770 -0.015125 -0.218462 -0.060385 -0.094488 -0.006657 -0.021449 0.020081 0.067250 -0.000593 0.190062 -0.109547
545 -0.085748 -0.080396 0.045096 -0.231176 0.070742 0.093846 -0.210335 -0.179588 -0.123862 0.082030 0.286019 0.152375 -0.109236 -0.142496 0.036438 -0.097001 -0.289375 0.105286 -0.125451 -0.173954 -0.192481 0.096737 -0.047740 -0.242837 -0.104436 0.113683 0.136063 0.096620 -0.129199 -0.159884 -0.085099 0.112870 0.072532 -0.006133 -0.077282 0.153100 0.010079 0.077199 -0.119153 0.235024 -0.008458 -0.208426 -0.343886 -0.011701 0.041208 0.045899 0.052755 -0.012888 0.145751 0.125787 -0.127747 -0.077391 0.094309 -0.038121 -0.273897 0.039991 0.161150 0.158857 -0.099286 0.036002 0.016539 -0.140314 0.197252 0.154541 -0.087821 -0.019284 0.026742 -0.242199 0.013642 -0.039150 0.102786 -0.040472 -0.055020 0.073862 0.230656 0.007288 0.143714 0.136651 -0.082666 0.303954 0.085519 0.042834 -0.216636 -0.181978 -0.217156 -0.314538 -0.015047 -0.124558 0.028770 0.016900 0.030041 0.196799 -0.019380 -0.023135 -0.279151 -0.006411 0.030364 0.025299 0.006265 -0.139399 0.037025 0.115161 -0.098681 -0.052941 -0.009828 -0.027232 -0.081348 0.068562 0.055773 -0.026521 0.178260 -0.163245 -0.019500 -0.050549 0.130809 -0.110328 -0.048449 0.032796 -0.082712 0.047414 -0.141134 0.147548 -0.070547 0.002336 0.098668 -0.120127 0.035229 -0.240672
165 -0.100370 -0.207426 0.200988 -0.026792 -0.017971 0.027825 -0.190852 0.154337 0.042225 0.070665 0.129328 0.051952 0.160307 -0.255138 -0.075060 0.110519 -0.312052 -0.146182 -0.176776 0.003058 0.071119 0.072687 -0.189487 -0.140094 -0.076794 0.057101 -0.200434 -0.050698 -0.201615 -0.187820 0.118655 0.125017 0.067674 -0.168535 0.025615 0.153140 0.333239 -0.304795 -0.038968 -0.061750 -0.176253 0.343795 -0.158499 -0.004272 0.162441 -0.082732 0.125191 0.039903 0.101668 -0.076743 0.230614 -0.059198 -0.050023 -0.096621 -0.039173 -0.106769 0.154925 -0.002752 0.093575 0.291506 0.191423 -0.196601 -0.053846 -0.144447 0.100577 -0.028791 0.122319 0.017272 -0.030548 -0.113407 0.259031 -0.179006 -0.038167 -0.142717 0.092021 -0.094176 -0.049270 -0.018330 0.292118 -0.055750 -0.068670 -0.030436 0.031482 -0.209839 0.016174 -0.245319 0.187213 0.256947 -0.051367 0.054535 -0.012387 0.166428 0.133345 -0.233364 -0.033306 -0.098705 0.103580 -0.126631 -0.134289 -0.192139 0.081594 -0.078170 0.171971 -0.012144 0.070928 0.135270 -0.213403 0.140429 0.261891 -0.061071 -0.086794 -0.036483 -0.193829 -0.085087 0.059409 -0.067672 0.165662 0.112271 -0.088361 -0.092224 -0.135918 0.172923 0.110292 -0.041680 0.213699 0.012881 0.034978 0.137152
137 0.111924 -0.047030 0.178252 -0.208321 0.110913 0.233031 -0.116135 -0.062592 -0.096078 0.174475 0.060231 -0.038899 0.152729 -0.230718 -0.210659 0.069914 0.161073 -0.177086 0.074014 -0.166816 -0.183386 -0.023367 -0.170533 -0.131828 -0.040958 0.038411 -0.028091 -0.035111 -0.040596 0.114002 -0.023611 0.041523 0.017712 0.025908 0.043512 0.247931 -0.004692 -0.085761 -0.066049 0.115735 0.187994 -0.080504 -0.027653 -0.147432 -0.031505 0.084781 0.185603 0.171261 0.049575 -0.102675 -0.070320 -0.161873 -0.153957 -0.198668 -0.168012 -0.041491 0.029560 0.009815 -0.011149 0.026210 -0.136621 -0.174041 0.019703 0.000613 -0.097659 -0.077085 -0.070281 0.095929 -0.043241 -0.043455 0.265864 -0.089451 0.040117 0.023403 0.232633 -0.091533 0.229228 0.075895 -0.043679 0.127726 -0.014314 0.064740 -0.143682 -0.006306 0.006797 -0.038709 -0.099493 0.138170 -0.018022 0.004099 -0.019769 -0.145301 -0.110675 0.064348 0.091020 -0.174216 0.093688 -0.203439 -0.206473 -0.182561 0.011866 0.043603 0.058272 -0.050939 0.074813 -0.151140 -0.071605 0.005840 0.176432 0.180421 -0.104629 0.094955 -0.043998 -0.052146 0.097208 -0.000643 0.191105 0.269012 -0.023852 -0.101673 0.005661 0.111038 0.145642 -0.117697 0.107688 -0.174654 0.222461 -0.150470
1197 0.037011 -0.054314 0.081128 -0.260608 0.030896 0.010291 -0.178980 0.066232 0.097636 -0.042611 0.247950 0.103424 -0.077126 -0.362277 -0.061070 0.112502 -0.212685 -0.022560 0.055152 -0.138762 0.083593 -0.120769 -0.225519 -0.134413 0.129179 0.244252 0.085419 -0.121895 0.087021 -0.196887 -0.048912 0.111826 0.177199 -0.010663 -0.189849 0.180796 0.274587 0.040438 -0.041369 -0.062015 -0.004798 0.071778 -0.100171 0.058676 0.034973 0.061125 0.041990 -0.039583 -0.019714 0.113347 0.054308 -0.101218 0.115305 -0.025427 -0.069439 -0.053327 -0.007657 -0.079853 -0.044918 -0.056362 -0.041625 -0.043707 0.072659 -0.035137 -0.057845 0.053596 -0.013353 -0.090316 0.038351 -0.139955 0.107999 -0.078742 0.046067 0.009497 0.096876 -0.066701 -0.006564 0.093724 -0.041526 -0.035192 0.062422 0.036066 -0.024537 -0.162453 -0.049130 -0.064936 -0.102422 -0.059179 -0.075673 -0.098227 0.056501 0.021710 0.082680 -0.098636 -0.072718 0.001262 0.023282 0.025800 -0.013723 -0.070872 0.008579 0.206889 -0.045384 -0.217296 0.199339 -0.145179 -0.129204 0.021685 0.155061 -0.119684 -0.048261 -0.056770 0.031128 -0.132759 0.111474 0.074225 -0.038769 0.142999 -0.057732 -0.081289 -0.190273 0.016804 0.020142 -0.010925 0.000531 0.108945 -0.075833 0.008525
1488 -0.155526 0.086255 0.134659 -0.170423 0.091182 0.051251 -0.385926 0.126899 -0.010752 0.075311 0.391746 0.265362 -0.014768 -0.253007 -0.039782 0.079175 -0.236289 0.002192 -0.076151 -0.161429 0.015272 0.033098 0.019517 0.104556 0.114665 0.079083 -0.090555 -0.004317 0.005624 -0.215982 -0.166452 -0.077421 0.166870 0.131234 -0.066065 -0.081739 0.186497 -0.151522 -0.067897 0.025435 0.002979 0.051717 -0.192286 0.090213 -0.041576 0.183730 0.111643 0.101845 0.131726 0.069927 0.030205 -0.132991 0.132982 0.025269 0.036411 0.066901 0.096399 -0.000387 -0.090551 -0.018043 -0.081961 -0.036972 0.089851 0.085678 0.058710 0.124280 0.129017 -0.294426 0.005924 -0.107821 0.256808 -0.020084 -0.000780 -0.014614 -0.026480 -0.138947 0.104597 0.209845 0.017084 0.234102 -0.022870 -0.095523 -0.086394 -0.097923 -0.163214 0.006166 -0.080539 0.090768 -0.251558 -0.074722 0.139708 0.047399 -0.013835 -0.036312 -0.265940 -0.147064 0.103353 0.061721 -0.073429 -0.164839 0.043279 0.153070 -0.212290 -0.148415 0.161760 -0.245850 0.058561 -0.018319 0.026569 0.057384 -0.013585 0.136262 -0.000296 0.079671 -0.067261 0.104987 0.150531 0.061637 -0.110363 0.160673 0.017174 0.154729 -0.100202 -0.043685 -0.086093 -0.141424 -0.075853 -0.032353
698 0.037467 -0.020329 0.001032 -0.199660 -0.114527 0.204718 -0.267319 -0.070573 -0.041528 -0.037809 0.030139 -0.061770 0.037844 -0.094086 -0.165514 -0.007915 -0.159890 0.028918 0.031749 -0.095845 -0.002896 -0.218411 -0.046925 0.096844 -0.122464 0.013346 -0.185912 -0.011473 0.010149 -0.339508 -0.024169 0.070064 0.039945 -0.023840 -0.077308 -0.058530 0.113753 -0.072535 -0.186535 -0.057537 0.178529 -0.094115 -0.258990 -0.078125 0.160052 0.086481 0.037717 0.066542 0.062266 -0.185887 -0.011600 0.074668 0.001827 0.079479 -0.119704 -0.221020 0.022560 0.112881 -0.118949 -0.089616 -0.071567 0.003818 0.037684 -0.006205 -0.074195 -0.086772 0.052364 -0.091806 -0.036963 -0.170974 0.226093 -0.194904 0.040216 -0.246505 0.208981 0.082487 0.215916 0.142954 -0.103927 -0.019350 -0.071136 0.156694 -0.122145 -0.002869 0.052301 -0.049187 -0.050988 0.140514 -0.098323 -0.106765 0.017638 0.077219 0.124273 0.089460 -0.149936 -0.108904 0.202404 0.021154 -0.352896 0.052111 -0.100266 0.085382 0.140858 -0.185664 0.037917 -0.015723 -0.129584 -0.080209 0.094698 -0.009633 -0.295303 -0.122978 -0.012550 0.028145 -0.086676 0.033296 -0.011666 0.125183 -0.020180 -0.004578 -0.012386 0.008768 -0.068198 -0.124699 -0.158864 0.096027 0.204504 0.050745
1080 0.133402 0.033768 0.140279 -0.105867 -0.065255 0.011309 -0.179638 0.037983 0.028503 0.128769 -0.090056 0.080581 0.057245 -0.210789 -0.193189 0.180879 -0.079911 -0.032817 0.095000 -0.206169 0.015264 -0.058878 -0.206006 -0.137508 -0.046983 0.003391 0.166661 -0.000236 0.048676 0.071189 0.085520 -0.057445 0.160220 -0.055346 -0.034793 -0.035011 0.088328 0.101509 0.013296 -0.036782 -0.041981 -0.005687 -0.051459 -0.044313 -0.062734 0.157772 0.024054 0.099570 0.045980 -0.245970 0.057100 -0.126162 -0.068655 -0.018770 -0.354932 -0.187284 -0.065621 0.110035 -0.040705 0.164663 0.053515 -0.126381 0.034103 0.049457 -0.129942 0.036653 -0.042131 -0.029303 0.077246 -0.169214 0.039327 -0.089635 -0.018212 0.163244 0.178345 -0.043814 0.060751 0.130122 -0.168343 -0.172482 0.013184 0.100356 -0.062780 -0.019096 -0.082941 0.129948 -0.088853 0.154263 -0.007235 -0.219556 -0.088316 -0.002550 0.117786 -0.144641 0.063660 -0.006523 -0.063796 -0.025325 -0.250357 0.080688 -0.089059 0.300416 0.143765 0.003295 0.056022 0.153846 -0.047991 -0.218528 0.083078 -0.050284 -0.115774 0.119253 0.018767 -0.106355 0.037050 0.258802 -0.056471 0.094509 -0.205064 -0.072025 -0.390586 0.097823 0.002840 0.107920 0.186775 -0.227902 0.281812 -0.140750
196 0.045663 -0.160024 0.181291 -0.258439 0.205486 0.044591 -0.135819 0.211148 0.034371 0.248680 -0.039068 0.076540 0.138888 -0.133163 -0.240716 0.017001 0.098340 -0.171227 -0.020806 0.034623 -0.001502 -0.191090 -0.181965 0.216590 -0.003532 0.181425 0.069003 -0.132898 0.084444 0.135974 -0.067343 0.048946 -0.047654 -0.117766 -0.022840 0.282497 0.307481 0.184419 0.028911 -0.195528 -0.118194 -0.101398 0.195232 0.103542 0.187815 0.106179 0.054569 -0.029316 0.102630 -0.190851 -0.198595 0.097145 0.154322 -0.066200 -0.184716 -0.256984 -0.016111 0.039250 -0.008662 0.183211 0.043594 -0.043643 0.030525 0.282310 -0.007779 0.230577 -0.054578 -0.063955 0.032250 -0.059196 0.031494 -0.181894 -0.036758 0.040530 0.400325 -0.066877 0.166145 0.110438 -0.045189 0.084139 -0.237223 -0.047266 0.090052 -0.139336 0.172785 -0.326468 0.336227 0.061766 -0.016830 0.010710 -0.070368 0.146215 0.139180 -0.259122 -0.019468 -0.106330 0.047750 -0.151829 -0.367564 0.173806 -0.333583 0.087662 -0.058257 -0.306651 -0.255347 0.025092 0.097544 0.014596 0.114516 0.025729 -0.089007 0.324148 0.140160 -0.011138 -0.000980 0.267538 -0.066923 -0.121505 -0.085418 0.091624 -0.173466 -0.041474 0.082914 0.048572 0.086875 0.011956 0.119688 -0.218723
88 -0.004233 -0.216167 -0.054530 -0.113853 0.038163 0.071520 -0.188188 -0.075976 -0.109131 -0.260125 -0.016461 0.026733 -0.078884 -0.146757 0.067490 0.107060 -0.338695 0.239626 -0.037085 0.014915 0.226320 0.034284 -0.234135 -0.159901 0.156649 0.367286 -0.041829 -0.207278 0.075213 -0.244557 0.005690 0.130258 -0.076042 -0.099670 0.081445 0.335022 0.131974 0.099127 -0.017059 0.097082 -0.125001 0.229092 -0.180048 0.115119 0.138684 0.284242 0.028240 0.210439 0.100893 0.155400 -0.029676 0.037787 0.216860 0.046507 -0.159633 -0.115789 -0.054709 0.081018 0.020534 0.064212 -0.173378 -0.080596 -0.050655 0.178383 -0.016784 0.002409 0.050529 -0.060477 0.110753 -0.003220 0.181022 0.016600 0.031816 0.156918 0.075029 -0.068324 0.101220 0.145492 0.031848 -0.054904 -0.003639 0.110211 -0.127961 0.028657 0.044099 -0.104127 0.019874 -0.114184 0.040981 0.000493 -0.073859 0.039427 -0.011361 -0.091524 -0.151194 0.065777 -0.098895 0.069832 -0.045829 -0.159646 -0.045155 0.063975 -0.141575 -0.123770 0.219551 -0.105882 0.004081 0.088805 0.073208 -0.103869 -0.086394 -0.133057 -0.024009 -0.010285 0.008109 -0.067811 0.098377 0.105883 -0.049527 -0.116751 -0.209710 -0.034252 -0.117391 0.131843 0.080234 0.128738 0.056905 0.108230
619 0.092566 -0.200210 0.180028 -0.016500 -0.178058 -0.042645 -0.003423 0.008968 0.117532 0.186481 -0.048865 -0.065553 0.041588 -0.209574 -0.062811 0.019845 -0.102351 0.034633 -0.050908 0.027179 -0.032905 -0.163413 -0.147943 -0.090978 0.162313 0.029072 -0.113599 0.061557 0.145943 -0.085544 0.155914 -0.053964 -0.050957 0.039105 -0.018754 0.000337 0.139061 -0.038671 -0.013594 0.050135 -0.063065 0.088750 0.048394 0.126926 0.040645 0.079120 -0.001201 -0.138479 0.218185 -0.045401 -0.064693 -0.008617 0.068639 -0.049988 -0.079774 -0.231032 0.196487 0.215620 -0.083121 0.063841 -0.189390 -0.047553 -0.089816 0.000072 -0.152308 0.062596 -0.086936 -0.065017 -0.005947 -0.196082 0.287799 -0.049262 -0.030634 -0.105783 0.042991 -0.215803 0.317555 -0.035749 -0.115908 -0.068142 0.074309 0.013177 -0.105835 -0.216154 0.184133 -0.084957 0.004081 0.045314 0.111061 -0.112350 -0.245889 0.022772 0.023484 -0.022998 0.007180 0.067960 0.202591 -0.066119 -0.093124 -0.114930 -0.087473 0.183350 0.063266 -0.053828 0.023017 -0.044191 0.101127 -0.117284 0.182467 0.026078 -0.189226 0.054631 0.059822 -0.140560 -0.023837 0.264939 -0.057878 0.031676 -0.019749 -0.161411 -0.170307 0.113305 0.079026 -0.087559 0.080903 0.003266 0.206010 -0.027811
