275 128
7 -0.179055 -0.180593 0.113048 -0.064666 0.104807 0.101171 0.179810 -0.247541 0.188101 0.031488 0.103999 0.061562 0.272691 0.121219 0.126168 0.012155 0.284689 -0.107912 0.326384 -0.046364 0.052123 0.043716 -0.190802 -0.080608 0.075455 -0.122437 0.064216 0.027813 0.041820 -0.122710 0.000352 0.144323 0.053409 -0.048141 -0.032929 0.195638 0.181028 -0.010335 -0.051808 0.009823 -0.164996 0.098076 0.032046 0.164986 -0.053497 -0.106031 -0.139796 -0.084227 -0.081450 -0.109427 -0.243848 0.030414 -0.044056 -0.028189 0.030165 -0.248955 -0.013153 -0.060223 0.035957 0.058327 -0.029040 0.059986 -0.050095 -0.056490 -0.102480 0.061129 -0.040591 -0.127503 -0.077179 -0.203041 -0.106585 0.021203 0.192689 0.037589 0.074061 -0.015058 0.102531 -0.169891 -0.083092 0.112751 0.027387 0.113741 0.175921 0.155644 0.049339 -0.046440 0.069686 0.119381 0.102972 -0.070186 0.225350 -0.184648 -0.016986 -0.195863 0.087371 0.111871 0.047362 0.005332 0.196146 0.205389 0.066396 -0.027841 0.055551 0.113712 0.128292 0.100520 -0.101062 -0.117034 -0.042896 -0.183445 -0.008870 0.181241 -0.042004 0.201675 -0.039871 0.074136 -0.050007 -0.059679 0.039485 -0.055192 0.069380 -0.007370 0.035855 -0.030767 0.190603 -0.153632 0.045254 0.173654
136 -0.096778 -0.061295 0.057890 -0.126823 0.074205 -0.086410 0.278846 -0.206068 0.056366 0.107035 0.155528 0.255476 0.369748 0.003544 0.028647 0.014223 0.399628 -0.155431 0.050823 -0.097721 0.043202 0.018179 -0.099209 -0.224047 0.016380 0.082079 -0.013146 0.037167 0.008318 -0.111906 -0.022049 0.190398 -0.091724 -0.094578 -0.103208 0.081598 0.133627 0.098009 -0.052135 -0.095365 -0.054764 -0.036264 0.038880 0.102876 -0.132220 -0.065823 -0.127607 -0.194828 -0.022393 -0.188741 -0.105362 0.103083 -0.045404 -0.011402 0.064659 -0.216982 0.049655 -0.161382 0.010492 0.127545 -0.007307 0.031358 -0.085181 -0.051863 -0.177117 0.114801 -0.211112 -0.065593 -0.041100 -0.197055 -0.051310 -0.016872 0.154508 0.016440 -0.034871 -0.049683 0.185675 -0.081196 -0.108770 0.076487 0.026003 0.086943 0.210584 0.098106 0.011165 0.102673 0.054947 0.122618 0.229811 0.038769 0.147808 -0.081505 -0.063960 -0.144209 0.093935 0.003764 0.050112 0.060066 0.023376 0.157575 0.012572 0.025952 -0.060189 0.151242 -0.003463 0.224581 -0.144644 -0.018127 0.004582 -0.175393 -0.039616 0.182211 0.017495 0.085343 0.093168 -0.034608 0.049663 -0.099432 -0.030784 -0.066760 0.096591 0.060779 0.035824 -0.015936 0.132451 0.006720 0.041076 0.126366
1216 -0.140378 0.103548 0.261202 0.067704 0.113496 -0.185897 0.183718 0.038591 0.103820 0.031230 -0.030385 -0.073651 0.110467 0.045935 -0.155800 0.072864 0.233959 -0.244040 -0.065584 -0.107467 -0.105667 0.091254 -0.176899 -0.097629 -0.013601 -0.129099 -0.000316 0.194861 0.030629 -0.195681 0.115583 0.028794 0.102018 0.060423 -0.014606 0.160789 0.171031 0.329628 0.148171 0.187796 -0.099463 -0.010281 -0.010515 0.103068 -0.090279 -0.008353 -0.134951 0.006854 -0.010639 -0.122084 -0.068286 -0.179764 0.097092 -0.168899 0.031434 -0.249067 0.164227 0.139123 -0.104090 0.304525 0.018820 0.045927 0.130968 0.000454 -0.117240 -0.052942 -0.149751 -0.160176 -0.118043 -0.168550 0.122386 -0.143304 0.013486 0.015431 0.029654 -0.089582 0.030407 -0.257581 0.019718 0.096856 0.134292 0.009927 0.006552 0.195629 0.049378 -0.011363 -0.072494 0.107642 0.208626 0.035405 0.092927 -0.204426 0.016868 0.056049 0.204891 0.017858 -0.038779 -0.010430 -0.086321 0.170509 -0.165901 0.092719 0.075389 -0.220382 0.103479 0.267586 -0.273924 -0.022300 0.159192 0.027003 -0.190767 0.072312 -0.009740 0.030989 0.036446 0.061242 0.043005 -0.055076 -0.086680 -0.134555 0.057278 -0.087585 0.195702 -0.000725 0.173407 0.145677 0.187592 0.246390
915 -0.177679 0.044532 0.068303 -0.055200 0.147225 -0.006774 0.138736 -0.033127 0.060930 -0.057939 0.012132 0.146612 0.029679 0.057790 0.120721 0.154544 0.377627 -0.089707 0.190786 -0.063929 0.040971 0.100389 -0.036224 -0.175698 0.175499 -0.040443 -0.086218 0.120102 -0.005413 -0.019240 0.099503 0.130423 -0.081782 -0.051897 0.021653 0.205737 0.103528 0.060130 -0.120435 -0.086951 0.060872 -0.000124 0.089275 -0.094706 -0.058739 -0.058745 -0.135907 0.063639 -0.034951 -0.225550 -0.041653 -0.011469 -0.329308 -0.146796 -0.056145 -0.249557 -0.105481 0.014784 -0.041287 0.019996 -0.173487 -0.031289 0.121219 -0.062844 -0.081292 -0.036536 -0.151068 -0.002690 -0.216246 -0.230010 -0.008982 -0.006085 0.034106 -0.232497 0.067744 0.064268 0.092050 0.055693 -0.064091 0.202091 -0.139077 0.019631 0.278021 0.238280 0.046201 -0.053174 -0.004063 -0.076286 0.081084 -0.146076 0.312556 -0.256337 0.116434 0.090235 0.339354 0.070809 0.068815 -0.130847 -0.080393 0.169294 0.059008 0.095084 -0.053244 0.048250 0.098654 0.181278 0.004189 -0.001622 -0.051075 -0.007640 -0.203647 0.002994 0.059899 -0.035001 0.132384 -0.000373 0.006533 -0.121262 0.029812 -0.094531 -0.058124 -0.030187 0.258645 0.131705 0.001836 -0.036406 0.212570 0.041515
998 0.016690 -0.198905 0.167901 0.095668 -0.036143 -0.040796 0.067107 -0.127123 0.155662 0.226410 0.053984 0.166039 0.166664 -0.083432 -0.173487 0.034122 0.188345 0.003489 0.063392 -0.054836 0.118988 0.003145 -0.056410 -0.093252 0.129616 0.016965 0.052959 0.215697 0.070918 -0.232450 0.115819 -0.067016 -0.044782 -0.069780 -0.033594 0.020195 0.054692 0.343519 -0.078563 0.060760 -0.149126 -0.047381 0.136534 0.111539 -0.100603 0.038505 -0.049633 -0.058625 0.011838 -0.116801 -0.184513 -0.112949 -0.045413 0.057045 0.072554 -0.253521 -0.004791 -0.307587 -0.139983 0.347993 -0.042417 -0.001471 -0.055854 0.033868 -0.110577 0.089144 -0.056329 -0.172057 0.087810 -0.370841 -0.022201 -0.067939 0.392500 -0.078392 -0.268385 -0.065332 0.133806 -0.255646 -0.065898 0.157461 0.072146 0.257815 0.110804 0.049180 0.074577 0.064680 -0.036237 0.192321 0.089100 0.096618 0.153063 0.045667 -0.181886 0.139005 0.060995 0.022748 0.145676 -0.120192 -0.079238 0.262732 -0.067929 -0.165135 0.085984 0.060134 -0.086190 -0.049944 0.069680 -0.083913 0.042727 -0.168181 0.015031 0.217674 0.152198 0.186367 0.313519 0.064265 -0.096163 -0.128788 0.016958 0.049524 0.224398 -0.121028 0.030052 -0.017346 0.307953 -0.184590 0.015005 0.103195
1183 -0.110793 0.038226 -0.020096 -0.033271 0.154530 0.005804 0.146224 0.001087 0.018303 -0.035547 0.023051 0.154135 0.171541 0.081136 0.082533 0.084901 0.440372 0.004033 0.247988 -0.046351 -0.024552 0.097411 0.046313 -0.073225 0.061272 -0.054869 -0.033583 0.108069 -0.082250 -0.090616 0.258382 0.253768 -0.001200 0.043937 0.089984 0.084708 0.037132 0.041108 -0.124952 -0.141002 0.003340 0.014276 0.155181 -0.097374 -0.159322 -0.101926 -0.115831 0.085901 -0.016324 -0.209755 -0.139843 -0.120067 -0.084030 -0.077701 -0.151946 -0.309660 -0.077401 0.145227 0.016498 -0.039244 -0.139601 0.015158 0.035878 -0.150135 0.027383 0.067572 -0.203888 -0.101626 -0.116150 -0.229736 -0.057338 -0.091896 0.080804 -0.138327 0.152657 0.094281 0.071884 0.051579 0.057266 0.079246 -0.007081 -0.013178 0.182739 0.206780 0.085474 -0.176336 -0.050599 0.016268 -0.023620 -0.094182 0.122051 -0.305164 0.183835 -0.077730 0.286890 0.238538 -0.031502 -0.172129 -0.144505 0.183589 -0.008091 0.137671 -0.100300 0.006936 0.061016 0.407730 0.101715 -0.126388 0.014035 0.082394 -0.183153 -0.033113 0.229391 -0.087470 0.039051 -0.049861 -0.154725 0.032151 -0.061168 -0.122490 -0.016573 0.007796 0.104560 -0.020470 0.083457 0.100811 0.107986 0.007296
875 0.030331 0.251468 0.174485 0.130808 0.058877 -0.042128 0.120510 -0.193985 0.089724 0.149687 -0.132852 0.075436 0.202053 -0.109738 0.048177 -0.001467 0.127624 -0.142275 0.129851 -0.097342 -0.048116 0.034582 -0.068574 -0.106607 0.023840 -0.191853 -0.016762 0.005020 0.086536 -0.266013 0.074154 0.298682 -0.071926 0.053483 0.067499 0.184737 -0.024877 0.234414 0.127803 0.045457 -0.095381 0.037943 -0.024607 0.006260 -0.016875 -0.150818 0.012231 -0.156472 0.059733 -0.110545 -0.097252 0.033103 -0.042718 -0.119664 0.267428 -0.235779 0.096366 -0.075851 -0.004645 0.215064 0.021513 0.233730 0.049751 0.052050 -0.164681 0.006081 -0.224827 -0.054790 -0.161100 -0.216257 -0.005370 -0.155530 -0.038500 0.151256 -0.088815 0.141181 0.035156 -0.019717 -0.139442 0.063268 0.132058 0.145811 0.124984 0.114116 0.008116 -0.137906 -0.235399 0.146425 0.148041 0.105417 0.228205 0.093659 -0.079847 0.083392 0.014937 0.163359 0.020774 -0.072081 -0.170308 0.249912 0.084316 0.172822 0.121608 -0.137548 0.155815 0.251152 -0.112025 -0.145493 0.000651 -0.000521 0.147888 0.109672 0.114939 0.022868 -0.034976 -0.067649 -0.047718 -0.025638 0.037418 0.048039 0.256965 -0.011254 0.148974 0.065768 0.342734 -0.176553 0.089223 0.202154
164 -0.204100 0.004800 0.005854 0.046904 0.001660 0.008405 0.205655 0.053292 -0.173288 0.133772 -0.148056 0.218834 0.045129 -0.036928 -0.000173 0.047871 0.224337 -0.200488 0.232013 -0.140975 0.005811 0.016452 0.173194 -0.182366 -0.027135 -0.015600 0.050842 0.198514 -0.026725 0.016587 0.097069 0.063067 0.121456 0.022757 0.083085 0.182528 0.140665 0.007523 -0.104861 -0.071078 0.141857 0.044168 0.016169 0.010392 -0.067612 0.028106 -0.086217 0.005733 -0.030168 -0.183165 -0.190949 -0.065063 -0.131342 -0.211099 -0.245937 -0.198970 -0.029926 0.074920 0.161369 0.003411 -0.109504 0.030340 -0.040570 -0.166429 0.066007 0.102188 -0.179991 0.169181 -0.333607 -0.299294 0.047760 0.000279 0.148511 0.011470 0.024793 0.053548 0.038439 0.119627 0.020136 0.099880 -0.191706 0.087881 -0.027502 0.169466 0.004224 0.087139 -0.111196 0.012013 0.072683 -0.132500 0.180538 -0.018595 0.160744 -0.195273 0.193215 0.076689 0.157855 -0.156135 -0.053867 0.284665 0.107302 0.045929 0.023549 -0.214848 -0.039555 0.348329 0.138828 -0.130219 -0.010967 0.006866 -0.132325 0.121013 -0.020698 -0.165825 0.053160 0.017278 -0.130773 0.051530 -0.232834 -0.037648 -0.036967 -0.036847 0.238752 0.139536 0.070082 -0.049868 0.083405 0.078922
202 -0.131117 -0.047553 0.121431 0.053842 0.093777 -0.130144 0.055372 0.158854 -0.019837 0.073958 -0.192559 -0.049341 0.217469 0.037372 -0.123954 -0.030607 0.168674 -0.229953 0.153306 0.006614 -0.114467 0.075575 -0.178124 -0.112116 -0.040086 -0.033756 0.007163 0.072107 0.038503 -0.224767 0.054320 0.042786 -0.224455 -0.097514 0.042765 0.207556 0.066321 0.277778 0.067311 0.130860 -0.052208 0.101149 0.059893 0.016174 0.140816 -0.003384 0.116260 -0.070208 -0.016997 -0.080503 -0.051781 0.072997 -0.008802 0.020542 0.024079 -0.097634 0.259268 -0.030458 -0.099103 0.148073 0.005325 0.017537 0.116973 0.000004 -0.097487 -0.150138 -0.238942 0.020482 -0.131331 -0.198869 0.030821 -0.173790 -0.048057 0.097563 0.044649 -0.112818 0.168660 -0.399256 -0.000273 0.034838 0.215526 0.059599 0.116779 0.192698 0.014825 -0.110726 0.120233 0.144199 0.158640 -0.197177 -0.034648 -0.263250 0.004711 0.043986 0.116170 0.204946 -0.003105 0.133759 -0.060577 0.171836 0.167985 -0.030308 0.093000 0.061169 0.020172 0.176504 -0.176040 -0.085456 0.066692 -0.075496 -0.034223 0.271399 -0.096401 0.065427 -0.020599 0.148467 0.206645 0.094255 -0.116972 -0.080765 -0.035712 -0.131288 0.162606 -0.029733 0.297492 -0.115385 0.096890 0.356818
878 -0.211984 0.003684 0.015246 -0.094199 0.081530 -0.031473 0.081307 -0.098008 0.035493 -0.041724 0.118013 0.095775 0.386877 0.006270 -0.007300 0.032214 0.206456 -0.048018 0.115613 0.092646 0.097582 0.216310 -0.085122 -0.193567 0.074725 -0.110018 -0.057012 0.277739 -0.074222 0.072767 0.033100 0.200973 -0.125243 0.011064 -0.000719 0.314712 0.102345 -0.021372 -0.260285 -0.143698 0.063412 0.064740 0.104921 0.033658 -0.042693 -0.186051 -0.081596 -0.022044 -0.074924 -0.193237 -0.243595 -0.082139 -0.120525 -0.262084 -0.058287 -0.282672 0.165746 0.289279 -0.126943 0.023054 -0.001690 -0.004716 0.028053 -0.026543 -0.092185 -0.226231 0.008455 0.087284 -0.158307 -0.120372 0.041796 0.019004 0.330708 -0.177231 0.131761 0.175310 0.072084 -0.089898 -0.124258 -0.085708 -0.155927 -0.015412 0.088977 0.177021 0.005642 -0.085827 0.112191 0.064304 -0.090742 -0.135131 0.141237 -0.094570 0.050357 -0.053731 0.311784 0.000145 -0.228603 -0.264605 0.030690 0.173191 -0.087200 0.029550 -0.026544 -0.040814 0.020802 0.293147 0.003622 -0.017250 -0.056699 -0.002702 0.037621 0.145642 0.107813 0.096278 0.126611 -0.167652 -0.133052 -0.151343 -0.001446 -0.111344 0.181974 -0.147776 0.151691 -0.023834 -0.118367 0.049926 0.128258 0.089616
1447 -0.040491 -0.106289 0.087672 -0.047195 -0.046460 -0.018158 0.209783 -0.002471 0.078430 0.194513 0.136952 0.029691 0.385259 -0.019368 0.011088 0.065669 0.294884 -0.111305 0.029854 -0.167614 0.022514 0.021047 -0.166081 -0.082640 0.028429 -0.045388 0.056913 -0.112645 0.095991 -0.159716 -0.104484 0.131228 -0.071412 -0.123136 0.087980 -0.063954 -0.023073 0.152991 0.029786 0.201003 0.025963 0.210924 0.102351 0.091503 -0.195458 -0.235439 -0.079956 -0.143643 -0.095453 -0.021870 0.029451 0.148104 0.000598 -0.117033 0.002114 -0.270571 0.124416 -0.161417 -0.038621 0.124983 0.088571 -0.008871 0.013520 -0.052200 -0.057233 -0.013792 -0.147065 0.048384 0.017298 -0.076994 0.089385 0.006769 0.064509 -0.128338 0.029511 0.185943 0.186508 -0.157148 -0.164214 0.114083 0.128196 0.087894 0.215887 0.115073 -0.093479 0.063528 0.072289 0.214536 0.121503 -0.036753 0.022836 -0.108917 0.058285 -0.071496 0.103172 -0.040885 0.097018 0.172435 0.216944 0.005942 0.177206 0.048305 0.078274 -0.037569 -0.014737 0.279825 -0.165389 -0.070827 0.120315 -0.239450 -0.169945 0.148931 0.003058 -0.037373 0.038530 -0.014538 0.136068 -0.168995 0.069007 -0.180401 0.141245 0.037977 0.117940 -0.019014 0.366814 -0.146279 0.213811 0.226896
663 -0.168012 0.090739 0.112470 -0.178188 0.084920 -0.278041 0.145525 -0.073446 0.013825 0.125938 0.047879 0.105402 0.255466 0.063632 0.051493 0.014951 0.394335 -0.270191 0.138515 -0.002675 -0.221173 0.245296 -0.013823 -0.182416 -0.106412 0.026003 -0.011967 0.142948 -0.060673 0.010199 0.000848 0.082245 -0.045485 -0.287938 -0.085768 0.046372 0.263264 -0.037854 -0.065685 -0.139959 0.062468 0.029862 0.016781 0.186508 -0.096927 -0.055403 -0.032489 -0.123082 -0.148889 -0.126587 -0.053158 0.158747 -0.102507 -0.206428 -0.100457 -0.178295 -0.164912 0.050831 -0.020181 0.000882 -0.074683 -0.122091 -0.021558 -0.116900 -0.190115 0.031988 -0.126545 0.117802 -0.286977 -0.029391 0.051181 0.077590 0.099123 -0.088559 0.080016 0.011301 -0.003916 0.016674 -0.156191 0.295404 0.119977 0.123813 0.122660 0.164373 -0.154443 0.117474 0.110334 0.043748 0.072637 -0.131980 0.102112 -0.005081 -0.088054 -0.048871 0.128430 0.027041 0.177157 -0.045276 0.032607 0.127105 -0.019464 -0.080646 -0.038859 0.217514 0.095469 0.165210 -0.216481 0.005880 0.043369 -0.171475 -0.302742 0.176050 -0.053360 -0.020148 -0.039312 -0.086817 -0.016545 -0.031046 -0.057461 -0.245505 -0.092081 -0.023203 0.125897 0.024075 0.243125 -0.117673 0.101575 0.242728
675 -0.008877 -0.062926 -0.033094 0.038310 0.223961 -0.195091 0.231788 -0.063074 0.083383 -0.016735 0.042278 -0.026423 0.207937 -0.007099 0.122949 -0.078495 0.148929 -0.177621 -0.057002 -0.054572 0.091201 -0.056037 -0.217071 -0.032825 0.108804 -0.259219 0.234745 0.034456 0.168738 -0.265252 0.194608 0.121248 -0.059794 -0.165295 0.082079 0.178280 0.110064 0.085367 0.136440 -0.072659 -0.249310 0.103743 0.066171 0.022610 -0.190612 -0.042456 -0.167149 -0.191753 0.017871 0.004230 -0.200083 -0.055414 0.122353 -0.001436 0.249548 -0.161293 0.205467 -0.155266 -0.358517 0.080052 -0.093917 0.032461 0.235604 0.021454 -0.018480 -0.047328 -0.222900 -0.113577 -0.249601 -0.223960 0.080838 -0.063200 0.156893 0.100228 -0.117861 -0.099876 0.194041 -0.295077 -0.066823 0.043062 0.168729 0.097441 0.239619 -0.024888 0.186817 0.027660 0.129340 0.085551 0.028671 -0.102207 0.295987 -0.137830 -0.145481 0.014234 -0.053570 -0.082864 0.032571 0.247821 0.030280 0.193425 0.029283 -0.144827 -0.060606 0.026826 -0.004669 0.167346 -0.043358 -0.213934 0.114894 -0.162858 0.150098 0.277175 -0.017400 0.190937 -0.006204 -0.068084 0.131335 0.068903 -0.178262 -0.074785 0.111555 0.045406 0.229058 0.073991 0.205236 -0.059418 0.092398 0.256978
694 -0.022608 0.013740 0.009501 0.041327 -0.077984 -0.196266 0.244109 -0.010300 0.111171 0.004529 -0.066985 0.164255 0.354390 0.118742 0.026182 0.202840 0.143221 -0.281563 -0.006064 -0.108241 -0.034305 0.062846 -0.038106 -0.237790 0.039953 -0.066590 -0.079889 0.192197 0.025517 0.058089 -0.017295 0.364568 -0.063403 -0.145353 0.033103 0.344125 0.128262 -0.000339 -0.140472 0.015582 0.122223 -0.068407 -0.071191 -0.095815 -0.018542 0.026380 -0.154961 0.062118 0.027958 -0.124325 -0.093925 -0.093343 -0.007170 -0.137668 -0.031504 -0.266439 -0.012377 0.179310 -0.122759 -0.001174 0.045613 0.074922 0.038233 -0.313526 -0.012167 0.069832 -0.128995 -0.026273 -0.104719 -0.113358 0.137849 -0.095206 0.224523 0.143066 -0.035868 0.152522 0.060450 -0.005724 0.122091 0.268376 -0.277842 -0.030727 0.059159 0.134123 0.051565 -0.042576 0.049795 0.169000 0.041065 -0.094352 0.068433 -0.135541 -0.084922 -0.028422 0.314626 0.017798 -0.076659 -0.147723 0.086286 0.141231 -0.101754 0.118749 0.053688 -0.022978 0.186725 0.246639 0.001565 0.007689 -0.076734 -0.088449 0.012505 0.134823 -0.074857 0.160735 0.205353 -0.002764 -0.042510 -0.171670 0.133600 -0.131901 -0.062427 -0.139836 0.197245 0.013126 -0.028785 -0.132504 0.123416 0.056468
1292 -0.036798 -0.011120 0.215900 0.014624 0.016622 -0.075644 0.228079 -0.002751 0.032954 -0.005872 0.053877 0.017419 0.263645 0.158210 -0.062513 0.034229 0.260713 -0.118710 -0.009077 0.103538 -0.128197 0.011167 -0.120205 -0.270225 0.118526 -0.033699 0.096892 0.043048 -0.017907 -0.042500 0.125945 0.006925 -0.241311 0.032804 -0.003614 0.201576 0.097462 0.106396 0.066389 0.097404 -0.061039 0.064160 0.001255 0.007466 0.038406 0.060183 -0.187489 -0.197832 -0.082253 -0.219405 0.031035 0.127878 -0.122608 -0.128030 0.039626 -0.162758 0.130380 -0.083590 -0.043575 0.124712 -0.001361 -0.006232 0.071360 0.010926 -0.106833 -0.013274 -0.036617 -0.032383 -0.144467 -0.159244 0.153336 -0.055243 0.114673 0.028052 -0.053434 -0.052413 0.131642 -0.203873 0.010554 0.014008 -0.043990 0.117291 0.197719 0.165845 -0.015232 0.120289 0.177181 0.177623 -0.020553 -0.039624 0.050222 -0.058900 -0.102324 -0.032971 0.182400 -0.001635 0.057225 -0.040571 0.118107 0.100599 0.022417 0.030090 0.038582 -0.052296 0.043496 0.168984 -0.116875 -0.070755 0.151390 -0.093643 -0.099810 0.156097 0.007099 -0.018995 0.129670 0.075169 0.085082 -0.081350 -0.083800 -0.053303 0.022794 0.010568 0.091009 0.104620 -0.042863 -0.004794 0.134653 0.167591
127 -0.296207 0.033510 0.023743 0.108864 0.109566 0.022993 0.215856 -0.136852 0.091108 -0.026945 -0.055649 0.253936 0.071424 -0.022774 0.057573 0.071023 0.396347 -0.330029 0.116867 0.076170 0.016107 0.152061 -0.066529 -0.204892 0.175121 0.002677 0.031796 0.076950 -0.164971 -0.122580 0.108589 0.073831 0.009384 -0.068118 0.142230 0.159122 0.322512 -0.148593 -0.134868 -0.160811 0.057905 0.130588 0.049318 0.005608 -0.166269 -0.002564 -0.185122 0.219975 -0.084813 -0.189904 -0.138015 -0.201118 -0.228982 -0.142975 -0.003796 -0.200230 -0.152440 0.021666 -0.019095 -0.148095 -0.198928 -0.063079 0.012452 -0.129894 -0.033241 0.103265 -0.164483 -0.141832 0.012084 0.020505 -0.120714 -0.137730 -0.037234 -0.025949 0.006975 0.285559 0.200436 -0.032798 -0.007070 0.146971 -0.209495 0.067421 0.164572 0.223159 0.083915 -0.128399 0.075088 0.017249 -0.001800 -0.241840 0.082610 -0.264584 0.188391 -0.009833 0.199232 0.185783 -0.151087 -0.099385 0.095576 0.268306 -0.081392 0.212048 -0.098702 0.113566 0.116790 0.286608 0.030196 0.056755 0.043111 -0.057008 -0.147684 0.027953 0.200727 -0.054374 -0.040588 -0.102831 -0.080829 -0.061412 -0.107960 -0.154885 -0.109055 -0.137074 0.293864 -0.005679 0.063292 -0.029992 0.080718 0.072132
1012 0.065903 -0.032927 0.141812 -0.110772 0.030696 -0.010523 0.267950 -0.028254 0.151341 0.084778 0.085113 -0.025462 0.143864 -0.009013 -0.115327 0.271703 0.156953 -0.033886 0.002147 0.295182 -0.293168 -0.099017 0.055257 -0.321887 0.142765 0.080682 -0.063228 0.123296 -0.073049 -0.428634 0.295188 0.002586 -0.057633 -0.083303 -0.082648 0.125234 0.155504 0.030568 -0.066909 -0.162123 -0.211192 -0.067611 0.103212 -0.062142 -0.013827 0.179772 -0.053792 0.192914 -0.082026 -0.215485 0.054289 -0.074591 -0.063412 0.102810 -0.059592 -0.146450 -0.043668 -0.075365 0.087953 0.119650 0.077427 -0.051736 0.096244 -0.236981 -0.096649 0.169796 -0.250286 0.084219 0.024864 -0.368534 -0.037185 0.163394 -0.035559 -0.113402 -0.064044 -0.124377 0.008161 -0.229132 -0.155112 0.054353 0.135411 0.337216 0.141442 0.177484 0.026236 0.032406 0.123360 0.137481 -0.003159 -0.091503 0.101707 -0.136403 0.072701 0.042893 0.186449 0.031706 0.005627 -0.090524 -0.177543 0.279938 -0.035170 -0.030002 -0.132732 -0.104321 0.040382 0.193908 0.022959 -0.215023 0.025590 0.053131 -0.302006 0.026038 0.063721 0.173572 0.153584 0.037916 0.030784 -0.224576 -0.031450 -0.269156 -0.049080 -0.083090 0.049731 -0.056056 0.222054 -0.089403 0.108524 0.122458
215 0.082801 -0.033734 0.053495 0.107779 -0.107014 -0.248273 0.182618 0.039243 0.256378 0.023582 -0.088638 0.054898 0.280102 0.086425 0.030520 -0.120665 0.120469 -0.342410 0.079944 -0.211242 -0.168116 -0.001139 -0.241895 -0.116491 0.136086 0.114745 0.080156 0.064091 0.066995 -0.105915 0.138364 0.129184 0.108180 -0.132229 -0.096082 0.158868 -0.010241 0.174956 0.099425 -0.002572 -0.084367 0.093785 -0.037846 0.006830 0.110480 -0.112277 0.118833 -0.247395 0.108560 -0.068656 -0.207230 0.002029 0.049802 -0.048525 0.086671 -0.257946 0.245869 0.163054 -0.097110 0.227721 -0.037459 0.002868 0.049419 -0.148596 0.133912 0.031455 -0.100863 0.079743 -0.264971 -0.292272 0.093968 0.072626 0.012865 -0.017014 0.138498 0.159244 0.173526 -0.120388 0.046566 0.007393 -0.042321 0.100761 0.031134 0.168956 0.209965 0.004169 0.077961 0.103394 -0.010060 -0.018991 -0.017090 -0.076982 -0.030355 0.005060 0.125072 0.197743 -0.124632 0.246337 -0.109384 0.234322 0.230711 -0.009983 0.108365 -0.101423 0.043242 -0.028815 -0.186403 -0.112496 0.138231 -0.061789 -0.143153 0.220828 0.006642 0.209075 0.047849 0.046374 0.078190 -0.025442 -0.124165 0.230433 -0.146877 -0.056554 0.307185 0.040182 0.143756 -0.174619 -0.011798 0.164728
251 -0.011586 0.003281 0.084538 0.181170 -0.046962 -0.065638 0.292379 -0.059404 0.067641 0.024193 -0.035249 -0.076218 0.224974 -0.023878 -0.103966 -0.002541 0.097351 -0.152573 0.043762 0.045255 0.090295 -0.153770 -0.096567 -0.137834 0.192648 0.054252 0.030173 0.178673 0.113123 -0.099223 0.055850 0.096827 -0.157606 -0.048976 0.034640 0.105076 -0.081898 0.202214 -0.009389 0.241284 -0.305261 0.091869 0.091630 0.035074 -0.101428 -0.132956 -0.154932 -0.168375 -0.150817 -0.125727 -0.178334 0.098435 0.057708 -0.178115 0.024508 -0.200941 0.120504 -0.146084 -0.308646 0.061881 -0.071159 -0.129581 0.197464 -0.129502 0.024121 -0.058957 0.010499 -0.177835 -0.101259 -0.162028 -0.080950 -0.021838 0.269503 -0.148696 -0.211918 -0.070992 0.125603 -0.244259 0.073433 0.033002 -0.004396 -0.097186 0.106527 0.105367 -0.017040 0.004600 0.097864 0.290925 0.153480 0.039948 0.135586 -0.128067 -0.168875 0.154953 0.052476 0.086419 0.091766 -0.134715 -0.066156 0.258662 0.019284 -0.087934 0.064834 -0.048009 -0.020970 0.254955 -0.216167 -0.077318 0.083232 -0.426083 0.064393 0.383284 0.002973 0.033693 0.065791 -0.008140 -0.010890 -0.061373 -0.087880 0.105261 0.185953 -0.059789 0.164125 0.012227 0.228359 -0.113414 0.036769 0.148349
1240 0.029475 0.024779 0.018938 -0.072855 0.009941 -0.143547 0.069105 -0.202594 0.111575 0.160343 0.147998 -0.091697 0.341603 0.018242 -0.093965 -0.080331 0.212109 -0.261538 0.115040 -0.129167 -0.198411 0.045461 -0.143267 -0.320513 0.078159 0.113791 0.172034 0.131287 0.012040 -0.022293 -0.154049 -0.032293 -0.354781 -0.036416 -0.107552 0.067176 0.174070 0.148313 0.058620 0.076259 -0.087439 0.027704 0.024716 0.112948 -0.208159 -0.098604 -0.095745 -0.325421 -0.231550 0.005404 -0.171416 0.215233 0.150696 -0.030677 0.234973 -0.075075 0.265110 -0.117991 -0.145740 0.006394 0.018331 -0.114413 0.035723 -0.113374 -0.083562 0.011770 -0.074912 0.046999 -0.016725 -0.142336 0.059663 -0.031991 0.294565 -0.136845 0.003150 0.011992 0.096103 -0.117757 -0.064700 0.002221 0.059689 0.218438 0.201750 0.128086 -0.071651 0.177933 0.154457 0.269769 0.116998 -0.046029 -0.092479 0.094879 -0.194260 -0.085527 0.152779 -0.015065 -0.061310 -0.009309 0.114621 0.096435 0.038999 0.011080 -0.067232 0.035140 -0.063546 0.326222 -0.254308 0.074618 0.098494 -0.127672 -0.060641 0.111623 0.107534 -0.057292 0.043582 -0.044414 0.096865 0.037868 -0.037593 -0.093190 0.082399 0.044162 0.062083 0.082586 0.311702 -0.218630 0.228859 0.044082
205 -0.244725 0.199994 0.130808 0.035224 0.159327 -0.048649 0.226523 0.006126 0.131484 0.133705 -0.024015 0.121351 0.154066 -0.163991 0.039385 0.203373 0.096445 -0.199351 0.086900 0.025802 -0.086088 0.064141 0.097689 -0.090509 -0.098036 0.037185 -0.023655 0.094875 0.084554 -0.013918 0.038570 0.111944 -0.013589 -0.029850 0.085733 0.110119 0.191782 0.048886 -0.005841 -0.024929 0.013340 0.070789 0.014848 0.010340 -0.032646 0.005032 -0.260582 -0.086592 0.061275 -0.242058 -0.171966 -0.201625 -0.123106 -0.073920 0.035408 -0.199496 0.105642 0.282659 -0.075653 0.084024 0.050736 0.072989 0.292737 -0.206145 -0.144972 0.011444 -0.174433 0.083926 -0.109934 -0.032324 -0.004235 -0.157379 0.045397 -0.241894 0.108878 0.153155 -0.109678 -0.023550 0.078603 0.151491 0.048753 0.114738 0.090449 0.067823 0.007448 -0.094570 0.327472 0.147684 -0.169748 -0.087710 0.172602 -0.235651 0.058750 -0.036411 0.239271 0.076298 0.109140 0.023032 -0.004266 0.090982 0.028811 0.016149 -0.086222 0.009825 -0.012644 0.136901 -0.087555 -0.060939 -0.085967 0.078747 -0.165736 0.140708 0.206540 0.010894 0.100815 -0.076134 -0.154347 -0.095495 0.014284 -0.053695 -0.155676 -0.016941 0.316426 0.148662 -0.088189 -0.115484 0.260947 0.205179
658 0.065284 0.153292 0.086753 -0.155040 -0.008592 -0.040328 0.149756 -0.099130 0.046393 0.088126 -0.010725 0.304908 0.368425 0.067238 -0.010219 -0.082755 0.240183 -0.177296 0.022188 -0.132825 -0.016599 0.096552 0.173085 -0.072380 -0.047942 -0.106036 0.056201 -0.037923 -0.018244 -0.060537 0.044766 0.054075 0.020322 0.058053 -0.020816 0.129952 0.021054 0.036208 -0.049013 -0.246720 0.189192 0.066569 0.056905 0.189304 -0.016266 -0.067713 0.042158 -0.150031 0.083817 -0.184003 0.001387 0.003456 0.115062 -0.052337 0.119243 -0.135221 0.001836 0.067942 0.113770 -0.067557 -0.050473 -0.005895 0.042526 -0.325727 -0.253908 -0.146021 0.062462 0.101343 -0.309939 -0.125331 0.193816 0.008654 0.184823 -0.024143 -0.061970 0.103064 0.271969 -0.132595 -0.199746 0.208811 -0.040054 0.232038 0.025390 0.073101 -0.016089 0.042225 0.051754 0.021314 -0.086703 -0.038595 0.093299 0.062081 -0.074773 -0.029156 0.207797 0.259063 0.256656 -0.168932 -0.118437 0.122648 -0.097404 0.033640 -0.064389 0.029836 0.255987 0.224212 0.116456 -0.110300 -0.079486 0.153774 -0.050184 0.375793 0.213090 -0.018500 -0.090730 -0.224738 -0.090795 -0.119963 -0.046093 0.042919 0.055495 0.047451 0.135530 -0.024066 0.062847 -0.104662 0.061208 0.024011
248 -0.198687 -0.053635 0.059146 -0.009806 0.061998 -0.027076 0.391326 -0.172220 0.138380 0.205842 0.146444 0.039152 0.213009 0.016209 -0.096378 0.027608 0.308695 -0.148527 0.062028 0.044821 -0.107416 -0.063982 -0.096709 -0.102232 0.074292 0.128518 -0.022645 0.212229 -0.175603 -0.221829 0.011845 0.142453 0.138824 -0.090794 0.199350 0.161746 -0.107522 0.125577 0.049258 0.256105 -0.109336 0.315719 0.116940 0.039860 0.077256 -0.224794 -0.188688 -0.054955 0.051442 0.086857 0.029202 -0.008982 -0.003584 0.001365 -0.086612 -0.032460 0.136953 -0.165131 -0.062398 0.049884 0.048862 0.066632 0.029969 -0.016121 -0.158757 0.097858 -0.266646 -0.222012 -0.039971 -0.221942 0.239522 0.092468 0.120199 0.129945 0.178354 0.087771 0.231996 -0.359070 0.151952 0.032529 0.012440 0.044975 0.251377 0.226592 -0.105533 -0.118992 0.226930 -0.090976 0.096667 0.067616 -0.027881 -0.209193 0.037638 -0.072903 0.195906 0.045281 0.037074 0.134571 0.094470 0.244913 0.028047 -0.070662 -0.085661 -0.228245 0.053701 0.181928 -0.114709 0.097513 0.213240 0.065422 0.092479 0.017692 -0.013729 -0.026127 -0.185530 -0.020452 -0.060946 -0.196920 0.064137 -0.063222 -0.035589 0.148270 -0.113082 0.106956 0.089289 -0.053448 0.156389 0.312440
1471 -0.038852 -0.091370 -0.014430 -0.028763 0.060118 -0.039509 0.106006 0.046708 0.152315 0.135148 0.021773 0.055776 0.186258 0.300749 -0.083699 -0.097825 0.200838 0.022124 0.026805 -0.074914 -0.060312 0.046848 -0.186252 -0.174399 0.054765 0.103688 0.114450 0.089493 -0.094121 -0.142249 -0.012723 -0.005202 0.005462 -0.000792 0.065157 0.228243 0.157460 -0.015800 0.027801 0.111497 -0.194023 0.048196 0.080889 0.195239 0.034427 -0.023442 0.010398 -0.122874 -0.107581 -0.058435 -0.048232 0.074111 -0.010617 0.048285 -0.029073 -0.203311 0.142461 -0.052872 -0.061826 0.182696 -0.013398 -0.024835 0.179451 0.092936 -0.279197 -0.205363 -0.161636 -0.036633 -0.105418 -0.205854 0.032882 -0.142408 0.067778 -0.103985 -0.070741 -0.087168 0.056428 -0.078741 0.011647 0.031214 0.230710 -0.008800 0.340113 0.213117 -0.032143 0.070849 0.183998 0.221987 0.072497 -0.065882 -0.005698 -0.202729 -0.316839 -0.000791 0.243985 -0.021508 0.106494 -0.020528 0.024424 0.137808 0.098210 -0.093564 0.050260 -0.040178 0.037953 0.169333 -0.088902 -0.100825 0.063145 -0.144831 -0.030917 0.213496 0.035778 0.111120 0.012840 -0.028218 -0.023096 0.080403 -0.073400 -0.168846 0.077791 -0.049227 0.106754 0.090605 0.144351 -0.022096 0.161573 0.150382
1305 0.078555 -0.053669 0.095541 0.021742 0.061378 0.037157 0.146193 -0.138081 0.203533 0.081208 -0.121457 0.162458 0.410260 0.005363 -0.122861 0.266406 0.210331 0.135121 -0.225827 -0.053361 -0.134407 -0.057201 0.101799 -0.097768 0.129656 0.124518 -0.143859 0.103421 0.067503 -0.216485 0.086148 0.132665 -0.174981 -0.179980 0.214857 0.046457 0.030710 -0.085304 -0.090629 -0.251119 -0.108763 -0.090199 -0.013498 0.077610 -0.071982 0.039231 0.195915 -0.218243 0.100884 -0.337486 -0.053739 0.087488 0.019394 -0.134879 0.290020 -0.264002 0.082481 -0.071055 -0.032776 -0.030681 -0.166714 -0.052527 0.066761 -0.158816 -0.006870 -0.109744 -0.233519 -0.000261 -0.131178 -0.214964 0.044816 -0.133600 0.297939 0.136262 -0.191363 -0.059462 0.061276 0.032825 0.017746 0.132729 0.035980 0.239106 0.017969 0.141683 0.016391 -0.161647 0.073558 -0.029168 -0.070525 -0.096028 0.127086 -0.139580 -0.084241 -0.138303 0.000884 0.301473 -0.033311 -0.039919 0.229494 0.270342 -0.015351 -0.120880 -0.011317 -0.157698 -0.167813 0.034160 0.013085 -0.042445 0.057050 -0.014300 0.216525 0.321389 0.134248 0.139624 0.043166 -0.153458 -0.017332 -0.019428 -0.023361 0.052845 0.165810 -0.264669 0.344260 0.041435 -0.035860 -0.046687 0.119249 0.045867
579 0.017506 0.063544 0.138715 0.086500 -0.045949 0.042206 0.117420 -0.170186 0.078109 0.118016 0.076240 0.181114 0.115276 0.079602 -0.178467 -0.182940 0.253733 -0.145706 0.127660 -0.009649 -0.174804 0.221653 -0.196073 -0.133480 -0.047114 -0.057682 0.143880 -0.079178 -0.097103 -0.013521 0.202462 -0.007913 -0.036980 0.003006 -0.222844 0.159881 0.055584 -0.005421 0.078137 0.078249 0.041252 0.054981 -0.089675 0.220144 0.008839 -0.018108 -0.065587 -0.042147 -0.010180 -0.295605 0.035084 -0.018991 -0.010310 -0.122792 -0.016767 -0.116522 0.342909 0.066326 0.114057 0.022195 0.118117 -0.006966 0.044870 -0.043073 -0.137547 -0.085732 -0.035891 0.114418 -0.115628 -0.246793 0.059822 0.045331 0.195204 0.088378 0.016683 -0.036350 0.144708 -0.159918 -0.036211 0.173617 0.057395 0.213718 0.072935 0.065549 -0.043937 0.056306 0.082945 -0.087093 -0.181771 -0.009805 -0.019303 0.086502 -0.240111 0.031733 0.198193 0.142604 0.312253 -0.127555 -0.095376 0.117839 -0.016951 -0.015786 0.097748 0.090946 0.181477 0.246853 -0.074694 -0.030152 0.191241 0.144245 -0.058360 0.425214 0.044308 -0.103348 -0.041138 -0.037782 0.020754 0.016146 -0.030651 0.031687 0.154580 0.106904 0.212973 -0.078388 -0.003675 0.013208 0.174959 0.184226
1267 -0.061554 0.062910 0.014205 -0.017942 -0.043468 0.106995 0.253113 -0.106455 -0.019026 0.107760 -0.104797 0.293403 0.147973 0.099188 -0.170707 -0.018988 0.145105 -0.068757 0.045477 0.006907 -0.158025 0.003913 -0.183384 -0.137156 0.007170 -0.129935 0.147202 -0.031365 -0.067742 -0.032494 0.328208 -0.027688 -0.008045 0.105501 -0.043065 0.264561 0.185647 -0.022684 0.124977 -0.055045 0.180067 0.119101 -0.195596 0.216467 -0.079452 -0.053080 0.075465 -0.129473 0.005295 -0.319998 -0.124403 -0.149792 -0.000914 -0.201326 -0.036307 -0.203856 0.092702 0.109375 0.059899 0.102251 0.027229 0.024330 -0.000738 -0.015255 -0.054470 -0.096748 -0.102000 0.153299 -0.125045 -0.143405 0.013399 -0.043919 0.146834 -0.113417 0.010468 0.034869 0.121479 -0.069037 0.106764 0.164122 -0.003783 0.125378 -0.049136 0.086993 -0.160518 -0.027938 -0.036312 0.215277 -0.082653 -0.050190 0.013484 0.048903 -0.166537 0.152687 0.291856 0.013730 0.130530 -0.146849 -0.127693 0.148565 0.095574 -0.063908 0.124586 -0.117609 0.084642 0.286963 -0.060118 0.028932 -0.024415 0.034881 -0.088882 0.388094 0.119554 0.015689 -0.087141 0.150026 -0.195079 -0.031671 -0.077765 0.157868 0.128436 0.134122 0.101299 0.032876 -0.057462 0.218690 0.195638 0.069203
260 -0.056020 -0.105194 0.089164 0.051832 -0.011399 -0.064967 0.136245 -0.114906 0.206869 0.192135 0.010205 -0.075358 0.257196 -0.117143 0.040534 -0.053597 0.286893 -0.270639 0.094660 -0.024905 -0.025925 0.110938 -0.077948 -0.116432 0.227724 -0.111537 0.081174 -0.122876 -0.054876 -0.157694 0.102526 0.168021 -0.103555 -0.071044 0.116988 0.028478 0.066999 -0.031570 0.051964 0.150250 -0.030507 -0.061847 0.197290 -0.036962 0.056357 0.005672 -0.097849 -0.322023 0.063311 -0.163854 -0.085272 0.075278 -0.123740 0.055009 0.187801 -0.006667 0.143230 -0.189062 -0.302002 0.203315 0.097143 0.062661 0.221636 0.032398 -0.033179 0.019890 -0.104436 -0.291720 -0.154912 -0.243369 0.029994 -0.119210 0.056096 -0.092016 -0.020433 -0.042106 -0.060864 -0.151955 0.118224 -0.020917 -0.090620 0.011546 0.113259 0.138936 0.001343 -0.344402 0.041237 -0.020033 0.070509 -0.091489 0.155710 0.017049 0.011717 -0.079003 0.100460 0.081606 -0.093039 -0.050959 -0.112956 0.191093 0.117908 0.034999 -0.146187 -0.157568 0.022887 0.241514 -0.091697 -0.146138 0.135988 -0.199261 0.226737 0.072202 0.064959 0.043268 0.002756 0.017435 0.250569 -0.088233 -0.074380 -0.097419 0.082041 -0.099368 0.125927 0.156675 0.167957 -0.080336 0.139298 0.246644
41 -0.196700 -0.087295 0.031715 0.159927 0.146219 -0.118311 0.145499 -0.007039 0.058182 0.112250 -0.035795 0.023960 0.085674 -0.194813 0.087623 0.065924 0.338925 -0.245436 -0.075774 0.034306 -0.042211 0.101577 0.015397 -0.098108 -0.152925 -0.077944 0.045796 0.159388 -0.110619 0.096483 -0.041310 0.237263 -0.003107 -0.167323 0.155843 0.096468 0.173265 0.095412 -0.029926 -0.067911 -0.033916 0.049082 0.018844 0.027796 -0.039528 -0.163721 -0.186527 -0.007562 0.042292 -0.272392 0.147371 -0.226043 -0.012224 -0.120823 -0.041996 -0.281910 0.001552 0.103731 -0.076060 0.075472 -0.038209 -0.076090 0.118441 0.031324 -0.008753 0.049637 -0.238868 -0.167882 -0.134944 0.022572 0.137899 -0.148591 0.148204 -0.072269 0.140431 0.160756 0.192294 -0.014082 0.045276 0.094535 0.002872 0.038393 -0.007584 0.252706 0.203110 -0.122189 -0.104079 0.109086 -0.053937 -0.023725 0.153583 -0.349339 0.059885 0.040259 0.203335 0.211618 -0.164894 -0.066638 -0.043282 0.153718 -0.039740 0.259377 -0.127045 -0.154895 -0.025836 0.313791 0.119888 0.054106 0.145452 0.030316 -0.088104 0.125147 0.303520 -0.030685 0.044601 -0.146098 -0.006211 -0.097510 0.122495 -0.198645 -0.133507 -0.122639 0.220057 0.327525 -0.042672 0.030674 0.122719 0.232335
141 0.008384 0.037153 0.211580 0.037221 -0.044438 -0.004846 0.016414 -0.153653 0.204584 0.042721 0.125886 -0.037754 0.405693 -0.061814 -0.025935 0.052272 0.257894 -0.152356 0.177418 0.259324 0.116827 -0.073530 -0.105175 -0.215473 0.057024 -0.149307 0.129066 -0.113015 0.084462 -0.254198 -0.049501 0.008990 -0.167537 0.082106 0.096355 0.098002 0.034703 -0.009189 -0.096202 -0.020772 -0.109509 -0.237796 -0.084643 -0.048305 0.101134 -0.067206 0.019531 0.040803 -0.194972 -0.047204 -0.109379 -0.076191 -0.120871 0.106087 0.018634 0.052154 -0.011039 0.047714 -0.107819 0.128887 -0.201801 -0.064089 0.141687 -0.118006 -0.069375 -0.071153 0.076944 0.187383 -0.148559 -0.222515 0.020323 -0.044382 -0.012438 -0.013588 -0.013090 -0.121851 0.347656 -0.351588 -0.085521 -0.033124 -0.257310 0.059237 -0.001584 0.214245 -0.098424 0.045586 -0.048118 0.028807 0.087026 -0.129698 0.028543 -0.094034 0.064891 -0.030339 0.113734 0.165550 0.210815 0.007648 0.044151 0.042844 -0.080449 -0.054940 -0.109042 0.189253 0.028961 0.222006 0.073358 0.137483 0.280228 0.132325 0.062751 0.054139 0.150131 0.110081 -0.052363 0.044183 0.045314 -0.225133 0.358646 -0.078680 0.005357 -0.157381 0.016463 0.108387 0.132774 -0.192868 0.206195 0.228906
1428 0.034016 0.010331 0.118683 0.098159 -0.092522 -0.105766 0.129456 0.115103 0.233110 0.008635 0.011654 0.059050 0.390168 0.009465 0.028512 -0.013612 0.278883 0.016852 -0.018628 -0.027238 0.011351 -0.049519 -0.023543 -0.170044 0.176403 -0.086021 0.195967 -0.042984 0.278145 -0.053551 0.233424 -0.033332 -0.118955 0.118725 0.043975 0.241703 0.145116 0.088357 0.104827 0.161751 -0.102388 0.159992 0.095660 0.004795 0.174934 -0.052865 0.033293 -0.329452 0.116310 0.070697 -0.108891 0.090288 -0.041197 -0.014487 0.248447 -0.192541 0.066011 0.234275 -0.343209 0.206934 -0.230314 -0.121734 0.183723 -0.061066 -0.119187 0.006343 -0.088040 -0.018109 -0.227806 -0.121628 -0.204489 0.045511 0.199376 -0.004496 -0.257653 -0.115196 -0.010074 -0.066277 0.107925 0.144467 -0.313458 -0.093292 0.079038 0.254322 0.036014 0.029276 -0.058949 0.124276 -0.023721 -0.062065 0.209749 -0.255101 0.004882 -0.142394 0.137659 -0.019551 0.094604 -0.024763 -0.022465 0.218804 -0.023545 0.017931 0.085571 -0.079552 -0.086062 0.196523 -0.153935 0.001232 0.061706 -0.133537 -0.069882 0.030947 -0.052843 0.061747 0.232391 -0.137996 0.075929 -0.081521 -0.067159 -0.042125 0.183502 -0.064528 0.205732 -0.089697 0.136788 0.147054 0.072514 0.188857
1114 -0.081438 0.045665 0.252007 -0.050094 -0.013668 -0.220252 0.135089 0.015333 0.100500 0.110188 -0.019139 -0.034932 0.377528 0.061998 -0.033833 -0.038111 0.018893 -0.179978 0.189620 0.077856 -0.117164 0.010178 -0.121885 -0.130073 0.012098 0.060286 0.002755 -0.079641 0.049313 -0.307791 0.266545 0.108963 0.026739 0.100294 0.087301 0.100281 0.151663 0.012626 0.213963 0.077970 -0.049038 0.117735 0.037966 0.004076 0.090063 -0.056314 -0.108249 -0.148177 -0.187365 -0.165247 -0.029730 0.174123 -0.163933 -0.081526 0.092284 0.001328 0.161316 0.065225 -0.003973 0.035491 -0.089720 -0.161722 0.060922 -0.024878 -0.143417 -0.047606 -0.158995 -0.048045 -0.160483 -0.158243 0.182998 -0.077368 -0.061405 -0.076408 -0.116570 -0.101058 -0.036737 -0.305952 0.132622 0.117687 0.085521 0.223485 0.257486 0.162181 -0.103159 0.065569 0.230189 0.172241 -0.015480 0.062559 -0.059556 -0.221608 -0.126667 -0.134803 0.174052 0.053309 0.128670 0.139932 0.111804 0.164542 0.135863 -0.087893 0.122573 0.044078 0.002543 0.188807 -0.159732 -0.152886 0.161002 -0.081282 -0.090006 0.078752 0.047839 -0.093526 0.071528 -0.026494 0.083896 -0.059428 0.065737 -0.053094 -0.023396 0.030639 0.140193 0.113603 0.133452 -0.279814 0.084558 0.132718
285 -0.161928 0.045773 0.050863 0.056693 0.141265 -0.144669 0.117056 -0.087714 0.158200 0.058181 -0.035893 0.058381 -0.088613 0.258818 -0.066876 0.264504 0.561653 -0.374196 0.163383 -0.138685 -0.082688 0.314355 -0.252796 -0.084471 -0.037094 -0.133136 -0.033152 0.048403 -0.060577 -0.013544 -0.064781 0.126022 -0.075366 -0.069199 0.024566 0.135650 0.153391 0.113089 0.009673 0.075970 0.054244 0.073838 0.028546 -0.029751 0.078231 -0.163289 -0.132318 0.185927 -0.140852 -0.211023 -0.160706 -0.131715 -0.032119 -0.170542 0.053948 -0.245252 -0.120870 0.082983 -0.113534 0.055062 -0.055962 0.057924 0.008664 -0.038468 0.161407 -0.003699 -0.195184 -0.091338 -0.148881 0.000193 0.056899 -0.035834 -0.025279 -0.103044 -0.167887 0.067271 0.168329 -0.193533 -0.027351 0.174704 0.076137 0.065489 -0.028833 0.067073 0.200462 -0.251269 -0.017909 0.054952 -0.082588 -0.057722 0.211785 -0.324951 0.111590 -0.035637 0.049866 0.217882 0.006400 0.046448 -0.088847 0.077586 -0.090299 0.029484 0.010820 -0.152387 0.088133 0.116855 -0.156263 -0.022474 0.255161 -0.144302 -0.130079 0.029966 0.262223 -0.080066 0.073569 -0.181186 -0.023095 0.016552 0.080919 -0.103709 -0.022110 0.041861 0.202392 0.175542 0.143693 0.070243 0.355153 0.243992
256 -0.089326 -0.195972 0.237966 0.084593 0.148527 -0.071606 0.058302 -0.122785 0.029943 0.002374 -0.027764 0.089987 0.267825 0.128739 -0.179812 -0.101537 0.102313 0.004225 -0.104109 0.012473 0.064828 0.005933 -0.181065 0.037368 0.081020 0.047431 -0.006235 0.019517 0.132103 -0.192945 0.178105 0.065426 -0.112990 -0.104128 0.091718 0.139453 0.082484 0.092344 0.149994 0.050360 -0.182789 0.023422 -0.012650 0.139227 0.081347 0.031071 -0.113600 -0.294364 -0.096721 -0.234548 -0.115463 -0.056818 0.143399 -0.059490 0.174665 0.085980 0.184303 -0.139963 -0.364062 0.007092 -0.092092 0.054322 0.117906 0.055622 -0.007000 0.042718 -0.243564 -0.193387 -0.257416 -0.220844 -0.024926 -0.095505 0.210950 -0.054305 -0.118028 -0.145640 0.291914 -0.191448 0.124520 -0.002685 -0.256454 0.079047 0.322498 0.005388 0.147897 0.058238 0.285371 0.298897 0.070328 -0.085306 0.080205 -0.044227 -0.062679 -0.013543 0.130406 -0.012027 0.249565 -0.128314 0.154430 0.160464 -0.109488 -0.255556 -0.174102 -0.167835 -0.116767 0.188496 -0.089667 -0.187766 0.036882 -0.088506 -0.001289 0.219450 0.029990 -0.036080 0.228539 -0.047569 0.133962 -0.037442 -0.160617 -0.028463 0.081441 0.157827 -0.059364 0.048588 0.136944 -0.013665 0.079391 0.137550
1348 0.042697 -0.019459 0.141414 -0.080161 0.128607 -0.177419 0.278615 -0.092238 0.101822 0.112653 0.030879 0.161555 0.178576 0.103542 0.078011 0.056510 0.015322 -0.280197 0.172907 -0.076223 -0.099928 0.074050 -0.142724 -0.160693 -0.029765 -0.045623 0.038695 0.134644 -0.236473 -0.256025 0.098635 0.067842 -0.139621 0.075357 0.110677 0.141080 0.154200 0.312306 0.089304 -0.252990 -0.052956 0.018125 -0.070275 0.012605 -0.198987 -0.123981 0.044078 -0.142643 -0.050158 -0.198540 0.042253 0.097143 -0.078164 0.087314 0.155629 -0.076382 0.054404 0.173885 -0.151445 0.300683 0.160372 0.012078 0.160344 -0.024966 -0.037627 -0.175618 -0.194876 0.041786 -0.047712 -0.095369 0.313401 -0.113566 -0.087875 -0.050245 -0.020471 -0.104640 0.026265 -0.055896 -0.106823 0.018424 -0.175421 0.170056 -0.023104 0.182853 0.027936 0.168851 0.104895 -0.025662 0.025075 -0.061316 -0.062129 -0.215727 -0.042854 0.165138 0.092848 0.032565 0.043687 0.000620 -0.018493 0.146737 -0.012519 -0.118597 -0.129636 -0.038585 0.086587 0.318109 -0.204236 -0.054548 0.310377 0.099551 -0.047299 -0.009073 0.238924 -0.050466 0.026349 -0.093632 -0.006787 -0.158006 -0.107871 -0.084088 0.057242 -0.025185 0.244621 0.108153 0.147945 -0.218982 0.006744 0.107323
466 0.144841 -0.072361 0.336928 -0.049805 0.086287 0.017590 -0.110481 -0.143284 0.073407 0.154262 -0.088036 -0.180516 0.347283 0.148280 0.076391 0.062794 0.166912 -0.269091 0.005108 0.176159 0.019673 -0.047079 -0.067288 -0.264926 0.186413 -0.171563 0.083511 -0.075513 -0.018312 -0.279370 0.213232 -0.001146 -0.163389 -0.043999 0.111849 0.184879 0.083912 0.056261 0.155559 0.036493 -0.216910 0.047180 -0.066087 0.086749 -0.103645 0.018990 -0.231923 -0.231344 -0.129773 -0.105927 0.062394 -0.049479 -0.177465 -0.047131 0.326109 -0.077178 0.048006 0.061507 -0.034957 0.093157 -0.115156 -0.180677 0.103750 0.252176 0.011049 -0.077495 -0.025455 -0.000431 -0.084808 -0.330624 0.077166 0.016863 0.316433 -0.011963 -0.116775 -0.066968 0.271099 -0.224491 0.106031 0.110412 -0.086052 0.189798 0.135280 0.023867 -0.117222 0.068932 0.053537 0.244327 -0.013953 -0.070008 0.098988 0.007346 0.022652 -0.004067 0.149632 -0.008943 -0.098227 -0.266453 0.121713 0.093014 0.037276 0.006042 -0.006789 0.045520 -0.093529 0.055552 -0.040847 -0.071980 -0.000817 -0.060430 -0.151946 0.152678 -0.012902 -0.035977 0.120967 0.160255 0.261878 -0.177878 0.091040 0.206452 0.043283 0.060440 0.074396 0.138726 0.182699 -0.044501 0.129457 0.022638
243 0.050661 0.106405 -0.032017 -0.214354 0.139082 -0.037745 0.062853 0.035785 -0.132827 0.136798 -0.074719 0.194262 0.282395 0.068904 0.015655 -0.241381 0.195929 -0.194200 -0.125409 0.095878 -0.039430 0.017359 0.309127 -0.023938 0.061813 -0.076490 -0.052123 -0.248059 -0.106627 0.165936 -0.077808 0.060470 -0.161429 -0.072136 0.177027 0.103929 0.155817 0.163021 -0.120479 -0.160868 0.052620 -0.110455 0.040780 0.070807 -0.087325 0.032222 -0.117316 -0.231444 0.033622 -0.021162 -0.189677 -0.170939 -0.165022 0.027958 -0.039816 -0.061751 0.134933 0.106137 0.029842 0.129482 -0.115519 -0.044876 0.120083 -0.241002 0.052970 -0.091061 0.118821 -0.045960 -0.214453 -0.142723 0.222193 0.105691 0.187227 -0.101383 0.037370 -0.047705 0.069345 0.017703 -0.103990 0.304128 -0.151086 0.061212 0.152256 0.151919 -0.103658 0.149965 -0.007775 0.080329 -0.139766 -0.270296 0.057227 -0.030138 -0.111545 0.221868 0.192364 0.155990 0.173126 -0.154656 0.018646 0.139638 -0.075586 -0.020046 0.282386 -0.158237 0.270737 0.120926 -0.086818 -0.094482 -0.225261 0.228469 0.074449 0.166645 0.110615 -0.138117 -0.231544 -0.152027 -0.316816 -0.412546 -0.034521 -0.084430 -0.010314 -0.001551 0.215146 -0.096120 0.155354 -0.133697 0.239379 0.193989
196 0.079632 -0.079873 0.176960 0.106146 0.222291 -0.242733 0.317282 -0.001737 -0.011391 0.090139 -0.031321 -0.128793 0.454927 -0.017701 -0.091787 0.020096 0.183000 0.000798 -0.234699 -0.148450 0.174094 -0.080104 -0.199347 0.005651 0.114281 -0.030823 0.163836 0.009948 0.008868 -0.280306 0.128705 0.039631 0.026440 -0.235792 0.015338 0.057508 0.165799 -0.050247 0.330799 -0.072251 -0.102995 0.175385 0.204358 0.012737 0.070535 0.034492 -0.256520 -0.244293 -0.201396 -0.085355 -0.283725 -0.194529 0.192838 -0.096187 0.111302 -0.055460 0.193796 -0.035936 -0.199336 0.394182 0.106701 0.000890 -0.026574 0.141258 0.042552 -0.053129 -0.187029 -0.058226 -0.194535 -0.286553 -0.030274 -0.031787 0.127082 -0.057241 -0.102475 0.173541 0.423956 -0.245898 0.104567 0.277391 -0.109463 -0.012339 0.147831 -0.006900 0.031456 0.074619 0.020837 0.053493 -0.050050 -0.140984 0.155888 -0.144846 -0.224315 -0.176549 -0.047130 -0.133555 0.328509 -0.061403 0.123366 0.127524 0.035616 0.068921 -0.105271 -0.037196 -0.135332 0.158854 0.164248 -0.112608 0.079097 0.036144 0.114436 0.112050 -0.018152 -0.018582 0.233782 -0.021447 0.113245 0.079725 -0.151366 -0.069893 0.175043 0.126303 0.239487 -0.131757 0.078513 -0.051707 -0.069408 0.033045
1382 0.038972 0.015921 0.215442 -0.044418 0.039631 -0.086471 -0.008594 -0.113688 0.044556 0.019612 -0.055737 -0.015148 0.278418 0.089594 -0.035230 -0.033322 0.135879 -0.311186 0.137819 -0.074786 -0.089328 0.059808 -0.248056 -0.110491 0.075794 0.036947 0.035272 0.079706 0.198714 -0.177659 0.125463 0.116519 -0.037732 0.092839 0.002221 0.188814 -0.015140 0.156775 0.251986 0.014639 -0.212723 0.060979 0.100338 0.181322 0.042251 -0.013189 -0.096700 -0.232045 -0.257585 -0.076479 -0.001380 0.118123 -0.062289 -0.102998 0.088173 -0.035038 0.103821 -0.131161 -0.113676 0.144081 0.048135 0.146844 0.124769 0.096353 0.011555 0.165214 -0.088028 -0.258102 -0.218480 -0.154376 -0.031303 0.103614 0.285188 0.006446 -0.093320 0.036829 0.319076 0.009572 -0.032499 0.060458 0.017486 0.286923 0.229625 0.089774 -0.082741 0.131095 0.073669 0.126888 -0.062005 0.006169 -0.077458 -0.033954 -0.149818 -0.109207 0.255629 0.030903 0.255370 -0.104354 0.096288 0.059049 -0.161753 -0.171379 -0.121631 0.001577 0.056073 0.282339 -0.157752 0.002545 0.087029 -0.127815 -0.047197 0.029336 0.200202 -0.124162 0.136962 0.140897 0.156454 0.003212 -0.071819 -0.114978 0.106132 -0.077428 0.100758 -0.000788 0.070063 -0.126547 0.043163 0.184307
249 -0.237783 0.099930 0.050119 0.213206 0.002216 -0.126564 0.195682 -0.043440 0.176059 0.170286 -0.002629 -0.018776 0.173455 0.111935 -0.042997 0.184951 0.235307 -0.284862 0.144196 0.124920 0.004024 0.213674 0.026565 -0.123316 -0.077304 -0.003700 0.074476 0.140107 -0.154547 -0.123632 0.036631 0.169733 -0.038147 -0.083967 0.078197 -0.001001 0.390354 -0.063513 -0.137409 -0.086194 0.066177 -0.049897 0.154563 -0.007938 -0.031049 -0.182155 -0.154812 0.129445 -0.028582 -0.051203 -0.091698 -0.113297 0.005951 -0.185277 0.118787 -0.164355 0.021027 0.074927 -0.017983 0.120891 -0.035777 0.136744 0.052542 0.008054 0.011990 0.165147 -0.147076 -0.248886 -0.123068 0.097839 0.086354 -0.061714 0.187029 -0.075987 0.052670 0.143458 0.102678 -0.179825 0.074409 0.034292 -0.112133 0.038486 -0.075278 0.376328 0.112790 -0.102564 0.032561 -0.070769 0.005346 -0.152930 0.145663 -0.172094 -0.020344 -0.170485 -0.036551 0.122895 -0.050847 -0.150229 -0.002960 0.164257 -0.144713 0.106035 -0.092485 0.000788 0.001785 0.169194 -0.022129 -0.058781 0.116177 0.065741 -0.083799 0.147849 0.163787 -0.020034 -0.106626 -0.181343 -0.061870 -0.286806 0.163161 -0.185090 -0.028121 -0.012946 0.326982 0.401908 -0.001548 0.022074 0.213050 0.257313
849 0.139396 0.046064 -0.007160 -0.006626 0.050682 0.142420 0.191524 -0.077304 -0.048117 0.093189 -0.099301 0.249863 0.121835 0.127053 -0.094817 -0.011420 0.137791 -0.178139 -0.066655 0.012739 -0.068959 0.065908 -0.116434 -0.085063 -0.026733 -0.160392 0.213931 0.109031 0.035429 -0.038965 0.275719 -0.050926 0.011634 -0.137180 -0.004595 0.135998 0.195077 0.047321 0.116208 -0.006415 0.218200 0.026128 -0.058400 0.236946 -0.049816 0.049173 0.116314 0.064733 0.219645 -0.192280 0.036707 -0.008849 0.001041 -0.172797 -0.053757 -0.191177 0.247104 0.113963 -0.012917 0.167908 -0.102354 0.067530 0.209352 -0.082114 -0.015845 -0.110933 -0.125344 0.234088 -0.233117 -0.222775 0.019704 0.066062 0.014721 -0.173550 -0.085690 0.206600 0.053282 -0.234262 0.081932 0.114693 0.075570 0.065761 -0.107130 0.128911 -0.150638 -0.071457 0.087264 0.201770 -0.180605 -0.094278 0.028119 -0.025697 -0.222316 0.018845 0.194475 0.076320 0.117153 0.036166 -0.002207 0.031214 -0.023091 -0.016167 0.019031 -0.078471 0.070074 0.277766 -0.109427 -0.000233 0.152572 -0.023435 0.032078 0.395903 0.056514 -0.180933 0.102860 0.148479 -0.181128 -0.007617 -0.063256 0.160720 0.196347 0.168469 0.065700 0.249390 0.041402 0.051584 0.180636 0.119647
1088 0.047793 -0.018246 0.087388 0.021334 0.007031 -0.059565 -0.008241 -0.122256 0.282718 0.028562 -0.074747 -0.174721 0.259854 -0.099490 -0.033166 -0.072657 0.343492 -0.057183 0.018376 0.063961 -0.147183 0.071675 0.067821 -0.135977 0.060476 0.046588 -0.037445 -0.097590 0.033824 -0.106448 0.180862 0.241635 -0.138410 -0.053039 0.081942 0.103680 0.267431 0.065713 -0.027228 0.036418 0.086586 0.041992 0.140904 -0.000017 -0.023529 -0.001506 -0.167295 -0.069344 0.134519 -0.093649 0.003783 -0.023493 -0.008972 -0.068585 0.228642 -0.033483 0.103106 0.015400 0.020749 0.282166 -0.170060 -0.077896 0.058449 0.217229 -0.092526 -0.110098 -0.049586 0.086858 -0.029794 -0.049237 0.064452 -0.248666 -0.238491 -0.039056 -0.187988 0.233853 -0.076047 -0.129421 -0.016971 0.010793 -0.010691 0.058425 0.150128 0.057701 -0.120454 -0.040733 0.237784 0.231198 0.170909 -0.007928 0.163839 -0.284560 -0.007061 -0.034971 0.135274 0.032081 0.030372 -0.140481 -0.087320 0.276660 0.105700 0.127724 0.098961 -0.019778 0.020010 0.311235 -0.039785 -0.069010 0.118449 0.059698 -0.040559 0.188453 0.077009 -0.202288 0.015906 0.159455 0.204422 -0.179136 -0.137776 -0.013372 0.066037 -0.029931 0.175821 -0.001831 0.076196 0.098908 0.242014 0.219081
455 -0.053132 0.119768 0.060753 0.111276 0.051890 -0.196298 0.115686 -0.150596 0.125858 -0.221032 -0.010268 0.018127 0.268835 -0.058336 0.100690 0.183676 0.355932 -0.134588 0.093357 0.165874 0.098494 0.145115 0.029059 -0.105148 -0.224535 0.158627 -0.120221 0.320496 -0.106701 0.096862 0.244430 0.248892 -0.072849 0.040145 -0.044235 0.206701 0.097812 0.034876 -0.186729 -0.112644 0.025492 0.066522 0.108989 0.001645 -0.088692 -0.229712 -0.167752 0.078541 -0.184122 -0.199545 -0.295896 -0.085036 -0.151742 -0.059833 -0.056238 -0.202098 -0.059405 0.125450 -0.146442 0.036454 0.010454 -0.001239 0.124411 -0.022174 -0.016545 -0.046565 -0.164529 -0.107935 -0.041520 -0.077540 0.160786 -0.064203 0.141547 -0.024584 0.122496 0.166966 0.115270 -0.111926 0.121934 0.062916 0.036319 -0.143148 0.062325 0.322926 0.009355 -0.365592 0.119119 -0.036002 -0.159420 -0.160107 0.138810 -0.191332 0.016730 -0.123488 0.165103 0.020074 -0.052819 -0.115440 0.056679 0.054410 -0.286646 0.145472 -0.178118 -0.030403 0.040090 0.152012 0.049937 -0.152251 0.088734 0.137800 -0.240225 0.081091 0.304414 0.071393 0.067508 -0.255988 -0.047700 -0.201952 0.078058 -0.136685 -0.141704 -0.029518 0.122491 0.276958 0.195261 0.211130 0.151424 0.163179
1238 0.160140 -0.040670 0.255979 0.113266 -0.073809 0.013683 0.159721 0.027005 0.157042 0.039084 -0.056002 -0.082181 0.220161 0.136536 0.113975 0.061673 -0.070973 -0.134414 -0.138180 -0.094366 -0.057518 -0.059037 -0.069498 -0.111664 0.167687 -0.018387 0.088771 0.141707 -0.094377 -0.085711 0.154556 0.221197 -0.222510 0.064947 0.258384 0.127425 0.141319 0.156999 0.221024 -0.053800 -0.090461 0.226880 0.089369 0.174891 -0.040744 -0.052691 -0.130245 -0.139017 -0.071731 -0.134948 -0.129981 0.096255 -0.110794 -0.077914 -0.007483 -0.142437 0.034131 0.040535 -0.056432 0.177839 -0.062509 0.112296 0.002348 0.110075 -0.090254 0.058113 -0.052025 -0.116528 -0.134568 -0.192850 0.290118 0.058134 0.135471 -0.185224 -0.020327 -0.152133 0.152870 -0.460902 -0.033452 0.239157 0.110676 0.144840 0.322296 0.003802 0.162398 -0.086693 0.185423 0.110494 0.143945 -0.022899 -0.138766 -0.092930 -0.043184 -0.174957 0.025312 0.141568 0.210999 -0.055604 0.064556 0.171639 0.184320 0.013999 -0.128953 -0.068501 -0.063200 0.130728 -0.235754 0.053236 0.056785 -0.008103 0.040630 -0.075364 0.053300 -0.060777 0.123280 0.076000 0.154188 0.030540 -0.048693 -0.082129 -0.003524 -0.106993 0.254289 -0.043746 0.170541 -0.286310 -0.087454 0.104470
112 0.020674 -0.105971 0.148155 0.114954 -0.092470 -0.059606 0.029889 -0.072114 0.195241 -0.007856 -0.076709 -0.040061 0.155418 -0.149560 0.036024 0.046579 0.293973 -0.226659 0.120267 -0.139057 0.003258 -0.097725 -0.133702 -0.114586 0.214084 -0.200978 0.142025 0.121789 0.124590 -0.097858 0.106321 0.179525 -0.075227 -0.132906 0.181663 0.120008 0.045897 0.030997 0.055761 0.027949 -0.081443 0.139431 0.078571 0.203937 0.119172 0.020363 0.006883 -0.144715 -0.154283 -0.129310 -0.092993 -0.064587 0.046097 0.019420 0.229687 -0.115847 0.193708 0.054379 -0.119720 0.249751 0.009199 0.106218 0.086279 0.067145 -0.096725 -0.097832 -0.242260 -0.266513 -0.295236 -0.289122 -0.037476 0.025781 0.292713 0.085607 0.054037 -0.190048 0.195013 -0.315970 -0.027167 0.009827 -0.102585 -0.021166 0.254962 0.025155 -0.103201 -0.164246 0.161585 0.010124 -0.049904 -0.098348 0.071038 0.106052 -0.142492 0.048813 -0.113479 0.212718 0.208413 0.011797 0.095068 0.165401 0.172847 -0.110987 0.005113 0.015878 0.046566 0.237052 -0.271275 -0.034090 0.109056 -0.134509 0.050743 -0.023750 -0.147660 -0.061398 -0.004405 0.047220 0.079881 0.023143 -0.179697 -0.014827 0.224981 -0.291489 0.147797 -0.028537 0.273223 -0.106418 0.000171 0.107278
638 0.051061 -0.159593 0.182030 0.079089 -0.011091 -0.097367 0.103135 -0.219091 0.063267 -0.002166 -0.061012 0.037604 0.385854 0.261211 -0.020020 -0.035553 0.280732 -0.251797 0.172475 -0.073155 0.043417 0.072493 -0.078753 0.014006 0.189258 -0.013525 0.115858 -0.110665 0.171856 -0.147865 0.133673 0.205654 -0.161316 0.075626 0.074234 0.078624 0.086107 0.216658 0.078475 0.117289 -0.148543 0.019943 0.076515 0.064534 0.087700 0.029836 -0.087757 -0.228937 0.005009 -0.235181 0.033264 0.075336 0.112927 0.023467 0.024039 -0.094071 0.018536 -0.149325 -0.243112 0.297537 -0.000376 0.053456 0.164418 0.035553 0.042743 0.112962 -0.196545 -0.189593 -0.189712 -0.219406 -0.000762 -0.019707 0.112047 -0.047879 -0.378471 -0.014012 0.181478 -0.124771 0.049560 0.029082 -0.084700 0.030076 0.199403 0.013453 0.007696 0.034362 0.322255 0.089964 0.085959 -0.064347 0.009673 0.042841 -0.011337 0.082089 0.095561 0.034844 0.176328 -0.211528 0.164042 0.092225 -0.012287 -0.033272 -0.104495 -0.046407 -0.029014 0.188997 -0.120775 -0.137355 0.107012 -0.222642 0.015074 0.168127 0.248803 -0.189195 0.191332 0.113025 0.086813 -0.173201 -0.032357 -0.133345 -0.125228 -0.034754 -0.025395 0.008304 -0.014312 -0.010430 0.121363 0.036082
417 -0.027134 0.056785 -0.020080 0.014961 0.124691 -0.148023 0.291421 -0.040167 0.259514 -0.006398 0.150458 0.038539 0.276110 0.056200 0.044863 0.156813 0.181131 -0.128872 0.174876 -0.010708 -0.262282 0.036479 -0.017854 -0.168375 0.153920 0.009459 0.049059 0.095256 0.044106 0.044215 0.111613 0.179441 0.067761 -0.009600 0.188588 0.193885 0.005875 -0.078910 0.095443 -0.069012 -0.079151 -0.039822 0.025423 0.140449 -0.154861 -0.032013 -0.042228 0.121774 -0.082087 0.032117 0.033382 -0.031878 -0.064375 -0.116475 0.132221 -0.227126 0.005941 -0.009626 -0.190080 0.104705 -0.030780 0.069167 0.042793 0.076896 -0.061012 0.014944 -0.090400 0.013558 0.010349 -0.209905 0.170425 -0.078875 0.137254 -0.064608 0.112241 -0.072011 0.158989 -0.093730 -0.078150 -0.011992 0.017739 0.314240 0.120366 0.059743 0.119664 -0.132825 0.066002 -0.019555 0.077642 -0.205585 -0.129111 -0.239926 -0.116827 -0.195437 0.118933 0.062918 0.127906 0.027739 -0.053139 0.213325 -0.157119 0.097408 -0.167901 -0.220926 0.062800 0.068059 -0.172609 0.091447 -0.040009 0.049835 -0.000274 -0.036995 0.094192 -0.124282 -0.073576 0.045607 -0.001580 -0.135218 0.000434 -0.138401 0.148582 0.038140 0.294501 0.216052 0.147853 -0.011985 -0.033578 0.295721
1140 0.067218 -0.220207 -0.145859 0.039349 0.048848 0.058070 0.101729 -0.017334 0.358017 0.000307 -0.052149 -0.078679 0.293355 0.250263 0.044428 0.019778 0.156519 -0.123669 0.113874 0.061818 -0.059229 -0.009917 -0.026656 -0.062320 0.200086 0.079441 0.039798 0.014770 -0.155473 -0.312717 -0.060260 0.059608 -0.027911 -0.078799 0.057957 0.103257 0.065537 -0.055230 0.075335 0.073381 -0.212669 0.109848 -0.019139 -0.162726 -0.257922 0.088529 0.088852 0.136092 -0.093866 -0.091372 -0.045753 0.163312 0.002466 0.118044 -0.169651 -0.149610 0.089342 0.112781 -0.026661 0.167819 -0.027922 0.032292 0.125830 -0.317056 0.008573 -0.134188 -0.160726 0.079672 0.108327 -0.358660 0.125718 0.300625 0.067857 0.011637 -0.123680 -0.105705 -0.102275 0.026635 -0.136111 -0.085727 0.012275 0.197992 0.170504 0.382984 0.174216 0.093839 0.127590 0.063547 0.005815 -0.072821 0.128515 -0.240150 -0.039190 -0.164430 0.185249 0.032973 0.236497 -0.208895 -0.119466 0.096783 0.180681 -0.117328 -0.013101 -0.180458 -0.303178 0.153824 0.041255 -0.154538 0.210059 -0.116797 0.121083 0.384152 -0.125498 0.069112 -0.042105 0.065179 -0.103211 -0.128257 0.044236 -0.097498 -0.108047 -0.171505 0.058898 -0.010248 0.432836 -0.139349 0.123461 0.298064
444 -0.150307 0.082522 0.118063 0.081622 -0.037802 -0.079153 0.110078 0.000728 0.086005 0.106194 0.205893 0.014173 0.210397 -0.068133 -0.101802 0.218163 0.390535 -0.232029 0.021699 0.142922 0.126296 0.202080 0.106735 -0.135323 -0.025583 0.029609 -0.091778 0.105594 -0.118744 -0.004899 -0.041387 0.192462 0.197811 0.030073 0.103227 0.164627 0.353506 0.058172 -0.215187 -0.105034 -0.047451 0.130012 0.125392 -0.108991 0.081224 -0.121598 -0.213266 -0.007360 -0.096029 -0.071193 -0.239057 -0.210183 -0.060188 -0.087798 -0.090972 -0.250437 -0.064952 0.188125 -0.100258 -0.186546 -0.047592 -0.034797 0.054220 0.126975 0.190194 -0.034821 -0.210898 -0.033039 -0.105131 0.009974 0.145378 0.031066 0.040183 -0.147710 0.040164 0.138748 0.116659 -0.115864 0.116558 0.093552 -0.139164 0.186187 -0.032555 0.139530 0.097698 -0.224283 0.061912 0.148062 -0.030297 -0.083713 0.241378 -0.124675 0.100857 -0.287927 0.243766 0.093922 -0.158036 -0.079124 0.023361 -0.025655 -0.212224 0.157624 -0.071369 -0.002035 -0.023072 0.252248 0.010298 0.139279 0.193798 0.051175 -0.201397 0.177392 0.158203 0.077606 0.012360 -0.213466 -0.052262 -0.108602 0.136728 -0.341091 -0.043854 -0.180981 0.071370 0.122616 0.019917 0.100075 0.242795 0.287758
1338 -0.015971 0.172603 -0.132316 0.207219 0.135884 0.077743 0.147043 -0.006759 0.057699 0.065458 -0.033301 0.089213 0.184893 0.072802 -0.033023 0.016533 0.034220 0.037227 0.293691 0.128315 -0.058769 0.161787 -0.040463 -0.255147 0.023169 -0.051847 0.020596 0.024127 0.053405 -0.192943 0.020287 0.148285 -0.147930 -0.105135 0.154740 0.158239 0.167334 -0.043343 -0.017858 0.061443 -0.035297 0.006320 -0.010700 0.073964 -0.015667 -0.003469 0.001682 -0.139770 0.092610 -0.165801 -0.132912 0.104048 -0.261093 -0.213106 -0.025978 -0.173792 -0.014198 -0.028317 -0.043608 0.227703 0.056297 -0.121737 0.216354 0.184326 -0.118509 -0.154865 -0.056025 0.139339 -0.228007 -0.171809 -0.045385 -0.150403 -0.098135 -0.003027 -0.035002 0.018396 0.047107 -0.149057 0.017829 0.200248 -0.096839 0.167712 0.338208 0.038161 -0.159095 -0.094934 0.097850 0.114718 0.047083 -0.008588 -0.042525 -0.033402 -0.082908 -0.024520 0.250311 0.134994 0.109270 0.007490 -0.069767 0.118227 0.069271 -0.009925 0.028287 -0.093023 0.103183 0.152198 -0.037386 -0.057531 0.073988 0.061530 0.179328 0.221688 0.020077 0.035548 0.087648 0.127776 0.156203 -0.062481 -0.092095 0.075832 0.157309 -0.098244 0.087435 0.188639 -0.047595 -0.168844 0.109614 0.140611
1113 -0.048724 0.035103 -0.063170 -0.224986 0.221044 -0.040757 0.134410 0.072572 -0.037103 0.125008 -0.070873 0.089332 0.323018 0.067668 0.152443 0.169074 0.153197 0.033733 0.154114 0.112690 -0.080159 0.141894 -0.103294 -0.003395 -0.069116 -0.090938 0.020119 -0.087496 0.053525 -0.101682 -0.044490 0.133787 0.127516 -0.023651 0.004812 -0.066487 0.142897 -0.047410 -0.295992 0.181803 0.009417 0.239568 0.135493 -0.030984 0.026029 0.003504 -0.065934 -0.167215 0.039185 -0.352656 0.138537 0.266007 -0.155450 -0.020819 0.012013 -0.200783 -0.121404 0.159343 -0.021253 0.015786 0.195835 0.027005 0.101521 -0.132693 -0.010806 0.033772 -0.021531 0.088732 -0.026722 -0.076188 0.033781 -0.153784 0.106275 0.006130 -0.006709 -0.084359 0.380719 -0.359926 -0.029384 0.167332 0.332272 0.048446 0.096409 0.295110 -0.096607 -0.018277 0.093387 0.324425 -0.101559 -0.033416 0.241860 -0.192678 -0.109985 -0.090022 0.226261 0.085528 0.129795 -0.126358 -0.050797 0.107473 0.179166 -0.084775 -0.096783 -0.099067 0.045268 0.277346 0.133291 -0.100815 0.197938 0.031027 -0.186514 0.279151 -0.050604 0.120938 -0.220377 0.071495 0.017964 -0.098384 -0.027029 -0.044045 -0.161625 -0.132541 0.026710 0.046001 0.063947 -0.055388 0.091405 0.108011
107 0.169011 -0.184230 0.118550 -0.069350 -0.080815 0.045646 0.185404 0.019883 0.319832 0.044027 -0.012181 -0.058278 0.242470 0.038270 0.062782 0.073687 0.295533 -0.100153 0.100809 -0.052161 -0.083324 0.000207 -0.100586 -0.199298 0.083954 -0.055275 -0.003357 0.012698 0.027979 -0.117072 0.320777 0.225941 -0.130806 0.069235 0.090842 0.076071 0.047398 0.088409 0.130347 0.008881 -0.254789 0.164112 0.031926 0.210203 -0.139293 0.030170 -0.102120 -0.017685 0.015593 0.022082 -0.226579 0.138603 -0.016570 0.068153 0.190802 -0.053092 0.106757 0.193754 -0.113637 0.082141 0.065054 0.055816 -0.106780 -0.020610 0.009990 0.147977 -0.189056 0.068241 -0.173647 -0.220583 0.160916 -0.143583 0.229434 0.087392 0.096855 -0.080903 0.203422 -0.237703 -0.057405 -0.022586 0.183371 0.072873 0.284726 0.144833 -0.037011 0.074237 0.007847 -0.091434 -0.057090 -0.019752 -0.196436 0.021646 0.025654 -0.145191 -0.020816 0.058893 0.089266 0.081543 0.199174 0.246723 -0.052663 -0.017801 -0.165202 0.004728 0.003406 0.215787 -0.094462 -0.004862 0.032006 -0.074528 0.097511 0.127842 -0.092549 -0.123969 0.134629 0.156520 0.072892 -0.084566 -0.023976 -0.048268 0.046374 -0.092176 0.403286 0.200466 -0.046933 0.070011 0.077416 0.286360
1401 0.099770 -0.214023 0.208785 -0.006605 0.002535 -0.006423 0.024568 -0.103620 0.141758 0.125502 -0.141288 0.089326 0.217794 0.157421 0.092877 0.123891 0.138081 -0.037283 0.111069 0.002848 -0.037777 -0.081176 -0.181416 -0.040525 0.227065 0.055183 0.144487 -0.098235 0.100716 -0.248095 0.185719 0.213671 -0.212375 0.120143 0.188695 0.145205 -0.034476 0.141868 0.147186 0.154406 -0.298960 -0.068336 0.205284 -0.124616 0.134698 0.047642 -0.101353 -0.449870 -0.012969 -0.050158 0.036121 0.063460 0.002659 0.007972 0.199018 -0.152476 0.114855 -0.218219 -0.131542 0.156566 -0.194386 0.126461 0.237935 -0.031786 0.057420 0.028119 -0.187860 -0.073203 -0.217918 -0.139015 -0.086346 -0.074270 0.127819 -0.128146 -0.280547 -0.014580 0.131626 -0.131271 0.104226 0.355857 -0.050120 0.164251 0.171818 -0.013442 -0.063436 -0.111669 0.136158 0.141747 0.091584 0.003214 0.163298 0.153756 -0.036868 -0.022267 -0.083476 0.005540 0.038453 -0.215134 0.075929 0.161602 -0.049268 0.073586 -0.165555 -0.188512 -0.061858 0.164119 -0.189580 -0.199680 0.105405 -0.294663 0.279276 0.137511 0.193211 0.208545 0.141157 0.019565 0.080149 -0.133979 -0.182495 -0.046039 0.066560 -0.057064 0.048850 0.140926 0.150023 -0.012771 0.151682 0.078358
385 -0.073345 -0.060838 0.277822 0.057570 0.128655 -0.054394 -0.011680 0.013097 0.230473 0.177693 -0.072752 0.188785 0.177910 -0.032444 0.174321 0.206467 0.180437 -0.234396 0.078033 0.160451 0.114971 0.122350 -0.328818 -0.179187 0.122010 -0.030311 0.085616 0.007753 0.025647 -0.186405 0.095840 -0.073538 0.084651 0.226805 -0.019330 0.083292 0.090352 0.284964 0.216972 0.033413 0.006788 0.159059 -0.086692 0.067210 -0.072549 -0.108009 0.056298 -0.205368 -0.130306 -0.113592 -0.038010 0.166324 0.061415 -0.090998 0.057585 -0.424868 0.222032 -0.058347 -0.154996 0.063736 -0.075593 0.266805 0.005135 0.079107 -0.200178 -0.031800 -0.152253 0.020083 -0.167919 -0.238907 0.226011 0.039154 0.082454 -0.063378 0.027472 0.126122 -0.025362 -0.339919 -0.152396 0.100958 0.361850 0.002624 0.061742 0.090119 0.138848 0.052024 0.020200 -0.010296 0.306605 0.024878 0.145299 -0.203095 0.024345 0.002215 0.094494 -0.138715 0.148535 -0.139523 0.078271 0.112085 0.160200 0.128604 0.230155 -0.258525 -0.099631 0.124691 -0.303951 0.042250 0.218498 0.035366 0.124287 0.369704 -0.126985 -0.041924 -0.050775 -0.119074 0.104021 -0.085175 0.116475 -0.093975 0.022634 -0.110562 0.156206 -0.213368 0.149910 0.077076 -0.097432 0.024297
105 0.073449 -0.207700 0.072890 0.167502 -0.128616 -0.065517 -0.058484 -0.276578 0.116192 -0.160373 -0.013588 0.079910 0.176810 0.265499 -0.121277 0.009746 0.114660 -0.229880 0.087003 -0.029127 -0.081106 -0.052066 -0.012543 -0.159058 0.127934 0.163791 -0.103656 -0.130128 -0.014036 -0.190900 0.143585 0.116334 -0.239583 -0.154997 0.000934 0.078832 -0.036527 -0.019102 0.054496 0.127987 -0.383601 0.262541 0.153990 0.028626 0.035797 -0.014474 -0.054413 -0.303019 -0.067240 -0.241816 -0.004781 -0.012867 -0.058221 0.147756 0.240445 -0.233239 0.039531 0.093223 -0.069790 0.045924 -0.058103 0.065252 0.167885 -0.008524 -0.064342 0.121136 -0.055155 -0.116843 -0.076326 -0.323392 -0.039940 0.034843 0.092733 -0.036612 0.064639 -0.224340 0.155538 -0.230260 -0.017291 -0.056742 -0.124418 0.098903 0.137948 0.021943 0.025693 -0.064100 0.135000 0.103374 0.078617 -0.102065 0.058656 -0.218782 -0.077548 -0.045220 0.093440 -0.029467 0.115750 -0.157893 0.201415 0.282236 0.101876 -0.033154 -0.009575 0.018882 -0.077031 0.093901 -0.275508 0.101897 0.228329 -0.106083 0.166860 0.270992 -0.086499 0.165159 0.035773 0.145007 0.220035 -0.153644 -0.179327 0.013964 0.006156 0.010017 0.133764 0.016514 0.261124 0.096101 0.080786 0.122694
619 0.076816 -0.137391 0.000340 -0.164423 -0.079321 -0.180381 0.008214 0.030292 0.002921 0.089655 -0.168102 -0.035301 0.210055 0.006641 -0.035964 0.202624 0.228190 -0.091421 0.237196 -0.196824 -0.110909 -0.109120 -0.160354 -0.242391 0.165418 0.092894 0.220119 -0.045909 0.116127 -0.355267 0.023846 -0.101563 0.058806 -0.054974 0.133736 0.135116 0.229318 0.145455 -0.151503 0.026445 -0.109505 0.004801 0.038502 0.126240 0.046209 -0.130571 -0.090917 -0.005097 0.032712 -0.032606 0.013825 0.096235 0.123622 0.203526 0.332998 -0.183809 0.148007 -0.079391 -0.247370 0.398400 -0.057024 0.160647 0.086613 -0.130540 -0.091119 -0.078620 -0.151801 -0.111496 -0.024966 -0.282466 0.039835 -0.160458 0.224425 -0.012856 0.070111 -0.083470 0.240688 -0.257938 0.095756 0.037737 -0.164519 0.112559 0.161683 0.087618 0.012488 0.084845 0.049685 -0.000943 -0.055261 -0.178230 -0.106195 0.020331 -0.045175 0.050509 -0.044574 0.130018 0.114874 0.056608 0.030685 0.295906 -0.111702 -0.050751 0.064310 -0.056334 -0.026364 0.275461 -0.079424 -0.053620 0.122921 0.060653 -0.013133 -0.073081 -0.048545 -0.016964 0.105723 -0.161154 0.054026 -0.215860 0.079997 -0.026365 0.022849 -0.025663 0.187576 -0.029706 0.305857 0.166353 -0.159807 -0.038688
1237 -0.079906 -0.072359 0.305818 0.039813 0.017819 0.034141 0.203024 -0.043435 0.069025 0.076589 0.006694 0.184058 0.307429 -0.187882 0.003042 0.162856 0.197018 -0.132276 0.065624 0.038869 -0.211633 -0.136464 -0.106426 -0.116229 0.161895 -0.156358 0.145512 0.047664 -0.028356 -0.044767 0.128792 0.156131 -0.103590 0.060878 0.164157 -0.035781 0.208219 0.002025 -0.060074 -0.091678 0.016898 0.042516 -0.106136 -0.006747 -0.283125 -0.041937 -0.082953 0.058782 -0.119414 0.056269 -0.141740 0.077183 -0.136769 -0.094006 -0.115390 0.052692 0.138700 0.210148 0.029072 -0.007591 -0.150256 0.047277 0.142784 0.035833 -0.125505 -0.196118 -0.037207 -0.085854 -0.139907 -0.038238 0.089615 -0.055348 -0.101462 -0.059830 -0.054124 0.204993 0.161507 -0.146300 0.055734 0.031497 0.043133 0.199880 0.108210 0.050543 0.142339 0.014664 0.205145 0.058553 0.131200 -0.098464 -0.153874 -0.267426 0.020175 0.200302 0.032610 0.136056 0.104520 -0.113479 -0.211938 0.253377 0.309995 0.122481 -0.154164 -0.271302 -0.001245 0.219515 -0.018452 -0.043369 0.147717 0.092673 -0.159334 0.088345 0.086750 0.113892 0.059748 -0.003633 0.065734 -0.166004 0.140363 -0.242109 -0.034311 0.004894 0.261621 0.137271 0.174025 0.092641 0.039690 -0.031353
674 0.200202 0.045412 0.181209 -0.109384 -0.077191 -0.326827 0.232941 0.093181 0.048882 -0.143411 0.036469 0.230076 0.374502 0.023637 0.067284 0.128076 0.214102 0.057590 -0.051957 -0.279420 0.111067 0.170126 -0.022170 -0.208458 -0.138614 -0.108224 -0.029475 0.211719 0.171287 0.104195 0.100586 0.074507 -0.134149 0.018919 -0.173379 0.191355 0.329009 0.080363 -0.081895 0.163933 0.002445 0.059643 0.187081 -0.039722 0.120769 0.023555 -0.302117 -0.001671 -0.142660 -0.075047 -0.075573 -0.163208 -0.179664 -0.099646 -0.101962 -0.267195 -0.001466 0.210136 0.037614 0.172722 0.007302 -0.025538 0.025776 -0.166006 0.152183 -0.164102 -0.288700 -0.133451 -0.247803 -0.013089 0.030318 0.129244 0.237379 0.054921 -0.036637 -0.024061 0.069882 -0.074777 0.176297 0.179433 -0.149688 -0.180221 0.142965 0.023764 0.112820 -0.086233 -0.022351 0.100299 0.161849 -0.040743 0.072359 -0.039745 0.186890 -0.008724 0.227503 0.082802 -0.050765 -0.139854 0.029467 0.196476 -0.141584 -0.022260 0.006096 -0.222953 -0.113364 0.203305 -0.135465 0.130668 -0.087088 -0.263673 -0.095192 0.229161 0.160513 0.169897 0.114727 -0.084682 -0.130268 -0.239808 0.058048 -0.172420 0.104155 -0.276873 0.225785 0.206430 0.075645 -0.170211 0.044485 0.288015
512 0.095581 -0.002567 0.107297 -0.006265 -0.043984 -0.148598 0.167102 -0.033170 0.200910 0.102687 -0.003582 0.043429 0.332207 -0.160925 0.044838 0.118801 0.477111 -0.203028 0.149035 -0.016736 -0.046936 0.032654 -0.178697 -0.144601 0.298498 0.012483 -0.029314 0.107618 -0.182845 -0.094885 -0.085102 -0.025858 -0.053785 -0.025448 -0.195273 -0.027415 0.315556 -0.115169 -0.131887 -0.097723 0.016414 0.052487 0.043863 0.049409 0.090949 0.133048 -0.083286 -0.012119 0.020079 -0.127576 -0.063967 -0.082823 -0.079690 0.089073 0.138312 -0.114216 0.112423 -0.029155 -0.057774 0.191585 0.097756 0.090945 -0.016873 0.084859 0.003909 0.040773 -0.185502 -0.163955 -0.104746 -0.305103 0.266635 -0.015822 0.184474 0.032535 -0.031928 -0.019278 0.028596 -0.209388 0.112993 -0.082406 0.157474 -0.135991 0.191766 0.092205 0.054882 -0.065702 0.157282 -0.048170 0.083291 -0.013509 0.081774 -0.146690 -0.084466 -0.030554 0.285175 0.011629 0.146460 -0.071278 0.099044 0.096414 -0.070549 0.076759 -0.112861 -0.091074 -0.147957 0.407221 -0.140506 -0.070808 0.201264 -0.053628 -0.023438 0.126603 -0.011707 -0.020659 -0.024463 0.137138 -0.029507 -0.012088 -0.065071 -0.058852 0.090607 0.066569 0.245813 0.062448 0.161804 0.189051 -0.117028 0.154762
84 0.074693 0.089276 0.196085 0.111242 -0.033624 0.040710 0.120584 -0.008281 0.100173 0.082957 -0.016907 0.028149 0.382482 -0.113238 -0.024088 0.178477 0.165187 -0.244208 0.142848 -0.060059 -0.044431 0.013122 0.029357 -0.149652 0.093262 -0.202752 -0.117690 0.152216 -0.082422 -0.276604 -0.134567 0.067553 -0.033055 -0.089577 0.164294 0.238975 0.136642 -0.026572 -0.019396 -0.304479 -0.020278 0.086539 -0.011848 -0.045155 0.169187 -0.013711 -0.065378 -0.011212 -0.051476 0.035631 -0.101563 -0.170244 -0.020256 -0.072886 -0.062857 -0.092068 0.003629 0.095042 -0.013613 0.053239 -0.023742 0.064408 0.088977 0.020135 -0.060278 0.069941 -0.201646 0.016271 -0.059959 -0.022978 0.172361 -0.220175 0.139233 -0.210296 -0.045676 0.004265 0.064970 0.100682 0.067347 0.088193 -0.051187 -0.128700 0.152348 0.174101 0.144629 0.041952 0.137682 -0.052932 0.006219 -0.028008 0.054913 -0.134142 -0.121137 0.070236 -0.072467 0.050618 0.129971 0.056584 0.089145 0.256463 -0.064525 0.175290 -0.007051 0.024347 0.136291 0.195389 -0.008223 0.002025 0.181628 -0.261212 -0.037734 0.060016 0.278124 -0.048304 -0.154578 0.270548 0.033564 -0.108165 -0.096440 -0.268138 0.030533 0.233023 0.349943 0.085904 -0.013491 0.059717 -0.108260 0.041836
1044 -0.004971 0.059697 0.057724 -0.171883 -0.023010 -0.242589 0.069515 -0.162133 0.121121 0.007866 0.009847 0.137830 0.214239 0.017788 -0.181517 0.083997 0.202712 -0.263974 0.031134 0.183486 0.092417 -0.241166 0.319062 -0.032158 0.099042 -0.162758 -0.135657 -0.222932 0.075094 -0.198315 -0.052347 -0.051810 -0.116826 -0.002943 0.112434 0.140493 0.092441 -0.033922 -0.329103 0.022110 -0.057253 0.067087 0.030516 -0.130075 0.003125 -0.094299 0.002194 0.122837 -0.120980 -0.209127 -0.131001 -0.216528 -0.027155 0.045789 -0.097989 -0.283285 -0.056682 0.196002 -0.157141 0.037313 -0.063245 0.036372 0.214386 -0.137341 -0.118973 0.086740 -0.169829 -0.056575 -0.019240 -0.094465 0.008846 0.233099 0.026387 0.105676 -0.028788 0.202555 0.202742 -0.293723 0.043269 -0.070769 0.074246 0.132879 -0.084198 0.082500 -0.240625 0.181096 0.139176 0.253327 -0.030167 -0.203865 0.154161 -0.287857 -0.030309 0.079792 0.240147 -0.039221 0.223518 -0.054482 -0.035775 0.112287 0.026005 -0.007991 0.004237 0.082347 0.007486 0.232240 0.010085 0.047670 0.047753 -0.048182 -0.087658 -0.003020 0.282373 0.008414 0.100011 0.071285 0.280073 -0.132253 0.151298 -0.248203 -0.020243 -0.103192 0.189564 0.102413 0.123289 -0.001947 0.278096 0.072463
166 -0.036134 0.032785 0.062071 0.052400 0.103400 0.158465 0.057457 0.091096 -0.034739 0.155461 -0.056807 0.383286 0.022500 0.012561 -0.138736 0.009274 0.064628 -0.255071 -0.013247 -0.186033 -0.092454 -0.176472 0.061744 -0.174239 -0.036199 -0.029384 -0.027660 -0.105817 0.016277 -0.113043 0.029145 0.127623 -0.241385 -0.057109 0.344825 0.069335 0.213440 0.050235 -0.042341 -0.136143 0.211347 -0.034963 0.071277 -0.069559 -0.176105 0.054573 -0.135426 -0.153902 0.053380 -0.065270 -0.297221 0.170700 -0.084578 -0.039523 0.049732 -0.059931 0.109723 0.132663 -0.110626 0.082790 -0.095150 0.031915 0.017820 -0.041953 0.072112 -0.174475 0.114964 0.036938 -0.140722 -0.319611 0.228406 0.012417 0.491613 -0.192606 0.095747 0.019525 0.110479 -0.082623 -0.064573 -0.196267 -0.127437 -0.053583 -0.154683 -0.018930 -0.312120 0.049168 -0.048968 0.087826 0.096683 0.011331 0.142351 -0.003258 -0.084096 0.222012 0.007103 0.110692 0.190525 -0.194496 0.099726 0.070485 -0.275469 -0.085015 0.078088 -0.068212 -0.021730 0.118836 -0.031259 -0.058128 0.135326 0.075254 -0.087821 0.183585 0.180233 0.044557 0.063639 -0.078286 -0.020353 -0.155414 0.007714 -0.184889 0.129179 0.047009 0.243277 -0.122543 0.025591 0.186531 0.054884 0.122909
1415 -0.154605 0.094805 -0.120664 0.083304 -0.067653 0.252468 0.029169 -0.201371 -0.044863 0.204738 -0.129837 0.234963 0.053784 0.227365 -0.119059 0.029872 0.229199 -0.195230 -0.177030 0.066921 -0.091456 0.095833 -0.200545 -0.060639 -0.016926 -0.123968 0.021093 -0.055974 0.031082 0.053431 0.183405 0.113026 0.018889 -0.044300 -0.086757 0.063319 0.151505 0.129057 0.133272 -0.078932 0.170449 0.125184 -0.130635 0.074708 0.011108 0.209879 0.116089 -0.141082 0.096246 -0.074265 -0.015576 0.059945 -0.024233 -0.268153 -0.132445 -0.244829 0.233380 0.098903 0.074232 0.158624 0.005259 0.090924 0.106164 -0.029628 -0.114182 -0.137886 -0.050668 0.217658 -0.232337 -0.126934 0.110132 0.094612 0.052788 0.057173 -0.152191 0.059212 0.123817 -0.188462 -0.086421 0.123997 0.157902 -0.046283 -0.045434 0.035258 -0.210452 0.021384 0.086590 0.188158 -0.136904 -0.134771 0.041516 0.076818 -0.150557 0.014636 0.087788 0.123267 0.206634 -0.068291 -0.056152 0.244056 -0.086646 -0.205086 0.085405 -0.069875 0.060397 0.253832 -0.097563 0.070813 0.166741 0.051774 -0.048193 0.277737 0.318036 0.050985 0.265995 0.045909 -0.110044 -0.173061 -0.019162 0.040718 0.098226 0.052260 0.023299 0.140787 0.123326 0.062786 0.272699 0.079706
19 0.197245 -0.124825 0.040857 -0.064899 -0.005322 -0.229433 0.201161 0.054448 0.229436 0.249042 0.013436 -0.005460 0.242113 0.189963 0.123471 0.054660 0.145097 -0.136921 0.062805 0.128821 0.031592 0.080965 -0.076449 -0.178143 0.056909 0.271746 0.157994 0.036582 -0.077929 -0.134684 0.102458 0.215284 0.025246 0.132605 0.199712 0.207505 -0.074952 0.327226 0.248204 0.052287 -0.097099 0.048251 0.071179 0.128350 -0.030755 0.128807 0.137794 -0.200718 -0.006838 -0.080140 0.012481 0.066483 0.028096 -0.106941 0.099758 -0.080382 0.097072 0.067350 -0.154086 0.167640 -0.104712 -0.019861 0.014077 -0.128372 -0.257370 0.035239 -0.402741 0.000598 -0.015592 -0.071447 0.113690 -0.095678 0.112042 -0.207363 0.088402 -0.103647 0.157212 -0.287002 -0.038508 0.071887 0.009571 0.090256 0.254408 0.216299 0.121456 -0.072187 0.191265 0.100229 0.099837 -0.256374 -0.023275 -0.097673 0.081125 0.155081 -0.006489 0.184637 0.094147 -0.126478 0.018380 0.073747 0.091319 -0.035147 -0.120197 -0.052074 -0.167999 0.168884 -0.052548 0.250738 0.228925 -0.013445 0.261032 0.057040 -0.092884 -0.065037 0.123399 0.051776 0.155240 -0.158202 -0.041968 -0.160440 0.300620 0.004315 0.100137 -0.125766 0.422676 -0.021519 0.053836 0.231900
142 0.031682 -0.096618 -0.017883 -0.111430 -0.083184 -0.001691 0.205734 -0.088801 0.297510 -0.057204 -0.018705 0.104009 0.315400 0.067062 0.054905 0.133325 0.252817 -0.108041 0.019085 -0.006852 -0.155618 -0.008981 -0.069967 -0.137593 0.112569 0.081106 0.010244 -0.112737 0.071643 -0.124775 0.170152 0.332312 0.130247 -0.043646 -0.111392 0.155359 0.073909 0.079377 0.046887 0.097951 -0.197901 0.149747 -0.102256 -0.102958 -0.045876 0.021923 0.109245 0.148165 -0.066765 0.000186 -0.014874 0.250257 0.085930 0.260119 0.006340 -0.105706 0.124097 0.034453 -0.023284 0.138707 0.012146 0.068735 0.073718 -0.168177 -0.078745 -0.016175 -0.154444 0.040435 -0.085733 -0.373057 0.198450 0.064617 -0.000300 0.083617 0.163327 -0.003568 0.166491 -0.064352 0.069512 0.023549 -0.054761 0.030849 0.257241 0.180492 0.133275 0.190195 0.024131 -0.016988 -0.260412 -0.097546 -0.092727 -0.089048 -0.116064 -0.023892 0.045652 0.154213 0.015105 -0.172599 -0.037904 0.109037 0.003812 -0.274171 -0.127402 -0.022498 -0.044945 0.215810 -0.107002 -0.023611 0.026672 -0.099285 -0.127465 0.196943 -0.203829 -0.072245 0.237629 0.082555 0.082561 -0.015682 0.058787 -0.265794 -0.105318 -0.127768 0.235902 0.241217 0.156436 -0.203021 -0.008648 0.257091
390 0.131285 -0.188709 0.202572 -0.020954 -0.143473 0.125766 0.087295 -0.038038 0.074379 0.229578 0.032703 -0.052096 0.044031 0.131901 -0.076101 -0.061645 -0.014965 0.019631 0.188805 0.205706 0.018612 -0.077585 0.025083 -0.175319 0.051365 0.014570 -0.076025 0.067462 0.143590 -0.135971 0.008584 0.219108 -0.068563 -0.174777 0.159863 0.058872 0.273170 -0.004943 -0.132748 0.098771 -0.254718 -0.187703 0.050173 -0.126079 0.218916 0.063628 0.058291 -0.028209 -0.045698 0.003336 -0.134947 0.083202 -0.026018 0.078420 -0.101029 -0.295962 0.032882 0.077515 -0.276749 0.072432 -0.085610 -0.221625 -0.101054 -0.070725 0.058245 -0.001320 0.146737 0.175846 0.045909 -0.300170 -0.166006 0.111730 0.418288 0.026822 -0.259032 0.020915 -0.036488 -0.163112 -0.166682 0.065188 0.014842 0.036864 -0.057236 0.174091 -0.064348 0.083980 -0.152796 0.222249 -0.044690 0.012501 0.082736 0.003491 0.164347 0.011069 0.175500 -0.025633 0.276292 0.097849 0.098080 0.258920 0.012576 0.025174 0.365770 -0.046798 0.196153 -0.045313 0.206732 -0.174225 0.250337 0.048186 -0.185809 0.267504 -0.040494 0.054335 0.213431 0.160442 -0.122664 -0.206574 0.054491 -0.109220 -0.095840 -0.004621 0.091517 -0.055572 0.248124 0.038060 0.196306 0.133784
616 0.112067 0.069447 0.009315 0.218802 -0.093712 -0.135555 0.108170 0.061853 0.215268 0.136137 -0.022513 0.184204 0.049391 -0.042760 0.040931 -0.015286 0.016511 -0.096340 0.223098 -0.038217 -0.214768 0.251865 -0.132637 -0.251418 0.116651 0.167899 -0.016095 0.031125 0.177614 -0.030941 0.194871 0.135601 -0.033216 0.154796 0.037228 0.088124 0.101606 0.245107 0.094898 -0.134933 -0.222469 0.277382 -0.003971 0.028885 0.055420 0.053868 -0.127524 -0.211687 0.127010 0.029958 -0.091869 -0.135527 -0.067736 0.063660 0.082980 -0.120272 -0.036893 0.009978 -0.154800 0.087699 -0.027201 -0.002883 0.139229 -0.017833 -0.153023 -0.021246 -0.107455 0.065330 -0.080905 -0.143332 0.220997 0.047283 0.116415 0.059186 -0.027796 -0.078185 0.244846 -0.253187 -0.011112 -0.043206 -0.080997 0.143652 0.306258 0.071615 -0.024563 -0.021542 0.253444 -0.099302 0.134299 -0.309997 0.014907 -0.128390 -0.013198 -0.047522 0.035140 0.132210 0.190669 -0.005742 0.221990 0.103314 0.137761 -0.107293 -0.144142 -0.044529 0.017159 0.045416 -0.130126 -0.193235 0.125080 0.075505 0.176524 0.144674 0.034769 0.050459 0.120031 0.095180 0.118319 -0.008192 -0.155066 -0.143075 0.235391 -0.026660 0.066645 0.078711 0.298403 -0.222529 0.022126 0.112303
93 -0.107126 0.066872 -0.013477 0.071687 -0.033698 -0.143195 0.120704 -0.100955 -0.034136 -0.036211 0.386700 0.199041 0.072148 -0.112487 -0.148522 0.205334 0.191622 -0.294918 0.028929 0.020868 0.063231 0.225002 0.223845 -0.161787 0.173024 -0.058648 0.003793 0.044893 -0.065523 0.018634 -0.017650 0.174248 0.132808 0.021251 0.005996 0.222448 0.382233 0.014775 -0.365313 0.036153 -0.136730 0.088026 -0.013815 -0.070705 -0.030457 -0.177802 -0.136610 0.170859 -0.120668 -0.201285 0.026628 -0.170282 -0.033321 0.000758 -0.159152 -0.109360 0.032968 0.199007 -0.128021 -0.004916 -0.204229 -0.020198 -0.028911 -0.001865 0.217230 -0.193443 -0.326315 -0.071190 -0.192209 0.160933 0.152480 0.115634 -0.032206 -0.054676 -0.074962 0.082035 0.149770 -0.277979 0.035002 0.219881 0.014624 0.112145 -0.104783 0.107220 0.153815 -0.253070 -0.032605 0.286218 -0.057357 -0.102293 0.197314 -0.030941 -0.060076 -0.246872 0.204481 0.162619 0.020600 0.062066 0.133831 0.124702 -0.159430 0.181187 -0.175128 -0.025527 0.032901 0.245018 -0.100071 0.121288 0.081171 0.110864 -0.271839 0.229758 0.388511 -0.040467 0.138590 -0.062019 0.023365 -0.161448 0.036798 -0.169925 -0.169616 -0.064754 0.175633 0.072786 0.146232 0.023472 0.060282 0.234258
1199 0.067203 0.237771 -0.101764 -0.146222 0.108083 0.174510 -0.065094 -0.084687 0.094638 0.136228 0.037219 0.308753 0.197706 0.154897 -0.024867 -0.081545 -0.023400 0.047458 0.004992 -0.034164 -0.265268 -0.103088 0.059358 -0.239250 -0.002144 -0.107192 0.148562 -0.141736 -0.175972 0.094113 -0.126402 0.050089 -0.098057 -0.147978 -0.059530 0.238023 0.119232 0.279019 0.011365 -0.256088 0.037194 -0.113575 0.134191 0.066104 -0.012970 0.093128 0.129112 -0.005690 0.116477 -0.139296 -0.375659 -0.131077 0.027903 -0.022794 -0.211703 -0.064721 -0.040007 0.214373 0.079738 -0.016493 -0.432439 -0.133642 -0.106443 -0.083676 -0.215505 0.005084 0.050821 -0.256155 -0.295044 0.007400 0.208128 -0.043513 0.223069 -0.238829 0.137787 0.140930 0.272541 -0.080194 -0.018163 0.189912 -0.067142 0.002040 -0.043667 0.091993 0.067748 0.134309 0.212587 0.055366 -0.111525 0.000760 0.065128 0.048382 -0.162058 0.084533 0.112730 0.128054 0.130704 -0.172412 0.129014 0.094110 -0.002501 -0.020821 0.354280 -0.132524 0.047343 0.099040 0.028385 -0.224013 -0.217886 0.181609 -0.004423 0.192888 0.155829 -0.099741 -0.220507 -0.074568 -0.007776 -0.189144 0.055007 -0.033928 0.028918 0.066542 0.228587 -0.070569 0.010474 -0.130520 0.022441 0.052242
882 0.031906 0.074341 -0.098371 0.013502 -0.008459 0.213471 0.214153 -0.309492 0.044974 0.195090 -0.045471 0.216672 0.277423 -0.139359 -0.148096 -0.014487 0.108285 -0.016559 0.033949 -0.103460 -0.081606 0.286848 -0.087927 -0.212301 0.014064 -0.171747 0.068399 -0.016489 -0.118037 0.013372 0.045827 0.171595 -0.166843 0.001719 -0.132476 0.277980 0.107487 -0.011502 -0.109669 -0.198796 0.177785 0.116860 0.061496 0.001076 0.005008 -0.021037 -0.004498 0.033292 -0.017887 -0.054344 -0.173939 -0.133954 -0.178031 -0.066121 -0.124052 -0.231041 0.300897 0.278731 0.220574 -0.071640 -0.119324 0.022179 0.115825 -0.111839 -0.052561 -0.002616 -0.134565 -0.033601 -0.376401 -0.161214 0.015208 -0.060987 0.142886 -0.201008 0.100636 0.041798 0.041902 -0.090911 -0.104756 0.218187 -0.090593 0.086736 -0.062476 0.333486 -0.093797 0.028443 -0.024425 0.137251 -0.073194 -0.307655 -0.052544 0.081369 -0.223995 -0.032285 0.082614 0.070122 0.007549 -0.208188 -0.009739 0.431767 0.021652 -0.214897 0.147215 0.030783 -0.037369 0.154926 0.074592 -0.227276 -0.016787 0.093665 0.143020 0.129012 0.172497 0.076709 -0.173664 -0.174268 -0.004075 -0.044884 -0.018926 0.118311 0.045894 0.139020 -0.101697 -0.155946 -0.037994 0.115628 -0.025134 0.188395
137 0.116288 -0.042371 0.290150 -0.011029 -0.127100 -0.037375 0.014721 -0.102472 0.191886 0.118188 0.087452 -0.113916 0.093346 0.149208 0.326119 -0.133547 0.338540 -0.033689 0.354376 0.007892 -0.013438 0.208476 0.027585 -0.103605 0.072236 0.200269 -0.002941 -0.194478 -0.005732 -0.200098 0.035149 0.248913 -0.098885 0.055132 0.154312 0.093733 0.175736 0.125892 0.065221 0.267874 -0.074481 0.103032 0.053645 -0.049979 -0.008889 -0.144926 -0.021971 -0.150395 -0.114934 -0.149226 0.199097 0.034144 -0.168449 -0.172442 0.246959 0.093604 0.160491 -0.123866 0.035600 0.319679 -0.109601 0.354841 0.009168 -0.043500 -0.170205 0.005575 -0.027750 -0.035379 -0.124364 0.089468 -0.016105 0.024949 -0.009172 -0.057222 0.018574 -0.032473 0.239386 -0.107917 0.016068 -0.004631 0.046413 0.121598 0.307857 -0.174455 -0.299448 -0.053614 0.108283 0.130069 0.077682 -0.189817 0.015716 -0.066069 -0.095178 -0.069332 0.362203 -0.024037 0.067828 -0.220450 -0.115547 0.218036 0.156629 0.049386 0.109215 -0.048892 0.001586 0.064432 -0.093400 -0.170479 0.133415 0.106302 0.156339 0.267622 0.066627 -0.128442 0.255748 -0.059492 0.453515 -0.150002 -0.052960 -0.170628 0.145584 0.064672 0.068434 -0.045673 0.255208 -0.268705 0.378668 0.167111
194 0.013437 0.083010 -0.119271 0.048524 -0.052436 -0.166239 -0.043910 0.059417 0.216587 0.022439 -0.013266 -0.203452 0.142297 -0.132664 -0.143626 -0.034095 0.162813 -0.098647 0.250606 0.014654 -0.076317 0.236061 -0.156277 -0.014565 0.250118 -0.207234 0.006433 0.120335 0.056361 -0.139638 0.288118 0.185003 -0.179491 0.044893 0.263104 0.175128 0.141824 0.140737 0.204031 0.056251 -0.150849 0.160915 0.147551 -0.105457 0.032019 0.071916 0.034499 -0.196019 0.043691 0.063062 -0.101863 -0.110467 -0.048297 -0.224335 0.191852 -0.005517 -0.007335 0.010831 0.117013 0.147191 -0.183931 0.130501 0.087106 0.055635 -0.085900 -0.119154 -0.236896 -0.194339 -0.266532 -0.184726 0.143993 -0.277735 -0.025762 -0.024618 0.010288 -0.058285 0.130591 -0.298225 -0.116054 0.011536 0.024814 -0.034320 0.231172 -0.226681 -0.079173 0.072911 0.160423 -0.237369 0.011747 -0.169396 0.080718 -0.098316 -0.083657 -0.034078 -0.154382 0.097064 0.085348 -0.028416 0.359160 0.118967 0.265618 -0.141963 -0.045922 -0.040420 0.224035 0.315291 -0.176848 -0.009190 0.190326 -0.078925 -0.027120 0.292275 0.061798 0.084912 0.263975 0.153902 -0.001506 0.082709 -0.061505 0.035177 0.077203 -0.216332 0.038340 0.069989 0.296842 -0.173615 0.004838 0.313986
236 0.144120 0.040679 0.346055 0.108782 0.035233 -0.001378 0.008277 -0.061007 0.150310 0.096158 0.091811 0.141616 0.088858 0.405602 0.041572 -0.082333 0.139103 -0.136606 -0.033850 0.001184 -0.010184 -0.001910 0.003210 -0.192924 0.324879 0.154909 0.156762 0.028223 -0.012716 -0.114812 0.304573 0.428607 -0.075317 0.061824 0.173040 0.022742 0.064634 0.007100 0.108799 0.096270 -0.378370 0.151392 0.133128 -0.103273 0.184876 0.006552 0.019323 -0.268352 0.011689 -0.044011 -0.244198 0.006316 0.070206 -0.080761 0.079441 -0.145975 0.038652 0.160845 -0.069215 0.261532 0.030560 0.057845 0.112196 0.129607 -0.070950 0.097470 -0.081534 0.084335 0.051718 -0.142509 0.208395 -0.105907 0.117472 -0.170111 0.002736 -0.118383 -0.025057 -0.068935 0.139992 0.143866 0.190628 0.158026 0.223083 -0.035486 0.028940 0.023608 0.282864 0.029081 0.054055 -0.114900 -0.015926 -0.096895 -0.016661 0.063557 0.016143 0.277642 0.222785 -0.019128 -0.004545 0.220836 0.226052 0.172848 -0.243224 0.091325 -0.229265 0.225680 -0.172012 0.054741 -0.037936 -0.067915 0.329154 0.241700 -0.057582 0.067566 0.194766 0.100360 0.322558 -0.129210 -0.075209 -0.229208 0.172155 -0.138641 0.109514 0.087094 0.175582 -0.103146 0.109478 0.087231
525 0.144567 -0.180983 0.189633 -0.017485 0.133001 -0.152484 -0.225711 -0.285422 -0.017155 0.028136 -0.164264 -0.027291 0.150197 0.081552 0.156927 -0.036203 0.320012 -0.075241 0.206066 -0.019146 0.133910 -0.098053 -0.147470 -0.129266 0.025917 0.187853 -0.078806 0.097139 -0.059622 -0.351303 0.174100 0.151360 -0.135807 0.007630 0.095725 0.100142 0.103087 0.232805 0.083301 0.183026 -0.300571 0.191422 0.136589 0.189763 0.187205 -0.012320 0.021613 -0.234970 -0.175494 -0.065548 0.097959 -0.006751 -0.140083 -0.061743 0.267138 0.165760 0.242184 -0.099693 -0.080285 0.163247 -0.144052 0.092312 0.195609 -0.173109 -0.088836 0.158357 -0.053697 -0.166884 -0.118614 -0.066134 -0.101223 0.147270 0.278415 -0.094885 0.077967 0.089592 0.095675 -0.142183 -0.058458 0.296101 -0.138574 0.020177 0.249483 -0.306048 -0.164313 0.017994 0.201674 0.125941 0.134209 0.112555 -0.076710 -0.001180 -0.130517 -0.149823 0.274648 0.102954 0.022921 -0.305815 0.072142 0.162602 -0.075362 0.059434 -0.016551 0.117309 0.125433 0.303800 -0.090416 -0.077125 0.241034 -0.089899 0.289116 0.130496 0.154093 0.003477 0.015363 -0.001392 0.276183 -0.027162 -0.038219 -0.140386 -0.122980 0.090963 0.223197 0.066618 0.038986 -0.099440 0.316880 0.059730
1390 0.179550 0.063111 0.251399 0.014072 -0.131974 0.025693 0.131320 -0.202716 -0.038325 -0.026595 -0.055789 -0.225460 0.271689 0.065367 0.060008 0.064527 -0.000865 -0.148428 0.032728 -0.256634 -0.025090 0.026298 -0.187041 -0.145299 0.240043 0.001980 0.067391 0.187777 -0.077012 -0.115189 0.065679 -0.018290 -0.137440 0.062918 -0.009237 0.110654 0.211441 0.137551 0.230979 -0.042195 -0.297034 -0.001903 0.099146 -0.032828 0.166747 -0.093493 -0.248769 -0.193435 -0.032612 -0.012548 0.078497 -0.012374 0.061158 0.103947 0.182031 -0.152088 -0.108738 -0.031717 -0.265004 0.382104 -0.041659 -0.062907 0.077865 0.115070 0.032799 0.032211 -0.104570 -0.075594 0.016527 -0.168891 0.074363 0.035799 0.176668 -0.092727 -0.048108 0.143451 0.234783 -0.280264 0.007788 0.149381 -0.012956 0.056886 0.236803 -0.054219 -0.035683 -0.137628 0.216236 -0.071889 0.158401 -0.177445 0.166242 -0.062248 -0.235612 -0.147795 0.152598 -0.026306 0.321632 -0.154738 0.176059 0.443277 0.245540 -0.034383 -0.163501 -0.013649 -0.019762 0.289547 -0.209239 -0.090668 0.035695 -0.077415 0.204575 0.157268 0.159281 0.004357 0.242121 0.071224 0.048320 -0.118611 0.044397 -0.037597 -0.039813 -0.096308 0.131956 0.030570 -0.033592 0.000390 0.036837 0.140267
759 0.028772 -0.234212 0.192263 -0.057362 0.071185 -0.145762 0.178023 -0.094426 -0.084755 0.218747 0.102595 -0.152738 0.121487 0.056859 -0.063280 -0.199899 0.083440 -0.097739 0.160161 0.028917 0.033431 0.256419 -0.140957 -0.186922 0.051374 -0.023498 -0.046444 0.084610 -0.079138 -0.235744 0.137381 0.282107 -0.022039 -0.015346 -0.104476 0.139371 0.020173 0.235493 0.081834 0.112524 -0.185873 0.052754 -0.080370 -0.027288 -0.209820 -0.091298 0.026660 0.093032 -0.105056 -0.127405 -0.002795 -0.131758 -0.046210 0.114406 0.248226 -0.015679 0.049172 0.057301 -0.069720 0.055608 0.246666 -0.093465 0.014275 -0.197572 -0.293200 -0.151285 -0.436519 0.115079 -0.152179 -0.216990 0.190662 -0.015262 0.009569 -0.236086 -0.104356 0.032450 0.130127 -0.187535 0.042239 0.132924 -0.063067 -0.004071 0.052267 0.108396 0.015132 0.082153 0.011298 0.029085 -0.018577 -0.042853 -0.150157 -0.205721 -0.173639 -0.070960 0.340905 0.204788 0.220169 0.070770 0.091423 0.008182 0.075528 -0.133303 -0.095944 -0.078536 0.036431 0.223988 -0.206419 0.087154 0.355299 -0.154157 -0.142401 0.047049 0.266801 -0.176741 -0.104724 -0.052962 -0.021884 -0.378471 -0.126392 0.010816 0.157052 0.015863 0.267688 0.030409 0.144280 -0.188969 0.063065 0.188406
1221 0.005356 0.039075 0.063171 -0.166200 -0.115290 0.084366 0.190009 -0.169683 -0.020714 0.096978 0.073308 0.140363 0.143399 -0.102988 0.051232 0.057023 0.016949 -0.285103 0.113814 0.062693 -0.095390 -0.116900 -0.143537 -0.154417 0.176536 0.040724 -0.000654 -0.162755 0.058990 -0.045403 0.272816 0.037706 -0.073948 -0.224871 -0.070725 0.236080 0.051663 0.227029 0.148465 -0.022031 -0.049299 -0.083645 -0.060398 0.148383 0.165404 0.010133 0.088666 0.050789 0.087027 0.069085 -0.015166 -0.018359 -0.068026 0.110387 0.085511 -0.096099 0.289653 0.082654 -0.183903 0.289048 0.067134 0.052605 -0.018500 -0.054861 0.166590 -0.097496 0.084741 -0.115807 -0.356832 -0.255088 0.074010 -0.128123 0.390968 0.079587 -0.016942 0.073889 0.128393 -0.178335 -0.112582 -0.071287 -0.035866 0.008505 0.298812 0.053672 -0.188411 -0.017560 0.050244 0.072275 0.090798 0.064949 0.061410 -0.384339 -0.170207 -0.029670 0.073696 0.046849 0.165883 -0.012237 0.099277 0.262952 -0.056481 -0.044767 0.073741 0.084235 -0.242914 0.284938 0.064407 0.059600 0.122631 0.092915 -0.044000 0.129978 0.311097 0.061036 0.143870 -0.028834 -0.055059 0.045072 0.103645 -0.087642 0.147040 -0.159884 0.066749 0.062046 0.073885 -0.012696 -0.167151 0.261811
1412 -0.264951 0.183304 0.214948 0.102117 0.039711 -0.116696 0.048417 -0.054192 0.256893 0.020386 0.108515 -0.043667 0.276293 -0.115465 0.030120 0.268585 0.242242 -0.206565 -0.080436 -0.024824 -0.036793 -0.194817 0.047400 -0.247052 -0.228897 0.007931 0.007588 0.152080 -0.141209 -0.201602 0.257822 0.060574 0.081818 0.150294 0.045877 -0.066191 0.164303 0.053852 -0.345651 -0.026559 0.153374 -0.037783 -0.117112 -0.230989 -0.132833 -0.182290 -0.185350 0.005113 0.047451 -0.086401 -0.154414 -0.183367 -0.166737 -0.115974 -0.221985 -0.334594 -0.083397 0.185615 0.024674 0.022859 -0.080355 0.197330 0.237449 -0.066796 -0.076467 -0.010100 -0.170175 -0.085626 0.002949 -0.012708 -0.062712 -0.023940 0.052601 -0.088226 -0.063301 0.227818 0.155045 0.050929 0.126045 -0.093911 -0.032329 0.047823 0.093502 0.061568 0.153589 -0.117282 0.158775 0.351327 -0.087796 -0.284124 0.052925 -0.104820 -0.104986 -0.057117 0.161637 0.155461 0.109143 -0.111396 0.014212 0.072654 -0.196663 0.179982 -0.208132 0.046109 0.210938 0.187210 0.132930 0.023457 0.081890 0.072063 -0.082484 -0.021121 0.219596 -0.090762 -0.073598 0.105723 0.073249 -0.176820 -0.026456 -0.108694 -0.212225 -0.041197 0.208395 0.189123 0.070969 -0.048535 0.105096 0.030804
1109 -0.074098 0.036595 0.053205 0.273766 0.154957 -0.096119 0.247881 -0.066084 0.026929 -0.013838 0.182770 0.159319 0.308345 0.075146 -0.101944 0.174987 0.412939 -0.103826 0.077756 -0.082221 0.032259 0.106527 0.125186 -0.243498 0.004706 0.110201 -0.099914 0.116122 -0.321482 0.054416 0.019937 0.191268 0.100840 -0.057580 0.149414 0.168740 0.346010 -0.024590 -0.099025 -0.049709 0.262153 -0.017239 0.047569 -0.169920 0.021856 -0.211491 -0.030736 -0.050084 -0.169515 -0.107463 -0.004850 -0.184336 -0.201630 0.069414 -0.009521 -0.198334 0.117649 0.239305 -0.099155 -0.122460 -0.134194 0.046000 -0.011413 0.014942 0.000284 0.087395 -0.277389 -0.224826 -0.276040 -0.024544 -0.007642 0.085514 0.000427 0.101594 0.053333 0.116732 0.078431 -0.076474 0.017124 0.035772 0.056400 -0.000684 -0.041236 0.193746 0.061595 -0.116975 -0.034209 0.185574 -0.130386 -0.133474 0.098585 -0.061846 -0.059312 -0.037424 0.063315 0.024512 0.048699 -0.093725 0.074113 0.092232 -0.124640 0.162224 -0.143842 0.067055 0.143954 0.289539 -0.062475 -0.087547 0.001750 -0.215248 -0.215858 0.079143 0.349958 0.157445 -0.050269 -0.040976 0.037384 -0.088264 0.241355 -0.162770 -0.094506 0.023163 0.174738 0.147614 0.197158 0.033179 0.109104 0.240959
427 0.061274 -0.219793 0.305906 0.014894 0.123734 -0.131375 0.012566 -0.109248 0.000397 -0.058462 0.178685 0.190794 0.200503 0.194471 0.089947 0.041547 0.109126 -0.203003 0.183800 0.139867 -0.071383 0.080838 -0.316933 -0.164882 0.182755 0.062222 -0.208193 -0.122139 0.008355 -0.077113 -0.089390 0.189783 -0.150274 -0.161501 0.144810 0.011792 0.156744 0.307098 -0.027469 -0.186580 -0.220612 0.260831 -0.137682 -0.042059 -0.249778 0.114110 0.102434 -0.160577 0.088656 -0.253198 0.015509 0.286138 0.082748 0.084187 -0.023145 0.064334 -0.074963 0.048833 -0.010865 0.084884 0.229697 0.079690 -0.269333 -0.177391 -0.248722 0.058442 -0.090525 -0.015257 -0.193822 -0.093632 0.272988 -0.150401 -0.101444 0.114916 0.245243 -0.180774 0.014618 -0.228515 -0.186049 0.213902 -0.053051 0.016635 0.197855 0.017561 -0.141431 0.100638 0.082055 0.200189 -0.080246 -0.458149 -0.180878 -0.119136 -0.261315 -0.168214 0.296460 -0.179815 0.167124 -0.166783 -0.145264 -0.173238 0.146870 -0.115876 -0.185767 -0.107732 0.200024 0.193277 -0.078762 -0.120564 0.148803 0.014779 -0.127477 -0.106564 -0.170397 0.136832 0.107266 -0.126098 -0.037174 -0.249762 0.056892 -0.018884 0.102464 0.095849 0.208616 -0.060695 0.147849 -0.162800 0.010068 0.406388
165 -0.045265 0.237359 0.108489 0.144848 0.098964 -0.141492 -0.019890 -0.108843 0.270053 0.259877 0.048704 -0.056172 0.264077 0.062336 -0.232651 0.062392 0.046798 -0.120611 -0.006245 -0.111298 0.083596 -0.228893 -0.034935 -0.181827 -0.024213 -0.009665 0.116897 -0.187028 0.005622 -0.047691 0.162052 0.044891 0.179170 -0.282764 0.105002 -0.114617 -0.044404 -0.015549 -0.115872 -0.043745 -0.231874 0.155025 -0.289993 0.165562 -0.054629 -0.059823 -0.367743 -0.033237 -0.014179 0.005043 0.154644 -0.041522 -0.209020 -0.073726 -0.039215 -0.338071 -0.068023 -0.045194 0.068279 0.022724 -0.019553 -0.061937 0.132236 -0.265693 -0.165915 -0.330452 0.152384 -0.093489 -0.183409 -0.039058 0.084744 -0.121752 0.000204 -0.181418 0.148084 -0.110867 0.389668 -0.151353 0.059076 0.111619 0.097857 0.118967 0.030474 0.236749 -0.035786 0.188178 0.133491 -0.122817 -0.124802 -0.106300 -0.107954 -0.134333 -0.060929 -0.069596 0.035206 -0.092469 0.269296 -0.446692 0.014430 0.022233 0.194433 0.276717 0.038695 -0.686986 -0.207121 -0.168951 -0.011092 0.122413 0.480962 0.057654 -0.046206 0.073927 0.121396 0.199138 -0.019470 0.090657 0.128090 0.020345 0.083844 -0.103311 0.050113 0.096852 -0.076447 -0.103630 0.217056 0.064759 0.174908 -0.105556
614 0.227878 -0.094295 0.001796 -0.041374 -0.187424 0.030694 0.237202 -0.103184 0.206990 0.087177 -0.108489 0.031712 0.248077 0.089153 0.099086 -0.015940 0.230825 -0.136862 0.059012 0.106631 -0.004687 -0.116692 -0.011541 -0.084421 0.085004 0.019638 -0.084372 -0.089795 0.067041 -0.202866 0.061119 0.275092 -0.033393 -0.039805 -0.057951 0.052413 0.183189 0.003046 -0.103834 -0.099497 -0.100594 0.207411 0.182748 -0.072286 0.054026 -0.008196 0.016391 -0.058603 -0.038303 -0.035746 0.013306 0.092112 -0.024924 0.165391 -0.036994 -0.099497 -0.038698 0.119630 -0.258093 0.049177 -0.076942 -0.042419 0.037381 -0.279461 -0.048722 0.035329 -0.113414 0.054532 -0.038236 -0.173300 0.183959 -0.046623 0.079748 0.017221 0.158171 0.083231 0.239254 -0.255262 -0.005821 0.061195 0.098584 0.125915 0.006204 0.210019 -0.018853 0.196103 -0.032742 -0.042659 -0.113378 -0.183998 -0.200776 -0.264824 -0.143715 -0.039326 0.305197 -0.079069 -0.030854 -0.187054 0.006764 -0.013182 0.141064 -0.165260 0.023092 -0.044665 0.129457 0.254612 -0.375224 0.032626 -0.024707 -0.037475 -0.075864 0.134649 -0.027115 0.009439 0.130541 0.134614 0.136176 0.024343 0.053088 -0.175540 0.220544 0.164893 0.157982 0.129783 0.234411 -0.155954 0.093456 0.062096
