274 128
1529 -0.006065 -0.038948 0.059321 -0.027825 -0.103737 0.052999 0.005596 -0.044111 0.042703 0.055042 0.050523 0.072807 -0.021097 -0.099384 0.093228 0.013097 0.067135 0.092424 -0.000298 -0.060125 0.050127 -0.009887 -0.111575 -0.180568 -0.051936 0.003179 -0.003824 -0.065077 0.101176 -0.160509 0.095812 -0.022921 -0.004161 -0.063494 0.026773 0.014049 0.054343 0.068286 -0.078860 -0.016026 -0.099233 0.184249 0.020332 -0.039870 0.025408 -0.064273 0.125992 -0.013820 -0.065794 -0.103099 -0.102432 -0.091129 -0.011554 0.011984 0.045610 -0.081805 -0.032915 0.060908 -0.105982 0.003853 -0.082668 0.055484 -0.035550 -0.091977 -0.083373 -0.057597 -0.036449 -0.165473 -0.082300 0.085424 0.063214 -0.048492 0.137410 -0.137861 -0.000434 -0.199621 0.205144 0.137076 -0.062195 -0.037227 0.064953 -0.044688 -0.024081 -0.173824 0.002757 -0.105736 -0.204445 -0.005038 -0.138324 -0.064982 -0.043409 -0.039716 -0.003951 0.017596 -0.069477 -0.053428 0.118244 0.080911 -0.037791 0.042282 0.031245 0.046980 -0.108448 -0.005385 0.033800 -0.085310 -0.009423 0.031657 0.046274 0.091369 -0.009918 0.045094 -0.032438 -0.210775 0.047117 -0.098809 -0.165624 0.097821 -0.109806 -0.050853 -0.223852 -0.056374 -0.028495 -0.092225 0.005799 0.049968 0.157864 -0.131891
804 0.050596 -0.084967 0.003145 -0.082929 -0.081119 0.067877 -0.062019 -0.077683 0.101586 0.012235 0.077344 0.128333 0.007915 -0.035812 0.023582 0.067603 0.079131 -0.022413 0.041565 -0.101676 -0.035361 0.032867 -0.061507 -0.063763 -0.090276 0.021050 -0.039309 -0.097163 0.024178 -0.172126 0.023283 0.080856 -0.049118 -0.054957 0.054773 0.003616 0.097161 -0.007536 -0.081074 -0.001903 -0.068425 0.165528 0.099422 0.001339 0.035669 -0.068031 0.146877 -0.058388 -0.041858 -0.025919 -0.040558 -0.036640 0.016341 -0.027669 -0.058403 -0.106142 0.021277 0.001411 -0.122731 0.012648 -0.123541 -0.010807 -0.114253 -0.014947 -0.088085 -0.069875 0.016550 -0.144738 -0.036854 0.065311 0.096175 -0.020427 0.066763 -0.147821 0.066033 -0.133357 0.100952 0.140613 -0.023627 -0.039359 0.166805 -0.073913 0.030602 -0.132300 -0.116272 -0.163190 -0.127882 0.111143 -0.154828 -0.000118 -0.119336 0.003278 0.012844 0.018140 -0.032696 -0.060528 0.091318 0.038395 -0.049266 0.112167 0.021426 0.114123 -0.070736 -0.004156 -0.069402 -0.143245 0.008936 0.112733 0.143763 0.031365 0.070392 0.113889 0.074019 -0.080800 0.093964 -0.019300 -0.109483 0.109943 -0.089444 -0.092000 -0.140868 0.007008 0.032768 -0.063330 -0.012088 -0.088984 0.102003 -0.066817
1148 0.003020 -0.027528 -0.039638 -0.045964 -0.089927 0.045450 0.005159 0.047521 0.133275 0.059508 0.096897 0.078875 -0.017492 0.008980 0.087927 0.004918 0.046379 0.051240 -0.032123 -0.031954 -0.068982 0.008511 -0.046491 -0.105629 -0.116463 0.024764 -0.018925 0.039396 0.055527 -0.063294 -0.006510 0.047102 -0.079561 -0.061486 0.104995 -0.016932 0.040394 0.004470 -0.090175 -0.072233 0.029053 0.071054 0.002912 -0.072763 0.010868 -0.011649 0.171845 -0.021576 -0.079325 -0.047861 0.010696 0.029073 0.084954 0.035747 -0.037203 -0.029740 0.013888 0.026768 -0.092657 0.086109 -0.067299 -0.001494 -0.119983 -0.044205 -0.178487 -0.033598 -0.068294 -0.128314 -0.125156 0.154658 0.103542 0.021501 0.059398 -0.110927 0.092432 -0.093588 0.150178 0.160664 0.022122 -0.039590 0.048193 -0.088065 0.015574 -0.238817 -0.059144 -0.117359 -0.150013 0.081061 -0.186879 0.112257 -0.071954 -0.061269 0.142323 -0.044469 -0.009664 -0.078334 0.040685 0.042275 -0.080955 0.057167 0.046006 0.065642 -0.128339 0.020815 -0.057078 -0.155952 0.026172 0.052461 0.082248 0.137856 0.022594 0.055920 0.002786 -0.164005 0.037229 -0.050910 -0.073524 0.117912 -0.129932 -0.122708 -0.165569 -0.037730 -0.035828 -0.003272 -0.033608 -0.022266 0.064019 -0.121031
1117 0.018139 -0.069058 0.048233 -0.013759 -0.100516 0.004643 -0.005906 -0.062651 0.108404 0.089356 0.144525 0.081704 0.133160 -0.126841 0.069226 -0.007313 0.065038 0.134764 -0.077331 -0.133053 0.067316 0.108928 -0.091021 -0.122676 -0.063173 0.026609 -0.045979 -0.019331 0.028711 -0.152300 -0.096417 0.076938 0.000933 -0.078422 0.084276 0.100116 0.069090 0.044059 -0.016308 -0.034435 -0.045844 0.135249 0.079604 -0.082286 0.033625 -0.004248 0.056531 -0.000003 -0.053667 -0.009608 -0.083690 -0.126489 0.041365 0.012388 0.009344 0.006329 -0.031287 0.074665 -0.002483 -0.056838 -0.102217 -0.070259 -0.037586 -0.036695 -0.062055 -0.007730 0.031163 -0.146721 0.001604 0.050817 0.106864 -0.043580 0.091235 -0.083565 0.043997 -0.092435 0.109010 0.161389 -0.005376 0.043491 0.069416 -0.009330 -0.051495 -0.229917 -0.018149 -0.123452 -0.264576 0.038511 -0.149543 -0.036272 -0.078678 0.073150 0.069400 0.076506 -0.014776 -0.112315 0.040362 0.065190 -0.132978 0.065925 0.030600 0.152543 -0.189942 0.050035 -0.059396 -0.081644 0.019953 0.139076 0.064087 0.059182 0.060388 0.030879 0.086940 -0.047105 0.109051 -0.054476 -0.146836 0.110215 -0.060721 -0.005503 -0.129414 -0.045981 -0.002905 -0.060147 -0.026159 0.061670 0.134029 -0.013557
69 0.031914 -0.061158 0.049013 -0.067391 -0.053739 0.111671 0.021735 -0.020448 0.060619 0.020087 0.098802 0.051203 -0.006295 -0.126586 0.113141 0.032384 0.066081 -0.056727 -0.050436 -0.059436 -0.060874 0.011729 -0.061026 -0.103898 -0.088545 0.027815 -0.053608 0.084304 0.026682 -0.145808 0.047054 0.053280 0.090580 -0.066835 0.085472 0.049806 0.016999 -0.024642 -0.096050 -0.065677 0.013897 0.199124 0.039506 -0.020278 0.055348 -0.071857 0.092106 -0.005847 -0.126515 -0.097695 -0.074463 -0.052095 0.016104 0.027713 -0.025518 -0.011473 -0.042281 0.108798 -0.084587 -0.000132 -0.184113 0.047986 -0.058331 -0.073469 -0.113007 0.073112 -0.051472 -0.116754 -0.079427 0.049314 0.130700 -0.027277 0.082142 -0.073293 -0.004874 -0.076770 0.137031 0.201632 -0.010856 -0.068438 0.119520 -0.097271 -0.007143 -0.161204 -0.025875 -0.095222 -0.059500 0.031610 -0.146413 -0.026972 -0.080968 0.030051 0.114875 -0.007792 -0.060727 -0.074313 0.091229 0.059409 -0.130088 0.098227 0.103713 0.123038 -0.187323 0.021224 -0.002064 -0.113594 -0.029468 0.042849 0.077818 0.014170 0.087129 -0.047273 0.072849 -0.135060 0.076487 -0.075787 -0.090034 0.144843 -0.127198 -0.061703 -0.125377 0.013980 0.042630 -0.095745 -0.057536 -0.023296 0.168008 -0.097288
1422 0.082359 -0.108219 0.094965 -0.080505 -0.111512 0.046222 -0.030276 -0.055200 0.114987 0.009037 0.083998 0.085876 0.011088 -0.034620 0.167360 -0.017424 0.023480 -0.002094 -0.009939 -0.112288 0.083098 0.006986 -0.002964 -0.116713 -0.127336 0.065286 0.023778 0.055929 0.070340 -0.155482 0.015074 0.026093 -0.031642 -0.005116 0.037641 0.075760 0.077448 0.028059 -0.120593 -0.034375 -0.047258 0.148987 0.148114 -0.028964 0.049583 -0.037221 0.110386 0.011176 -0.047366 -0.082860 -0.069609 -0.125759 0.015746 0.022429 0.010605 0.038041 0.067989 0.066279 -0.095153 0.057137 -0.186143 0.038067 -0.059441 0.003155 -0.084798 -0.024845 0.018148 -0.125658 -0.112598 0.092086 0.111266 -0.038343 0.142294 -0.109739 0.067545 -0.131483 0.101486 0.179295 -0.061113 -0.041135 0.029385 -0.114740 0.015234 -0.168517 -0.023743 -0.121475 -0.064093 0.083309 -0.136865 0.017419 -0.083726 -0.009432 0.053418 -0.063711 -0.085202 -0.095357 0.035157 0.082050 -0.025290 0.035752 0.111665 0.080575 -0.072372 0.098765 -0.043307 -0.041813 -0.038487 0.035901 0.047008 0.014849 0.046949 -0.057596 0.045427 -0.100787 0.112055 -0.131952 -0.090077 0.144343 -0.109743 -0.133979 -0.173930 -0.039407 0.024198 -0.093256 -0.002758 -0.077317 0.080599 -0.081982
525 0.048757 -0.107920 0.069367 -0.014222 -0.169562 -0.068663 0.016123 -0.062976 0.128533 -0.028667 0.030993 0.017290 0.108445 -0.011794 0.089768 0.015458 -0.020148 0.033796 -0.039183 -0.038947 0.038228 -0.000117 -0.059632 -0.089578 -0.080847 0.049910 -0.053126 0.112270 0.068379 -0.117862 -0.063088 0.002493 0.056532 -0.052190 0.069527 0.025173 0.080594 -0.023065 -0.047015 -0.028080 -0.086147 0.185021 0.057671 -0.040800 -0.026058 -0.083087 0.181218 -0.012543 -0.133557 -0.032874 -0.048411 -0.078050 0.017947 0.010319 -0.022054 -0.074580 -0.024448 0.010472 -0.116108 0.020481 -0.135581 0.031670 -0.015439 0.003608 -0.087075 -0.126699 -0.065298 -0.078989 -0.000466 0.063254 0.202938 -0.077650 0.060364 -0.082265 0.045779 -0.082345 0.080117 0.182529 -0.016865 -0.010866 0.115124 -0.071433 -0.023041 -0.201314 -0.061502 -0.178306 -0.159178 -0.002904 -0.192907 0.072427 -0.125039 0.068228 0.020289 -0.032724 -0.003286 0.018047 -0.029199 -0.005765 -0.024724 0.057761 0.014333 0.086040 -0.091942 0.050664 -0.002419 -0.063146 0.100477 0.023074 0.128036 0.069949 0.059551 -0.005869 -0.012395 -0.092640 0.063990 -0.109209 -0.164229 0.120235 -0.134892 -0.141961 -0.113666 -0.042293 -0.004129 -0.074622 -0.032245 0.006902 0.099901 -0.099133
211 0.079671 -0.048591 0.080222 -0.058980 -0.091165 0.023262 0.001394 -0.041180 0.069902 0.016814 0.003797 0.157197 0.051360 -0.067210 0.117279 0.019207 0.060998 -0.001497 -0.062066 -0.040261 0.072833 0.074109 0.017542 -0.154411 -0.139332 0.049582 -0.082381 -0.018997 0.120431 -0.144174 -0.066053 0.054444 -0.074524 -0.092495 0.059698 0.086334 0.072385 -0.077347 -0.048458 -0.031916 -0.028843 0.146410 0.002740 -0.135243 0.032285 -0.063935 0.167557 -0.038737 -0.065516 -0.002110 -0.034080 -0.090979 0.031728 -0.109436 -0.082377 0.019982 -0.044188 0.012486 -0.112234 -0.007808 -0.077341 0.006590 0.040155 -0.038013 -0.046261 -0.027346 0.026413 -0.106999 -0.002270 0.058165 0.158145 -0.053611 0.093524 -0.136538 0.076589 -0.016983 0.198531 0.225236 -0.122663 -0.020863 0.003816 -0.129476 -0.082818 -0.142873 -0.088669 -0.136821 -0.137991 0.035153 -0.171011 0.057963 -0.118758 -0.039140 0.093209 -0.061868 -0.068816 -0.028104 0.000132 -0.014526 -0.119426 0.019381 0.014857 0.115596 -0.113584 -0.043074 0.012149 -0.147767 0.045276 0.015429 0.076588 0.101775 0.042043 0.005603 0.019965 -0.161084 0.049493 -0.135678 -0.045417 0.089630 -0.066296 0.016943 -0.140934 -0.072643 0.014497 -0.061207 -0.051043 0.032384 0.106885 0.003774
169 0.021966 -0.022295 0.054752 0.032013 -0.100714 -0.006941 -0.048361 -0.010930 0.064069 -0.003628 0.001772 0.083436 -0.040930 -0.029727 0.073769 0.012759 0.025750 0.007972 -0.014498 -0.021697 0.016408 0.105448 0.015145 -0.101676 -0.164772 0.066666 -0.036806 0.030306 0.046718 -0.026837 -0.007502 0.065065 -0.090583 -0.022485 0.093994 0.078283 0.152872 -0.016357 -0.110154 -0.049685 -0.118910 0.100279 0.006467 -0.031217 0.057386 -0.050313 0.096003 -0.028326 -0.096776 0.003851 -0.075575 -0.091559 0.053153 -0.035511 -0.046797 0.023326 -0.016767 0.037187 -0.130781 0.049573 -0.182082 0.033008 -0.028563 0.042323 -0.074429 -0.050288 -0.004502 -0.049328 -0.140229 0.056808 0.178806 -0.020154 0.074406 -0.098545 0.061029 -0.152321 0.086141 0.174146 -0.019889 0.061657 0.048664 -0.084772 0.002729 -0.267693 -0.077662 -0.168835 -0.169689 0.027596 -0.111600 0.084025 -0.157822 -0.050273 0.004548 -0.040834 -0.068837 -0.012318 0.085836 -0.022489 -0.089497 0.047707 0.120821 0.151507 -0.043022 0.028042 -0.054770 -0.130346 0.016472 0.064646 0.102972 0.056684 0.034133 0.075363 0.073984 -0.102630 0.054846 -0.118747 -0.197923 0.124181 -0.071964 -0.102251 -0.192870 -0.065275 0.075854 -0.124192 0.011019 0.041146 0.088161 -0.053868
923 0.041724 -0.042597 0.022974 -0.039351 -0.161385 0.044087 -0.086332 -0.055450 0.117010 0.097792 0.010217 0.016762 0.050071 -0.053958 0.062427 0.041421 0.113453 0.070422 0.040629 0.019787 -0.078352 0.030840 -0.031489 -0.074891 -0.043026 0.077745 -0.107519 0.021440 0.054398 -0.038974 0.047070 0.006400 -0.026884 -0.079177 -0.005764 0.025489 -0.005238 0.027507 -0.114570 -0.092065 -0.033579 0.106948 -0.010396 -0.002640 0.082623 -0.013419 0.114728 0.008818 -0.047412 -0.040304 -0.122587 -0.087122 0.045804 -0.041055 -0.013407 0.032750 0.019937 -0.012986 -0.162528 -0.038140 -0.058558 -0.009951 -0.105281 -0.035928 -0.041728 0.001329 -0.007609 -0.171867 -0.042039 0.045579 0.125861 0.016619 0.042938 -0.130111 0.098893 -0.088476 0.096662 0.120916 -0.057288 0.082006 0.003575 -0.064550 -0.006926 -0.213662 -0.021873 -0.103606 -0.104411 -0.009314 -0.130378 0.073761 -0.072326 0.057507 0.041235 0.043517 -0.055253 -0.035978 0.044724 0.058609 -0.084268 0.066078 0.049333 0.129087 -0.165005 0.003060 -0.057330 -0.184250 0.017388 -0.056274 0.030995 0.072780 0.055256 0.084427 -0.040553 -0.140152 -0.026799 -0.020494 -0.065305 0.077366 -0.100323 -0.051968 -0.147036 0.005038 0.029014 -0.036944 -0.062453 -0.043815 0.160556 -0.046668
1235 0.107795 -0.038986 0.113662 0.010405 -0.053772 0.070642 -0.030737 -0.031023 0.036194 0.106601 0.067346 0.078377 0.063786 -0.124138 -0.001019 -0.008439 0.013595 0.055372 0.020761 -0.052461 0.078000 -0.036751 -0.034942 -0.091622 -0.156862 0.016376 -0.060965 -0.121910 0.090577 -0.136827 0.005732 -0.072916 0.050204 -0.130851 0.153703 0.073390 0.031223 0.049343 -0.073105 -0.072191 -0.117727 0.073080 0.019183 -0.108722 0.014511 -0.105722 0.098712 0.022098 -0.087292 -0.038555 -0.025876 0.016152 0.016436 0.006473 -0.017706 -0.053913 0.004252 0.048102 -0.086210 0.021696 -0.203685 0.029651 -0.040228 -0.052831 -0.125612 -0.034278 0.054573 -0.174056 -0.099146 0.028456 0.083221 0.029128 0.116051 -0.166678 0.101487 -0.098952 0.091358 0.145797 -0.039864 -0.020133 0.017906 -0.119905 0.020116 -0.154318 -0.008105 -0.049203 -0.204606 0.054944 -0.092111 0.053851 -0.064977 -0.033532 0.092245 0.064667 -0.009841 0.007850 0.036743 0.005936 -0.043208 0.062440 -0.027756 0.196188 -0.137530 0.024662 -0.081285 -0.050282 0.052342 0.006932 0.120061 0.056732 0.048724 0.028973 0.095671 -0.114476 -0.019408 -0.096071 -0.014509 0.121981 -0.053940 -0.120518 -0.147504 -0.051582 0.002586 -0.101255 -0.000213 0.029218 0.076731 -0.076828
696 0.090509 -0.095283 0.003329 -0.043873 -0.034800 -0.058618 -0.008294 -0.104718 0.138845 0.052497 0.060890 0.097653 -0.001934 0.005633 0.044857 -0.009859 0.051403 0.029214 -0.038751 -0.104318 -0.034403 -0.015111 0.007271 -0.059817 -0.131391 0.022798 -0.000071 -0.062832 0.068776 -0.066998 -0.007307 0.041909 0.019743 -0.091287 0.047117 0.036558 0.066785 -0.078750 -0.120797 -0.088860 -0.123702 0.073660 -0.019474 -0.055611 0.055953 -0.027157 0.084997 -0.036842 -0.111871 0.016165 -0.044501 -0.047246 0.014600 -0.037382 0.002000 -0.047757 -0.053902 0.121550 -0.105193 0.063949 -0.106659 -0.020934 0.032281 -0.038141 -0.184309 -0.048903 -0.034790 -0.152991 -0.059399 0.112447 0.114010 -0.037944 0.079840 -0.062465 0.094013 -0.173731 0.104717 0.140677 -0.068815 0.089009 0.081891 -0.053962 -0.058567 -0.202246 -0.100869 -0.218896 -0.115691 -0.006910 -0.150368 0.057035 -0.093209 -0.043095 -0.059480 -0.002089 -0.003970 -0.027715 0.059629 0.041078 -0.025803 -0.048052 0.032875 0.074856 -0.104812 0.103200 -0.011248 -0.047870 0.022006 -0.033545 0.129636 0.089481 0.051406 0.024833 0.126951 -0.121198 0.032205 0.038726 -0.092392 0.122136 -0.102143 -0.130646 -0.089114 -0.074630 0.024705 -0.046151 0.005785 -0.040772 0.074222 0.024527
401 0.035588 -0.032055 0.035442 0.025278 -0.061462 0.017324 0.007239 -0.027038 0.111994 0.013865 0.080189 0.113462 0.048847 -0.011821 -0.020356 0.041667 0.007184 0.076134 -0.029795 -0.053638 0.035823 0.052429 -0.020671 -0.014815 -0.112361 0.040887 -0.057300 0.097343 0.107967 -0.105251 0.064649 0.031271 -0.042773 -0.125716 0.056637 0.063614 0.043414 0.036310 -0.041734 0.013031 -0.151409 0.089273 0.071830 -0.012507 0.023294 -0.133294 0.058327 -0.027132 -0.123726 -0.091091 -0.000329 -0.026816 0.034342 -0.080610 -0.043428 -0.026267 0.039602 0.100339 -0.042280 -0.028669 -0.164651 0.000751 -0.016228 0.024473 -0.128479 0.029378 0.000656 -0.203070 -0.022450 0.061403 0.083459 -0.027580 0.051527 -0.194476 0.072285 -0.067142 0.181670 0.158648 -0.143853 -0.017035 0.121252 -0.141522 0.022246 -0.191273 -0.075537 -0.080970 -0.145703 0.062077 -0.145771 0.038171 -0.092663 0.016954 0.064310 0.016558 -0.024581 -0.009484 0.084281 0.089018 -0.051237 0.101361 0.014134 0.108535 -0.138788 -0.026034 -0.041899 -0.116259 -0.002330 0.041145 0.060723 0.064100 0.026542 0.041671 0.132721 -0.133644 0.137442 -0.110657 -0.133280 0.087122 -0.044099 -0.098331 -0.193770 -0.082161 -0.016934 -0.054202 0.034804 -0.042960 0.111188 -0.045062
1298 0.078668 -0.060266 0.095294 -0.027900 -0.061838 0.023474 -0.021042 -0.053275 0.105911 0.064020 0.044761 0.104790 0.104416 -0.096789 0.032121 0.051310 0.038384 0.097926 -0.019070 -0.067375 0.004768 0.085628 -0.068456 -0.129325 -0.175657 -0.010074 0.051881 -0.036276 0.030293 -0.125529 -0.041994 0.023171 -0.114425 -0.071530 0.076295 0.033979 0.113951 0.023533 -0.171710 -0.099033 -0.104881 0.080040 0.053510 -0.027662 0.035968 -0.032631 0.067190 -0.052494 -0.125349 -0.046451 0.005822 -0.101926 -0.008603 -0.032716 0.085174 -0.030780 -0.033762 -0.008641 -0.115966 0.051740 -0.144421 -0.055390 -0.073632 -0.005907 -0.133996 -0.027360 0.004828 -0.106677 -0.117500 0.073679 0.109296 -0.026179 0.079709 -0.061459 0.119377 -0.116564 0.080081 0.089672 0.004797 -0.073312 0.053875 -0.082724 -0.105015 -0.251139 -0.082914 -0.102486 -0.127244 0.054903 -0.105578 -0.001778 -0.061772 0.062708 0.092601 -0.027954 -0.048340 -0.120520 0.092058 0.037019 -0.074770 0.096752 0.088262 0.110566 -0.090181 0.038303 -0.072131 -0.147752 0.035191 0.057505 0.061900 0.043284 0.048919 -0.017891 -0.034363 -0.048077 0.065255 -0.079715 -0.061127 0.106871 -0.076736 -0.103980 -0.132670 -0.031536 -0.035121 -0.073707 0.019273 -0.058169 0.084368 -0.036411
137 0.071676 -0.114807 0.029673 -0.037569 -0.012825 0.018133 -0.064772 -0.083666 0.064560 0.003686 0.073540 -0.015878 0.107020 -0.038885 0.112798 0.008840 0.030831 0.027403 -0.099617 -0.025778 0.006361 0.015957 0.001003 -0.112867 -0.053941 -0.054795 -0.058090 -0.033991 0.042429 -0.160451 0.011564 0.013936 0.017764 -0.052832 0.169168 0.066891 0.075735 0.039198 -0.134641 -0.020234 -0.043969 0.104045 0.025121 -0.088796 0.020661 -0.021067 0.081450 -0.017914 -0.002782 -0.108352 -0.096263 0.020975 0.065855 -0.015697 0.010382 -0.083667 0.038261 0.054060 -0.086706 0.034057 -0.099869 0.013349 0.031974 -0.049699 -0.136185 -0.011651 -0.007813 -0.238645 -0.043662 0.033760 0.184269 -0.083442 -0.049747 -0.123411 0.047916 -0.075263 0.068930 0.170878 0.054632 -0.003776 0.078092 -0.106108 -0.002182 -0.169278 -0.098358 -0.099747 -0.217647 0.062322 -0.202758 0.032398 -0.115975 0.003166 0.055444 -0.004241 0.011964 -0.087974 0.037485 0.046837 -0.085976 -0.045169 0.088925 0.086736 -0.138993 0.016478 -0.059762 -0.075864 0.060603 0.106500 0.033706 -0.021345 -0.020441 -0.003897 0.008621 -0.114251 0.050602 -0.091210 -0.091525 0.080304 -0.006629 -0.073892 -0.225649 -0.032180 0.033694 -0.056085 -0.080429 -0.002532 0.159779 -0.015313
1003 0.019343 -0.123886 0.021027 -0.034338 -0.070353 0.067632 -0.015554 -0.068289 0.059341 -0.044179 0.103372 0.018691 -0.080738 -0.091472 0.074082 -0.004251 0.085895 0.009879 -0.017812 -0.088912 0.017312 0.092862 -0.010196 -0.185030 -0.110895 0.058640 0.062551 -0.012453 0.041455 -0.128787 -0.083521 0.015105 -0.081199 -0.074894 0.089793 -0.007674 0.071467 0.028579 -0.098743 -0.037654 0.019439 0.072514 0.027261 -0.082066 0.004563 -0.040863 0.067506 0.008772 -0.062946 -0.041273 -0.066596 -0.031303 0.002957 -0.035344 -0.005139 -0.028297 0.088426 -0.013515 -0.141250 0.012827 -0.133981 0.038232 0.005513 0.009793 -0.155816 -0.064251 0.042699 -0.128940 -0.035307 0.045712 0.138220 -0.056499 0.057434 -0.095245 0.090670 -0.124172 0.087865 0.187613 0.027297 0.005729 0.100682 -0.060230 -0.042869 -0.179332 -0.108010 -0.179356 -0.192816 0.084882 -0.196511 -0.037113 -0.128820 0.015679 0.047836 -0.053105 -0.054910 -0.047683 -0.005775 0.044416 -0.039394 0.084571 -0.022550 0.129052 -0.145494 0.018960 0.002076 -0.113781 -0.081002 0.075702 0.103675 0.093778 0.017610 0.005473 0.021465 -0.077739 0.052584 -0.073021 -0.132259 0.086695 -0.057640 -0.111391 -0.188462 -0.007165 0.018320 -0.087573 -0.012805 -0.002023 0.065456 -0.128501
994 0.013878 -0.032099 0.076866 -0.067162 0.017976 0.033074 0.019409 -0.019907 0.003743 0.003860 0.008963 0.058970 0.031100 -0.008799 0.076690 0.055939 0.005887 0.071515 -0.070362 -0.100869 0.013076 0.050627 -0.063199 -0.190940 -0.153771 0.021280 0.034864 0.072624 0.047753 -0.108493 0.013031 0.026079 -0.046086 -0.108655 0.013060 0.008622 0.064540 -0.008831 -0.171770 0.008848 -0.097628 0.082929 0.019622 -0.006582 0.052640 -0.038611 0.151176 -0.051123 -0.109045 0.029325 0.000885 -0.051041 -0.032210 -0.044336 -0.097315 0.010433 0.029551 0.054114 -0.065278 0.011438 -0.072073 -0.017936 -0.068898 0.010772 -0.161964 -0.023395 0.007676 -0.202441 -0.052694 0.088470 0.197858 0.009446 -0.003030 -0.055853 0.070938 -0.053127 0.108055 0.073444 0.023044 -0.007632 -0.055886 -0.067035 -0.009208 -0.243982 -0.013830 -0.079126 -0.149221 0.091722 -0.151040 0.022279 -0.136080 0.015167 0.026062 -0.095082 -0.033864 -0.052706 0.056896 0.020248 -0.160042 0.043318 0.062085 0.142049 -0.138077 0.063806 -0.064400 -0.097828 0.078339 0.059638 0.068899 0.057076 0.009262 0.075067 0.041037 -0.160291 0.073941 -0.113629 -0.116579 0.259271 -0.101839 -0.079223 -0.115668 -0.096366 0.070477 -0.058833 -0.039892 -0.012198 0.083703 -0.056969
1401 -0.008399 0.043420 0.132924 -0.005739 -0.094211 -0.052285 -0.005028 -0.135196 0.125190 0.067503 0.057731 0.041701 0.067989 -0.017131 0.083909 -0.041106 0.125392 0.129694 -0.038341 -0.075121 0.089148 0.025283 -0.084815 -0.118172 0.017298 0.050355 -0.011696 -0.135905 0.051818 -0.053088 0.022327 0.062635 -0.026319 -0.064835 0.108109 0.043217 0.086076 0.056255 -0.114832 -0.062568 -0.147406 0.167135 0.103439 -0.027181 0.000147 -0.089596 0.022001 0.036092 -0.016864 0.006879 -0.070967 -0.086551 -0.064671 0.014774 -0.040958 0.005387 0.084792 0.001751 -0.084907 -0.018840 -0.050765 -0.084220 -0.072847 -0.088943 -0.155786 0.047759 -0.078757 -0.158670 -0.049414 0.081248 0.088843 -0.003069 0.022749 -0.014905 0.089714 -0.141565 0.145888 0.141786 -0.005331 0.021403 0.045483 -0.085303 0.003203 -0.182031 -0.055484 -0.128570 -0.239687 0.050417 -0.202856 0.102102 -0.095098 0.041309 -0.000223 -0.041664 0.015686 -0.127359 -0.032256 0.061856 -0.016258 0.023368 0.019849 0.096194 -0.013366 -0.039180 -0.035581 -0.095475 0.071092 0.079432 0.101748 -0.050808 0.036041 0.013389 -0.036104 -0.101665 -0.018580 -0.029091 -0.097956 0.053632 -0.049460 -0.091301 -0.143729 -0.036417 0.010956 -0.067406 -0.100886 -0.031754 0.093714 -0.089330
41 -0.050044 0.000817 0.151026 0.022571 -0.023305 0.062844 -0.066778 -0.035105 0.043914 0.092384 0.069882 0.069376 0.090017 0.047912 -0.032739 -0.019954 0.059849 0.012683 -0.003579 -0.060669 -0.034011 -0.066414 -0.067588 -0.109374 -0.098701 0.040949 -0.023050 -0.091377 0.051864 -0.078653 -0.010064 0.044604 -0.118210 -0.105159 0.021381 -0.018544 0.063436 -0.008427 -0.165640 0.035386 -0.141177 0.123112 -0.022637 -0.018496 -0.031395 -0.053461 0.130652 0.017632 -0.018366 0.067103 -0.076030 -0.015430 -0.025090 0.021347 -0.088110 -0.111511 0.075420 0.103959 -0.046793 0.006005 -0.084986 -0.037859 0.011475 0.016343 -0.038834 0.049755 0.004067 -0.215680 0.044411 0.030853 0.094348 0.023664 0.028897 -0.043459 0.080093 -0.029117 0.004386 0.134999 -0.118895 -0.032684 0.076321 -0.020424 -0.025702 -0.149206 -0.016481 -0.068028 -0.190199 -0.055097 -0.107903 0.054902 -0.074667 0.097721 0.013295 0.005485 -0.009670 -0.198804 -0.007103 0.022786 0.016229 0.027359 -0.026101 0.047749 -0.136710 -0.012373 -0.029565 -0.099440 -0.025818 -0.029296 0.050283 0.003100 0.017639 -0.032227 0.070761 -0.039229 -0.102008 -0.106225 -0.047672 0.067165 -0.143377 -0.041223 -0.076668 -0.063988 -0.037788 0.011645 -0.027028 -0.023068 0.097059 -0.062246
1481 -0.038711 -0.122773 0.126539 0.058668 -0.050638 0.023500 -0.060770 -0.013165 0.127939 0.081798 0.085578 -0.007993 0.150691 -0.011678 0.033542 -0.190289 0.034057 -0.003019 0.062957 -0.055236 -0.110825 -0.065415 -0.048558 -0.082206 -0.034336 -0.068318 0.036683 -0.097683 0.050741 -0.134124 -0.033859 0.037495 -0.154718 -0.103989 0.009896 -0.049711 0.028585 0.062900 -0.115802 -0.045047 -0.168043 0.136868 -0.000914 -0.094018 0.001806 -0.052350 0.214283 0.093282 -0.002868 -0.025667 -0.109640 -0.025697 0.015296 -0.130453 0.004914 -0.036189 0.006561 0.072109 -0.086690 -0.019892 -0.015980 -0.007478 0.010470 0.085214 0.022195 0.016657 0.027868 -0.016668 0.092191 -0.063355 0.079262 0.015831 0.054127 -0.050583 0.104264 -0.068868 0.081719 0.125598 -0.039360 0.011070 0.036345 -0.105925 -0.084505 -0.053924 0.023278 -0.065110 -0.028875 -0.079704 -0.039988 0.079946 -0.140548 -0.000830 0.048949 -0.050229 -0.079087 -0.139864 -0.017965 0.061811 -0.083828 0.086485 0.000639 0.062109 -0.134599 0.032004 -0.047916 -0.143365 -0.001956 -0.055308 0.044500 0.037394 -0.029580 -0.022443 -0.028361 -0.082442 -0.013785 0.001103 0.130671 0.038334 -0.097039 0.011926 -0.090091 0.039316 0.029490 -0.002710 0.001965 -0.054002 0.049429 0.013263
17 -0.085916 -0.020953 0.119179 -0.037533 -0.049239 0.057521 -0.176101 0.017225 0.078257 0.080619 0.086256 0.008932 0.000170 0.036312 -0.057468 0.015115 0.062891 0.081926 0.069525 -0.103762 -0.062900 0.067549 0.059813 -0.012565 -0.135429 0.041228 -0.035608 -0.041477 0.007722 -0.053683 -0.051161 0.129478 0.060384 -0.128479 0.045621 0.071426 0.079932 0.038673 -0.094433 0.083267 -0.129828 0.192321 0.046670 -0.022132 -0.040725 -0.110986 0.071165 0.002443 -0.170819 0.090642 -0.093873 -0.043340 -0.084015 -0.001071 -0.055734 0.020293 0.077792 0.066874 -0.090107 0.031533 -0.162607 0.023130 -0.029145 -0.026223 -0.006915 0.097955 0.043883 -0.111222 0.014035 0.003421 0.132236 0.040925 0.085094 -0.103562 0.052072 -0.064558 -0.018716 0.098035 -0.161061 -0.028199 0.049492 -0.010101 -0.040658 -0.008147 -0.094365 -0.021371 -0.103807 -0.135298 -0.170513 -0.002571 -0.128684 0.066573 0.140319 0.030334 0.019129 -0.130400 -0.042481 0.135459 0.020624 0.048313 0.024012 0.017170 -0.053785 0.013962 -0.056664 -0.166886 -0.047850 -0.020520 0.067533 0.045711 -0.063871 -0.042323 0.149073 0.037603 -0.146377 -0.095794 0.004080 0.186932 -0.150769 -0.021343 0.058845 0.064069 -0.032926 0.080279 -0.044161 -0.123681 0.081836 -0.109254
1096 0.044896 0.127658 0.062912 -0.033307 -0.101672 0.159907 0.013568 -0.153862 0.162775 -0.062635 -0.063878 0.059507 0.083967 0.145592 -0.005148 0.025158 0.083107 0.133504 0.055319 -0.047853 -0.075171 0.035756 -0.061337 -0.100043 -0.093946 0.041539 0.085632 -0.156775 0.083231 -0.011568 -0.007417 0.113340 -0.063259 -0.026252 0.023353 0.137462 0.062147 -0.017313 -0.159563 0.046155 -0.178774 0.057791 0.093532 -0.053326 0.077729 -0.066668 0.180260 0.106922 -0.142971 0.036398 0.053714 0.155920 -0.138093 0.100777 0.035527 -0.139497 0.033217 0.004525 -0.107948 -0.019375 0.052112 0.116325 -0.041758 0.039582 -0.144691 0.081736 0.077007 -0.051737 0.133108 0.051729 0.130391 0.120437 0.026644 -0.199255 0.120930 -0.010917 0.121672 0.078660 -0.079275 0.068872 -0.030856 -0.082466 0.040957 -0.254498 -0.047518 -0.060156 -0.161566 -0.079253 -0.206612 -0.029327 -0.113303 -0.036157 -0.036038 -0.032951 0.067445 -0.099260 -0.068567 0.011780 0.018057 -0.021909 -0.007571 0.069745 -0.127308 0.090951 -0.052919 -0.094155 -0.008369 -0.038155 0.070047 0.061327 0.103670 -0.039737 0.118601 -0.206629 -0.014234 -0.002091 -0.026860 0.075647 -0.099595 -0.091178 -0.075361 0.108599 -0.054435 -0.073826 -0.103607 -0.087431 0.110272 0.018947
940 0.027791 0.082309 0.012252 -0.011346 -0.156145 0.045263 -0.079851 -0.150712 0.096005 0.012925 -0.038318 0.102159 0.045392 0.035674 -0.037543 -0.038392 -0.037183 0.008228 0.144314 0.038499 0.001860 -0.051485 -0.044894 -0.039837 -0.252749 0.089871 0.007220 -0.113374 0.034039 -0.051869 -0.000394 0.058714 -0.057091 -0.026850 -0.003317 0.141354 -0.003254 -0.034785 -0.167500 0.066583 -0.181312 0.067900 0.106337 -0.074603 0.084320 -0.024397 0.207784 0.070293 -0.064700 -0.062647 -0.077300 -0.045834 -0.075626 0.048250 0.018926 -0.119691 0.079667 0.050868 -0.047168 -0.058273 -0.124955 0.050061 -0.039201 0.026056 -0.080364 0.063607 -0.014603 -0.065215 0.021162 -0.013884 0.134844 0.123137 -0.021866 -0.088704 0.062410 -0.107277 0.060768 0.093753 -0.160326 0.013798 0.033097 -0.008385 0.019144 -0.141538 0.049398 -0.096048 -0.059527 -0.040261 -0.162923 0.004748 -0.167418 -0.070405 -0.028963 0.028868 -0.020341 -0.118776 -0.073340 -0.051359 0.044844 -0.006808 -0.026729 0.064582 -0.169782 0.060383 0.039699 -0.033041 0.057310 -0.007131 0.192910 0.133300 0.077777 -0.058526 0.131997 -0.090656 -0.000581 0.004638 0.005898 0.090488 -0.087922 -0.100746 -0.098643 0.124321 -0.058308 0.003255 -0.068331 0.069996 0.116576 0.002638
633 -0.040233 0.006544 0.075336 0.033098 0.037807 -0.017867 -0.033930 -0.086055 0.116150 0.085771 0.128940 0.024633 -0.032965 -0.012462 0.038049 0.091273 -0.014922 0.173376 -0.026256 -0.136991 -0.181675 -0.056834 0.026374 -0.050712 -0.017697 0.094186 0.016002 -0.182272 -0.097222 -0.049102 -0.030996 0.065770 -0.041816 -0.029722 0.054169 0.086963 0.118270 -0.066063 -0.043593 0.044092 -0.169647 0.168218 0.009179 -0.072945 -0.059099 -0.105770 0.070585 0.021100 -0.221443 0.014046 -0.176008 -0.005851 -0.085215 -0.007463 -0.020897 -0.016899 -0.048945 0.090039 -0.068316 -0.056625 -0.121659 0.059053 0.051432 -0.023179 -0.017868 0.103354 0.056043 -0.093225 0.047744 0.077916 0.170601 0.002595 0.009392 -0.080801 0.062272 0.032199 -0.082470 0.083593 -0.175288 0.010734 0.154559 -0.049585 0.022784 -0.116818 -0.027543 -0.106495 -0.116733 -0.105921 -0.153997 -0.024882 -0.126930 0.037366 0.089083 -0.024381 -0.049458 -0.196509 -0.004341 0.095680 -0.010773 0.071373 0.116057 0.010669 -0.080494 0.068615 -0.025755 -0.078577 0.008803 -0.004711 0.099991 -0.021390 0.007744 -0.047518 0.139782 -0.025937 -0.090477 -0.202860 -0.077760 0.085902 -0.049889 -0.110088 0.055675 -0.012335 -0.040977 0.162935 -0.050983 -0.067619 -0.003368 -0.115540
204 -0.096513 0.070556 0.083975 -0.014526 -0.014146 0.020626 -0.105561 0.001986 0.101344 0.045816 0.108832 0.077193 0.023906 0.044208 -0.008033 0.085690 0.113962 0.064641 0.040063 -0.039292 -0.112135 -0.028231 0.153594 -0.026505 -0.189303 0.009640 -0.040118 -0.054680 0.033597 -0.122191 -0.021299 0.079466 -0.066196 -0.113505 0.019427 0.070975 0.132225 0.055521 -0.009430 -0.099162 -0.136408 0.100687 -0.001990 -0.060005 -0.036853 -0.085587 0.054125 -0.001543 -0.111106 0.084736 -0.163067 0.052097 -0.061354 -0.004189 -0.050114 0.025002 -0.067573 -0.035787 -0.074739 0.032523 -0.129832 0.065074 0.097325 -0.080277 -0.052456 -0.037039 0.001064 -0.172942 0.024261 -0.016848 0.177825 0.052895 0.042190 -0.160790 0.180180 0.021581 0.014155 0.081490 -0.157475 0.004813 0.081071 -0.001963 -0.002253 -0.109304 0.001236 -0.053960 -0.061408 -0.215869 -0.123935 -0.061103 -0.111135 0.049630 0.031778 0.001939 -0.030464 -0.112457 0.015887 0.023440 0.102422 0.111962 0.061367 -0.064818 -0.054597 0.023135 -0.060268 -0.129339 -0.010169 0.003588 0.128923 0.041950 -0.068355 -0.014783 0.135746 -0.001607 -0.192976 -0.152293 -0.028924 0.126277 -0.103752 -0.088086 -0.014618 -0.024035 -0.052929 0.086586 -0.025238 -0.144406 0.085182 -0.219909
1338 0.016154 -0.017508 0.135895 0.045609 -0.082950 0.079640 -0.007772 -0.019707 0.135538 0.034023 0.056133 0.117516 0.058771 -0.092062 0.039351 -0.037083 0.093476 -0.042518 -0.026842 -0.030783 -0.085395 0.037626 -0.013407 -0.151595 -0.062724 -0.017081 0.013500 -0.100482 0.039415 -0.124903 -0.053495 0.062627 -0.050794 -0.141717 0.108688 0.106618 0.118618 0.033085 -0.150354 -0.073371 -0.206715 0.139925 0.051050 -0.032833 0.030640 -0.059537 0.136125 0.032291 -0.071637 0.026825 0.015403 -0.022048 -0.155600 0.007384 -0.056678 -0.122355 -0.013253 0.123613 -0.001333 -0.076159 -0.106220 -0.000479 -0.077626 -0.083057 -0.071109 -0.008280 0.013495 -0.190208 0.095516 -0.006834 0.116793 0.051438 0.019509 -0.089475 0.165933 -0.044189 0.082093 0.035608 -0.124144 -0.005434 0.085689 -0.061246 0.011673 -0.154115 -0.083101 -0.053271 -0.006181 -0.062378 -0.109478 0.025540 -0.094550 0.020910 0.009851 0.029059 0.017009 -0.176067 -0.007194 0.073567 -0.060022 0.046467 -0.044461 0.022842 -0.113171 0.026882 0.006477 -0.032344 0.083039 0.042635 0.121308 -0.024817 0.070862 -0.026327 0.114402 -0.051320 -0.081864 -0.079198 -0.112167 0.072843 0.015123 -0.111790 -0.000343 0.036202 -0.014966 -0.021393 -0.020177 -0.015722 0.057948 -0.035103
19 -0.019417 0.123465 0.054185 -0.047522 -0.022641 0.032856 -0.038580 -0.073530 0.069159 0.043280 0.068095 -0.058754 -0.054542 0.001347 0.117221 -0.035335 0.071791 0.099490 0.061148 0.080342 -0.079907 0.082757 0.001760 -0.149393 -0.085501 0.072477 0.001727 -0.080777 0.116928 -0.022690 -0.058383 0.038876 -0.122685 -0.047219 0.061939 -0.049087 -0.026896 -0.016656 -0.216706 0.061453 -0.105635 0.175982 0.083443 -0.041232 -0.121718 -0.011788 0.164922 0.008599 -0.066033 -0.088897 -0.051974 -0.114843 -0.096617 0.124945 -0.073468 -0.058307 -0.048089 0.044236 -0.143689 -0.037104 -0.119024 0.000875 -0.001008 -0.110803 -0.043524 0.050746 -0.069698 -0.212086 0.184901 0.017615 0.138108 0.078961 0.014995 -0.041390 0.091192 -0.070599 0.128959 0.113765 -0.165297 -0.059905 0.077012 -0.094235 0.075040 -0.172697 -0.057220 -0.002358 -0.073296 -0.086114 -0.180854 -0.079954 -0.070134 -0.012452 0.118774 -0.142916 -0.086714 -0.065588 -0.104919 0.170512 -0.025974 -0.023114 -0.092724 0.038048 -0.166551 0.043383 -0.083614 -0.089052 -0.054840 -0.043659 0.021758 -0.061584 -0.043741 -0.042146 -0.036292 -0.143293 -0.076995 -0.004478 -0.011886 0.058300 -0.080162 -0.080337 -0.022370 -0.076238 -0.000373 -0.078188 -0.034298 -0.098687 -0.003259 -0.066351
296 -0.070120 0.048334 0.111059 -0.111406 -0.159327 0.078462 -0.042193 -0.094020 0.094054 -0.032088 0.046271 0.037150 -0.050092 0.097200 0.007263 -0.071254 0.084274 0.030254 -0.036362 0.003932 -0.095927 0.054942 -0.021580 -0.098157 0.035329 0.095911 -0.031161 -0.081041 0.047133 -0.062218 -0.049508 0.012303 -0.067729 -0.082610 0.028104 0.073215 0.043927 0.009189 -0.139160 -0.050946 -0.155802 -0.014258 0.025149 -0.056367 0.136822 -0.065437 0.176021 0.033221 -0.135932 -0.003872 0.013661 -0.011683 -0.101672 0.051526 -0.027443 -0.101849 0.090056 0.019912 -0.040727 -0.061438 -0.171024 0.091168 -0.036728 0.010342 -0.125496 0.132445 0.056884 -0.087122 0.068145 0.055896 0.132176 0.179290 -0.093324 -0.115467 0.129575 -0.069952 0.083185 0.104583 -0.067213 0.036401 0.043499 -0.049209 0.074169 -0.229532 -0.006203 -0.041008 -0.173575 -0.064792 -0.111215 0.074258 -0.055449 -0.121321 0.085245 -0.030037 0.067519 -0.128075 -0.107333 -0.096000 0.038101 0.026869 -0.042186 0.017126 -0.188083 0.028779 -0.032220 -0.090588 -0.005395 0.010816 0.114563 0.203240 -0.059260 0.075245 0.020319 -0.093745 0.012955 -0.003040 0.001762 0.097120 -0.023216 -0.010071 -0.046450 0.137952 -0.021180 0.061342 -0.037912 0.003403 0.115954 -0.040478
1054 0.046662 0.037017 0.024081 -0.080076 -0.053070 0.094963 -0.036463 -0.120015 0.030590 0.038130 0.059807 0.042047 -0.001635 0.006145 0.009647 -0.043257 -0.005566 0.051179 0.001815 0.079875 -0.071221 -0.000536 -0.037580 -0.134779 -0.063290 -0.031984 0.000086 -0.081036 0.014756 -0.108867 -0.019687 0.041825 -0.183530 -0.120555 0.117697 -0.003096 0.120943 0.052462 -0.166885 -0.006936 -0.196178 0.109879 0.028939 -0.020281 -0.054280 -0.114755 0.067489 -0.066179 -0.133483 -0.026926 -0.053779 -0.182762 -0.070394 0.088863 -0.039792 -0.099644 -0.025111 0.083439 -0.044080 -0.043258 -0.167493 0.055890 -0.025913 -0.028766 -0.134942 0.084819 -0.029614 -0.175756 0.064367 -0.015150 0.166375 0.081748 0.091524 -0.095570 0.118489 -0.019833 0.131726 0.003549 -0.075763 -0.087682 -0.024092 -0.119071 0.097351 -0.180661 -0.106259 -0.082381 -0.072261 -0.020775 -0.245404 0.082620 -0.081942 0.110031 0.083496 0.064829 -0.035403 -0.110786 0.015005 0.006170 0.002961 0.034890 -0.022650 0.079600 -0.095526 -0.009564 -0.091139 -0.046875 0.031786 0.095784 0.008993 -0.007031 0.074528 0.010017 0.073141 -0.086525 -0.034953 -0.101320 -0.035029 0.086419 -0.032955 -0.023175 -0.048854 -0.174475 0.047567 -0.056997 -0.093030 0.034832 -0.028725 -0.005867
417 0.017776 -0.004963 0.031172 -0.055148 -0.055290 0.111958 -0.112379 -0.091406 0.116346 0.031615 -0.000428 0.044658 -0.034334 -0.000572 0.006462 -0.034105 0.061663 0.009786 -0.057739 0.048387 0.018391 0.022233 -0.007188 -0.071708 -0.169857 0.014612 0.001282 -0.077267 0.056859 -0.067149 -0.077999 0.049002 -0.055525 -0.056156 0.049064 0.045768 0.125877 -0.001643 -0.141373 -0.047186 -0.156862 0.171717 -0.009693 -0.000041 -0.074053 -0.079649 0.153476 -0.060276 -0.224006 -0.013731 0.041632 -0.039388 -0.044649 0.032924 0.020613 -0.024653 -0.123788 0.140524 -0.060886 -0.006241 -0.214336 0.080095 -0.081639 -0.049761 -0.168863 0.174568 -0.025770 -0.168016 -0.016550 0.055736 0.142220 0.128264 0.135405 -0.114826 0.151275 -0.084107 0.052949 0.098446 -0.074555 -0.045083 0.001392 -0.096423 0.070105 -0.193652 -0.097988 -0.059860 -0.096297 -0.110244 -0.117861 -0.014279 -0.001183 0.042209 0.124844 0.046172 -0.015725 -0.146526 -0.015305 0.066060 -0.071038 -0.012103 0.034965 0.028455 -0.161108 0.075742 -0.026919 -0.012614 0.022084 0.000811 0.011795 -0.030497 -0.043244 -0.016362 0.050012 -0.100875 -0.096949 0.060695 -0.031800 0.111785 -0.068377 -0.046452 -0.056345 -0.077349 -0.042625 -0.060169 -0.054946 0.028536 -0.096007 -0.081176
756 -0.137296 0.124241 0.032328 -0.006938 -0.092349 0.032340 -0.100645 -0.064876 0.074149 0.092323 0.149490 -0.016177 0.076393 0.025165 -0.007034 0.052251 0.151768 0.050596 0.066318 -0.006550 -0.139868 -0.016504 -0.039939 -0.017891 -0.069953 0.071377 -0.023136 -0.108701 -0.078217 0.063925 -0.001424 0.057296 -0.015260 -0.022046 0.058050 0.085742 0.131500 -0.022390 -0.055426 0.012299 -0.138713 0.171847 0.104522 -0.039383 -0.005309 -0.075967 0.082895 0.030128 -0.147774 -0.006906 -0.057804 0.100539 -0.069016 -0.005806 -0.045932 -0.106787 -0.128167 0.035060 -0.035041 -0.052990 -0.177539 -0.043485 0.011730 -0.028488 -0.048600 0.002375 -0.046351 -0.180747 0.112309 0.026020 0.212425 0.016113 0.051563 0.006610 0.074737 0.007013 0.030516 0.080567 -0.157644 0.028001 0.071652 0.029361 -0.032939 -0.074782 -0.116855 -0.079246 -0.100801 -0.072722 -0.243788 -0.127302 -0.189405 0.066722 0.041511 0.025856 -0.069661 -0.144816 0.047020 0.133107 0.003742 0.016669 0.085318 -0.007672 -0.074068 0.038393 0.016018 -0.088636 0.034704 -0.026565 0.073978 0.030256 -0.093989 -0.043729 0.143564 -0.031603 -0.149466 -0.205490 0.029168 0.069853 -0.087472 -0.052705 -0.045113 -0.015212 -0.002373 0.080213 -0.148984 -0.079633 0.147181 -0.131175
759 0.039672 0.060845 0.028917 -0.012276 0.037886 0.005543 -0.015256 -0.029274 0.100634 0.101587 0.038329 0.115602 -0.067709 0.107175 0.017449 0.095174 0.084935 0.036091 0.036595 -0.072971 -0.051699 0.000489 0.035475 0.022922 -0.138037 0.059154 -0.021316 -0.110658 0.005732 -0.069755 -0.037968 0.081529 -0.008505 -0.015103 0.042341 0.116392 0.104433 0.092473 -0.080913 -0.010684 -0.136071 0.054576 -0.037875 -0.023251 0.031773 -0.023139 0.125661 0.079636 -0.125760 0.027006 -0.111382 0.067304 -0.151672 0.072339 -0.081708 -0.042844 0.002310 0.109979 0.023317 0.032568 -0.125811 0.008760 0.039085 -0.051607 -0.038832 0.065640 0.033204 -0.191512 0.013710 0.002191 0.328189 0.008860 -0.033474 -0.026412 0.042638 0.022526 0.085640 0.137708 -0.150302 0.080016 0.169966 0.057253 -0.000004 -0.056774 -0.035437 -0.083317 -0.080574 -0.028942 -0.267057 0.019735 -0.174358 0.028853 0.060607 0.042196 -0.001979 -0.130411 0.013319 0.166456 -0.028179 0.105728 0.065854 0.007996 -0.131644 -0.013948 0.038413 0.024846 0.028285 0.053478 0.079567 0.033034 -0.031124 -0.083447 0.169919 0.043059 -0.192328 -0.073266 0.005180 0.121099 -0.092629 -0.076244 -0.048609 0.025454 -0.018865 0.142847 -0.169954 0.023010 0.095506 -0.113165
1478 -0.034912 0.012055 0.015620 -0.023253 -0.020443 0.080236 -0.104087 -0.047235 0.090960 0.030145 0.088428 -0.010115 -0.057869 -0.049552 -0.018152 0.127132 0.108909 0.062585 0.005203 0.005128 -0.099004 0.061070 0.057390 -0.019305 -0.065116 0.054523 -0.058776 -0.151385 0.106508 -0.090738 -0.077133 0.093706 -0.089817 -0.127966 -0.027188 0.041830 0.104747 0.063867 -0.042093 0.095030 -0.195383 0.093395 0.001824 -0.100977 -0.010628 -0.038887 0.066792 0.015591 -0.118689 0.046851 -0.129778 -0.008856 -0.072283 0.114896 -0.135001 -0.100191 -0.027527 0.071402 -0.104224 -0.019306 -0.146211 -0.017790 0.001086 0.053591 -0.009193 0.013897 0.102361 -0.155304 0.073348 -0.005150 0.186125 -0.010827 0.015407 -0.123005 0.094649 -0.004160 -0.035952 0.062918 -0.118577 0.017756 0.136827 0.078430 -0.021322 -0.092312 -0.116788 -0.128487 -0.141032 -0.021730 -0.233620 -0.032136 -0.177699 0.043274 0.101426 0.126096 -0.057310 -0.069626 -0.075687 0.091433 0.102724 0.020001 0.089187 0.094848 -0.120888 0.039688 -0.009843 -0.128495 -0.100164 0.074304 0.094581 0.085615 -0.004441 -0.039082 0.130283 0.000029 0.007914 -0.011917 0.064424 0.091427 -0.013972 -0.145858 0.003588 -0.013331 -0.034437 0.134762 -0.052121 -0.045241 0.133519 -0.138217
1238 -0.026042 0.038337 0.047651 -0.142365 -0.076412 0.051192 -0.117296 -0.100511 0.123425 0.093883 0.065568 0.120917 -0.071758 -0.039897 0.028073 -0.050614 -0.050026 0.067016 -0.054543 0.047406 -0.044429 -0.162413 -0.061390 -0.203646 -0.058099 0.085737 0.031318 -0.063107 0.024542 0.047818 0.017574 0.050034 -0.078930 -0.034776 0.132350 0.048514 -0.083768 0.009715 -0.155853 0.017656 -0.104646 0.206408 0.055360 -0.111989 -0.130166 -0.097061 0.102877 -0.023685 -0.082171 -0.037182 -0.054891 -0.161574 -0.148319 0.089526 -0.013206 -0.092312 0.077138 0.127016 -0.008275 -0.116560 -0.105763 -0.009138 0.046385 -0.020530 -0.074605 0.159894 -0.016550 -0.217101 0.138201 0.103552 0.116781 0.097963 0.052915 -0.035508 0.126372 -0.039348 0.231273 0.105288 -0.152898 -0.007358 0.042729 -0.180287 -0.032490 -0.118795 -0.068809 -0.079923 -0.132593 -0.047064 -0.179753 0.007771 -0.065724 -0.051258 0.077751 -0.120168 -0.045403 -0.042247 -0.101809 0.188016 -0.048129 -0.015102 -0.075660 0.046523 -0.104843 0.080355 -0.014677 -0.034597 -0.086275 -0.031689 -0.009307 0.010908 -0.004891 -0.085341 0.017054 -0.097882 0.016097 0.001773 -0.063722 0.106460 -0.018361 -0.019878 -0.049403 -0.178835 0.018260 0.017903 -0.045208 -0.027239 -0.082517 -0.094276
1390 0.058284 -0.050137 0.081136 -0.053015 -0.043525 0.057421 -0.080276 -0.147867 0.126982 0.009917 0.034199 0.077190 -0.006870 0.050882 0.035264 -0.007984 0.146471 0.048589 0.025894 0.026967 -0.085327 0.050875 -0.023172 -0.097719 -0.167285 -0.111248 0.017667 -0.035657 0.143694 -0.010833 -0.095971 0.060678 -0.077844 -0.084096 0.063534 0.038514 0.012778 0.055492 -0.175545 -0.031541 -0.146335 0.103009 0.019536 -0.078922 -0.030799 -0.083537 0.074026 -0.018192 -0.110290 -0.040497 -0.000212 -0.105416 -0.021827 0.164730 0.027080 -0.042484 -0.080436 0.070864 -0.117185 -0.013054 -0.095537 0.090546 -0.007076 -0.010580 -0.142222 0.119803 0.007628 -0.243650 0.060138 0.058581 0.110076 0.029644 0.086042 -0.043922 0.146364 -0.108421 0.041461 0.059267 -0.070948 0.013607 0.065601 -0.120817 0.004374 -0.156965 -0.123529 -0.057089 -0.062055 -0.085387 -0.218801 0.060633 -0.046560 0.063274 0.055247 -0.051962 -0.008884 -0.111393 0.006056 0.094049 -0.008758 0.006856 -0.023520 0.040469 -0.138738 0.046022 -0.117729 0.028242 -0.032868 -0.059006 -0.019043 -0.062196 -0.018264 0.009002 0.116906 -0.102521 -0.060221 -0.015992 -0.045397 0.135641 -0.022542 -0.030654 -0.041516 -0.023162 0.003620 -0.047883 -0.016460 0.027130 0.037442 -0.014938
775 -0.022852 -0.057505 0.022856 0.033518 -0.087850 -0.081518 -0.049975 -0.019630 0.089459 0.038958 0.060235 -0.022037 0.128924 -0.030542 -0.117723 -0.130175 0.058036 -0.045358 0.058154 -0.072185 -0.014460 -0.006519 -0.056105 -0.109326 -0.001166 0.020946 0.021909 -0.129241 0.035151 -0.028866 -0.078437 0.064815 -0.049586 -0.107142 0.034292 0.064297 0.035870 0.064938 -0.108399 0.055299 -0.173676 0.173218 -0.041994 0.006972 0.043783 -0.083886 0.094379 -0.057687 0.077144 -0.077978 -0.093472 -0.004895 -0.023199 0.054567 0.087543 -0.131267 -0.032188 0.025516 -0.099273 -0.064709 0.034982 -0.107507 0.019933 0.010028 -0.065640 0.100451 -0.068192 -0.222022 0.043854 -0.051000 0.030574 0.007650 -0.021414 0.016433 0.109057 -0.119412 -0.031780 0.164752 -0.076474 0.051871 0.005959 -0.073497 -0.029410 -0.089561 0.032256 -0.030459 -0.190849 -0.067793 -0.126946 0.086665 -0.159693 -0.040030 0.028547 -0.022632 -0.111962 -0.092901 -0.042586 0.113910 0.006644 0.078991 -0.029412 0.003023 -0.238285 -0.015424 -0.123137 -0.127349 -0.020625 -0.024153 0.076225 -0.003359 -0.023369 0.018112 0.054886 -0.057492 -0.033332 0.053924 0.001506 0.057754 -0.145074 -0.072818 -0.016888 0.012256 -0.032227 0.017901 -0.084060 -0.056271 0.145952 0.093109
1348 -0.093269 0.097045 0.110444 0.029205 -0.032010 0.072191 -0.120753 0.011086 0.057357 0.065653 0.115494 -0.012362 -0.092694 0.011987 0.067359 0.052795 0.044589 0.016385 0.008674 -0.081817 -0.003080 0.051601 -0.022603 0.019084 -0.117022 0.010042 -0.039283 -0.126741 0.056338 -0.062232 -0.002478 0.004480 -0.009822 -0.058976 0.009581 0.131592 0.135762 0.046596 -0.122246 0.043848 -0.276217 0.109346 0.061366 -0.019627 0.046997 -0.080421 0.060080 -0.023438 -0.191279 -0.015999 -0.169434 -0.043878 -0.113913 0.104416 -0.023917 -0.070346 -0.056275 0.094363 -0.059589 0.006579 -0.139674 0.028984 0.024556 -0.002227 0.035429 0.028669 0.001144 -0.073138 -0.011897 -0.030376 0.213101 0.072415 0.030116 -0.155610 0.032964 -0.022989 0.024102 0.090740 -0.136227 0.014447 0.135504 -0.018420 -0.031681 -0.094977 -0.022704 0.000525 -0.218130 -0.089165 -0.153216 0.024207 -0.089319 0.024249 -0.009501 0.045612 -0.039352 -0.094232 0.082415 0.062633 -0.005390 0.050967 0.037029 -0.095427 -0.039179 0.035903 0.025011 -0.065128 0.011788 -0.077743 0.154085 0.093879 -0.085637 -0.032217 0.126954 -0.028489 -0.179141 -0.161841 -0.025830 0.129136 -0.126137 -0.104768 0.026226 -0.096727 -0.046899 0.063865 -0.066577 -0.015237 0.088132 -0.038864
1152 -0.092814 -0.019634 0.151641 -0.011023 -0.066674 0.020849 -0.034822 -0.111740 0.076134 -0.036118 -0.031677 0.075740 -0.009222 0.118440 0.029792 0.014689 0.082190 0.004637 0.052689 -0.027087 -0.008413 0.092104 -0.058989 -0.180309 -0.104254 0.084241 -0.069870 -0.078527 0.112316 -0.015174 0.018474 0.128363 -0.010071 -0.090109 0.025639 -0.010237 0.114259 0.009519 -0.152312 -0.065967 -0.074345 0.068096 0.041325 -0.061621 0.044107 -0.070949 0.127256 0.016150 -0.085346 -0.029721 -0.089791 -0.144669 -0.065241 0.029940 0.019395 -0.101837 0.043931 0.085000 -0.103071 0.042140 -0.010639 0.038123 0.067847 -0.005469 -0.026461 0.042443 -0.046275 -0.048483 0.126664 0.064706 0.159236 -0.014184 -0.043794 -0.085801 0.106460 -0.007874 0.031940 0.085198 -0.127851 -0.068970 -0.001729 -0.125736 -0.017958 -0.079019 -0.025087 -0.186397 -0.090044 -0.057696 -0.187272 -0.023860 -0.127279 -0.069771 0.065402 0.057174 -0.007863 -0.117297 0.040650 0.028735 -0.046300 -0.023871 -0.025616 0.131992 -0.167532 0.086982 -0.044483 -0.033183 0.018569 -0.011206 0.176547 0.002920 -0.016801 0.021505 0.178434 -0.106219 -0.040053 -0.009265 -0.079903 0.081380 -0.154660 -0.091774 -0.152891 -0.047980 0.060362 0.012452 -0.124071 -0.064186 0.113915 -0.057244
25 -0.027342 -0.067130 0.062221 0.038335 -0.014292 0.042694 0.026916 -0.064833 0.046077 0.144777 -0.011789 -0.007410 0.095751 -0.061765 0.031434 -0.078483 0.052139 0.027118 0.010324 -0.037726 0.040052 -0.014134 -0.011060 -0.037253 -0.056527 -0.044294 -0.008546 -0.076180 -0.010451 -0.059049 -0.047440 0.065077 0.005094 -0.067924 0.017957 0.038303 0.021096 0.063082 -0.121874 0.069661 -0.133472 0.135607 0.037179 0.028967 -0.019074 -0.047859 0.185235 0.040286 0.073787 -0.034190 -0.154123 -0.130623 -0.046247 -0.007607 -0.027354 -0.064010 0.107159 0.068546 -0.157775 -0.046663 0.001888 -0.091300 0.007546 -0.010935 -0.048554 0.068505 0.013792 -0.163023 0.060827 -0.057538 0.049791 -0.004449 -0.107501 -0.084770 0.156093 -0.027498 -0.017071 0.101624 -0.124317 -0.023874 0.021322 -0.105803 -0.018937 -0.077146 -0.001373 -0.123817 -0.143396 -0.076863 -0.095410 0.092614 -0.139019 0.060213 -0.001262 -0.051369 -0.034381 -0.094704 -0.016028 0.082724 -0.000929 0.018113 0.106049 0.055645 -0.219920 0.072813 -0.135403 -0.168408 0.060450 -0.007622 0.116933 0.007638 0.034805 -0.161634 -0.016265 -0.105618 -0.080214 -0.009130 0.053061 0.056003 -0.145787 -0.107780 -0.104896 0.020640 -0.060476 -0.005440 -0.081980 -0.071689 0.114922 0.078300
399 -0.014718 -0.096674 0.064173 0.018174 -0.109207 -0.033845 -0.145533 0.043792 0.165411 0.093213 0.031338 -0.150445 0.127301 0.059240 0.053756 -0.077502 0.009252 0.002010 0.068012 -0.034289 -0.053583 0.002110 -0.027959 -0.146664 -0.093164 0.055041 -0.007017 -0.108619 0.151722 -0.068168 -0.041455 0.072814 -0.049835 -0.053286 -0.005585 0.084227 0.042959 0.034548 -0.107978 -0.036281 -0.187941 0.121832 -0.034834 -0.025722 0.045106 0.064091 0.094350 0.087639 0.045570 -0.014034 -0.206937 -0.018239 0.017857 0.023295 -0.091720 0.010278 0.071438 0.004463 0.010066 -0.050257 -0.055647 -0.046289 -0.112241 0.084751 -0.127513 0.043995 -0.038951 -0.146055 -0.124058 -0.002778 0.111455 -0.084319 0.009650 -0.172415 0.083854 -0.097944 0.010615 0.108189 -0.020258 0.022923 0.044048 0.024620 -0.055229 -0.194389 0.050600 -0.091133 -0.152146 0.029972 0.008430 0.073664 -0.071738 0.053255 0.064505 -0.019615 -0.113583 -0.085234 -0.016240 -0.018295 -0.047109 0.129325 0.083804 0.142900 -0.076238 -0.011481 0.041562 -0.102215 0.018860 -0.053010 0.079740 -0.032150 0.038640 -0.019108 0.117697 0.004298 -0.014724 -0.063876 -0.042607 0.166414 -0.020247 -0.019447 -0.047411 0.009205 -0.039178 0.044604 -0.047386 -0.046848 0.083091 -0.077908
858 -0.053159 -0.011417 0.079334 -0.140687 0.002392 0.116973 -0.050172 -0.063140 0.276883 0.134897 0.085373 0.219761 0.011198 -0.008971 0.010577 -0.016614 0.086217 -0.019998 0.013662 0.026967 0.039926 0.027991 -0.038618 -0.245401 -0.025163 0.040835 0.064057 -0.116835 0.072311 0.040966 -0.029728 0.093300 -0.073667 -0.093817 0.043496 0.075118 0.100141 -0.018039 -0.247284 0.004179 -0.165261 0.142102 0.072301 -0.033775 -0.093779 -0.091925 0.154920 -0.005101 -0.064021 -0.050834 0.034705 -0.042437 -0.062335 0.027168 -0.082323 0.033071 0.051698 0.046937 0.039309 -0.009993 -0.074771 -0.027370 0.063761 0.014809 -0.109242 0.014453 -0.063131 -0.206108 0.073333 0.033215 0.127430 0.102398 -0.056803 -0.086047 0.051864 -0.009720 0.001367 0.102919 -0.106439 -0.051719 0.005450 -0.064070 -0.044711 -0.125409 -0.059437 -0.073671 -0.143065 -0.061985 -0.166723 -0.099855 -0.083545 0.036437 0.069520 -0.050569 -0.113459 -0.097830 0.046407 0.030873 -0.050658 -0.087084 -0.017804 0.125938 -0.109730 0.029885 -0.028254 -0.112232 0.064001 0.016511 0.046588 -0.013479 -0.069861 -0.078369 0.068678 -0.160300 -0.019875 -0.142516 -0.035732 0.075575 0.048433 -0.126330 -0.069436 -0.122921 -0.062301 -0.066296 -0.077484 -0.000429 0.016167 -0.051096
898 -0.073121 -0.073711 0.106438 0.054002 -0.017739 0.024466 -0.063004 -0.053972 0.079402 0.111446 0.025733 -0.120059 0.094623 0.049500 0.068418 -0.045677 0.087813 0.035888 0.007179 0.001147 -0.030355 -0.048635 0.060625 -0.021134 -0.073778 0.001902 0.028195 -0.054476 0.100511 -0.116183 -0.001016 0.006965 -0.038086 -0.027227 0.003244 -0.036111 0.062143 0.027509 -0.124045 -0.089781 -0.125743 0.082579 -0.045384 -0.013663 -0.010676 0.065696 0.090154 0.087480 0.006494 0.080386 -0.097595 0.034862 -0.012654 -0.014736 -0.036295 -0.005327 0.000243 0.077269 -0.042013 -0.041357 -0.073904 -0.042961 0.022694 0.023091 -0.119360 0.026652 0.028247 -0.158373 -0.058561 -0.049964 0.100090 -0.000133 -0.014630 -0.079246 0.121006 -0.118517 -0.043382 0.084728 0.016159 0.090334 0.048922 -0.094824 -0.182551 -0.102217 0.032460 -0.150883 -0.105293 -0.038371 -0.109391 0.071173 -0.105166 -0.003728 0.003579 -0.044000 -0.113181 -0.044564 -0.078881 0.056487 0.026283 0.069403 0.071875 0.067398 -0.187802 0.018196 -0.023422 -0.160243 0.022923 -0.046006 0.163916 0.023307 0.066321 -0.044903 -0.014186 -0.122186 0.006791 -0.064622 -0.027326 0.105466 -0.080226 -0.101999 -0.090467 0.024256 -0.060117 -0.034370 -0.081926 -0.044951 0.117666 -0.065094
396 -0.011966 0.020692 0.045555 -0.021048 -0.088343 0.146640 -0.048901 -0.029340 0.103890 0.032177 0.049760 0.091987 0.000341 -0.012579 -0.059005 0.037833 0.042548 0.089170 -0.010558 -0.063592 -0.111609 0.017059 -0.025115 -0.097549 -0.113416 0.052717 -0.022357 -0.051842 0.065260 -0.035149 0.019858 0.009192 -0.112594 -0.111664 0.073845 0.000311 0.067417 0.038990 -0.138537 -0.020792 -0.072839 0.114505 0.029487 -0.056906 -0.016926 -0.089649 0.137932 -0.069319 -0.129287 -0.038667 -0.055593 -0.076639 -0.043807 0.019636 0.081597 -0.104982 -0.044960 0.082232 -0.106523 -0.013750 -0.169351 0.014942 -0.074666 0.013350 -0.154636 0.010069 0.018202 -0.213289 0.012317 0.091468 0.076054 0.004597 0.005293 -0.105567 0.032678 -0.096900 0.020837 0.097813 -0.023372 0.019143 0.071689 -0.064536 -0.029831 -0.126455 -0.092338 -0.171653 -0.086779 -0.070346 -0.193427 0.035088 -0.097712 -0.069166 0.091510 -0.023047 -0.049439 -0.073943 -0.001551 0.037585 -0.072254 0.025131 0.044567 0.128684 -0.129536 0.036000 -0.051826 -0.036755 0.015977 0.096068 0.055617 0.055000 -0.029056 0.050578 0.176263 -0.100820 -0.039690 -0.021711 -0.066853 0.030970 -0.044960 -0.058836 -0.129593 0.000882 0.035979 -0.015753 0.003347 -0.012082 0.043286 -0.083465
824 0.065971 0.027619 0.107400 0.026620 -0.125515 0.064508 -0.059250 -0.032216 0.139796 0.055697 0.064232 0.057001 0.065199 0.004460 0.036456 0.083468 0.002494 0.037272 0.000426 0.011726 0.000410 0.043494 0.072124 -0.023142 -0.074770 0.102287 -0.079107 -0.155759 -0.010195 -0.048723 0.033901 0.027062 0.010874 0.020027 -0.077964 0.145760 0.104679 0.099294 -0.151860 0.041024 -0.168158 0.112396 -0.007812 -0.031203 -0.026157 0.008644 0.088323 0.053033 0.043654 0.104920 -0.100044 0.037653 -0.046187 0.088414 -0.042769 -0.086114 0.040969 0.058543 0.013155 0.013924 -0.048151 0.102504 -0.052775 0.024437 -0.102339 0.105297 0.018437 -0.235278 -0.033764 -0.037250 0.191848 -0.048371 -0.038671 0.021170 0.181116 -0.159149 -0.023666 0.224587 -0.127189 0.046974 0.174935 -0.107934 -0.035851 -0.149547 -0.013610 -0.137573 -0.120249 -0.038147 -0.159794 0.067910 -0.246677 -0.022694 0.052042 -0.005625 -0.052566 -0.026746 0.017677 0.085961 -0.082375 -0.056317 -0.005085 0.015771 0.003994 0.050340 0.027836 -0.055988 -0.036805 0.084995 -0.051666 -0.003269 0.058825 -0.041174 0.081116 -0.018375 -0.039429 0.007837 -0.054877 0.004374 -0.021796 -0.116092 -0.116060 -0.037114 -0.009707 -0.017634 0.027698 -0.128807 0.080996 0.005842
587 0.017115 -0.044122 0.065114 0.031384 -0.087780 0.038418 -0.203819 -0.113512 0.204992 0.034094 -0.050344 0.097347 0.021336 0.005166 -0.066007 -0.112507 0.026294 0.052904 -0.015787 0.014533 0.021734 -0.006422 0.000508 -0.115773 -0.015776 0.115617 0.070535 -0.035193 0.111391 -0.054865 -0.082057 0.083820 -0.054300 -0.045174 0.081808 0.041085 0.020461 -0.033457 -0.179731 0.035733 -0.108380 0.129512 0.040892 -0.124128 -0.112490 -0.052569 0.058746 0.066590 -0.156581 0.049293 -0.095199 -0.134721 -0.040334 0.052254 -0.053390 -0.135455 0.027879 0.127779 -0.102363 -0.148826 -0.109452 -0.005604 0.037421 0.103308 -0.007614 -0.005447 -0.006349 -0.196211 0.227336 0.060540 0.096685 0.040925 -0.059932 -0.133075 0.083413 0.089443 -0.016508 0.172830 -0.134466 -0.009049 0.010272 -0.047628 -0.041162 -0.181855 -0.037801 -0.095813 -0.083611 -0.072813 -0.219118 -0.032868 -0.180537 0.000891 0.016407 -0.028302 -0.149909 -0.105490 -0.132036 0.131800 -0.015066 0.110454 -0.021435 0.061782 -0.091804 0.172352 -0.101282 -0.158888 0.092682 0.078004 -0.009935 -0.001211 0.032576 -0.008706 0.037737 -0.101650 -0.124842 0.053722 -0.048817 -0.006572 0.062708 -0.150208 -0.086621 -0.107721 -0.064505 -0.057689 -0.032231 -0.057143 -0.004256 -0.087876
983 -0.000871 -0.060220 0.052719 0.076479 -0.084287 -0.115805 -0.068114 -0.026081 0.057862 -0.027364 0.021637 -0.033044 0.032532 -0.020299 -0.065489 -0.119381 -0.018382 0.068701 0.125757 0.050209 -0.167022 -0.034336 0.084131 -0.059051 -0.062122 0.021395 0.078853 -0.092997 0.068725 -0.119163 -0.080254 -0.005873 -0.105948 -0.153074 -0.029450 -0.047653 0.007694 -0.044140 -0.108850 0.018723 -0.252146 0.097606 0.055858 -0.098220 0.022863 0.091374 0.167691 0.020543 -0.028899 0.009111 -0.216766 0.065968 0.010844 -0.110801 -0.027482 0.022541 -0.042352 0.005097 -0.036318 0.001186 -0.124330 -0.035336 -0.064869 0.067952 0.002339 0.050051 -0.030292 0.013904 0.044238 -0.100553 0.147396 -0.087029 0.089500 -0.093199 0.124957 -0.106087 0.063596 0.090563 -0.017177 -0.030161 0.104718 -0.030320 -0.039967 -0.200744 0.144067 -0.018287 -0.055168 -0.081576 -0.090069 0.010918 -0.100707 0.101896 0.158010 0.146246 -0.120268 -0.085421 -0.027379 0.099420 -0.069665 0.068112 0.018180 -0.014735 -0.111807 -0.008151 -0.057897 -0.014939 0.118989 -0.038531 0.126523 0.007697 0.050314 -0.047249 0.004990 0.023778 -0.000224 0.020179 0.088664 0.073006 -0.054382 0.026754 -0.091137 0.108395 0.046878 0.120294 0.009474 -0.055316 0.060868 -0.046202
750 -0.041465 0.038442 0.159669 0.075525 -0.006514 0.058759 -0.008686 -0.007573 0.048371 0.051806 0.104417 0.052295 0.053382 0.064292 0.013543 0.067572 0.040846 -0.022557 0.084594 -0.024172 -0.005628 0.043139 0.071557 0.000949 -0.174809 -0.009058 -0.129368 -0.127957 0.072109 -0.078989 -0.003799 0.056162 -0.052677 -0.079880 0.055465 0.040916 0.023335 0.043064 -0.113988 -0.082470 -0.144221 0.138822 0.006132 -0.099770 0.104394 -0.044359 0.144067 -0.025047 -0.027087 0.045012 -0.016743 0.008901 -0.068666 0.068007 -0.048362 -0.031409 -0.025549 0.058935 -0.034404 -0.024496 -0.057931 0.134101 -0.105245 -0.029912 -0.011766 0.097293 -0.013451 -0.226033 0.013098 0.088998 0.168092 0.036885 0.006827 0.007479 0.156212 -0.202410 -0.031380 0.174873 -0.045502 0.095406 0.068676 -0.059318 0.076888 -0.179670 -0.015761 -0.161183 -0.104731 -0.058651 -0.183691 0.033536 -0.232506 -0.055218 -0.038476 0.047513 -0.086405 -0.103053 0.010405 -0.061889 -0.057388 0.003701 0.014660 0.056524 0.059455 -0.018961 -0.048079 -0.052869 0.035017 0.092471 0.059974 -0.056805 0.000183 0.010571 0.054618 -0.069487 -0.184110 -0.036278 -0.015357 -0.022515 -0.119919 -0.078099 -0.132562 0.072568 -0.116495 0.051184 -0.062738 -0.027276 0.024378 -0.000066
647 0.007944 -0.018298 0.088084 0.026974 -0.027274 0.100188 -0.054292 0.019747 0.092484 0.023899 -0.015493 0.011295 0.039705 -0.100767 -0.009545 0.023278 0.013661 0.018138 0.066378 -0.008526 -0.041002 0.010247 0.009744 -0.063084 -0.195241 -0.001764 0.049248 -0.144902 0.077113 -0.089623 0.018438 0.044355 -0.009542 -0.028679 0.070899 0.012624 0.167754 0.058629 -0.133112 -0.061468 -0.133387 0.089588 -0.032863 0.042133 -0.033268 -0.025424 0.201042 0.002078 -0.095244 0.045573 -0.142894 -0.090586 0.016378 0.026798 0.165499 -0.060702 -0.043505 0.065805 -0.098098 0.106509 -0.083449 0.074902 -0.002926 0.001398 0.005352 0.107812 -0.004479 -0.132509 0.097120 -0.029719 0.211518 0.051599 -0.056781 0.000336 0.133824 -0.068807 0.125262 0.119838 -0.152637 0.049177 0.063327 -0.076631 0.039691 -0.077315 -0.085774 -0.133852 -0.086109 -0.074236 -0.173599 -0.009328 -0.134025 0.001741 0.003589 0.061290 -0.064714 -0.130077 -0.038319 0.025136 -0.050907 -0.051255 -0.011970 -0.015590 -0.094683 0.087909 -0.082511 -0.109311 0.037829 0.024980 0.012559 0.076519 0.022501 -0.030646 0.075867 -0.067486 -0.032357 -0.029795 -0.070036 0.151686 -0.014870 0.030190 -0.102780 0.014590 -0.020175 -0.057861 -0.119768 0.036428 0.033865 -0.031565
1334 -0.003912 0.007288 0.086491 -0.054156 -0.068623 0.029107 -0.071502 0.024445 0.161634 0.052110 0.031009 0.019100 -0.002548 -0.083172 0.116742 0.017911 0.003335 0.021648 0.072186 -0.069845 -0.064975 0.055243 0.033479 -0.087524 -0.168752 -0.017753 -0.041568 -0.117695 0.079754 -0.001405 0.022436 0.038537 0.012862 -0.124812 -0.079619 0.029145 0.093408 0.082780 -0.178007 -0.010698 -0.158623 0.100876 0.056897 -0.096453 -0.147563 -0.019622 0.110652 0.017785 -0.034369 0.094029 -0.045815 -0.136750 -0.021749 0.037633 -0.062472 -0.047085 0.010341 0.087941 -0.026802 -0.070529 -0.053100 0.034056 -0.065303 0.011631 -0.083463 -0.033745 -0.025118 -0.309695 0.007501 0.029396 0.135932 0.010169 -0.005134 -0.037039 0.129154 -0.193581 0.034759 0.099618 -0.035495 0.066747 0.115624 -0.057503 0.008315 -0.167733 0.037551 -0.086392 -0.074840 -0.050662 -0.162545 0.068785 -0.159634 -0.049880 0.055600 -0.023376 -0.115868 0.006792 0.034376 -0.009009 0.029740 -0.051833 0.022420 0.096620 0.050087 -0.011498 -0.054439 -0.061138 0.044104 0.098982 0.042404 -0.005205 0.058827 -0.035971 -0.017593 -0.055312 -0.083153 -0.038740 -0.005214 0.081745 -0.134640 -0.077324 -0.087976 -0.012349 -0.158613 0.022196 0.087750 -0.090761 0.051096 0.024497
9 -0.002252 0.011512 -0.026622 -0.056799 -0.002379 0.040815 -0.084553 0.025851 0.210025 0.107598 0.001313 0.100270 -0.019816 -0.020514 -0.000374 -0.041664 0.000991 0.016522 -0.009890 0.013520 -0.003129 0.016146 -0.040345 -0.198129 -0.008660 0.147085 0.087663 -0.107768 0.138537 0.017751 -0.077931 0.072215 -0.152966 0.008316 -0.007521 0.013120 0.085722 -0.003158 -0.234957 -0.010447 -0.168748 0.168770 0.020588 -0.059541 -0.076380 -0.052407 0.131025 -0.069796 -0.113013 -0.022455 -0.017395 -0.034409 -0.053271 0.087778 -0.027421 -0.061605 -0.051368 0.000270 -0.048624 -0.031374 -0.118420 -0.045385 -0.003438 0.022150 0.021332 -0.019195 0.011049 -0.168390 0.129265 0.021278 0.234844 0.097118 -0.083160 -0.054146 0.092487 0.075226 -0.016747 0.093249 -0.161932 -0.020043 0.034971 -0.021894 -0.069612 -0.191266 -0.117946 -0.134894 -0.041282 -0.070316 -0.181230 -0.018218 -0.101199 -0.013987 0.033376 -0.031130 -0.144873 -0.161074 -0.037910 0.129266 -0.088548 0.076705 0.018637 0.052264 -0.196445 0.069673 -0.084848 -0.148561 0.133569 0.026932 0.060620 -0.032832 0.027783 -0.083914 0.094628 -0.119937 -0.076658 0.019892 -0.073459 -0.004180 0.029744 -0.097259 -0.053655 -0.132851 -0.049821 -0.026915 -0.066216 -0.180979 0.045037 0.001437
1094 0.001894 -0.107364 0.124586 0.074554 -0.006542 0.000996 -0.036079 0.008215 0.049957 0.130812 -0.015156 0.000281 0.077357 -0.003599 0.003998 -0.185518 -0.126159 0.022180 0.022005 -0.031713 0.022926 -0.107614 0.023263 -0.049447 0.006088 -0.035763 -0.002622 -0.062486 -0.096230 -0.147649 -0.013640 0.029683 -0.138968 -0.105796 -0.010435 0.103381 0.081248 0.012703 -0.095427 -0.078122 -0.177346 0.135789 0.053966 -0.067408 0.050537 -0.035292 0.219255 0.086439 -0.018909 -0.004576 -0.084573 0.029771 0.033247 -0.073279 -0.109286 -0.044884 0.004866 -0.013118 0.003180 -0.037519 -0.053031 -0.025429 -0.042502 0.021484 -0.018612 0.061855 -0.002266 -0.054076 0.041316 -0.054219 0.171949 -0.007345 0.070059 0.033396 0.091287 -0.077172 -0.008529 0.069316 -0.072952 0.105084 0.081067 -0.138182 -0.044694 -0.137880 0.046283 -0.043443 -0.085747 -0.033289 -0.145682 0.093450 -0.039524 0.013953 0.060891 -0.005525 -0.024073 0.002654 0.035511 0.016982 -0.049236 0.080984 0.039333 0.022624 -0.148395 0.048833 -0.037145 -0.126252 0.061055 -0.032415 0.152946 -0.001763 0.021979 -0.024841 -0.024342 -0.027516 0.008412 -0.100871 -0.066084 0.083417 -0.072715 -0.084774 -0.062994 -0.004620 -0.006461 -0.048282 -0.016546 -0.076558 -0.023957 -0.015176
248 -0.039380 -0.035831 -0.003820 -0.033057 0.000029 0.065247 -0.112940 -0.053602 0.208390 0.089442 0.068781 0.035963 0.032969 -0.117966 0.042659 -0.116877 0.006502 0.037911 -0.011625 0.000908 0.013915 -0.053842 -0.000596 -0.220796 -0.040969 0.094059 0.136354 -0.087919 0.068819 0.020272 0.002835 0.095885 -0.069996 -0.127088 0.130605 0.037227 0.027192 -0.028423 -0.111599 0.025689 -0.078779 0.134964 -0.052714 -0.137547 -0.097210 -0.152390 0.124854 0.046690 -0.056086 0.008835 -0.035359 -0.025788 -0.010426 0.098325 -0.170607 -0.145928 -0.004395 0.104934 -0.132529 0.039368 -0.037133 0.000604 0.003114 -0.078193 -0.095132 0.072234 -0.016833 -0.141703 0.107611 -0.039922 0.240136 0.069521 -0.003979 -0.002951 0.062810 0.033144 -0.000960 0.088629 -0.145705 0.015053 0.027159 -0.094896 -0.051990 -0.168280 -0.040786 0.049821 -0.111601 -0.076765 -0.133082 0.075180 -0.110230 -0.003974 0.138206 -0.087727 -0.061142 -0.082339 0.014737 0.002880 0.013399 -0.082695 -0.031554 0.098105 -0.113967 -0.003129 -0.084815 -0.066323 0.010419 0.061372 0.141465 -0.112610 0.012281 0.010129 0.166312 -0.209064 0.027381 -0.057297 -0.033067 0.011742 0.001725 -0.073891 -0.124570 -0.059943 -0.037515 -0.032207 0.014169 -0.062409 0.135613 -0.004079
846 -0.079579 -0.070569 0.096942 -0.000505 -0.027015 -0.059916 -0.123104 0.053313 0.151839 0.134753 0.040588 -0.085725 0.156822 -0.002176 0.061388 0.001535 0.003393 -0.006561 0.128713 0.037011 -0.048147 -0.071535 0.023113 0.034530 -0.030826 0.023075 -0.006121 -0.127818 0.088619 -0.168555 -0.015566 0.044680 -0.115262 -0.149726 0.015883 0.041377 0.048552 -0.054860 -0.146040 0.023364 -0.174091 0.054891 -0.009940 -0.046477 0.059455 0.135022 0.079766 0.045462 0.026202 0.024871 -0.150252 -0.006303 0.000674 0.025777 0.004137 0.065841 -0.020850 -0.005639 -0.078046 0.069226 -0.088312 0.013278 -0.029724 0.077255 -0.190192 -0.037019 -0.057846 -0.182249 -0.031540 -0.011763 0.192061 -0.005535 -0.002221 -0.053593 0.006682 -0.073621 0.024124 0.072391 -0.084002 0.071985 -0.007974 0.037715 -0.033466 -0.131855 -0.042744 -0.130341 -0.076504 -0.021093 -0.124018 0.049422 -0.090621 -0.014900 0.003654 0.001254 -0.102652 -0.064355 0.039412 0.046259 -0.060900 0.031751 0.058229 0.120198 -0.181003 -0.032546 -0.027002 -0.128186 0.029900 -0.037023 0.111292 0.015929 0.103448 0.013943 -0.004182 -0.036731 -0.021233 -0.067062 -0.027744 0.101475 -0.070662 -0.062401 -0.053595 0.019821 -0.015112 0.023746 -0.066509 -0.021701 0.070257 -0.084779
205 -0.007325 0.052867 0.067652 0.089118 -0.058538 0.082552 -0.005089 -0.078149 0.139369 0.040901 0.010888 0.064444 -0.001689 0.002587 -0.061123 -0.055905 -0.029310 0.039380 0.006326 -0.063023 -0.046678 -0.024192 0.000476 0.038754 -0.112096 -0.039293 0.031976 -0.068765 0.014461 -0.046694 -0.039033 0.114937 -0.096718 -0.048388 0.100775 0.078669 0.085264 0.089146 -0.251125 0.001558 -0.162238 0.124260 0.048637 0.006894 0.031092 -0.049298 0.071402 0.036108 -0.175648 -0.031106 -0.006952 -0.030111 -0.095689 0.008631 0.084433 -0.131990 -0.057743 0.185462 -0.084507 0.084801 -0.145300 0.093570 0.025662 0.102430 -0.089667 0.061950 -0.035578 -0.162436 0.102193 0.037798 0.160802 0.071237 -0.019653 0.010868 -0.006083 -0.103516 0.155953 0.161149 -0.053764 0.054733 0.089430 -0.078209 0.000151 -0.139644 -0.015726 -0.062519 -0.117831 -0.076412 -0.159582 -0.032097 -0.153632 0.004288 0.005286 0.073806 -0.043377 -0.044144 -0.052935 0.119318 0.037628 0.042867 0.016890 0.015688 -0.020929 0.012903 -0.086116 -0.033514 -0.059153 0.149956 0.082416 0.020744 0.004322 0.002382 0.098606 -0.064325 -0.100703 -0.000913 -0.075093 0.046981 -0.058913 -0.020448 -0.085087 0.042785 -0.092345 0.050280 -0.065514 0.008974 0.094041 -0.005517
260 0.033761 0.005348 0.112438 -0.022692 -0.047468 0.062384 -0.057297 0.003688 0.120074 0.064572 0.043206 0.064727 0.069860 0.021209 0.056481 -0.022682 0.007745 -0.049359 -0.050355 0.017196 -0.016869 -0.022872 0.034371 -0.013807 -0.140084 0.018926 -0.149362 -0.130330 0.110330 -0.023090 -0.068402 0.075489 0.015058 0.032263 -0.016461 0.026265 0.123186 0.056323 -0.187138 -0.022984 -0.141761 0.217584 0.078870 -0.132278 0.000308 -0.042962 0.155279 -0.017489 -0.065482 0.012345 -0.127236 0.037218 0.048315 0.003272 -0.007065 -0.054400 0.008477 0.017594 -0.059801 -0.044213 -0.081644 0.132419 0.036164 -0.039718 -0.096441 0.093734 0.009459 -0.250415 -0.002635 0.083970 0.097662 -0.020520 -0.022635 -0.063525 0.053129 -0.118334 -0.094869 0.132244 -0.147455 0.038700 0.047741 -0.084625 0.032331 -0.099154 -0.060419 -0.111991 -0.080385 -0.127002 -0.201303 -0.024558 -0.223900 -0.003100 0.027571 0.033255 -0.150123 -0.123845 -0.047609 0.031479 -0.048251 -0.036569 -0.058982 0.086433 -0.060100 -0.065866 -0.030524 -0.094235 -0.036726 0.078824 0.017553 0.063167 0.039875 0.057749 -0.007978 -0.044891 -0.096801 -0.079185 -0.034626 0.073671 -0.072159 0.034933 -0.125828 0.066346 -0.060471 0.005575 -0.002202 -0.092352 -0.005603 -0.045533
1160 0.012361 0.070043 0.021833 -0.044216 -0.087585 0.069651 -0.041590 -0.053325 0.173393 -0.035537 -0.013425 0.008092 -0.051845 -0.076909 0.060071 -0.012602 0.024092 0.036350 -0.062077 -0.007589 0.018918 0.062849 -0.042030 -0.113451 -0.063097 0.038031 0.022021 -0.041327 0.140076 -0.130836 -0.134990 0.023531 -0.118100 0.017016 0.073837 0.079759 0.121281 0.022072 -0.244862 -0.031969 -0.074900 0.135081 0.128703 0.007664 -0.095450 -0.078787 0.130107 0.106430 -0.196374 0.012883 -0.067183 -0.001799 -0.061031 0.009689 0.092163 -0.068843 -0.057015 0.162561 0.036498 -0.102429 -0.162244 0.005899 0.059803 0.036165 0.041274 -0.080649 0.061890 -0.057440 0.165585 -0.032835 0.201110 0.083961 -0.048814 -0.143705 0.085215 -0.026704 0.079621 0.075344 -0.168077 -0.099110 0.130469 -0.046321 -0.026418 -0.215608 -0.038285 -0.133739 -0.126665 -0.144462 -0.149197 -0.031124 -0.124849 0.005510 0.073568 0.048451 -0.130981 -0.171634 -0.020768 0.138317 -0.018903 -0.057970 0.021928 0.090993 -0.160288 0.081391 -0.135388 -0.027185 0.033851 0.144901 0.054644 -0.018916 0.045194 -0.094126 -0.017894 -0.052634 -0.078940 0.019888 -0.029561 -0.036967 -0.085771 -0.103039 -0.128258 -0.091142 -0.030403 -0.096900 -0.169940 -0.021068 0.133338 -0.082425
249 0.064875 -0.041985 0.096371 -0.069847 -0.042628 -0.004331 -0.019389 0.003043 0.167208 0.105435 0.040405 -0.039743 0.046727 -0.002069 0.108352 0.036645 -0.055066 -0.011708 0.073721 -0.001081 -0.034208 0.009441 0.035061 0.013124 -0.138251 -0.002821 -0.101054 -0.103953 -0.002910 -0.091310 -0.011864 0.073649 -0.016158 0.011178 -0.056966 0.054491 0.092169 0.010617 -0.172203 -0.015400 -0.103734 0.193194 0.042183 -0.066427 -0.013350 -0.010438 0.149928 0.001623 0.036338 0.030408 -0.111128 -0.004704 -0.066921 -0.011140 -0.064268 -0.094580 -0.008485 -0.020749 0.029717 -0.030446 -0.062904 0.099149 -0.017381 -0.006261 -0.078581 0.058044 0.043679 -0.199688 0.040409 -0.001615 0.128682 0.025107 -0.023288 -0.019000 0.154256 -0.172186 -0.029823 0.157347 -0.155547 0.020119 0.183151 -0.184657 0.046850 -0.182272 -0.002742 -0.141755 -0.074098 -0.041321 -0.121328 -0.039418 -0.124107 -0.064110 0.104072 -0.032349 -0.076847 -0.119076 0.002196 0.011129 -0.073702 -0.099725 -0.055312 0.075430 -0.053297 0.017731 -0.050228 -0.025888 -0.042879 0.099177 0.079230 -0.028261 0.004176 -0.002594 0.019987 -0.056434 -0.022935 0.075193 -0.128771 0.007995 -0.062870 -0.126111 -0.052203 0.049100 -0.135223 0.055299 0.010052 -0.059558 0.041271 -0.014091
1527 -0.011384 -0.144564 0.066606 -0.015319 -0.001148 -0.007878 -0.071487 0.022075 -0.022877 0.061489 0.012746 -0.018512 0.075019 -0.019525 -0.040238 -0.066781 -0.031210 -0.073015 0.019324 -0.042406 -0.011075 -0.097152 -0.015568 -0.122376 0.010605 -0.051755 0.005868 -0.078350 0.109675 -0.105757 -0.068878 -0.012007 -0.028047 -0.099471 0.104869 0.045780 -0.000667 0.051660 -0.113899 -0.023756 -0.132177 0.169464 0.048876 -0.061565 -0.102176 -0.044005 0.164746 -0.070789 0.042774 0.016845 -0.177275 0.022163 -0.061838 -0.040163 0.012652 -0.084436 0.060310 0.151687 -0.088813 -0.086540 0.056617 -0.017992 -0.024082 -0.011128 -0.139156 0.033412 0.029106 -0.150507 0.032914 -0.041932 0.076315 0.040626 -0.159053 -0.069451 0.092859 -0.037634 -0.016822 0.177096 -0.113097 0.040879 0.072683 -0.118631 -0.008923 -0.136102 0.056956 -0.098626 -0.104733 -0.123847 -0.135755 0.107049 -0.143312 -0.000552 0.000986 -0.060974 -0.031232 -0.147358 0.021615 0.044120 -0.135794 0.024117 0.079279 0.023407 -0.134543 -0.000130 -0.049902 -0.167151 0.060234 -0.007355 0.138306 0.076402 0.014806 -0.067109 0.013997 -0.053812 0.027476 -0.031340 0.110504 0.031348 -0.103560 -0.012423 -0.020198 0.020566 0.018028 0.022747 -0.100801 -0.067958 0.000175 0.094098
46 -0.052754 -0.019181 0.123049 0.122907 0.003557 0.036568 -0.058960 -0.122371 0.022974 -0.020178 0.012744 0.004066 0.080279 0.068708 -0.020618 -0.267672 0.009571 -0.021834 0.142613 -0.006630 -0.193414 0.021719 -0.021972 -0.072978 -0.045103 -0.010769 -0.017082 -0.003372 0.052723 -0.132981 -0.090351 -0.087649 -0.033957 -0.143910 -0.070764 0.094765 0.060964 0.079791 -0.034973 -0.060244 -0.229756 0.014867 0.083276 -0.046485 0.098500 0.071618 0.182000 0.041457 -0.092132 0.071777 -0.089178 -0.016991 0.029679 -0.093724 -0.083949 0.005863 -0.006595 0.048153 -0.051427 0.032885 0.050780 -0.043579 -0.150325 0.124309 -0.016291 -0.002128 0.094051 0.063756 0.072354 -0.110029 0.192138 0.002428 0.092275 -0.026444 0.181417 -0.107799 0.186950 -0.000715 -0.099263 0.069872 0.137924 -0.159417 -0.095766 -0.125424 0.154059 -0.088340 -0.064272 0.005309 -0.112597 0.038383 -0.160751 0.031050 0.055620 -0.030338 -0.131695 0.015044 0.070342 0.073150 -0.031706 0.125009 0.004103 0.061747 -0.058972 0.096771 0.087565 -0.193424 0.071261 -0.057514 0.079190 -0.059301 -0.005864 -0.070526 -0.072187 0.024504 -0.034162 -0.036039 0.048683 0.024892 -0.071412 0.028759 -0.058124 0.024313 -0.000649 0.010591 0.023421 -0.016797 0.059957 -0.144860
258 -0.012816 -0.016247 0.066749 -0.100901 -0.006674 0.068454 -0.137313 -0.095594 0.162087 0.084899 0.040722 0.201608 0.018555 -0.100185 0.074603 0.031013 0.018597 -0.009748 0.061297 0.023872 -0.032352 -0.008122 -0.047495 -0.205616 -0.020199 0.055686 0.056020 -0.049200 0.035916 -0.049100 -0.019327 0.120520 -0.096589 -0.107836 0.051967 -0.043724 0.011329 -0.059367 -0.197046 0.073201 -0.121759 0.197860 0.042590 -0.001857 -0.002411 -0.127057 0.161842 -0.075980 -0.046366 0.062185 0.016996 -0.147307 -0.050360 0.024510 -0.146138 -0.045887 0.079817 0.108165 -0.100341 -0.006379 -0.099807 0.017917 0.023590 0.009061 -0.053433 0.068812 -0.097796 -0.225584 0.158467 -0.017623 0.063232 0.134934 -0.017296 -0.003211 0.035016 0.032670 -0.012993 0.106430 -0.067204 -0.005423 0.049401 -0.076333 -0.004102 -0.133771 -0.060273 -0.126651 -0.125933 -0.102253 -0.229720 -0.005831 -0.060237 -0.070505 0.081927 -0.056109 -0.120497 -0.118732 -0.013420 0.083855 -0.041789 0.111768 -0.030844 0.034755 -0.066598 0.029526 -0.073429 -0.140510 0.047554 0.052262 0.084284 -0.045966 0.011435 -0.068303 0.039653 -0.204797 0.001924 0.017562 -0.082042 0.076452 0.087352 -0.119005 -0.007094 -0.064910 -0.058477 -0.086595 -0.116247 0.018642 -0.000970 -0.074800
308 -0.025111 -0.142751 0.079381 0.019364 -0.099298 -0.012064 -0.112181 -0.035191 -0.006506 0.102208 0.039516 -0.065017 0.046003 0.055511 -0.082155 -0.247713 -0.011331 -0.054966 0.128200 0.070157 -0.101728 -0.073217 0.039244 0.009892 -0.049192 -0.077725 0.058081 -0.070223 0.030621 -0.114728 0.041119 0.085906 0.053135 -0.096069 -0.012266 -0.012959 -0.060115 -0.014139 -0.087450 0.036186 -0.228220 0.194360 0.105472 -0.145302 0.039314 0.159297 0.106108 -0.014773 -0.157880 -0.067287 -0.206525 0.086250 -0.048391 -0.111802 -0.059019 -0.027609 0.033080 0.004968 -0.109119 0.038067 -0.098168 -0.056909 -0.110316 0.018659 -0.036044 0.132264 0.074315 -0.017928 0.091301 -0.170323 0.188985 -0.009879 0.124277 -0.031288 0.154226 -0.036457 0.107309 0.067807 0.000379 0.005124 0.028258 -0.138898 -0.157524 -0.099599 0.064172 -0.036672 -0.017228 -0.056541 -0.108076 -0.006085 -0.100081 0.030703 0.138915 0.005750 -0.017272 0.008769 -0.072444 0.114023 0.047360 0.060686 -0.009064 0.018976 -0.116797 0.152591 -0.024005 -0.121937 -0.030521 0.000944 0.137762 0.061186 0.034762 -0.021760 -0.120801 -0.029421 0.060431 0.066140 -0.002141 0.004234 0.006706 0.045509 -0.121643 0.023241 0.070775 0.133185 0.020781 -0.061367 0.019964 -0.174533
609 -0.084443 -0.042986 0.048508 0.010880 -0.053214 -0.062836 -0.007014 -0.021020 0.099209 0.076734 0.100880 -0.105852 0.042005 -0.024402 -0.002582 -0.244178 0.018562 -0.082040 0.048778 0.053461 -0.160402 -0.115730 0.051507 0.037934 -0.069116 -0.028522 0.143514 -0.021255 0.055709 -0.113020 -0.104140 -0.005709 -0.029579 -0.148858 -0.013451 0.016032 0.026478 0.070535 -0.050324 0.004463 -0.167617 0.152395 0.007654 -0.101240 0.092642 0.016420 0.161718 0.040483 -0.094570 0.036648 -0.189638 0.095456 -0.005601 -0.153567 -0.061962 0.002914 -0.070084 -0.028790 -0.046293 0.012831 -0.026289 -0.044717 -0.051791 0.127575 -0.099117 0.054677 0.062365 -0.039844 0.063220 -0.156056 0.113472 -0.024986 0.079630 -0.020891 0.116480 -0.038141 0.143468 0.012014 -0.084743 0.080794 0.089290 -0.063376 -0.163205 -0.126235 0.179565 -0.050367 0.037167 -0.002672 -0.178686 0.088079 -0.050249 -0.031160 0.087663 -0.017422 -0.035830 -0.011905 0.020395 0.122051 -0.017512 0.085672 0.072394 -0.061664 -0.134655 0.157947 -0.081297 -0.155357 0.085540 0.011809 0.041649 -0.004861 0.042954 -0.016042 0.070509 0.009020 -0.009403 0.023358 -0.011626 0.128032 -0.049269 -0.036201 -0.041188 0.024272 0.032478 0.107980 -0.065355 -0.138270 0.005322 -0.176811
261 -0.008342 0.017095 -0.028812 -0.011961 0.032467 0.031217 -0.033533 -0.100296 0.138584 0.087378 0.036604 0.001175 0.105825 -0.011988 0.060865 -0.015327 -0.048763 0.154041 0.091615 0.050623 0.005329 0.064163 -0.043181 -0.101490 0.001487 -0.029515 0.022734 -0.060296 -0.029098 -0.083530 0.021175 0.029635 -0.058986 -0.043583 0.059852 0.008559 0.089595 0.031466 -0.101458 0.029093 -0.149608 0.108347 0.136868 -0.013817 -0.072589 -0.010551 0.160737 -0.018148 -0.037138 -0.057585 -0.094433 -0.018822 -0.024233 0.068879 -0.001426 -0.043623 -0.026570 0.077321 -0.032405 -0.025768 -0.115811 -0.027471 -0.016944 0.046360 -0.051157 0.010104 0.018566 -0.146534 0.064757 0.067985 0.161352 0.080430 -0.017168 -0.062647 0.156503 -0.050937 0.078359 0.171267 -0.103452 0.046782 0.060502 -0.132172 0.053711 -0.218972 0.045899 -0.066680 -0.120144 -0.008838 -0.132023 -0.093758 -0.128678 0.013606 0.076668 0.007116 -0.023929 -0.121939 0.081865 0.069160 -0.071315 0.053977 -0.045321 0.103870 -0.168060 0.068106 -0.093394 -0.110994 0.084795 0.092182 0.083143 0.032359 -0.018407 -0.045773 -0.003815 -0.054715 -0.008653 -0.079408 -0.003275 0.040050 -0.011185 -0.047069 0.060089 -0.078541 -0.065295 0.020232 -0.038321 0.015380 0.095679 0.026314
1375 -0.105601 0.019462 0.016836 0.140352 -0.111860 -0.029552 -0.015947 -0.001920 0.048478 0.065693 0.116905 -0.075247 0.028974 0.046423 -0.012033 -0.215412 -0.021502 -0.020322 0.090467 0.049750 -0.149513 0.034712 -0.071806 -0.071515 -0.076617 0.036776 0.029946 -0.035514 0.031706 -0.104315 -0.051624 -0.111292 -0.089758 -0.154972 -0.027343 0.069203 0.035759 0.019682 -0.082613 -0.030081 -0.266021 0.083785 0.114796 -0.093908 0.005364 0.190385 0.133985 0.036230 -0.132226 0.134569 -0.211366 -0.024473 0.068323 -0.163484 -0.103015 -0.036712 -0.044351 0.031300 -0.020071 0.041716 0.034053 -0.123860 -0.086438 0.038262 -0.060347 0.028404 0.095070 -0.020005 0.079559 0.015960 0.091779 0.046905 0.125114 0.014027 0.224942 -0.114372 0.123467 0.037672 -0.055309 0.022255 0.077684 -0.181074 -0.151112 -0.099784 0.085091 -0.057695 0.004162 -0.058149 -0.129287 0.098198 -0.147755 -0.008374 0.161197 -0.009036 -0.081588 -0.049701 -0.033264 0.080003 -0.006241 0.087520 -0.044724 0.010257 -0.135965 0.062296 0.063713 -0.171397 -0.018886 -0.019134 0.074561 0.065381 0.003684 0.005035 -0.157667 0.062441 0.034097 0.085822 -0.016616 0.086241 0.014118 0.050225 -0.100878 -0.061915 0.059951 0.137922 -0.004921 -0.060905 0.024501 -0.099498
84 0.005797 0.048760 0.163432 0.002768 -0.041438 0.012939 -0.128137 -0.069530 0.096918 0.061116 0.111222 0.043878 0.146958 -0.105107 -0.018629 -0.045060 -0.047434 0.028896 -0.012647 -0.050033 -0.029717 0.053788 0.046300 -0.184984 -0.075574 -0.097885 -0.088918 -0.106304 0.033835 -0.197427 -0.050959 -0.026232 -0.126602 0.048550 -0.067245 0.049985 -0.090542 -0.021593 -0.141092 -0.072543 -0.064896 0.078852 0.041131 -0.100635 -0.047701 -0.086536 0.159260 -0.024246 -0.013018 -0.043474 -0.136302 0.014060 -0.056825 0.023975 0.030405 0.150233 -0.006423 0.023621 -0.019505 -0.075044 -0.010689 -0.019628 -0.036930 -0.093976 -0.068601 -0.038883 -0.045903 -0.160899 0.012534 -0.059130 0.166699 -0.032612 0.025714 -0.048895 0.028912 -0.084524 0.019229 0.036401 0.002698 0.152418 -0.015847 -0.067657 -0.035753 -0.114790 0.029795 -0.171755 -0.136756 -0.087565 -0.186095 0.103113 -0.106578 -0.047828 0.005922 -0.083116 -0.149275 -0.022657 0.019073 0.045658 0.011521 0.085275 0.130867 0.087208 -0.039019 0.045550 0.033221 -0.134042 0.043014 0.111604 0.211655 -0.000657 0.052980 -0.015252 0.041562 -0.015614 0.086389 -0.065500 -0.081948 0.147653 -0.152575 -0.077424 0.019677 0.000573 -0.031881 -0.055625 -0.127423 0.001018 0.101462 -0.126833
717 -0.048319 -0.103995 0.074168 0.008123 -0.040162 -0.049026 -0.063238 -0.067418 0.052922 0.170147 0.133309 -0.030074 0.006970 -0.082060 -0.021720 -0.057248 -0.033651 0.086640 0.076848 -0.010914 0.046618 -0.031149 0.054208 -0.130207 -0.024072 0.002494 0.008914 -0.073293 0.086352 -0.162291 0.091838 0.007017 -0.168215 -0.103079 0.043335 -0.011449 -0.036109 -0.012221 -0.063857 -0.121663 -0.081241 0.109696 0.005514 -0.098800 0.096964 -0.003162 0.151476 0.007677 -0.011460 0.057460 -0.142092 -0.089014 0.018837 0.013582 -0.012839 0.027771 0.031494 -0.014255 -0.115288 -0.046572 -0.003206 -0.042107 -0.026023 0.013487 -0.031581 0.068141 0.025158 -0.128000 0.061995 -0.029020 0.076981 0.033883 -0.023292 -0.043192 0.076588 -0.102370 0.126941 0.141100 -0.086578 0.077838 0.041625 -0.087716 -0.109073 -0.189096 0.004570 -0.057618 -0.045374 -0.064306 -0.047170 0.042413 -0.100283 0.022945 0.117142 -0.003775 -0.087326 -0.056498 -0.046358 0.016614 -0.013171 0.154677 -0.030882 0.038151 -0.117627 -0.095765 -0.020710 -0.135484 0.042882 0.015592 0.127515 0.080472 0.035837 -0.051474 -0.093339 -0.068126 -0.017555 -0.107554 -0.037683 0.046506 -0.027159 -0.092617 -0.007997 0.001729 -0.059229 -0.045822 0.025287 -0.102549 0.097376 0.023480
586 -0.014740 0.107403 0.087573 0.110113 -0.159891 0.104365 -0.074319 -0.042354 0.103421 0.021825 0.014544 0.009269 0.047909 0.023438 0.033278 -0.080031 0.102400 -0.042978 -0.064074 0.083962 -0.063848 0.125401 0.062591 -0.133093 -0.182155 0.059323 0.011531 -0.067725 0.065483 -0.056249 -0.023114 0.073986 -0.083720 -0.073870 0.060880 0.008600 0.099035 -0.022247 -0.160290 0.038903 -0.047889 0.150212 0.066121 -0.046835 0.015049 0.039955 0.060014 0.056507 -0.062573 -0.022026 -0.108247 -0.039407 -0.094770 -0.044682 -0.086827 -0.051961 -0.023138 0.083676 0.017043 -0.105150 -0.167648 -0.003082 -0.058912 -0.070451 -0.074023 0.031272 0.036281 -0.195253 -0.003748 0.035682 0.155340 0.036445 0.130402 -0.100645 0.099543 -0.033165 0.093154 0.129578 -0.056689 -0.025994 0.031932 -0.101178 0.068785 -0.200147 -0.061877 -0.151638 -0.079783 -0.099643 -0.172561 0.033005 -0.098119 0.012381 0.053795 -0.076702 0.040394 -0.083038 0.053205 0.010182 -0.076582 0.018655 0.060355 0.001293 -0.193107 0.071721 0.022922 -0.139099 -0.001376 -0.023135 0.099983 0.067675 -0.020151 -0.068043 0.110906 -0.091687 -0.019638 0.051271 -0.086132 0.086464 -0.006381 0.007357 -0.029614 0.000754 -0.072248 -0.013007 -0.052242 0.115614 0.070396 0.006740
1474 -0.022566 -0.029598 0.107643 0.004003 -0.190341 -0.098074 -0.087346 -0.021569 0.074297 0.034333 0.061660 0.089265 0.082043 0.056727 -0.072718 -0.050227 -0.046188 0.032528 0.082049 -0.030128 -0.073391 -0.035144 0.041639 -0.243410 -0.066498 0.011195 -0.044234 0.027080 0.033908 -0.117961 0.049252 0.013763 -0.127790 -0.023873 -0.004267 0.000508 0.007565 0.014654 -0.168088 -0.113846 -0.015898 0.113373 0.031165 -0.062551 0.081788 0.007605 0.124703 -0.046866 -0.038583 0.055055 -0.128932 -0.036779 -0.119698 0.069036 0.006458 0.025455 0.050437 0.058638 -0.024565 -0.032454 -0.048924 -0.054310 -0.012002 -0.092119 -0.063546 -0.018012 0.051789 -0.182999 0.021382 -0.058328 0.150565 -0.004644 -0.019425 -0.009550 0.061933 -0.061617 0.024305 0.129326 0.048178 0.171978 -0.013553 -0.083889 -0.060519 -0.101187 -0.005771 -0.187874 -0.101023 -0.037884 -0.115092 0.061643 -0.069749 0.009969 0.109470 -0.052026 -0.048193 -0.014627 0.047111 0.038143 -0.025175 0.181336 0.054793 0.056275 -0.052718 -0.000999 0.000957 0.026239 0.103969 0.104621 0.162799 0.068808 -0.002311 0.002655 0.092134 0.028093 0.019840 -0.167400 -0.132892 0.170741 -0.094744 -0.179717 -0.006877 -0.039829 -0.018168 -0.001685 -0.061391 0.014052 0.231029 -0.108023
676 -0.075912 -0.055463 0.033987 0.045542 -0.063331 -0.039729 -0.085691 -0.079051 0.105817 0.037091 0.099753 0.008616 0.010934 0.001043 -0.001210 -0.142640 -0.029227 0.046728 0.062114 -0.009332 -0.189278 -0.044498 0.038208 -0.056801 -0.093171 -0.004414 0.095915 -0.138459 -0.039998 -0.176964 0.016320 -0.012264 -0.076828 -0.128591 -0.087572 0.043624 -0.003512 -0.033526 -0.087984 0.058311 -0.238030 0.125048 -0.006284 -0.000588 0.027615 -0.000810 0.129206 0.061220 -0.008240 -0.013211 -0.076689 0.098763 -0.014796 -0.066008 -0.097854 -0.028829 -0.006022 0.050462 -0.052450 -0.055193 -0.094698 0.037787 -0.003146 0.067377 -0.034140 0.067809 -0.009883 -0.103054 0.063557 -0.043182 0.140433 -0.040729 0.001793 -0.088943 0.115049 -0.127123 0.052728 0.078224 -0.077253 0.065261 0.145938 -0.085680 -0.191180 -0.098834 0.049322 -0.039525 -0.015031 -0.029435 -0.124899 0.018258 -0.055341 0.038844 -0.000051 0.084847 -0.019202 -0.023707 -0.019831 0.066025 0.003078 0.016221 -0.001861 0.010975 -0.133829 -0.012305 -0.049071 -0.184760 0.071742 0.010015 -0.006296 0.040385 0.036860 -0.037760 -0.030225 -0.022999 -0.022246 -0.035283 0.026849 0.053330 -0.066459 -0.037422 -0.170748 0.050599 0.011681 0.068784 -0.075234 -0.059937 0.061826 -0.005034
1221 0.002664 -0.064526 0.113554 0.002327 -0.079239 0.109177 -0.055612 -0.008900 0.063615 -0.004383 -0.027825 0.059893 -0.016087 0.024095 -0.033092 0.070960 0.068521 0.091419 0.024419 0.008391 0.039184 0.044955 0.000502 -0.091193 -0.015866 0.041264 0.059496 -0.039043 0.083141 -0.093729 -0.083845 0.010434 -0.087203 -0.121330 0.006813 0.075834 0.118514 0.022845 -0.214245 -0.002970 -0.107174 0.118350 0.141497 -0.128634 -0.029199 -0.023369 -0.010466 -0.054297 -0.088754 0.029820 -0.123262 -0.116529 -0.117006 -0.018069 -0.050649 -0.187125 -0.120972 0.021322 -0.012948 -0.044095 -0.136151 -0.027819 -0.023547 -0.067514 -0.101063 0.006199 0.070541 -0.206618 0.041730 -0.056855 0.144548 0.044212 0.125696 -0.023103 0.133912 -0.167769 0.092855 0.124691 -0.124025 0.003354 0.098056 -0.104115 0.075696 -0.196859 -0.076560 -0.160135 -0.084817 -0.098340 -0.207301 -0.068112 -0.077172 0.024926 0.141821 -0.057877 -0.040346 -0.135621 0.043717 0.039695 -0.085837 -0.073065 -0.039233 0.021276 -0.150641 0.062260 0.010113 0.009682 -0.032360 0.079208 0.072953 -0.030649 -0.035275 0.008156 0.146378 -0.078929 0.049980 0.091997 0.002134 0.073464 0.025702 -0.014364 -0.033734 0.092171 -0.053393 -0.010595 0.048533 0.073872 0.115654 -0.020798
567 -0.097822 0.015354 0.145326 -0.006051 -0.006194 0.052445 -0.101367 -0.121456 0.070470 0.136311 0.025015 0.029657 0.049238 0.047435 -0.068007 0.005518 0.114680 0.051870 0.078410 0.083908 -0.010522 0.007703 0.049179 -0.087625 -0.082071 0.074230 0.042802 -0.034129 0.099157 0.000839 -0.119081 0.052248 -0.063447 -0.021353 0.016171 0.050310 0.024584 -0.044686 -0.066420 -0.030322 -0.127086 0.090507 0.177675 -0.133848 0.045330 0.034556 0.101704 0.003174 -0.075687 -0.069182 -0.038469 -0.073061 -0.039986 0.069045 -0.043872 -0.025765 -0.026376 0.042554 0.011791 -0.051131 -0.081090 -0.059838 0.016682 -0.032142 -0.064839 0.071248 -0.002531 -0.132232 0.083853 0.028737 0.168628 0.030835 -0.102151 -0.068620 0.128522 -0.014464 0.137796 0.101274 -0.037971 0.011795 0.037155 -0.149700 0.013429 -0.110417 -0.020482 -0.162773 -0.143612 0.022231 -0.216526 -0.115283 -0.094388 -0.052884 0.061919 0.039196 -0.080469 -0.084271 0.053464 0.033687 -0.031375 0.068027 0.032055 0.122266 -0.159863 -0.020503 -0.149985 -0.036155 0.066790 0.143016 0.106913 0.130990 -0.080592 0.026963 0.185738 -0.037998 -0.075044 -0.032942 -0.017735 0.081331 -0.122018 -0.064640 0.021176 -0.129583 0.030428 -0.003714 -0.117058 0.065606 0.096531 -0.031191
1026 -0.071321 -0.210222 0.006574 0.086520 -0.040306 -0.041858 -0.161938 -0.108621 0.059147 0.148811 0.101795 0.035341 0.038935 -0.045019 -0.176270 -0.206970 0.043046 -0.021980 0.054684 0.000086 -0.054012 -0.037286 0.063833 0.072380 -0.108655 -0.164338 -0.049512 -0.090314 -0.031230 -0.064566 -0.031702 -0.065467 0.007123 -0.060930 -0.015862 0.022861 0.134801 0.010682 -0.023378 -0.049517 -0.248893 0.130509 -0.064877 -0.136259 0.044116 0.030434 0.109595 0.045324 -0.037128 0.063875 0.006991 0.047281 -0.053509 -0.126934 0.045271 0.003410 -0.014429 0.095700 -0.033656 -0.092362 -0.147746 -0.048085 -0.101102 -0.053190 -0.024717 0.063519 -0.083576 0.016475 -0.078809 -0.077087 0.107011 0.096223 0.095135 0.026112 0.154922 0.002092 0.126775 0.011945 0.076463 0.001060 0.100077 -0.154635 -0.101655 -0.105820 0.083884 -0.060854 -0.039919 -0.020909 -0.181997 0.192615 -0.106807 0.081292 0.103301 0.110365 -0.239373 -0.080494 -0.031133 0.088545 -0.040369 0.065236 -0.109664 0.036417 -0.155426 -0.047573 0.000429 -0.062215 0.004765 -0.022674 0.292507 0.060010 0.101805 -0.059744 -0.093054 0.016808 -0.043255 -0.028174 -0.033802 0.019801 -0.040897 -0.014139 -0.197160 -0.059339 -0.090923 0.075123 -0.150966 -0.041969 -0.017950 -0.030771
781 -0.061746 -0.074213 0.000349 -0.049490 -0.086581 -0.030737 -0.180804 -0.034617 0.115845 0.007789 0.004400 0.049670 0.005426 -0.006176 -0.013881 -0.071912 0.037020 -0.010582 0.057807 -0.027442 -0.129308 0.054037 0.030506 -0.121240 -0.067203 -0.019238 0.088337 -0.127206 0.078521 -0.075911 -0.017079 0.041232 -0.046096 -0.095307 0.068016 0.069899 0.008622 -0.020534 -0.114118 -0.048220 -0.115952 0.119145 -0.004478 -0.029359 0.039505 0.026895 0.220835 0.064157 0.039100 0.022653 -0.048585 -0.039631 0.019284 -0.021761 -0.046291 0.003494 0.060512 0.136364 -0.052691 0.012017 -0.018278 0.020770 -0.069850 -0.002178 -0.022558 -0.032719 0.001270 -0.154412 0.022755 -0.055420 0.139220 0.013090 -0.117033 -0.128243 0.113494 -0.122764 0.003261 0.120653 0.073540 0.051477 0.073575 -0.099538 -0.037626 -0.237188 0.057087 -0.050371 -0.069619 -0.034394 -0.065431 0.079481 -0.119444 0.069003 0.037988 -0.048478 -0.099330 0.048409 0.021579 0.089127 0.020707 0.098911 0.028187 -0.036088 -0.077763 -0.024523 -0.117026 -0.092517 0.033621 -0.016148 0.132153 -0.041755 0.082375 0.037682 -0.094134 -0.028904 -0.038573 -0.111921 -0.044722 0.050276 -0.083303 -0.112517 0.000047 0.056783 -0.065447 0.045721 -0.043076 -0.099021 0.100164 -0.028720
298 0.063209 -0.065879 0.077213 0.044954 0.011103 0.088217 -0.110884 -0.097559 0.086403 0.043516 -0.042869 0.067912 0.032841 0.084670 -0.034573 0.020253 -0.017437 0.037494 0.065352 -0.035241 -0.078472 -0.025070 0.007167 -0.099077 -0.141342 0.008328 0.086063 0.048889 0.064226 -0.079356 -0.006287 0.021093 -0.076019 -0.188183 0.021465 0.030568 0.056582 0.008015 -0.140554 -0.058849 -0.095279 0.030678 0.069877 -0.017214 -0.041225 -0.028021 0.140413 0.010814 -0.022802 -0.077598 -0.017640 0.011195 -0.041918 0.094959 0.016507 -0.048756 -0.056602 0.140094 -0.063206 0.068798 -0.063993 -0.040809 -0.015875 0.015042 -0.029559 0.022960 -0.048602 -0.146979 -0.024124 -0.004589 0.172013 -0.013785 0.023048 -0.064191 0.059505 -0.090846 0.019384 0.113283 -0.067653 -0.014194 0.211589 -0.066359 -0.077683 -0.121122 -0.030020 -0.155543 -0.109411 -0.043038 -0.119465 0.056650 -0.100875 -0.001442 0.021562 -0.001471 -0.059392 -0.097743 -0.013337 0.031798 -0.000202 -0.031462 0.003796 0.041781 -0.156621 0.036132 0.017175 -0.158279 0.029666 0.102849 0.116962 0.018016 0.024355 0.000790 0.064952 -0.159353 -0.068289 -0.031022 -0.019046 0.060193 -0.020331 -0.063248 -0.102084 -0.035959 0.007073 0.017071 -0.023348 -0.132738 0.168087 -0.085411
548 -0.031782 0.037173 0.034668 0.023928 -0.066493 -0.035849 -0.112112 0.026378 0.087141 0.067055 -0.034347 0.031964 0.089493 -0.029195 -0.100838 0.011145 -0.031137 0.023366 0.048735 -0.008092 -0.027251 -0.042236 0.064554 -0.147873 -0.038844 -0.009162 -0.081703 -0.187812 0.017060 -0.121512 0.005202 0.118003 -0.180397 -0.040646 -0.004837 0.015305 0.010636 0.080781 -0.201550 -0.069727 -0.036743 0.117692 -0.015504 -0.018458 0.026690 -0.019756 0.010068 0.100323 0.039368 -0.070891 -0.063752 -0.031743 -0.039023 0.015030 0.087544 0.083945 0.054661 0.024953 -0.023775 -0.144646 -0.026120 0.019629 -0.052053 0.035841 -0.086430 0.042863 0.031915 -0.140510 -0.058075 -0.089185 0.192986 0.025555 0.061025 -0.080848 0.057247 -0.121383 0.164242 0.080107 0.002981 0.164216 -0.029397 -0.049347 0.024755 -0.128128 0.097924 -0.184748 -0.079730 -0.001471 -0.193997 0.140805 -0.052041 0.019501 0.078795 -0.065836 -0.140107 0.031977 0.014408 0.090005 -0.000194 0.049384 0.037868 0.131891 -0.093711 0.019559 -0.059740 -0.049269 -0.005806 0.068032 0.172501 -0.021609 0.039958 -0.005977 0.056907 -0.047145 0.060379 -0.130541 -0.066633 0.143311 -0.209656 -0.201560 -0.048586 -0.056954 0.009583 -0.009062 -0.048285 -0.083786 0.139161 0.000103
1089 -0.026414 -0.023768 0.090815 0.038066 -0.108024 0.004918 -0.150656 0.037608 0.164763 0.091561 0.144170 0.076378 0.053354 -0.013118 -0.036458 -0.046833 0.004232 0.011659 0.018515 -0.062194 0.009082 -0.072042 0.027907 -0.129091 -0.010157 -0.018339 0.015003 0.010886 0.041523 -0.165685 0.007629 0.119950 -0.182630 -0.022408 0.105625 0.063190 0.069929 -0.039450 -0.111049 -0.031359 -0.130260 0.126022 -0.008541 0.053787 0.021383 -0.105653 0.134899 0.043756 0.011894 -0.005277 -0.143298 -0.021902 0.003331 0.008241 -0.063621 -0.039328 -0.004509 0.080566 -0.010108 -0.059582 -0.112245 -0.110860 -0.037347 0.027472 -0.112520 -0.004586 -0.011054 -0.127537 0.035509 -0.064630 0.130389 0.025914 -0.106792 -0.076939 0.068227 -0.071449 0.014397 0.180089 -0.027426 0.026275 0.026214 -0.034615 -0.057975 -0.125563 -0.056424 -0.051212 -0.089383 -0.022515 -0.088697 0.075503 -0.123728 -0.109418 0.062651 0.007307 0.014180 -0.143354 0.027496 0.000549 -0.065773 0.106466 0.094691 0.044112 -0.081472 -0.040788 -0.064617 -0.090148 0.013162 0.057525 0.031328 0.015780 0.031094 0.096106 0.004209 -0.062797 -0.004888 -0.041820 -0.106986 0.132942 -0.166232 -0.134516 -0.071997 -0.014613 0.086989 -0.057177 -0.002617 -0.065617 0.076083 -0.029359
238 0.055013 0.002957 0.135530 -0.105203 -0.110076 0.147845 -0.006886 -0.177645 0.197908 0.059738 0.113377 0.112560 0.019879 0.097817 0.101758 -0.126285 0.122918 0.078546 0.082154 -0.052979 0.020333 -0.000009 -0.153491 0.055692 -0.190898 0.105049 0.009563 -0.106795 0.044812 -0.127831 -0.052825 0.131925 -0.069662 -0.023233 -0.035936 0.073042 0.029827 -0.002221 -0.219637 -0.040959 -0.100612 -0.096794 0.130224 -0.015844 0.100193 -0.036197 0.204862 -0.039373 -0.014956 0.033367 0.044651 0.007336 -0.075632 0.099961 0.038100 -0.128663 0.030385 0.014358 -0.060206 0.040260 -0.121507 0.048999 -0.122442 0.099159 -0.127798 0.116043 -0.007272 -0.013434 0.154047 -0.003658 0.158867 0.181877 -0.019732 -0.077544 0.037582 0.011581 0.023594 0.081959 -0.100923 -0.026929 0.097568 -0.038049 -0.026306 -0.235768 0.016766 -0.054343 -0.022302 -0.060305 -0.249299 0.066621 -0.075740 -0.089884 0.030275 -0.061014 -0.017168 -0.135414 -0.030391 -0.006686 -0.031362 -0.056146 -0.087231 0.072759 -0.111887 0.120111 0.069332 -0.059990 -0.045528 0.004568 0.116743 0.109632 0.094287 -0.192171 0.041478 -0.110564 0.051117 -0.011513 0.135974 0.104050 0.024459 -0.011019 0.036616 0.114069 -0.026444 -0.011979 -0.094400 0.010989 0.113896 0.000123
623 0.060732 -0.101682 0.019151 0.005491 -0.048497 0.056209 -0.055721 0.035712 0.126427 0.054840 0.066431 0.149243 -0.007409 0.021999 -0.005085 0.026100 0.075122 0.049333 0.082852 -0.041744 -0.018285 -0.113141 -0.021281 -0.069731 -0.112042 -0.047866 -0.091541 -0.088240 0.022244 -0.134816 0.071019 0.058798 -0.123318 -0.058934 0.105660 0.009727 0.087239 0.014987 -0.163256 -0.078688 -0.062462 0.137265 0.053283 0.008771 -0.050859 -0.050424 0.153188 0.121185 -0.053324 0.043884 -0.160216 -0.072942 -0.018327 0.054655 0.000978 0.045023 0.060061 0.035687 -0.029496 -0.075100 -0.052179 -0.041228 -0.055472 -0.006644 -0.084429 -0.081573 -0.049545 -0.208775 0.039421 -0.045589 0.130218 0.098828 -0.085731 -0.131635 0.075822 -0.038962 0.097068 0.088040 -0.041270 -0.031565 0.079430 -0.020977 -0.052365 -0.068706 -0.017992 -0.223785 -0.102499 -0.034126 -0.110868 0.075532 -0.123496 -0.017949 0.076054 0.036886 -0.016679 -0.073461 0.007496 0.034353 -0.089542 0.092876 -0.010521 0.074420 -0.027774 -0.111182 -0.024630 -0.073760 0.038217 0.032285 0.186939 0.001354 0.086123 -0.026929 0.069929 -0.106424 0.008935 -0.098378 0.023910 0.121367 -0.077633 -0.179739 0.004226 -0.095959 0.001916 -0.065406 0.008389 -0.045550 0.114122 -0.061306
873 -0.070121 -0.079401 0.022360 0.000628 -0.022061 -0.012473 -0.090369 -0.095572 0.057134 0.089628 0.100232 -0.029296 -0.006031 -0.058028 -0.011696 -0.265261 -0.006089 0.000017 0.110169 0.001959 -0.097778 -0.046330 0.008622 -0.018852 -0.080561 0.007502 0.023004 0.014825 0.037980 -0.141733 -0.053614 -0.040820 -0.025837 -0.165009 -0.008184 0.070382 0.001752 0.015937 -0.038827 0.013828 -0.162731 0.027343 0.069431 -0.072120 0.084664 0.094143 0.189342 0.008568 -0.096427 0.043974 -0.259030 0.000961 0.052484 -0.123135 -0.026766 0.041078 -0.002252 0.046638 -0.012074 0.014820 -0.047385 -0.086439 -0.035019 0.088632 -0.118561 0.077200 0.093232 -0.013716 0.065956 -0.066577 0.148378 0.030333 0.073008 -0.077836 0.168888 -0.125555 0.084129 0.011296 -0.085956 0.106207 0.120846 -0.121868 -0.121562 -0.089354 0.100711 -0.033880 -0.002489 -0.083223 -0.131157 0.022138 -0.144411 0.016147 0.109684 -0.038113 -0.125934 0.032736 0.055778 0.107645 0.054445 -0.002121 0.034188 -0.005854 -0.138675 0.138713 -0.024814 -0.083685 0.032491 -0.063911 0.030725 0.049685 0.053320 -0.026676 -0.018015 -0.035270 0.060579 0.019419 0.057136 0.018780 0.030159 0.008564 -0.108436 0.029959 0.025111 0.019236 0.008805 -0.073830 0.050962 -0.088235
1495 0.065570 -0.066749 0.101447 -0.001562 -0.038441 0.008410 -0.072094 -0.077709 0.016895 0.048127 0.128032 0.027543 0.073706 0.033123 -0.058872 -0.008493 0.135847 0.084322 0.028676 -0.013878 -0.080069 0.042463 -0.075872 -0.095883 -0.025425 -0.061899 -0.060780 -0.054932 0.029228 -0.079574 0.109123 0.000127 -0.129642 -0.152740 0.026915 -0.052385 -0.024904 0.004650 -0.164775 0.118863 -0.129430 0.052356 0.057083 -0.004726 0.010586 -0.025388 0.078886 -0.006658 -0.018230 -0.034309 -0.144525 -0.045790 -0.023474 0.038763 -0.029029 0.046281 0.010731 0.123565 -0.132578 -0.026378 -0.031757 -0.056311 -0.024254 -0.023304 -0.103953 0.061129 0.035543 -0.204103 0.014915 -0.008086 0.122557 0.008107 -0.133733 -0.098313 0.068277 -0.018886 -0.062191 0.090741 -0.108650 -0.057309 0.029896 0.034066 0.012596 -0.129446 0.053127 -0.108446 -0.116902 -0.034516 -0.200666 0.057895 -0.112341 0.042990 -0.025801 -0.032493 -0.097641 -0.149317 0.080116 -0.015976 -0.035595 0.053436 0.079068 0.111683 -0.155971 0.055075 -0.036031 -0.079511 0.060381 0.064724 0.148793 0.030346 -0.014993 0.091351 0.098063 -0.074176 -0.025441 -0.154106 -0.103367 0.096503 -0.049466 -0.076637 -0.124482 -0.058442 0.019290 -0.033141 0.003237 -0.047351 0.161976 -0.028576
328 -0.027419 0.101652 0.041487 0.030658 -0.109583 0.103252 0.019245 -0.066362 0.121013 0.021323 0.053659 0.082421 -0.026841 0.104612 -0.086095 -0.098008 0.153384 0.046264 0.032353 -0.059167 -0.063591 0.097092 -0.145224 0.043461 -0.091638 0.118842 0.037813 -0.063585 -0.011017 -0.015243 0.105566 0.107195 0.021870 -0.009481 0.040814 0.163893 0.017771 -0.048819 -0.166220 0.015568 -0.066586 0.038057 0.036767 -0.064026 0.093723 -0.046887 0.234061 0.016626 -0.030898 0.009493 0.059453 0.066636 -0.088958 0.157310 0.049174 -0.089963 0.063847 0.010997 -0.018725 -0.046649 -0.127106 0.110744 -0.153937 0.124803 -0.239090 0.150559 0.014272 -0.085104 0.096360 0.044773 0.154281 0.143223 0.032693 -0.102596 0.107355 -0.031792 0.054184 0.116081 -0.048912 0.022391 0.045014 -0.028502 -0.045055 -0.280717 0.004705 -0.013885 -0.090008 -0.173847 -0.200498 0.055510 -0.095328 -0.095396 0.039494 -0.063118 0.031308 -0.112710 0.021122 -0.012168 0.047133 0.049629 0.065779 0.101955 -0.131930 0.133182 0.080849 -0.017306 -0.028596 -0.048676 0.184533 0.069826 0.092732 -0.192524 0.093825 -0.101176 0.061325 0.005363 -0.055239 0.066513 -0.024893 0.022788 -0.064002 0.194625 -0.161733 -0.032799 0.012352 0.090436 0.178676 0.017028
