275 128
136 0.074976 0.003269 -0.089962 -0.151377 -0.057818 0.196960 0.010616 -0.024120 0.175907 0.322235 -0.026687 0.069588 0.257730 -0.110320 -0.154444 -0.247127 0.116027 0.152809 0.004912 -0.058405 -0.210876 -0.168985 -0.091131 -0.014384 -0.000641 -0.004256 0.061378 -0.076273 -0.119498 -0.026582 -0.051710 0.017865 -0.007776 -0.262663 -0.115380 0.069100 0.079884 -0.062982 0.035042 -0.175675 0.006387 0.146977 -0.068385 -0.105450 -0.000905 0.057755 -0.001058 -0.067595 0.004420 0.002418 -0.023541 0.045401 -0.036868 0.071114 -0.318330 -0.108600 0.048480 0.034975 0.061237 0.150582 -0.006627 -0.005185 0.030131 0.029833 -0.041732 -0.038577 -0.014608 0.058440 0.141580 -0.184090 0.266511 -0.040959 0.144058 -0.029188 0.008829 -0.015293 0.085995 0.006074 -0.127085 0.124998 -0.089245 0.021263 -0.082437 0.063656 0.017943 -0.088103 0.090035 0.079900 0.026487 -0.165161 0.058090 0.027558 0.073957 -0.097484 -0.088693 0.091371 0.174137 -0.021762 -0.171065 0.019369 -0.028251 -0.020214 0.000379 -0.260578 0.067740 0.045582 0.036376 -0.068410 0.100880 -0.129374 -0.092566 0.035063 0.023731 -0.137766 0.022963 0.102135 0.012579 0.036857 -0.135619 -0.094604 -0.121407 0.095305 0.061019 -0.041291 -0.028478 -0.071743 0.213868 0.058812
7 0.117474 -0.028294 -0.149248 -0.178954 -0.103337 0.248499 -0.046966 -0.031652 0.180905 0.304506 -0.063733 0.167028 0.134233 -0.196082 -0.112984 -0.121227 0.083199 0.068123 -0.031118 -0.111246 -0.108606 -0.062896 -0.124625 -0.080708 0.084832 -0.114680 -0.013219 0.091355 0.007760 -0.025889 -0.040789 0.018145 -0.062397 -0.298977 -0.169433 0.090383 0.119772 -0.158038 0.020994 -0.178942 -0.016734 0.297181 -0.018366 0.008534 0.032391 0.067432 0.001775 -0.068240 0.046121 0.010363 -0.023950 0.019989 0.018583 0.050228 -0.395777 -0.064064 0.111594 0.081361 0.021979 0.080186 -0.157818 -0.039813 0.096602 -0.028104 0.061378 -0.015316 -0.058108 0.012050 0.115090 -0.248101 0.251440 -0.055376 0.063704 0.024762 -0.027899 -0.027833 -0.050120 0.043626 -0.071244 0.041570 -0.043335 -0.000049 -0.030899 0.097328 -0.081034 -0.169477 0.086347 0.145852 0.014388 -0.147339 0.088901 -0.110176 0.074266 -0.112481 -0.085934 -0.015958 0.198522 0.021204 -0.212865 0.059185 -0.155667 -0.091042 0.004964 -0.197925 0.023034 0.052097 -0.013222 0.007421 -0.005360 -0.107478 -0.067605 0.005807 -0.050004 0.007937 -0.085366 0.092895 0.059700 -0.000343 -0.155329 -0.111198 -0.160839 0.038062 0.037750 -0.029969 -0.102250 -0.102160 0.169628 0.091424
915 0.016111 0.108207 -0.018301 -0.176445 -0.075214 0.190472 -0.187724 0.011261 0.208281 0.264402 0.070695 0.189156 0.210092 -0.124770 -0.070809 -0.134850 -0.068457 0.057739 0.082707 -0.098557 -0.029450 -0.059244 -0.032425 -0.209741 -0.243151 -0.020861 0.061560 0.008332 0.042384 -0.083239 -0.086643 0.087557 -0.157341 -0.106331 -0.177285 0.050686 0.170582 -0.088271 -0.018114 -0.074366 0.016259 -0.040247 -0.074351 -0.038455 -0.007614 0.131747 -0.083893 0.075861 0.037163 0.006435 0.146070 -0.035304 -0.065376 0.072181 -0.343511 -0.155281 0.013852 0.187967 -0.083517 0.067248 0.121399 -0.033220 -0.053828 0.017178 -0.024992 -0.033021 -0.099687 -0.041951 0.157474 -0.118830 0.269504 -0.142834 0.099760 0.106392 0.125508 -0.052030 0.075260 0.093085 0.053146 0.121064 -0.052992 0.057156 -0.166939 0.065299 0.072999 -0.219555 -0.074661 0.041882 -0.080407 -0.103336 0.034042 0.084064 0.098408 -0.033968 -0.088888 -0.028287 0.150950 -0.247660 -0.175268 -0.192369 -0.275405 -0.048795 -0.008375 -0.173929 0.137257 -0.008827 0.044730 -0.068037 0.031177 0.024141 -0.152703 0.037646 0.077961 -0.118518 -0.040704 -0.061756 -0.001277 0.078906 -0.073735 -0.138986 -0.196155 -0.120869 -0.000718 0.062462 -0.190065 -0.088291 0.125763 0.062320
998 0.176905 -0.076595 0.032377 -0.096191 -0.110774 0.175219 0.115373 -0.048181 0.073557 0.284482 -0.058141 0.119007 0.322510 -0.061003 -0.102511 -0.091825 0.107372 0.064690 0.002019 -0.067870 -0.056495 -0.119205 0.079173 -0.064433 -0.044466 -0.234555 0.044723 -0.081857 -0.074584 -0.023763 -0.053525 0.044150 -0.031000 -0.280071 0.072265 0.007629 0.067142 -0.094928 0.057895 -0.151563 -0.066718 0.145247 0.039232 -0.078838 0.097892 0.119543 -0.028104 -0.186338 0.054807 0.023655 -0.045964 0.183709 0.014467 0.043231 -0.289758 -0.139565 0.058503 0.011398 -0.019999 0.140706 -0.069300 -0.141953 0.100266 0.128923 -0.018185 -0.031300 0.024909 0.078130 0.161639 -0.217979 0.131619 -0.186689 0.059341 0.080267 -0.005202 0.023186 0.055926 0.080730 -0.120711 0.067126 -0.047226 0.014594 -0.143989 0.039142 -0.025869 -0.103469 0.030947 0.201915 -0.006023 -0.055155 0.005516 -0.063120 0.026231 -0.103081 -0.179402 0.031396 0.242241 0.006358 -0.144613 0.070160 -0.177517 0.008225 -0.002543 -0.363320 0.042406 0.052195 0.055702 -0.007103 0.239248 -0.124913 -0.097580 0.159665 -0.042951 0.040778 -0.012825 0.113197 0.190621 0.075922 -0.134872 -0.152863 -0.125508 0.043890 0.143767 -0.033312 0.035952 -0.098943 0.238268 0.055978
1447 0.103732 -0.025296 -0.066059 -0.090338 -0.037355 0.136936 0.061228 0.016378 0.221718 0.308493 0.014525 0.025948 0.315556 -0.010141 -0.169648 -0.271619 0.201434 0.005353 0.020539 -0.039873 -0.130730 -0.086837 -0.111762 0.026140 0.013838 -0.107572 0.030854 -0.107047 -0.110324 -0.010931 -0.016000 0.087197 0.036132 -0.168674 -0.040550 0.086806 0.059345 -0.102126 0.044827 -0.161027 -0.021985 0.173352 0.009361 -0.065529 -0.135626 -0.044335 -0.053205 -0.020808 -0.056343 0.025868 0.019985 0.095920 0.115072 0.083012 -0.365544 -0.148450 0.088675 0.018631 0.002643 0.057549 -0.073970 -0.060167 -0.015612 0.062931 -0.085418 0.022808 -0.048051 -0.013422 0.138360 -0.174654 0.286368 -0.073812 0.195140 -0.102081 -0.028809 -0.078357 0.121152 0.022708 -0.128512 0.105081 0.012620 0.036372 -0.024728 0.042673 -0.037805 -0.152468 0.136120 0.035720 0.058065 -0.189504 0.104428 -0.027760 -0.017157 -0.069960 -0.077681 0.042755 0.156669 0.105281 -0.185654 -0.029955 -0.014805 -0.016190 -0.053924 -0.306975 0.131707 -0.013288 -0.006509 -0.078036 0.198919 -0.090690 -0.073109 0.148194 -0.008563 0.115582 -0.046372 0.066788 0.067458 0.076214 -0.063022 -0.060969 -0.002562 -0.017433 0.001632 -0.037004 -0.060861 -0.043255 0.186541 0.131151
875 0.120736 0.055696 0.034336 -0.154687 -0.022937 0.024843 0.003803 -0.162213 0.130087 0.166642 -0.123997 0.160915 0.309410 -0.127015 -0.093806 -0.170444 0.027934 0.060213 0.113149 -0.125890 -0.087360 0.011008 -0.007843 -0.198922 -0.035911 -0.139219 0.053128 -0.198663 0.035933 -0.133610 0.028715 -0.048878 -0.062920 -0.257766 0.155876 0.058348 0.092134 -0.136408 0.078729 -0.116103 -0.030630 0.000021 0.091137 0.127620 -0.129391 0.043357 -0.081232 -0.215991 0.047534 0.097657 -0.018562 0.039477 -0.076209 0.108828 -0.325823 -0.107798 0.040000 0.143024 0.072829 0.000878 -0.051794 -0.120552 -0.029911 0.134468 -0.014473 0.018238 0.086140 -0.030324 0.005469 -0.080989 0.214648 -0.162270 0.056450 0.010433 0.151582 -0.031880 0.052102 0.072256 -0.027225 0.070861 -0.024936 -0.129762 -0.118376 -0.093166 -0.024877 -0.078187 0.047298 0.106937 0.069830 0.044266 -0.015681 -0.023689 -0.229573 -0.095456 -0.129118 0.158344 0.068147 -0.032686 -0.158576 0.061545 -0.147574 0.073411 0.234565 -0.392299 0.237299 0.063287 0.132472 0.029003 0.071277 0.002209 -0.131739 0.092881 -0.023454 -0.066937 -0.024567 0.158205 0.059491 0.062748 -0.129705 -0.002804 -0.227302 -0.017750 0.055724 0.052762 0.139331 -0.087194 0.161295 0.110913
1216 0.015234 0.016859 -0.072823 0.001796 0.023712 0.085655 -0.006731 -0.104530 0.052171 0.113266 0.038493 0.139570 0.144699 -0.089137 -0.219318 -0.283310 0.174008 0.028861 0.080240 0.025659 -0.093024 -0.083799 -0.109292 -0.190271 0.022567 -0.150682 0.068223 -0.055641 0.032980 -0.185706 0.061776 0.026218 0.003718 -0.064098 0.089856 0.091168 0.100484 -0.008175 0.027577 -0.090028 -0.032894 0.108729 0.105165 0.002438 -0.026135 0.013848 -0.097540 -0.003719 0.015484 -0.169375 0.002467 0.124703 0.017472 0.153188 -0.162730 -0.172828 0.077743 0.291737 -0.090824 0.085110 -0.022971 -0.121247 -0.152076 0.169883 0.015788 -0.016794 -0.093228 -0.171675 0.134153 -0.259152 0.324934 -0.093599 0.203027 0.004618 0.131106 0.011756 0.049675 0.024132 -0.096545 0.045669 0.085064 -0.078242 -0.258658 -0.068882 -0.131484 -0.172522 0.124924 -0.012881 0.019965 -0.114141 -0.126160 0.074719 0.098374 -0.103118 -0.065610 -0.008651 0.112322 0.126570 -0.068309 0.084191 0.056218 -0.046957 0.100963 -0.236254 0.142176 0.185105 -0.023504 0.002542 0.023509 -0.185424 -0.202707 0.011924 0.092030 -0.124854 -0.045793 0.043703 -0.023301 0.239886 0.002811 -0.082959 -0.260889 0.026785 -0.066137 0.101677 0.084743 -0.014447 0.193756 0.213806
1012 0.076689 -0.029857 -0.018237 -0.133706 -0.117732 0.113466 -0.150825 -0.049614 0.105537 0.193287 0.035507 0.182275 0.235902 0.063846 -0.080821 -0.062424 -0.112769 0.077787 0.000310 0.191750 -0.125722 -0.073802 -0.109296 -0.163839 -0.143158 -0.001165 0.074705 -0.092263 0.013133 -0.255775 -0.047631 0.055184 -0.081897 -0.139599 -0.142788 0.010232 0.066471 -0.083851 -0.100915 -0.183249 -0.001033 0.049892 -0.048709 -0.110161 0.068700 0.137582 -0.068788 0.008920 0.089313 -0.074729 0.131983 0.151680 -0.115790 0.007990 -0.128698 -0.112041 -0.072248 0.060475 0.001943 0.134347 0.206897 -0.101192 -0.127218 0.037094 -0.209845 -0.089813 -0.164137 -0.047628 0.250867 -0.194775 0.251322 -0.133608 0.094843 0.107240 0.016722 -0.163008 0.042295 0.043699 -0.097981 -0.029549 -0.145215 0.015378 -0.326284 0.117085 0.093514 -0.188411 0.151370 0.190378 0.060052 -0.065581 -0.144292 0.036343 0.134141 0.153203 -0.149483 0.039813 0.101799 -0.166740 -0.123573 -0.140072 -0.194144 -0.029773 -0.021186 -0.320217 0.117802 0.100249 -0.047950 -0.123542 0.107553 -0.186884 -0.234239 -0.018282 -0.084361 -0.109770 0.118732 0.037644 -0.007560 0.061071 0.072956 -0.091218 -0.023886 -0.027536 -0.058875 -0.018960 0.020534 -0.077767 0.041439 0.120391
663 -0.018824 0.079783 -0.041407 -0.080682 -0.034987 0.210814 0.039602 0.051453 0.145104 0.308558 0.162506 0.039610 0.173332 -0.059021 -0.097855 -0.310123 0.114836 0.057409 -0.093890 -0.066259 -0.199130 0.011018 0.027979 -0.036849 -0.100401 -0.088426 0.146015 -0.051365 -0.171600 0.005596 -0.143593 0.056741 0.003411 -0.231896 -0.129676 0.241668 0.081851 -0.045010 -0.029696 -0.262816 0.175231 0.155020 0.009974 -0.106609 0.013767 0.037334 0.061880 0.075036 0.015336 -0.033639 0.026976 -0.106151 -0.003658 0.003489 -0.232599 -0.098066 -0.051029 0.056047 0.140632 0.028024 -0.054832 0.033755 -0.133572 -0.087792 -0.145943 -0.066652 0.043446 -0.048182 0.170117 -0.233033 0.235202 0.010783 0.187480 -0.060589 0.006229 -0.311899 0.097375 0.167995 -0.183298 0.154332 -0.087316 0.099353 -0.101955 0.031423 0.039557 -0.145062 -0.026631 -0.016589 0.139625 -0.172464 -0.024412 0.073022 0.120196 -0.029350 -0.175941 0.038113 0.101929 0.048856 -0.231869 -0.005613 -0.093663 -0.055087 0.015363 -0.258496 0.085689 0.027728 0.117190 0.104551 0.126414 -0.153887 -0.103165 0.064675 -0.074872 -0.024849 -0.007574 -0.025656 -0.079060 0.066048 -0.045488 -0.111479 -0.076663 0.084869 -0.061045 -0.091641 -0.228199 -0.205157 0.228062 0.130764
1183 0.005113 0.129590 -0.065621 -0.168535 -0.075252 0.197420 -0.256532 0.035049 0.128333 0.134338 0.045755 0.205902 0.034043 -0.033563 -0.075686 -0.200937 -0.022108 0.056078 -0.026632 -0.012888 -0.110020 0.105771 0.009750 -0.228826 -0.241825 0.072030 0.082603 0.059030 0.137946 -0.050803 -0.100108 0.076614 -0.134899 -0.058972 -0.299410 0.192748 0.234377 -0.126501 0.016939 -0.153785 0.077507 -0.001071 0.001899 -0.104352 0.081464 0.275407 -0.019901 -0.019970 -0.012457 0.053163 0.087188 -0.172785 -0.045545 -0.071937 -0.324571 -0.092677 0.058947 0.232894 -0.036471 0.051404 0.151564 -0.014448 -0.101071 -0.030588 -0.139844 0.024083 -0.093148 -0.063995 0.176498 -0.220007 0.326615 -0.064501 0.045959 0.051524 0.026393 -0.196074 -0.054927 0.258119 0.026449 0.158259 -0.191570 0.079821 -0.269611 0.085948 0.060628 -0.239279 -0.051618 0.057342 0.027470 -0.068087 0.171404 0.054730 0.127579 0.071008 -0.121397 0.022634 0.148662 -0.100023 -0.166549 -0.120483 -0.327750 0.000066 -0.089696 -0.193305 0.097290 0.109338 0.078002 -0.011733 -0.081969 0.039439 -0.208242 0.033036 0.065067 -0.125005 0.029356 -0.081701 -0.003990 -0.020913 -0.071216 -0.069543 -0.296445 -0.163477 -0.048108 0.010906 -0.241264 -0.066917 0.059077 0.226885
164 0.064326 0.092003 -0.094995 -0.107043 0.005719 0.120321 -0.353803 0.160403 0.094650 0.127933 0.075578 0.030523 -0.052646 -0.012578 0.042287 -0.189835 -0.093296 0.183623 -0.048971 0.038498 -0.090535 0.044141 0.040723 0.004554 -0.230982 0.018494 0.123079 0.018442 0.167843 -0.155866 -0.203198 0.045773 0.005535 -0.132274 -0.127565 0.135521 0.121185 -0.206091 0.076115 -0.177127 0.060716 0.054795 0.007836 -0.016417 -0.014481 0.261501 -0.082205 -0.076627 -0.066074 -0.084984 0.122855 0.077169 -0.093515 -0.097325 -0.293321 0.062208 0.121942 0.171954 0.067089 -0.064895 0.118553 -0.053574 -0.193725 -0.027289 0.057421 0.036959 0.003545 -0.096414 0.266211 -0.133934 0.214418 0.042239 0.096933 -0.092937 0.111434 -0.040962 -0.131698 0.307308 0.011344 0.156511 -0.238298 -0.001498 -0.212547 -0.053757 0.041618 0.017239 -0.039737 -0.006425 0.081030 -0.044715 -0.001857 0.112635 0.121687 -0.069046 -0.130249 0.010617 0.080398 -0.116261 -0.113009 -0.124614 -0.330628 -0.114168 0.068718 -0.337853 0.017013 0.067060 0.164494 0.032127 -0.021561 0.077235 -0.197598 0.060876 -0.060493 -0.173412 0.053527 -0.044602 -0.050085 0.171838 0.002806 0.025943 -0.293201 0.186268 -0.136401 0.088400 -0.123374 0.015986 0.234657 0.152055
1471 0.094230 -0.052994 -0.064942 -0.086902 -0.080004 0.126277 0.061328 -0.106943 0.192190 0.292505 0.026575 0.100108 0.336710 -0.070413 -0.153910 -0.188831 -0.010276 0.031828 -0.000045 -0.067379 -0.073643 -0.076611 -0.026011 -0.016797 -0.078382 -0.151658 0.075551 -0.069134 0.029093 -0.082037 0.018672 0.069355 -0.004522 -0.227050 0.021913 0.104381 0.029458 -0.013547 0.042472 -0.091108 -0.172398 0.175068 -0.048657 0.094113 -0.047482 0.146696 0.044143 -0.111778 0.026608 -0.011491 -0.048002 0.201002 0.024655 -0.009152 -0.229454 -0.150690 -0.120109 0.023434 0.013219 0.088610 -0.060330 -0.134918 -0.044818 0.021324 -0.091190 -0.078516 0.044673 0.041078 0.144807 -0.162310 0.291312 -0.054068 -0.027905 -0.016546 0.130617 -0.115679 0.144042 0.059842 -0.068894 0.172303 -0.081950 -0.045593 -0.068873 -0.041221 -0.012461 -0.174011 0.117859 0.094840 0.001952 -0.097670 0.006735 -0.003824 -0.006832 -0.042671 -0.055735 -0.065256 0.161875 0.074511 -0.140464 -0.054504 -0.124366 0.002620 0.060639 -0.220156 0.145306 0.023392 -0.022956 0.014411 0.118718 -0.037426 -0.036212 0.100636 -0.000290 -0.011136 -0.036134 0.104596 0.055399 0.085163 0.063845 -0.116864 -0.067298 0.056871 0.009183 -0.078566 0.025336 -0.079892 0.154281 0.067872
1113 0.026298 0.008776 -0.163498 -0.068414 -0.030923 0.071428 -0.199771 -0.045060 0.233873 0.252866 0.083823 0.077125 0.095416 -0.009579 -0.098737 -0.192280 -0.088421 0.082866 -0.082253 0.101606 -0.134241 0.090045 -0.050525 -0.033400 -0.097664 0.042522 0.018859 -0.115431 0.036749 -0.223982 -0.038511 -0.007641 0.060120 -0.112126 -0.059046 0.138129 0.097336 -0.125009 -0.028107 -0.049440 -0.043812 0.249644 0.020429 0.114665 -0.108588 0.176232 0.098711 0.057911 0.138145 0.011384 0.171143 0.038301 0.106908 0.049127 -0.224779 -0.091917 -0.054612 0.001089 0.014358 0.045145 -0.023895 -0.081261 -0.040292 -0.002694 0.005420 -0.054064 -0.062399 0.005398 0.181789 -0.179786 0.232275 0.137426 0.098189 -0.018304 0.024876 -0.203536 0.033411 0.137528 -0.086077 0.170831 0.053858 0.067137 -0.013588 0.076985 -0.047865 -0.118002 0.048871 0.102833 0.059534 -0.000923 0.121334 -0.110894 0.123876 -0.094476 -0.184326 -0.099349 0.136341 0.052598 -0.081623 -0.145188 -0.091565 -0.056977 0.025878 -0.177417 0.092237 0.044384 -0.029021 0.024058 0.121638 -0.142649 -0.090658 -0.052587 -0.040867 -0.028610 -0.041488 0.049341 -0.100075 0.089038 0.077745 0.032603 -0.000586 -0.086195 -0.174270 -0.087724 -0.071689 -0.043020 0.032196 0.118190
251 0.198627 -0.185580 0.026555 -0.075022 -0.005852 0.122566 0.164530 -0.029726 0.127523 0.262244 0.031916 0.061669 0.330303 -0.105708 -0.158492 -0.190271 0.197306 0.046702 0.107226 -0.025932 -0.027135 -0.095803 0.008974 -0.063283 0.076450 -0.103395 -0.001930 -0.001432 -0.013209 -0.142082 -0.025934 0.096479 -0.108502 -0.254404 0.126139 0.076926 0.094073 -0.178544 0.035967 -0.066264 -0.095678 0.079946 0.077803 0.024277 -0.004806 0.139263 -0.046746 -0.221252 0.002409 -0.038059 0.013407 0.324153 0.086042 0.050136 -0.168371 -0.198699 -0.019800 0.083269 0.012103 0.140511 -0.084153 -0.151060 0.084562 0.106624 -0.037567 0.055860 -0.009351 0.024750 0.147133 -0.309597 0.133542 -0.091933 0.090544 -0.055368 0.085978 -0.064074 0.234819 -0.003666 -0.152512 0.137809 0.031386 -0.154073 -0.060063 -0.060146 0.025503 -0.130799 0.025745 0.138102 0.048259 -0.012513 0.045293 -0.080132 -0.029913 -0.086723 -0.025642 0.112090 0.140248 0.054214 -0.167081 0.007109 -0.091735 0.006322 -0.026335 -0.212299 0.156202 0.006460 0.037323 -0.021261 0.180153 -0.101095 -0.060986 0.178463 -0.028176 -0.034450 0.017713 0.124551 0.130224 -0.084281 -0.000701 0.003999 -0.175796 0.035945 0.152658 0.069608 0.057034 -0.059456 0.089529 0.026163
1292 0.051637 0.057556 0.042360 -0.035697 0.013922 0.152683 0.026252 -0.106384 0.138531 0.317197 0.067562 0.107537 0.278211 -0.028068 -0.060337 -0.213882 -0.034908 -0.041940 0.089142 -0.006281 -0.105881 -0.086408 -0.105730 -0.137024 -0.097864 -0.048083 0.086635 -0.075994 0.073316 -0.113960 -0.043094 0.059867 -0.047819 -0.081524 0.102096 0.060719 0.087432 -0.091179 -0.040817 -0.039869 -0.032756 0.043713 -0.087681 0.007771 -0.072195 0.093307 -0.013686 -0.038113 0.007850 -0.044452 0.069677 0.083040 -0.016461 0.004366 -0.147302 -0.175090 -0.076182 0.084182 0.027296 0.144234 0.041883 -0.032692 0.021611 -0.095865 -0.079064 0.049223 -0.086301 -0.012896 0.095873 -0.147930 0.209624 -0.033917 0.170173 0.031404 0.095601 -0.060998 0.319400 -0.016240 -0.034850 0.085990 0.133954 -0.042459 -0.049985 -0.064699 0.105082 -0.059108 0.059725 -0.005772 0.014020 -0.140050 0.027375 0.016264 0.068525 -0.031304 -0.096176 -0.010798 0.186652 -0.049022 -0.204896 -0.105973 -0.056081 -0.069092 0.100644 -0.213106 0.183726 0.117189 -0.000782 0.042735 0.079792 -0.070827 -0.086416 0.043338 -0.067969 -0.164032 -0.052306 -0.000736 0.045784 0.038654 -0.004263 -0.087608 -0.103023 0.112026 0.012089 0.123172 0.079380 -0.103208 0.164200 0.020280
202 -0.021425 0.014389 -0.106798 -0.019884 -0.006983 -0.016863 0.068159 -0.221847 0.266867 0.274098 0.058387 0.136976 0.236227 -0.058787 -0.136351 -0.348638 0.178132 0.033765 0.183271 0.058958 -0.345875 0.027836 -0.108909 -0.129691 -0.088941 -0.045274 0.028805 -0.089712 0.061306 -0.293961 0.097419 -0.096292 -0.132700 -0.100564 0.149277 0.116164 0.040925 -0.066142 0.028245 -0.141786 -0.054501 0.160325 0.081370 -0.017369 -0.062569 0.065215 0.034152 -0.011438 -0.026040 -0.073610 0.028791 0.153056 0.100670 0.046206 -0.079518 -0.207382 0.009590 0.128331 -0.023683 0.059598 0.111263 -0.082540 -0.105291 0.072629 -0.097684 0.000612 -0.151970 -0.109675 0.123270 -0.138179 0.151081 -0.071518 0.085337 -0.034803 0.100668 -0.035611 0.116911 -0.058901 0.008790 0.048369 0.128508 -0.094798 -0.015414 0.135101 -0.003805 -0.195732 0.111086 0.088802 0.023430 -0.064987 -0.008797 -0.013501 0.012582 0.057071 -0.060889 0.078668 0.188193 0.182555 -0.206900 -0.056280 0.060642 -0.203835 0.168930 -0.197305 0.271308 0.147043 -0.060505 -0.085597 0.050035 -0.149487 -0.220330 0.111226 -0.116300 -0.105283 0.063261 0.139890 0.064658 0.095072 0.036579 -0.008906 -0.091865 -0.045248 0.045049 -0.021211 0.236720 -0.169256 0.028666 0.277089
675 0.135608 -0.114648 -0.101906 -0.183302 -0.104024 0.062892 0.142617 -0.011888 0.026890 0.300733 -0.062960 0.130423 0.154392 -0.175726 -0.191307 -0.073348 0.162202 -0.041146 0.108022 -0.081857 -0.061651 -0.183061 0.058452 -0.090227 0.103947 -0.126283 0.058160 0.027265 0.144426 -0.218457 0.102972 -0.140604 -0.164935 -0.257987 0.078801 0.152820 0.040274 -0.097799 -0.029502 -0.242409 -0.213154 0.156246 0.162103 0.186974 -0.132126 0.004676 -0.004169 -0.100423 -0.038807 -0.065426 -0.046114 0.129107 0.123004 0.109598 -0.179146 -0.228375 0.030880 0.031628 -0.041554 0.054916 -0.106906 -0.012542 0.183167 0.177981 -0.063212 -0.105145 -0.113705 0.009261 0.086778 -0.265304 0.152698 -0.083801 -0.020376 -0.052275 0.041378 0.127668 0.159145 -0.105798 -0.030944 0.139474 0.002868 -0.195080 -0.135382 0.076579 -0.035546 -0.164998 0.100415 0.183571 -0.102273 -0.127620 0.035503 0.042251 -0.157533 -0.102467 -0.138252 0.107408 0.294258 0.117772 -0.181230 0.217965 -0.134080 -0.125211 -0.019807 -0.238970 0.144436 0.021433 0.094537 0.059604 0.202448 -0.036727 -0.121569 0.127627 0.016365 -0.236437 -0.050530 0.209876 0.081796 0.190793 -0.188011 0.034344 -0.172643 -0.053960 0.110745 -0.059467 0.257335 -0.103350 0.111819 0.132392
878 -0.033194 0.109357 -0.103025 -0.397372 -0.116928 0.349600 -0.194806 0.065476 0.117259 0.143625 0.025789 0.176453 0.092573 -0.154160 -0.127951 -0.141649 -0.108901 0.040327 -0.047502 -0.063250 -0.052900 -0.086104 -0.114578 -0.155852 0.020971 -0.097656 0.069342 0.091961 0.064010 -0.089612 -0.053929 0.044890 -0.193624 -0.152930 -0.074847 0.178733 0.231779 -0.131167 -0.056885 -0.089333 0.094454 0.117829 -0.070145 -0.086864 -0.037133 0.178088 0.015152 0.057659 -0.050198 -0.002780 0.094122 -0.040565 -0.100021 -0.045949 -0.294138 -0.251929 -0.027779 0.281699 0.062580 0.033963 0.027700 -0.000251 0.094876 0.081898 0.091436 -0.087756 -0.048974 -0.136789 0.135715 -0.092622 0.245531 0.002787 0.210130 -0.027301 0.305476 -0.100380 0.074356 0.104753 -0.018242 0.077257 -0.046936 0.040714 -0.185312 -0.085064 -0.074059 -0.174597 0.049024 -0.034338 0.177182 -0.060468 0.073595 -0.016848 0.053779 0.109773 0.015125 -0.037830 0.051307 -0.022288 -0.163299 -0.117686 -0.260530 -0.044716 -0.022817 -0.177365 0.008451 0.013016 0.135436 0.020024 -0.073398 -0.052898 -0.226468 -0.062826 0.118252 -0.246626 -0.158476 -0.082558 -0.083298 -0.004752 -0.189192 0.022385 -0.299425 0.070499 0.056053 0.117106 -0.161400 -0.110517 0.140302 -0.137777
1240 0.104193 -0.052697 -0.029250 -0.078745 0.012367 0.170867 0.097691 -0.147260 0.134962 0.366973 0.205669 -0.013664 0.275984 -0.075143 -0.159127 -0.160876 0.168164 0.002107 0.168865 -0.050423 -0.160092 -0.120213 -0.082930 -0.015143 -0.020894 -0.071624 0.063809 -0.031898 -0.104034 0.054979 -0.015303 0.002480 -0.055475 -0.161143 0.063133 0.085999 0.135076 0.010201 -0.043527 -0.134056 -0.050744 0.195135 -0.006589 -0.009798 -0.010915 -0.005132 -0.011671 -0.003975 -0.018735 -0.001165 0.048700 0.196180 0.006608 -0.032480 -0.267083 -0.150934 -0.003315 -0.028844 0.058204 -0.021559 0.009909 -0.032599 -0.046290 -0.118315 -0.193347 0.057243 -0.038642 -0.027697 0.041956 -0.213173 0.329418 -0.047067 0.188991 -0.123599 0.050313 -0.237118 0.288776 -0.040592 -0.269317 0.111854 -0.077307 -0.029904 0.001461 -0.038998 -0.004972 -0.081599 0.032495 0.051413 0.085990 -0.252937 -0.088193 -0.021221 -0.002811 -0.168232 -0.045801 0.033603 0.130001 0.138596 -0.294096 -0.072263 0.000834 -0.074592 0.118635 -0.245970 0.145400 -0.021623 -0.011620 -0.052293 0.137012 -0.156466 -0.015418 0.207251 -0.102352 -0.015698 0.003563 0.050560 -0.017573 -0.003922 -0.040638 -0.152084 0.034085 0.041814 0.154576 0.029552 0.004344 -0.079291 0.127373 0.064538
658 0.002123 0.118450 0.019462 -0.247125 0.047648 0.222252 -0.059972 0.064365 0.082319 0.125724 -0.053551 -0.014422 0.121660 -0.198385 0.014499 -0.106850 -0.180996 0.117077 -0.018258 0.013399 -0.138990 0.070962 0.028781 -0.028934 -0.155031 -0.125638 0.105720 -0.080834 -0.079465 -0.030752 -0.132182 -0.002167 0.063599 -0.122909 -0.034596 0.088851 0.110779 -0.192153 0.063637 -0.240897 0.126200 -0.000911 0.025943 0.077702 0.042942 0.048226 -0.009944 -0.088290 -0.055633 0.010412 0.044211 -0.251586 0.028278 0.105549 -0.369147 -0.027565 -0.096267 0.230509 0.064861 0.013072 0.019678 -0.142160 -0.013166 -0.052914 -0.083998 -0.129233 0.238637 -0.119067 0.043229 -0.140866 0.249624 0.007026 0.140437 -0.119223 0.026232 -0.188518 0.102780 0.223343 -0.138456 0.027881 -0.147488 0.068421 -0.150226 0.003298 -0.044317 -0.059174 0.201424 0.133877 0.134429 -0.112855 -0.039933 0.052570 -0.019679 -0.024910 -0.064717 0.014191 0.117678 -0.030309 -0.110146 -0.026131 -0.212296 -0.010263 0.124259 -0.236880 0.201927 0.085060 0.065164 0.044707 0.083807 -0.104372 -0.053822 0.052738 -0.112451 -0.187014 -0.184691 0.020445 -0.051789 0.027057 -0.178280 0.024181 -0.229535 0.428847 0.016568 -0.129106 -0.070922 0.026318 0.226951 0.004590
694 0.058929 0.045432 -0.117246 -0.217940 -0.200952 0.306887 -0.063805 0.056000 0.252029 0.202451 -0.058215 0.102710 0.044850 -0.050519 -0.114426 -0.179643 -0.168241 -0.025922 0.092044 -0.100720 -0.122262 -0.150348 -0.117367 -0.119068 -0.078539 -0.010363 0.005836 0.148493 0.152475 -0.063304 -0.106098 0.155009 -0.140568 -0.118906 -0.033312 0.024336 0.115527 -0.078434 -0.064334 -0.148546 0.058123 0.050039 -0.030552 -0.092617 0.102218 0.114590 0.007588 0.133034 -0.078821 -0.049443 0.221223 0.066232 -0.161444 -0.073566 -0.192190 -0.181526 0.066471 0.255946 -0.062084 -0.001702 -0.020267 0.040142 -0.227087 -0.027031 0.049745 0.045959 -0.111088 -0.200379 0.101115 -0.171362 0.183545 -0.009452 0.104118 -0.068484 0.026732 -0.109396 0.149586 0.127951 -0.004730 0.164691 -0.047618 -0.063008 -0.113494 -0.110062 0.032884 -0.060011 -0.025105 -0.049371 0.011359 -0.090238 0.027599 -0.046973 0.017055 0.012448 -0.049820 -0.016612 0.184106 0.078537 -0.114362 -0.116364 -0.188659 -0.172627 -0.002514 -0.278643 0.031667 0.025935 -0.076289 0.061413 0.016238 -0.000788 -0.127548 0.095387 0.074626 -0.189961 -0.089469 0.046724 -0.051454 -0.019839 0.007256 -0.046453 -0.091943 0.216459 -0.048292 0.074196 -0.121595 -0.160030 0.211080 -0.107585
215 0.060713 -0.122619 -0.107174 -0.146038 0.011761 -0.048604 0.089040 -0.084660 0.158829 0.148648 0.069133 0.003509 0.077784 -0.057298 -0.113222 -0.283462 0.025409 -0.073598 0.149217 -0.078155 -0.355295 -0.049508 -0.112441 -0.068049 0.170089 -0.030707 0.116099 0.068954 0.102137 -0.060475 0.057768 -0.076300 -0.294624 -0.144231 0.059316 0.048086 -0.013808 -0.158725 0.018967 -0.271894 0.024727 0.074294 0.196371 -0.073703 -0.045278 -0.045361 -0.065477 0.021889 0.091088 -0.097270 0.020095 0.159459 -0.129400 -0.012503 0.042863 -0.121263 0.082590 0.155150 -0.081194 0.054170 0.104834 -0.078384 -0.334477 -0.057376 0.004057 0.113131 -0.115521 -0.078931 0.032700 -0.305586 0.149803 -0.069232 -0.054409 -0.115383 0.193107 0.064562 0.223182 0.090234 0.052122 0.044321 -0.085614 -0.228902 -0.151900 -0.104688 0.059561 0.004483 0.076307 0.006326 0.023354 -0.070126 0.022541 -0.091566 -0.118746 -0.046333 -0.048006 0.133837 0.282276 0.115076 -0.109713 0.166716 0.021762 -0.156792 0.147032 -0.342752 0.179236 0.062287 0.085636 0.022406 0.147047 -0.210899 -0.174728 0.140472 -0.171622 -0.257828 -0.001166 0.183712 0.109076 0.098553 0.009158 0.087850 -0.054262 0.201666 0.033788 0.061198 0.204610 -0.185528 0.094785 0.269574
1267 0.074771 0.156349 0.010458 -0.072099 0.115126 0.123362 -0.085394 -0.030414 -0.096237 0.240218 0.121398 -0.007345 0.130016 -0.133223 -0.030446 -0.125571 -0.326212 0.248186 -0.108557 0.070168 -0.223269 0.001028 -0.055470 -0.024959 -0.159171 -0.160317 0.239078 0.044183 0.115470 -0.277817 -0.046034 0.053983 0.008499 -0.002681 0.022168 0.074632 0.020035 -0.097985 0.107803 0.028271 -0.028741 0.097054 -0.090733 0.198991 -0.137819 0.094513 -0.041276 0.049453 0.202627 -0.143235 0.089209 0.062038 0.058631 -0.025321 -0.200635 0.125198 0.074186 0.213273 -0.065485 0.048109 0.203402 -0.067812 -0.019938 -0.028090 0.002561 -0.001686 0.120431 -0.096409 -0.018508 -0.035078 0.164725 -0.095751 0.180011 -0.070130 0.244056 -0.146515 0.080000 0.159292 -0.015450 0.017599 -0.036559 -0.013244 -0.082777 0.037849 -0.066573 -0.039965 0.065903 0.073226 0.159357 -0.080080 0.003360 0.011914 -0.040919 0.049346 -0.188050 -0.188322 0.172297 0.013255 -0.091237 -0.068128 -0.407345 -0.121418 0.220090 -0.187232 0.027516 0.056679 -0.008911 -0.040849 0.036503 -0.100819 -0.197485 0.015868 -0.021873 -0.128896 -0.068453 -0.033848 0.042178 0.127873 -0.098975 0.036939 -0.290552 0.305892 -0.086787 -0.023202 -0.047870 0.068410 0.220493 -0.005164
390 0.216373 -0.192059 0.098682 -0.121639 -0.075948 0.045766 -0.012265 -0.148159 0.048038 0.221132 0.077319 0.043821 -0.036249 0.052487 0.022265 -0.095483 -0.130351 -0.012198 0.027024 -0.001962 -0.085265 -0.023861 -0.051712 0.020633 0.055849 -0.124490 0.057503 -0.059553 0.017201 -0.183315 -0.145951 0.076709 -0.139717 -0.106632 0.076898 0.070228 -0.015295 -0.116525 0.061427 0.087631 -0.121588 0.045959 -0.050282 -0.197581 0.036390 0.206845 0.121458 -0.040898 0.107158 0.090234 0.074806 0.221292 0.176136 0.104565 -0.081130 -0.107678 -0.055755 0.115415 0.014773 0.111652 0.150280 -0.066824 0.033998 0.146052 -0.028865 0.076049 -0.110797 0.055955 0.273705 -0.200827 0.214357 0.010935 0.054792 0.060802 -0.001358 0.037485 0.076221 0.080389 -0.058638 -0.174483 0.101877 0.011456 -0.197116 -0.004067 0.085682 -0.064927 0.018237 0.099496 0.162108 0.109757 -0.023013 0.005647 0.143737 -0.071953 -0.237528 -0.128515 0.118128 0.087464 -0.217427 -0.114935 -0.028587 -0.000452 0.008933 -0.222761 0.072765 -0.035635 0.008403 -0.010448 0.148301 -0.050603 -0.063466 0.071529 -0.230674 -0.244092 0.119339 0.091026 0.149505 -0.046923 -0.027338 -0.152339 -0.050833 0.162420 0.057259 -0.019220 0.077455 -0.140103 0.160356 0.032369
579 0.192601 0.006920 0.097236 -0.237281 0.062234 0.146558 -0.047690 -0.093272 -0.038624 0.185449 0.109974 -0.022795 0.141419 -0.237701 0.000998 -0.196995 -0.364220 0.149544 0.080204 0.030590 -0.203612 0.014626 -0.079175 -0.132229 -0.163641 -0.143450 0.251581 -0.008322 0.075900 -0.179051 -0.050342 0.072644 0.081070 -0.077968 0.098335 0.188395 0.106308 -0.060292 0.097356 -0.022866 0.099916 0.089734 0.004112 0.122342 -0.076724 0.104929 0.042420 -0.017386 0.141361 -0.071632 0.008008 -0.045211 0.091248 0.019020 -0.131921 -0.001506 -0.079975 0.091323 0.061518 0.108751 0.088270 -0.075063 0.087595 -0.097566 -0.069892 -0.050942 0.081310 0.015007 0.032459 -0.082963 0.174935 -0.144261 0.015160 -0.068228 0.220787 -0.094346 0.158828 0.095748 -0.086496 0.079105 -0.026925 0.007478 -0.117600 0.023665 -0.131195 -0.081209 0.049854 0.096322 0.148123 -0.132950 0.019698 -0.031167 -0.060643 -0.037644 -0.077773 -0.045348 0.082135 0.095409 -0.098301 -0.026034 -0.167886 0.010873 0.072675 -0.224545 0.126350 0.136990 0.123010 -0.062771 0.137186 -0.152621 -0.238417 -0.000479 -0.023611 -0.118446 -0.079129 -0.019087 -0.021231 -0.006950 -0.137677 -0.086062 -0.208214 0.226801 -0.081275 -0.008487 0.088154 0.052094 0.222440 0.111038
127 0.002278 0.058255 -0.035531 -0.167984 -0.077648 0.242888 -0.282235 0.010285 0.151338 0.292336 0.152311 0.265491 0.077347 -0.127042 -0.128029 -0.018761 -0.081365 -0.013462 0.072318 -0.016534 -0.022844 0.042721 0.011408 -0.172053 -0.144960 0.003424 0.056481 0.119731 0.066615 0.015507 -0.148958 -0.053550 -0.125750 -0.053401 -0.285109 0.054607 0.237764 -0.042322 -0.003943 -0.208000 0.242059 0.145757 -0.114788 -0.136397 0.021068 0.119936 -0.082172 0.147610 -0.067865 -0.063693 0.128292 -0.265073 -0.263123 -0.219781 -0.359449 -0.192713 -0.017932 0.287303 -0.016962 0.107716 0.078020 0.120221 -0.118370 0.084296 -0.080312 0.038230 -0.113052 -0.113244 0.159566 -0.127669 0.308935 -0.063173 -0.056972 0.072337 -0.099377 -0.065662 0.085192 0.382991 0.077588 0.136495 -0.007110 0.062711 -0.227348 -0.104346 0.106623 -0.177768 -0.152259 -0.165288 -0.100978 -0.220500 0.268712 0.121005 0.147171 0.018655 -0.225293 0.009756 0.173295 -0.009031 -0.016089 -0.090583 -0.314411 -0.132506 0.023477 -0.017101 0.135931 0.190495 -0.007643 0.114138 -0.014926 0.008893 -0.146776 -0.152967 0.093667 -0.124695 0.120527 0.024696 -0.030140 0.184273 -0.069583 -0.220552 -0.287552 -0.081304 -0.044300 0.069124 -0.223793 0.017842 0.291489 0.017699
285 0.038566 -0.063107 -0.009591 -0.107226 -0.001574 0.234370 0.004547 -0.023372 0.057556 0.123033 0.164262 0.058756 0.123867 -0.154639 -0.154475 -0.055009 0.019103 0.103796 0.083929 -0.006674 0.015607 -0.091015 -0.122433 -0.113271 -0.048366 -0.024232 -0.086942 0.080303 0.147156 -0.129802 -0.026927 0.120411 -0.085348 -0.048330 -0.111580 0.268614 0.239643 -0.017632 0.025685 -0.049549 0.128541 0.134435 0.027928 0.021204 0.027323 0.194363 0.035912 0.193118 0.013693 -0.084413 -0.079843 -0.127540 -0.006257 -0.040144 -0.210025 -0.192111 0.022186 0.350310 -0.017152 0.038594 -0.054733 -0.029463 0.012736 0.284695 0.066667 -0.066194 -0.066768 -0.026657 0.036570 -0.161298 0.207965 -0.048084 0.149221 -0.042255 0.082892 -0.026309 0.194140 0.043125 0.035547 -0.006796 0.019231 0.015957 -0.150254 -0.057438 -0.073945 -0.208619 0.000485 -0.074067 -0.058763 -0.237551 0.081722 -0.018474 0.045856 -0.280074 -0.144562 0.003777 0.166471 -0.043027 -0.129084 -0.098218 -0.237329 0.054195 0.117409 -0.267210 0.239560 0.203305 0.020347 0.103611 0.021447 -0.063807 -0.061280 0.059147 0.132694 -0.079508 -0.092031 -0.072145 -0.203657 0.226020 -0.048422 -0.180319 -0.277939 -0.094217 -0.069459 0.142138 -0.037165 0.040351 0.112838 0.031948
1305 0.100630 -0.125315 -0.013378 -0.195478 -0.138425 0.076818 -0.107188 -0.088021 0.225564 0.130529 -0.241859 0.220769 0.213971 -0.067804 -0.004685 0.061994 -0.120228 0.172347 -0.111903 -0.006377 -0.009281 -0.098024 -0.015526 -0.136233 -0.025483 -0.044681 -0.049155 -0.031151 -0.056608 -0.027532 -0.039606 -0.008475 -0.250852 -0.175953 0.014260 -0.013469 0.035349 -0.187686 -0.026721 -0.166556 0.020715 0.127673 0.169556 -0.109887 -0.048259 0.093526 -0.025370 -0.239021 0.212299 -0.088815 0.024735 0.059184 -0.118864 -0.015232 -0.118524 -0.103704 0.142124 0.086938 -0.034425 0.268152 -0.068687 -0.035807 0.102972 0.055445 -0.036101 -0.025207 0.007919 -0.138720 0.148054 -0.278060 -0.045266 -0.108887 0.237442 0.178262 -0.126920 -0.181760 0.198796 0.241670 -0.029684 0.019867 -0.051649 -0.092700 -0.146557 0.033870 0.079718 0.037284 0.070834 0.090600 -0.006162 -0.125669 -0.142494 0.072529 -0.152664 -0.013556 -0.202373 -0.058095 0.231370 -0.133696 -0.115475 0.160053 -0.094448 -0.065461 0.200938 -0.175362 0.067304 0.088483 0.155996 0.033461 0.108183 -0.068631 0.019175 0.025421 -0.011975 -0.124453 -0.279599 0.116912 -0.108726 0.135765 -0.280407 -0.138506 -0.356229 0.079813 0.115290 0.075795 0.154172 -0.134064 0.184946 -0.104310
205 -0.077177 0.131380 -0.091719 -0.162380 0.029623 0.159074 -0.134766 0.077220 0.094083 0.187833 0.176401 0.114844 0.053501 -0.148700 -0.090197 -0.110932 0.055706 0.005961 0.007361 0.003654 -0.219406 0.086791 -0.006824 -0.112477 -0.209083 -0.025321 0.093488 0.017192 0.106257 -0.031614 -0.140848 -0.131459 -0.219453 -0.120405 0.000617 0.119693 0.182050 -0.096994 -0.143257 -0.138312 0.164221 0.036622 0.074272 0.037130 -0.068727 0.129631 -0.046418 0.087936 -0.051025 -0.070709 0.169447 -0.087112 -0.119178 -0.018795 -0.120063 -0.192490 -0.036190 0.329710 -0.022401 0.037716 0.057001 -0.083726 0.056151 0.058298 0.040321 -0.092287 0.004687 -0.191306 0.137632 -0.135125 0.200556 0.046282 0.159219 -0.004904 0.265189 -0.176618 0.103447 0.216125 -0.002036 0.149853 0.099040 -0.094183 -0.166192 0.019314 0.115319 -0.120834 -0.099598 0.023024 0.097868 -0.047153 -0.021368 -0.022081 0.038262 -0.056820 -0.122599 -0.051882 0.157513 0.005916 -0.147262 -0.141623 -0.239966 -0.136171 -0.031623 -0.270888 0.073289 0.056781 0.095703 0.073902 0.002212 -0.055549 -0.169262 -0.001490 0.061717 -0.254860 0.018337 -0.065184 -0.076716 0.160057 -0.094012 0.001259 -0.212552 0.022969 -0.016974 0.083435 -0.033486 -0.098539 0.147189 0.068181
248 -0.029857 0.015816 0.014424 -0.031682 -0.091381 0.167259 -0.015093 -0.014160 0.193509 0.237521 0.012887 0.137867 0.097916 -0.167715 -0.070742 -0.249882 -0.031984 -0.044081 0.036992 0.016990 -0.203796 -0.135677 -0.249235 -0.158282 -0.147595 0.008956 -0.054243 -0.021715 -0.183495 -0.030932 -0.002789 0.081268 0.024830 -0.114737 -0.083852 0.304401 0.060161 -0.093468 0.051623 -0.212063 -0.020702 0.254985 0.064557 -0.116529 -0.163772 0.015604 -0.007723 -0.055285 0.136784 -0.037945 -0.068548 -0.040226 -0.062602 0.005575 -0.313367 -0.019348 -0.061030 0.237619 0.162827 -0.010193 -0.022163 -0.037053 0.008291 0.072459 -0.025658 0.194227 -0.165488 -0.098187 0.049306 -0.195091 0.424985 0.009684 -0.010119 -0.106485 0.093363 -0.037040 0.128235 -0.054126 -0.045902 -0.004146 0.035337 0.139217 0.105333 0.112001 -0.043479 -0.279614 0.195270 0.083979 -0.042400 -0.255416 -0.054638 -0.031951 0.072990 -0.072792 0.040233 0.164588 0.170244 0.218180 -0.274040 0.021411 0.043867 -0.142557 -0.020576 -0.251393 0.143312 0.121996 -0.069368 0.005983 -0.055792 -0.182203 -0.095286 -0.020336 -0.065119 0.068729 -0.106905 -0.079207 -0.038232 0.088987 -0.178695 -0.045833 -0.005142 -0.026536 0.139547 0.173560 0.076737 -0.038767 0.168620 0.253766
141 0.114057 -0.037911 0.058000 -0.250598 -0.107627 0.241262 -0.081514 -0.109068 0.112032 0.257133 0.061092 0.117432 0.107764 -0.117729 0.150720 0.029841 -0.130527 -0.010506 -0.005505 0.068346 0.028265 0.033139 -0.139928 -0.078355 -0.021441 -0.043350 0.082168 -0.001625 0.014775 -0.144725 0.013007 0.137830 -0.066017 -0.108940 -0.188968 -0.051097 0.058710 0.030452 0.018274 0.035236 0.042538 0.193448 -0.086373 -0.129058 0.306413 0.098153 0.120050 0.137380 0.103463 0.010726 0.084086 -0.127605 -0.047028 0.168341 -0.109332 -0.059495 -0.210695 0.082999 -0.021479 0.061882 0.068641 -0.014981 -0.020908 0.095840 -0.140365 -0.167320 -0.101316 -0.108533 0.141569 -0.152949 0.375242 -0.112194 -0.035741 0.060014 -0.089059 -0.151507 0.317255 -0.009930 -0.009554 -0.086069 -0.090300 -0.137098 -0.171936 0.071166 -0.086349 -0.164534 0.160584 0.078798 0.124726 -0.122994 -0.079869 -0.115276 0.073330 -0.096843 -0.280006 -0.105307 0.253618 -0.039121 0.007497 -0.095352 -0.219728 0.074047 0.002630 -0.068959 0.193770 0.011336 -0.098110 -0.028284 0.052396 -0.294492 -0.058721 -0.148892 -0.288314 -0.146922 0.155304 0.078027 -0.076988 0.112612 -0.019652 -0.275754 0.078820 -0.019351 0.039214 -0.070104 0.134680 -0.164596 0.068488 -0.087685
256 0.154125 -0.050931 0.116117 -0.147292 -0.099310 0.093284 0.068336 -0.121505 0.057857 0.354004 0.030707 -0.083018 0.114439 -0.046212 -0.059180 0.010242 0.166189 -0.002578 0.069391 0.023393 -0.031397 -0.146695 -0.026906 -0.058635 0.033178 -0.015035 0.045709 -0.004741 0.065374 -0.098505 0.012829 0.014279 -0.156909 -0.116119 0.091163 0.141401 0.099972 -0.161419 -0.034908 -0.112701 -0.172373 0.030190 0.031051 0.032903 -0.020515 0.024487 -0.178425 -0.117020 0.015735 -0.138325 -0.069075 0.060578 0.178508 0.001804 -0.095421 -0.196413 -0.005045 0.061383 -0.062175 0.101562 0.148755 -0.071843 0.230833 0.073395 -0.014221 0.054576 -0.108089 0.022829 0.034980 -0.232616 0.277438 -0.079580 0.216612 -0.104922 0.033681 -0.134902 0.332060 -0.228121 0.055535 0.012552 -0.112450 -0.113011 -0.026878 0.065206 0.074683 -0.146804 0.040580 0.175848 -0.062359 -0.262769 0.101357 0.120387 -0.118880 -0.067619 -0.080041 0.043974 0.293123 -0.037214 -0.205550 -0.003923 -0.222204 -0.130948 0.006455 -0.140953 0.077202 0.004844 0.015209 -0.075832 0.154598 -0.220188 -0.036370 0.216060 0.032436 -0.075937 0.049956 0.092744 0.082356 0.115394 -0.140886 -0.044906 -0.178920 0.167248 0.325249 0.031376 0.035806 -0.055943 0.135769 -0.001974
1140 0.132188 -0.089173 -0.002377 -0.120432 -0.161446 0.102337 -0.127962 -0.055168 0.178943 0.202954 0.036962 -0.036888 0.004872 0.042723 -0.100957 -0.021659 -0.137678 0.020874 0.076765 0.100904 -0.209299 -0.074720 -0.085174 -0.036285 0.047770 -0.033710 0.060017 -0.118823 -0.008218 -0.208150 -0.072511 0.088719 -0.102199 -0.223925 -0.023931 0.125200 0.044838 -0.183719 0.014467 -0.147062 -0.029363 0.288306 0.032810 -0.268831 -0.068057 0.228559 0.046355 -0.181767 0.040002 -0.014544 0.092158 0.244479 0.053642 0.019761 -0.248251 -0.147294 -0.083292 0.070715 0.027351 0.168202 0.133122 -0.135973 -0.154353 -0.126567 -0.059182 -0.060661 -0.172438 -0.068690 0.324988 -0.273241 0.221791 -0.030395 -0.059058 0.055317 -0.184718 -0.127246 0.158554 -0.026880 0.045342 0.003014 -0.013601 -0.058222 -0.130381 0.026385 0.139179 0.035881 0.106670 0.030467 0.041239 -0.161904 -0.042571 0.080975 0.081250 0.094468 -0.219708 0.031967 0.173883 -0.028523 -0.197926 -0.025085 0.112213 -0.077949 -0.054533 -0.197680 0.078055 0.019502 -0.083467 0.084674 0.189293 -0.115648 -0.150508 0.106779 -0.109185 -0.046629 0.118372 0.102606 0.061817 -0.030747 0.032468 -0.172982 0.167657 0.028257 -0.057689 0.046023 -0.031209 -0.040445 -0.020414 0.117057
1114 0.005003 0.123978 0.065478 -0.092543 0.006306 0.066247 0.060934 -0.175060 0.064156 0.301853 0.031309 0.096245 0.258063 0.017316 -0.119229 -0.206217 0.111500 0.020636 0.183612 0.078643 -0.228410 -0.103963 -0.136031 -0.078094 -0.114903 0.192619 0.085191 -0.179089 -0.013898 -0.111951 0.029095 0.070477 -0.049734 -0.104085 0.032204 0.082418 0.118364 -0.042192 -0.062780 -0.011257 -0.016037 0.122002 -0.017878 0.025490 -0.099957 0.114760 0.083488 0.056213 -0.012155 -0.038294 0.113739 -0.012801 0.104254 0.023096 -0.129874 -0.077474 0.059558 0.180336 0.016915 0.079983 0.080682 -0.095536 0.038499 -0.154030 -0.196096 -0.061743 -0.062508 -0.115428 0.061742 -0.089855 0.233877 -0.049575 0.229406 -0.040597 0.119277 -0.192675 0.209721 0.019037 -0.044778 0.050505 -0.127221 -0.028816 0.007518 0.067558 -0.040667 -0.217521 0.061941 0.037943 -0.007949 -0.128748 0.051155 0.041645 -0.173193 -0.039059 -0.086753 0.007262 0.172394 0.031061 -0.128246 -0.063981 0.034785 -0.196215 0.022837 -0.200244 0.245530 0.111731 -0.044058 0.042301 0.132920 -0.202911 -0.116809 0.011417 -0.010854 -0.220929 0.088914 0.077044 -0.020321 -0.049253 0.021827 -0.116961 -0.026298 0.075984 0.124633 -0.007083 0.168565 -0.100200 0.119225 0.115558
243 -0.069754 0.023667 -0.066717 -0.195948 -0.164746 0.089056 -0.203245 -0.059340 0.071307 -0.000357 -0.047527 -0.075980 0.033793 -0.029096 -0.054132 -0.001039 -0.111057 0.014163 -0.039547 0.013354 -0.026489 0.089873 -0.152412 -0.031630 -0.221358 -0.176469 0.124030 -0.073638 -0.207901 0.065154 -0.208922 0.069337 -0.008340 -0.189149 -0.011451 -0.012380 -0.048495 -0.004683 -0.139909 -0.196322 0.168372 -0.113070 -0.145359 -0.051658 0.078686 0.127517 0.079875 -0.179753 -0.053225 0.091313 -0.014730 -0.162954 -0.011866 0.033593 -0.214855 -0.004540 -0.190264 0.247706 0.018854 0.137462 -0.033091 -0.103179 -0.075536 -0.011877 -0.096021 -0.099754 0.238113 -0.189892 0.259837 -0.109005 0.221891 0.173872 0.230995 0.033076 0.105895 -0.244709 0.113445 0.308380 -0.069901 0.038530 0.000430 -0.069843 -0.315310 -0.122111 0.117332 -0.059055 0.138577 0.055756 0.150737 -0.132898 -0.286343 0.244526 -0.090570 -0.001973 -0.339230 -0.073303 0.112291 -0.002159 -0.220588 -0.043631 -0.260114 0.002457 0.141832 -0.096803 0.069477 -0.053809 0.022643 0.122195 -0.046471 -0.109601 0.038544 0.032144 -0.011247 -0.268977 -0.198550 0.067069 0.026328 0.076902 -0.294175 -0.114858 -0.035725 0.456182 0.032713 -0.147925 -0.137986 -0.229139 0.281192 -0.017248
260 -0.049943 -0.096429 0.058647 -0.022202 0.034188 0.194718 0.034061 -0.182819 0.177289 0.227172 0.013810 0.157948 0.200677 -0.060911 -0.135233 -0.124685 0.134243 0.028152 0.066548 0.027385 -0.004372 -0.083496 -0.035602 -0.165869 -0.088200 0.016822 0.001589 -0.100845 -0.029258 0.081078 0.019320 -0.038508 -0.185296 -0.043702 0.066616 0.134594 0.069993 -0.108843 -0.033486 -0.023382 -0.035455 -0.017226 0.113286 -0.018973 -0.123397 0.062634 -0.013678 -0.210287 0.112210 -0.066049 -0.074931 0.044906 0.017747 0.056550 -0.164547 -0.175685 -0.042716 0.064670 -0.075047 0.170247 0.030350 -0.116492 0.131899 0.103666 -0.000433 0.120954 -0.121376 -0.150329 0.099151 -0.291208 0.296035 -0.120343 0.070904 -0.001810 0.002331 -0.057328 0.338857 -0.005282 -0.093145 0.117686 0.111001 -0.130373 -0.061849 -0.172579 -0.018917 -0.193513 0.069135 0.061630 -0.119296 -0.079197 -0.014464 -0.025824 -0.022897 -0.215546 -0.087177 0.012064 0.196087 -0.056673 -0.188226 -0.000262 -0.170866 -0.049048 0.066736 -0.033684 0.242558 0.101049 0.007153 0.045106 0.019472 -0.134158 0.046812 -0.037075 -0.047937 -0.193092 0.021016 0.085515 0.073656 0.050456 0.002817 0.073506 -0.112586 -0.063626 0.085024 0.173202 0.157051 -0.029452 0.121225 0.111691
1428 0.098253 -0.121254 -0.114688 -0.148291 -0.137869 0.110540 0.041012 -0.118142 0.105656 0.196528 0.038988 -0.035593 0.206122 -0.082233 -0.057349 0.001239 -0.009407 0.053115 0.249160 -0.183510 0.051082 -0.190877 0.019847 -0.268653 0.148000 -0.067531 -0.011646 0.066449 0.128538 -0.115470 -0.041809 0.244867 -0.246113 -0.189707 0.187910 0.028284 0.148282 -0.138944 -0.139796 0.021479 -0.064024 -0.034173 0.050257 0.004629 0.195326 0.095568 0.028662 -0.074475 0.060612 -0.123875 0.060402 0.174161 0.017932 0.030682 -0.144386 -0.209730 0.038081 0.187661 -0.121540 0.110275 -0.051866 -0.185237 -0.013271 0.043524 0.078717 0.001708 -0.074477 -0.190349 0.062258 -0.253859 0.126554 -0.139068 0.145961 -0.017268 0.045262 -0.082167 0.116433 0.079771 -0.021855 -0.036221 -0.025326 -0.165299 0.002926 -0.125565 -0.012828 -0.048884 -0.002316 0.029250 -0.002214 -0.124314 -0.175076 -0.004258 -0.012821 -0.123398 -0.100788 0.066258 0.169646 -0.068681 -0.334434 -0.074602 0.012108 0.059656 0.001694 -0.233831 0.008784 -0.101646 0.027218 0.044255 0.013261 -0.139283 -0.051926 0.074274 -0.070036 -0.179705 -0.036605 0.092742 0.117241 -0.052379 -0.073352 -0.018673 -0.207579 0.125981 0.074513 0.102876 0.055242 -0.149257 0.146644 0.005753
1382 0.129882 -0.034667 0.099600 -0.175536 0.007062 0.109618 0.134944 -0.088022 -0.066353 0.239574 0.021913 0.018290 0.310437 -0.084864 -0.068079 -0.145643 0.273330 -0.057444 0.197262 -0.008090 -0.148648 -0.023712 -0.174271 -0.078261 0.042554 -0.016425 0.029592 -0.007682 -0.024451 -0.025511 -0.118321 0.074983 -0.035798 -0.073911 0.048531 0.093236 0.212404 -0.132098 -0.019933 -0.200207 0.012124 -0.041224 0.008758 0.075451 0.001294 0.010119 -0.004507 -0.027948 0.066912 -0.177173 0.023397 0.021980 0.101622 0.037036 -0.091890 -0.041348 -0.066740 0.052119 0.007043 0.139763 -0.040504 0.005894 0.098786 -0.077109 -0.112427 0.141954 -0.062544 0.020377 0.101576 -0.206793 0.216159 -0.014066 0.243380 -0.040653 0.086704 -0.045361 0.219977 0.009928 -0.141470 0.060281 -0.107661 -0.139297 -0.070119 0.010457 -0.050252 -0.118927 0.041148 0.172743 -0.049350 -0.169817 0.103110 0.082208 -0.112783 -0.095056 -0.082078 -0.035400 0.190554 0.052010 -0.156451 -0.005825 -0.090949 -0.050613 0.029409 -0.160334 0.249249 0.097522 0.076307 0.005704 0.117445 -0.300113 -0.163093 0.037825 -0.004086 -0.092035 0.030756 0.108133 0.055286 -0.024280 -0.114244 -0.226748 -0.084858 0.182379 0.212780 -0.037512 0.134657 -0.036080 0.185857 0.059950
544 0.083186 0.068261 -0.063670 0.057171 0.045876 0.018357 -0.279837 -0.012176 0.078396 0.064968 0.070174 -0.100527 -0.206661 0.098877 -0.044982 -0.137234 -0.264736 0.092255 -0.041924 0.177500 -0.175449 -0.010378 -0.141841 0.028432 -0.053387 0.139427 -0.051207 -0.095525 0.040409 -0.154046 0.004399 -0.004894 0.068181 -0.107062 -0.077491 0.070898 0.037861 -0.021814 0.031935 -0.106343 -0.201039 0.296304 0.198336 0.071982 -0.127722 0.167397 0.126669 0.044225 0.043335 0.096715 0.028173 0.130387 0.135366 -0.037361 0.026235 0.113831 -0.139376 -0.105463 0.143204 0.037910 -0.009673 -0.094323 -0.185741 0.002195 -0.012522 0.092147 -0.008605 -0.149427 0.211013 -0.002572 0.068475 0.006618 0.133180 -0.098401 -0.050144 -0.269031 0.123830 0.233223 -0.062294 -0.054439 -0.104260 -0.071621 0.151696 -0.015703 0.116277 -0.053033 0.064092 0.035407 -0.089912 0.071409 0.224636 0.055239 0.086843 0.068798 -0.282364 -0.155183 0.133571 0.126679 -0.160188 -0.272163 0.126394 -0.089879 -0.227195 -0.349179 0.008123 -0.042075 0.083965 0.001892 0.103946 -0.191490 -0.034837 -0.236988 -0.118272 0.017490 0.181766 0.039710 -0.018432 0.288285 -0.195961 0.051951 -0.163950 -0.026061 -0.065256 0.063320 -0.029298 0.020890 0.021580 0.240212
849 0.145088 -0.042270 0.084503 -0.103583 0.122855 0.064231 -0.021475 -0.113780 -0.096493 0.148651 0.212395 -0.169133 0.283451 -0.095820 -0.073147 -0.141089 -0.258819 0.144959 0.016935 0.064881 -0.215631 -0.095671 -0.038789 0.025601 -0.195991 -0.213877 0.275922 -0.025541 0.042009 -0.210178 0.050518 0.031316 0.088031 -0.013676 0.133273 0.081633 0.100762 -0.118093 0.233002 -0.032060 0.068695 0.016655 -0.095288 0.149615 -0.128292 0.031066 -0.037007 0.066260 0.137674 -0.105137 0.086713 0.069300 0.080007 -0.006950 -0.041114 -0.000012 0.193615 0.225873 -0.118602 0.143312 0.173294 -0.021293 -0.066399 0.003254 0.017615 0.026950 0.048340 -0.071750 0.030067 -0.129279 0.118526 -0.099683 0.185019 -0.109935 0.233854 0.026490 0.160122 0.091995 -0.028116 0.070994 0.067185 -0.037065 -0.056769 0.005348 -0.062719 -0.042300 0.110251 0.053771 0.225543 -0.071074 0.044226 -0.022286 0.029926 -0.069181 -0.193157 -0.098669 0.262053 -0.077401 -0.187793 -0.154462 -0.217614 -0.070089 0.208797 -0.357364 -0.008749 0.135887 -0.087458 -0.158215 0.140936 -0.049060 -0.093280 0.104909 0.064021 -0.102610 -0.058058 -0.137796 -0.009427 0.206686 -0.120573 -0.046299 -0.191394 0.276651 -0.123134 0.038116 -0.057287 0.047829 0.184232 0.084851
1348 0.081304 0.001924 0.195166 -0.074123 -0.059779 0.171696 0.127399 -0.031707 0.070862 0.030257 0.106542 -0.023190 0.214535 -0.130579 -0.140221 -0.195206 -0.047202 0.038292 0.119537 0.008214 -0.120039 -0.132195 -0.112532 -0.156393 -0.099798 -0.023572 0.061445 -0.136523 -0.150184 -0.067268 -0.069161 0.077135 -0.033984 -0.098948 0.017202 0.139015 0.119234 0.122377 -0.000220 -0.137307 -0.018897 0.042191 0.083141 -0.066560 -0.080341 -0.008167 0.030955 0.043994 -0.038371 -0.043458 0.017698 -0.103494 -0.011835 0.040686 -0.077931 -0.138890 -0.104932 0.209775 0.013640 -0.145908 0.082628 -0.091696 -0.149903 0.005864 -0.299259 -0.042705 -0.008968 -0.257758 0.116673 -0.028764 0.228827 -0.181560 0.160081 -0.147343 0.144397 -0.183942 0.325121 0.043633 -0.088117 0.003038 -0.090628 -0.140580 -0.189305 -0.100034 0.001906 -0.159782 0.052512 -0.104035 0.005687 -0.241523 0.058249 0.258365 -0.143618 -0.046819 -0.044003 -0.047505 0.185434 0.200594 -0.069007 -0.065374 0.039029 -0.160221 0.041871 -0.292064 0.167663 0.026798 0.117614 0.083785 0.116168 -0.269840 -0.142592 -0.095992 0.093717 -0.041742 0.094991 0.075524 -0.134386 0.159925 -0.039531 -0.112623 -0.111274 0.052967 0.049892 0.164914 0.171777 -0.076835 0.035302 0.081862
466 0.083885 -0.084948 0.216628 -0.110511 0.028492 0.137266 -0.001704 -0.154802 0.083904 0.422228 0.026093 0.136199 0.327359 -0.047429 -0.074885 -0.030690 -0.082780 -0.039988 0.130840 0.067329 0.060827 -0.068197 -0.154772 -0.037935 0.114635 0.042978 0.011195 0.014047 -0.082830 -0.157420 -0.035328 0.132859 -0.064851 -0.117604 0.103061 -0.171780 0.122396 -0.069351 -0.022166 -0.036497 -0.121728 -0.034614 -0.131717 0.063036 0.020255 -0.069074 0.051963 -0.009193 0.102443 -0.053650 0.131088 0.041116 -0.051691 0.172442 -0.208376 -0.125671 -0.057612 -0.037692 -0.071352 0.111996 0.013847 -0.093051 0.063950 -0.021866 -0.054489 0.092350 -0.134796 0.050858 0.163167 -0.086240 0.283001 -0.231025 0.202078 0.047764 0.081112 -0.026976 0.284167 -0.018978 -0.078888 0.059474 -0.005338 -0.096839 -0.102066 0.033174 -0.020276 -0.053334 0.204372 0.151168 -0.017305 -0.043394 0.114686 0.148945 0.034034 -0.019920 -0.078625 -0.025861 0.129453 -0.157723 -0.088222 -0.094143 -0.126577 -0.058331 0.069943 -0.087449 0.267907 0.078761 -0.077345 -0.073382 0.208178 -0.143301 -0.062376 -0.054922 -0.045162 -0.265558 0.018549 0.132184 0.106161 -0.047863 0.003312 -0.189490 -0.005791 0.271774 0.101045 -0.035977 0.148615 0.013467 0.208831 -0.171371
1338 0.075591 0.020230 -0.009874 -0.180645 0.011597 0.161281 -0.071406 -0.053776 0.232510 0.316478 0.067260 0.049680 0.126142 -0.045551 -0.110390 -0.186855 -0.294287 0.040396 0.078094 0.072212 -0.165219 0.064998 -0.068362 -0.060949 -0.137306 0.073055 0.112670 -0.102198 0.071517 -0.196229 -0.044255 0.001500 -0.081754 -0.089484 0.110294 0.086318 0.047628 -0.134707 0.035951 -0.014649 0.033547 -0.034849 -0.009058 0.018097 -0.018140 0.182444 0.048995 -0.083797 0.081048 0.089426 0.055241 -0.094040 0.075274 0.097157 -0.217947 -0.095784 -0.059682 0.058862 -0.086628 0.079197 0.211983 -0.154804 0.154223 0.017488 -0.008801 -0.043518 -0.020937 -0.155568 0.011690 -0.059172 0.253506 -0.060171 0.044163 -0.066502 0.070410 -0.025618 0.246248 0.122575 0.054437 0.082912 0.002798 0.016539 0.035295 -0.063759 -0.083415 -0.142935 0.081890 0.179271 0.032770 -0.013572 0.017339 -0.025627 -0.038189 -0.016952 -0.047870 0.079320 0.107658 -0.080505 -0.148118 -0.121869 -0.204209 -0.046494 0.149794 -0.136508 0.186070 0.111759 -0.045514 -0.035896 0.051952 -0.027204 -0.102450 0.097100 -0.032407 -0.278105 -0.067101 0.039136 0.008989 0.018234 0.040318 -0.012312 -0.050169 0.089779 -0.008426 -0.006218 0.091404 -0.055324 0.059637 0.029601
638 0.178007 -0.054435 0.111459 -0.028714 -0.003156 0.104103 0.054329 -0.154207 0.020589 0.337210 0.077628 0.038897 0.235200 -0.008182 0.027938 0.033678 0.017130 0.041534 0.163160 0.053283 0.060338 -0.202344 -0.104877 -0.096490 0.029597 0.014060 0.087912 -0.005730 0.013682 -0.094103 -0.064255 0.161513 -0.034611 -0.081781 0.038526 -0.004897 0.058500 -0.135155 -0.034491 0.057119 -0.057392 -0.023926 -0.015558 0.030866 0.131323 0.096025 -0.133071 -0.230411 0.049664 -0.191729 0.011023 0.180809 -0.017485 0.003053 -0.110735 -0.063603 -0.023411 0.130825 -0.048006 0.065088 0.120421 -0.081063 0.222945 -0.059693 -0.138437 0.082916 -0.122784 -0.029395 0.084591 -0.194192 0.315207 -0.113468 0.201156 -0.023405 0.063818 -0.142154 0.381735 -0.088049 -0.141243 0.077974 -0.137468 -0.184789 -0.083023 -0.059079 -0.014951 -0.145420 0.052246 0.276602 -0.114063 -0.246493 -0.000154 -0.008346 -0.074889 -0.124337 -0.065213 -0.065673 0.233930 -0.026358 -0.068533 -0.031891 -0.148232 -0.075885 0.086865 -0.171947 0.150735 0.065114 0.039820 -0.057378 0.082297 -0.162678 -0.068499 0.050580 -0.070064 -0.060646 0.099341 0.080976 0.086484 -0.054994 0.035602 -0.234450 -0.171274 -0.040690 0.264994 0.115793 0.137722 -0.036156 0.181277 -0.096511
64 -0.011456 -0.127401 0.074214 0.102087 0.085574 -0.007791 -0.142691 -0.067946 0.047792 0.084114 0.060801 -0.026965 -0.186102 0.003920 0.051129 -0.158315 -0.222924 0.064393 -0.033895 0.003337 0.011850 0.150659 -0.007597 0.057001 0.035628 -0.180032 0.176429 0.073291 0.133693 -0.224369 -0.249568 -0.017429 -0.021035 0.020749 0.013719 -0.047421 0.150599 -0.077837 0.038887 -0.003706 -0.193977 0.235679 0.140267 0.031574 -0.033090 0.085654 0.024493 0.003648 0.259684 0.133365 0.063906 -0.098117 0.036694 0.295965 0.038994 -0.021623 -0.149541 0.028678 -0.047299 0.135000 0.022560 0.059645 -0.052667 0.170971 0.013141 0.153997 -0.080705 -0.122801 0.273890 -0.127980 0.075282 0.157695 0.060240 0.021786 -0.064198 -0.002985 0.055831 0.285981 0.004912 -0.005466 -0.038541 -0.046484 -0.100025 -0.055558 -0.060679 -0.040257 0.027560 0.066308 -0.041904 0.135555 0.065979 0.117416 0.155891 -0.042100 -0.401665 -0.065931 0.189337 0.038945 -0.110911 -0.071687 -0.183270 -0.023181 -0.159179 -0.086401 -0.083842 0.042532 -0.008197 0.163803 0.048916 -0.298146 -0.101106 -0.225316 -0.036314 -0.177434 0.154038 -0.093553 -0.104320 0.345105 -0.104058 -0.129644 -0.224176 0.135545 -0.045154 -0.051972 0.095552 0.009517 0.045033 0.237156
439 0.199397 -0.073545 0.005803 -0.065783 0.112126 0.055436 -0.182799 0.024218 0.040720 0.151071 0.069988 -0.097457 -0.251990 0.087869 0.031421 -0.185843 -0.251718 0.108592 -0.031595 -0.001003 -0.094507 0.163710 0.066184 0.099279 0.035869 0.084979 0.101004 -0.021959 0.160635 -0.193280 -0.163312 0.086593 0.136981 -0.038221 0.030649 0.079173 0.113574 -0.195589 0.222229 -0.002136 -0.183620 0.179378 0.225765 0.173032 -0.001681 0.271796 -0.004991 0.038191 0.160309 0.287252 0.002316 0.120400 0.265157 0.271972 -0.033218 0.208090 0.099148 -0.162907 0.068558 -0.081468 -0.030202 -0.130585 -0.254190 0.182175 0.129577 0.208103 0.169001 -0.014476 0.224189 -0.146418 0.110020 0.044919 0.141319 -0.196555 -0.096069 -0.078458 -0.071897 0.323047 0.028584 -0.009108 -0.175549 -0.061438 0.050547 -0.083439 -0.125025 -0.001764 -0.040650 0.105589 -0.011396 0.226201 0.199930 -0.007576 0.076441 -0.180320 -0.250936 -0.160302 0.084894 0.039591 -0.028260 -0.142850 0.036427 0.042746 -0.151892 -0.304774 -0.086753 -0.112076 0.077975 0.105464 0.218887 -0.056022 -0.010401 0.065626 -0.256515 -0.138859 0.076003 0.045787 0.005601 0.141392 -0.058168 0.075543 -0.204948 0.295168 -0.057745 -0.043787 0.004867 0.090095 0.080344 0.101818
105 0.159618 -0.114674 0.027348 -0.120214 -0.066026 0.055546 0.035331 -0.042152 0.161911 0.282492 -0.002515 0.152090 0.147831 -0.054551 0.006881 -0.043232 0.014541 -0.080746 0.133287 0.090039 -0.007094 -0.121803 -0.051850 -0.005105 0.083331 0.040968 0.048298 0.026983 -0.036638 -0.075626 -0.087261 0.152429 -0.131551 -0.187496 0.142971 0.045157 0.101610 -0.237567 -0.056573 -0.147812 -0.117669 0.186833 0.058927 -0.010558 -0.046112 0.059383 0.075466 -0.146612 0.120377 -0.121007 0.045095 0.122251 0.005200 -0.061134 -0.057755 -0.066891 0.012459 0.012895 -0.044581 0.095798 0.038850 -0.185698 0.016885 -0.176025 0.035347 0.055676 -0.158472 -0.061050 0.298668 -0.378029 0.308576 0.001320 0.155910 -0.002153 0.003492 -0.089054 0.274705 -0.121394 -0.002663 0.231568 -0.054830 -0.023533 -0.090051 0.061098 0.020365 -0.120640 0.105083 0.069721 -0.073278 -0.033947 0.132282 -0.051694 0.011919 -0.096561 -0.030987 -0.089821 0.257795 -0.080587 -0.064341 -0.076500 0.041468 -0.109004 -0.014031 -0.075849 0.095324 0.007801 0.024222 0.024243 0.165328 -0.173764 0.130351 0.049699 -0.246566 -0.112009 -0.086876 0.028656 0.072646 -0.010217 0.019349 -0.072695 0.013170 0.116828 0.181406 0.095118 0.057960 -0.087813 0.047260 0.100194
41 -0.066764 -0.098990 -0.090644 -0.087304 -0.048342 0.283806 -0.122446 -0.114486 0.268887 0.116336 0.185510 0.150555 -0.097962 -0.111488 -0.120326 -0.114628 0.004198 0.082520 0.065135 -0.007273 -0.152561 0.013336 -0.112939 -0.138934 -0.080650 -0.029029 -0.079194 0.102104 0.154971 -0.035827 -0.095837 -0.005992 -0.191966 0.020118 0.004296 0.207913 0.196544 -0.183105 -0.038170 -0.212105 0.202127 0.041726 0.061429 -0.056389 0.035358 0.155556 -0.126169 0.162490 -0.154411 -0.161990 -0.024243 -0.229448 -0.263634 -0.129379 -0.020825 -0.293499 -0.027454 0.375074 -0.013699 -0.077476 0.020861 -0.027744 -0.121205 0.224595 0.058620 0.012033 -0.229093 -0.063465 0.202518 -0.243305 0.331360 0.033131 0.093272 -0.124442 0.143324 -0.174533 0.152985 0.158802 -0.076124 0.137138 -0.027668 -0.109802 -0.316112 -0.128050 0.025444 -0.199225 0.048868 -0.063213 0.051871 -0.145912 0.034172 0.127534 0.100464 -0.130098 -0.138443 -0.085485 -0.005234 0.098342 0.035752 0.002052 -0.211785 -0.122467 -0.008045 -0.153397 0.214036 0.270927 0.094124 0.176883 0.027266 -0.032298 -0.070026 -0.031662 0.084832 -0.168505 0.033009 -0.055900 -0.206902 0.186146 0.048787 -0.087871 -0.260097 -0.010717 -0.209586 0.152502 -0.079138 0.174047 0.127937 -0.111935
724 0.062494 0.235621 0.056530 -0.042878 0.130361 -0.091938 -0.055135 -0.026145 0.183131 0.093734 -0.003623 0.014489 -0.230274 0.062578 0.033883 -0.047520 -0.095352 0.029975 0.038109 -0.062588 -0.024664 0.084108 0.035441 0.188469 -0.043882 -0.115187 -0.208124 -0.102670 -0.002021 -0.174546 0.005248 0.097599 -0.098166 0.099448 0.012004 -0.132202 -0.016659 -0.203271 -0.058643 0.079274 -0.197355 0.133981 0.201466 0.051291 0.011192 0.154360 -0.016166 0.022377 0.152356 0.143071 0.041121 0.315585 0.217546 0.242528 -0.165722 -0.005801 -0.067132 0.020745 0.014258 0.030776 -0.069177 -0.069353 -0.054231 0.378173 0.076056 0.136138 0.080594 -0.044214 0.124011 0.022711 0.201634 0.126308 0.178170 -0.117825 -0.140348 -0.018395 0.332299 0.283073 0.009706 -0.029523 0.081674 0.019509 0.153929 -0.219034 0.060988 -0.225531 -0.041776 0.182136 -0.163895 0.126713 -0.008367 -0.044543 -0.084161 0.121645 -0.347962 0.029627 -0.036440 0.160245 -0.042521 -0.189579 0.194546 0.146425 0.045956 -0.362032 0.192634 -0.345221 0.107793 0.045624 0.270932 -0.097370 0.011727 0.031108 -0.255647 0.103763 -0.060359 0.056930 0.254264 0.157260 -0.148573 -0.028083 -0.111647 -0.187548 0.094907 0.085750 0.038943 -0.280341 0.136118 0.198734
1344 0.040787 0.005205 0.121550 -0.203107 -0.032159 0.091668 -0.068743 -0.077562 0.098709 0.039993 0.057425 0.145204 -0.138532 0.060563 0.068889 -0.077327 -0.296713 0.072965 0.250307 -0.150979 0.023800 0.006621 0.003756 -0.085744 -0.104585 -0.021279 -0.037123 0.003981 0.139114 -0.231273 -0.204972 0.113137 -0.070593 0.178596 -0.027918 -0.036970 0.226037 -0.105223 -0.057040 -0.076830 -0.097596 0.101320 0.067831 -0.049451 -0.060510 0.158834 0.004615 0.035639 -0.013967 0.154895 0.054451 -0.163262 0.000601 0.007127 0.131066 0.002811 -0.009572 0.108443 -0.011110 0.032970 0.121240 0.047180 0.078498 0.153291 -0.079658 0.194141 -0.060372 -0.196120 0.173972 -0.077827 0.109825 -0.097051 0.009560 -0.030974 0.029817 0.059369 0.118903 0.340466 -0.095760 0.045128 0.025223 0.052589 -0.139928 -0.201275 0.124726 -0.103046 -0.167391 -0.015997 -0.086035 -0.036559 0.191576 0.152065 0.023975 0.169710 -0.289365 -0.000458 0.119536 0.106065 -0.216026 -0.064694 0.084084 -0.096309 -0.080143 -0.297485 -0.006651 -0.122111 0.058026 0.173876 -0.057946 -0.041931 -0.040782 -0.081353 -0.023603 -0.123027 0.004416 -0.064307 0.085693 0.082030 -0.223719 -0.133093 -0.290362 0.007483 0.002943 0.176166 0.172560 -0.069601 0.094669 0.139870
196 -0.076669 -0.096737 0.044683 -0.028798 -0.034762 0.081839 0.072975 0.215327 -0.020807 0.402558 0.064411 0.021766 0.345119 -0.035158 -0.016611 -0.020436 0.010412 -0.061671 0.028848 -0.154392 -0.033342 -0.200896 0.040921 0.007060 0.085758 0.232028 0.073509 -0.061395 -0.115934 -0.099418 0.085637 0.153939 -0.135711 -0.244914 0.034893 0.154330 0.112693 -0.108303 0.154755 -0.361747 -0.176482 -0.012937 0.003245 0.197381 -0.038102 -0.001671 -0.141477 -0.128076 -0.056943 -0.243789 -0.009227 -0.063045 -0.083206 -0.023978 -0.161578 -0.166373 0.169128 0.166707 0.008992 0.184370 -0.025004 -0.152114 0.152543 0.084086 0.126092 -0.067470 -0.110162 -0.048113 0.163317 -0.052788 0.022085 -0.228395 0.067810 -0.012008 0.119736 -0.046038 0.239512 -0.089267 0.086096 0.349209 -0.085241 -0.218990 0.002840 0.057343 0.011164 -0.044344 -0.068822 0.211143 -0.157106 -0.197066 0.137985 0.195837 -0.064825 -0.206993 -0.208924 -0.036065 0.431986 -0.166373 -0.191341 0.029905 -0.079910 -0.067093 -0.191942 -0.145970 -0.071441 -0.143840 0.062379 0.058673 0.236973 -0.162001 -0.107640 0.135576 -0.049631 -0.187663 0.097748 0.156261 0.097534 0.109894 -0.164590 0.086174 -0.011123 0.321224 0.194775 -0.127875 0.353969 0.039512 0.319246 -0.117288
1088 -0.024001 0.088434 0.029440 -0.186425 -0.012632 0.245165 -0.099668 -0.196289 0.085174 0.231362 0.223690 0.059837 0.158498 0.089585 -0.181274 -0.221729 -0.088450 0.014431 0.195153 -0.019673 -0.124763 0.021917 0.102579 -0.079785 -0.094596 0.140801 0.183214 -0.104320 0.066667 -0.087221 -0.019934 0.051252 -0.080491 -0.019156 0.132878 0.084800 0.156244 0.005523 0.069908 -0.012907 0.105989 -0.124075 0.095468 -0.119792 -0.094525 0.175462 -0.048576 -0.064959 -0.032630 -0.066112 0.204840 -0.115297 -0.023217 0.063814 -0.296296 -0.120548 0.167034 0.157936 -0.079565 0.049533 0.006023 -0.155157 0.004584 0.046679 -0.029888 0.058403 -0.118924 -0.152557 0.095354 -0.063802 0.249724 -0.136202 0.088500 0.012426 0.115602 0.041029 0.204136 0.127057 -0.065637 0.223538 0.089292 -0.120444 -0.098105 -0.026522 -0.113253 -0.109302 0.038403 -0.028350 0.016680 -0.049952 -0.060611 -0.021859 -0.137558 -0.077879 -0.112304 0.080201 0.152854 -0.105864 -0.175118 -0.052865 -0.099788 -0.031045 0.038491 -0.281282 0.156387 0.043213 -0.140693 -0.030408 0.160450 -0.019000 -0.116658 0.034112 0.144066 -0.155160 0.020312 -0.013761 0.033989 -0.059698 0.046243 -0.044405 -0.096181 0.106340 0.109987 0.072968 0.282257 -0.101046 0.116076 -0.063348
1044 0.110995 0.257475 -0.044849 -0.167817 -0.170345 0.035490 -0.061364 0.018626 0.126551 0.080955 0.110093 0.175834 0.093566 -0.091679 -0.017522 0.072371 -0.003753 0.033394 0.042740 0.186203 0.016952 -0.025209 -0.051372 0.006333 -0.076356 -0.039645 -0.084586 0.076859 0.008665 -0.209249 -0.074554 0.050147 -0.085065 -0.152377 -0.139468 0.097541 0.177047 -0.131556 -0.008778 -0.121776 0.094379 -0.003827 0.014821 -0.047975 0.019077 0.041289 0.160535 0.311974 0.066617 -0.022420 0.298585 0.059152 -0.017222 0.095565 -0.072982 0.011628 -0.082322 0.321438 -0.068580 0.001323 -0.051867 -0.045556 -0.024264 0.129732 -0.049458 0.036225 -0.177783 -0.132336 0.154943 -0.184945 0.265029 0.093790 0.220641 -0.001242 0.025225 -0.148358 0.283588 0.041024 -0.091753 0.006319 0.083163 -0.216584 -0.118551 0.147482 0.017042 -0.087109 0.186950 0.017577 0.209490 -0.021607 -0.005312 -0.030060 -0.062757 0.077836 -0.135678 0.028951 0.044287 0.070354 -0.064428 -0.239678 -0.114757 0.014233 -0.116801 -0.224338 0.170177 0.044173 -0.156523 -0.027672 0.096890 -0.109631 -0.080506 -0.159078 -0.056829 -0.236055 0.113607 -0.127822 -0.078295 0.112515 -0.140536 -0.043724 -0.276393 0.104170 -0.061495 0.046879 -0.038364 -0.085162 0.060788 -0.047133
298 0.111249 0.064506 -0.200058 0.151422 0.000207 -0.087482 -0.128558 0.135700 0.211362 0.020270 -0.021451 -0.005658 0.048370 0.049769 -0.124204 -0.040539 -0.108489 -0.048579 0.084843 -0.172899 0.021352 0.081113 0.149299 0.058192 -0.090081 -0.136753 -0.129311 -0.085150 0.021631 -0.069619 0.027623 -0.039605 0.054130 -0.202214 0.083798 -0.063007 -0.030955 -0.196950 -0.010891 0.062995 -0.055434 0.237426 0.108265 0.239479 -0.201480 0.249228 -0.121562 -0.056742 0.092742 0.206917 -0.047676 0.250958 0.178422 0.217040 -0.146876 -0.028397 0.002749 -0.159924 -0.060194 -0.014406 -0.316138 -0.151489 0.014953 0.244661 0.228422 0.282301 0.151413 -0.110502 0.102581 -0.033822 0.068894 0.067813 0.025328 -0.286734 -0.048045 -0.065001 0.072316 0.327670 -0.016108 0.100716 0.034276 -0.134181 0.238078 -0.270826 -0.043668 -0.126401 0.013089 0.023976 -0.114405 0.029776 0.243157 -0.059777 -0.030857 -0.045230 -0.280022 -0.087192 0.146605 0.068310 -0.195456 -0.211872 -0.065138 0.170837 -0.202507 -0.378428 0.173583 -0.176883 0.116825 0.054492 0.269030 0.090875 0.012262 -0.056216 0.016225 0.282344 -0.101601 0.236935 0.260234 0.193392 -0.153594 0.143916 -0.185070 -0.111116 -0.001219 0.001715 0.086014 0.044075 0.144861 0.089824
417 -0.042118 -0.047862 -0.125951 -0.144531 -0.176488 0.160454 -0.059558 -0.073416 0.184088 0.094165 -0.069900 0.069000 0.037065 -0.219163 0.066380 -0.128689 -0.210734 0.089862 0.155245 0.029215 -0.297905 -0.173762 -0.074206 -0.054588 -0.175651 0.118725 0.051860 -0.014713 0.087838 -0.021335 0.057166 0.125198 -0.092778 -0.062507 0.086483 0.115537 0.077452 -0.041836 0.017491 -0.201099 -0.042353 0.165472 0.069059 -0.095101 -0.052053 0.056424 -0.027741 -0.088554 -0.051595 -0.032463 0.050788 -0.073014 -0.185913 0.020129 -0.086387 -0.157991 0.037789 0.188986 0.136014 0.059995 0.063286 -0.062750 -0.126552 -0.118796 -0.103891 0.057336 -0.161292 -0.028651 0.181332 -0.105984 0.283856 -0.036862 0.004121 -0.058725 -0.062071 -0.161364 0.093844 0.096622 0.090410 0.032578 -0.145351 0.058113 0.068337 -0.085131 -0.015220 -0.196471 0.236694 0.011673 -0.115319 -0.170497 0.095261 0.014811 0.034206 -0.137172 -0.142309 0.093317 0.238098 0.139528 -0.254866 -0.045391 0.105930 -0.091718 -0.066354 -0.299555 0.073314 0.164049 -0.078471 0.052291 0.014309 -0.130919 -0.127280 -0.113021 0.031406 -0.137507 0.000922 0.066025 -0.083865 -0.022074 -0.056213 -0.122614 -0.053894 -0.000756 -0.036101 0.131173 0.186836 0.074225 0.095259 0.072077
165 -0.243716 0.033916 -0.124969 0.018344 -0.151026 0.100678 -0.185355 -0.105616 0.208471 0.160049 0.261790 -0.061504 0.271318 -0.286434 -0.066621 0.143345 -0.201012 -0.063312 -0.036517 0.065257 -0.022281 0.162444 -0.022481 0.021453 0.142381 -0.115759 0.064580 -0.000784 0.091741 -0.246025 -0.072706 0.180785 0.032096 -0.153807 0.250687 -0.184730 -0.027887 -0.287556 -0.022412 -0.267005 -0.129679 0.377608 -0.144955 0.164058 -0.056296 -0.080872 -0.127249 0.020874 0.147649 0.209641 0.173458 -0.119580 -0.097509 0.044700 -0.030827 -0.155576 -0.046417 0.103866 0.094178 0.234334 -0.006360 -0.227230 -0.226663 -0.014443 0.143592 -0.090553 -0.132648 -0.157913 0.295612 -0.004758 0.315239 -0.083773 -0.097354 0.115230 0.191487 -0.335326 0.057413 0.033318 0.128611 0.165442 0.090430 -0.022316 0.025224 -0.118013 0.053888 -0.112598 0.269872 0.059922 0.041230 -0.006934 0.199477 0.027351 0.043534 -0.092922 -0.272506 -0.248761 0.186975 -0.093893 0.047785 -0.005441 0.064040 0.071615 0.069488 -0.073430 -0.173395 -0.054012 -0.189974 0.364393 0.231382 -0.262139 0.155957 -0.200130 -0.122630 0.189265 -0.035245 -0.023764 0.135782 0.037513 -0.040684 -0.113259 -0.165822 0.200546 -0.058353 -0.033585 0.223561 0.221673 -0.067209 -0.131484
1415 0.018010 0.082404 0.057112 -0.078824 0.034716 0.130892 -0.009376 -0.082883 -0.009728 0.111193 0.115717 -0.046091 0.134903 -0.024695 -0.059243 -0.173934 -0.186871 0.214850 0.036250 0.026499 -0.217712 0.006539 -0.037923 0.074172 -0.072497 -0.169425 0.283433 -0.046999 0.138460 -0.193159 0.001470 -0.027149 -0.077423 -0.057109 0.106097 0.149852 0.104719 -0.167565 0.039143 0.025494 0.114282 0.066759 -0.099970 0.113570 -0.110479 0.131062 -0.037378 0.087811 0.071149 0.006013 -0.048760 0.067638 0.056190 -0.024510 0.042191 -0.101764 0.107414 0.172331 -0.143574 0.089231 0.069949 0.005875 0.036543 0.037304 -0.053856 -0.128561 0.051955 -0.091529 0.024003 -0.184073 0.243653 0.071764 0.253908 -0.082995 0.288780 -0.034870 0.151254 -0.021674 0.043270 0.083839 0.073357 0.037217 -0.040894 -0.128939 0.020494 -0.153576 0.088798 0.052064 0.198515 -0.173772 0.012190 0.016473 -0.131083 -0.110764 -0.219023 -0.040769 0.170602 0.049083 -0.106216 -0.056406 -0.240107 -0.124371 0.261257 -0.239939 0.059624 0.128863 -0.027367 -0.110418 0.097465 -0.086883 0.001636 0.182162 0.010518 -0.007335 -0.060888 -0.089394 -0.047309 0.096000 -0.037689 -0.122180 -0.177414 0.282095 -0.168331 0.000521 -0.072488 -0.044707 0.281027 0.049419
112 0.118497 -0.303172 0.046199 -0.194114 -0.106581 0.143066 0.014818 -0.117724 0.140468 0.105164 0.006798 0.046060 0.152437 -0.215417 -0.089113 0.003194 0.024166 0.056772 0.226268 0.028418 -0.039026 -0.144423 0.044526 -0.228400 0.070724 0.001517 -0.067325 0.035046 0.250298 -0.148202 0.070122 0.093954 -0.177235 -0.080528 0.174742 0.153638 0.081526 -0.173045 -0.024348 -0.197872 -0.183699 0.019207 0.100516 0.179925 -0.011471 0.055436 -0.017247 -0.209450 0.040868 -0.040589 -0.091800 0.067999 0.194806 0.100903 -0.069892 -0.162838 0.040391 0.076640 -0.031546 0.121681 0.009782 -0.054176 -0.017403 -0.046578 0.076313 0.087967 -0.126358 -0.209886 0.052447 -0.323581 0.203645 -0.127848 0.029115 -0.043317 -0.015450 -0.107009 0.194518 -0.114949 -0.020852 0.109510 -0.127093 -0.237159 -0.073795 -0.079705 -0.116705 -0.056901 0.070457 0.186135 -0.063777 -0.053928 -0.011383 0.099063 -0.049323 -0.062696 -0.024308 0.092624 0.148087 -0.065532 -0.280967 0.097784 -0.094252 0.043203 0.145989 -0.157434 0.132155 0.008937 0.154368 0.062335 -0.019886 -0.122052 -0.073794 0.145834 0.010566 -0.195266 -0.036090 0.017715 -0.039420 -0.044074 -0.073200 -0.181406 -0.251089 0.062070 0.136844 0.051850 0.164604 -0.103330 0.055200 0.089321
249 -0.108381 0.004516 0.009477 -0.027411 -0.008427 0.305610 -0.123196 0.051170 0.137386 0.139746 0.107879 0.178239 0.095030 -0.069780 -0.025671 -0.019362 -0.038469 0.053528 0.010266 0.086571 0.051365 -0.141215 -0.135145 0.024946 -0.021572 0.003812 -0.136675 0.094119 -0.015427 0.049285 0.020127 0.149074 -0.263306 0.032813 -0.171679 0.123235 0.227804 -0.021153 -0.021535 -0.192349 0.097439 -0.020113 -0.010655 -0.075990 -0.048851 0.105169 0.052851 0.106335 -0.166809 -0.111595 0.132036 -0.176950 -0.240505 -0.130682 -0.214651 -0.229765 0.112570 0.469869 0.039731 0.027103 -0.072484 0.021972 0.008898 0.129506 -0.058884 0.092314 -0.192029 -0.145596 0.154175 -0.122020 0.256948 -0.060116 0.125969 0.013975 0.105325 -0.063831 0.168510 0.132169 0.057437 0.098779 -0.026310 -0.000824 -0.189684 -0.130903 -0.057285 -0.162578 0.053616 -0.072539 0.059868 -0.208558 0.090609 0.051017 0.067198 -0.228706 -0.252723 -0.011177 0.175369 -0.003216 -0.110144 -0.109383 -0.234275 -0.142059 0.131622 -0.296772 0.248044 0.116844 0.025419 0.143169 0.119176 -0.077152 0.107149 0.045721 0.067955 -0.187420 -0.066631 -0.092478 -0.183124 0.334406 0.008699 0.035485 -0.141826 -0.149557 -0.105232 0.161403 0.097229 0.120419 0.272152 0.068947
427 0.003382 -0.063930 -0.041389 -0.060321 0.025792 0.013531 0.116444 0.005370 0.215436 0.018787 0.148610 0.010603 0.148755 -0.097968 -0.047342 -0.121697 -0.107370 -0.095616 0.017682 0.174790 -0.150182 0.022497 -0.194186 0.014771 -0.109022 0.270835 -0.034351 -0.101747 -0.092239 -0.076830 -0.078189 0.035415 0.084651 -0.289563 -0.095465 0.046068 0.026595 -0.045436 -0.130172 -0.107634 -0.023176 0.078297 0.017510 0.197405 -0.143130 0.112045 0.122113 0.067095 -0.027150 0.035522 0.149891 0.091626 0.055512 0.144629 -0.015387 -0.177920 -0.246980 -0.066984 0.051288 0.004441 -0.005667 -0.092498 -0.098099 -0.150321 -0.223067 -0.005449 0.056407 -0.249837 0.141273 0.090322 0.087463 0.006872 0.273885 -0.173371 -0.064069 -0.317004 0.329960 0.184080 -0.156340 0.042338 0.028701 -0.133950 0.106127 -0.025959 0.070305 -0.114142 0.070697 0.064503 -0.076403 -0.158228 0.280592 0.040700 -0.105704 0.051259 -0.033009 -0.082657 0.214410 0.208578 -0.182919 -0.271470 0.058866 -0.162796 -0.274443 -0.243724 0.193495 -0.047405 0.144700 0.090579 0.062432 -0.262579 -0.156309 -0.029772 0.058226 -0.045505 0.043378 0.142744 -0.252621 0.094921 0.000118 -0.087637 -0.014060 0.031820 -0.086547 0.052825 -0.008972 -0.147468 0.076426 0.240798
385 -0.001229 0.042869 -0.058966 -0.097365 -0.052701 -0.084079 0.046448 -0.183910 0.240999 0.185115 0.010133 0.263446 0.197339 -0.018430 -0.070256 -0.183516 -0.230633 -0.151715 0.041702 -0.097492 -0.064440 -0.236585 -0.144976 -0.113528 0.141426 -0.155223 0.165139 -0.067916 -0.057645 -0.273268 0.133023 0.003932 0.005367 -0.141237 0.138091 0.082917 0.054936 0.025142 0.187299 -0.071028 0.025136 0.338596 -0.085731 0.044510 -0.171105 0.002098 -0.293370 -0.181572 0.054218 0.028801 -0.152690 0.139697 -0.053546 0.006595 -0.165251 -0.189510 0.081981 0.182023 0.018387 -0.006679 -0.039502 -0.192291 -0.045450 0.245541 -0.026468 -0.084032 0.115328 0.158408 0.121399 -0.075614 0.228080 -0.159951 0.062815 -0.081011 0.158857 -0.081005 0.217736 -0.021708 -0.023059 0.202074 -0.051626 0.063902 -0.150256 -0.116275 -0.162369 -0.160719 0.063329 -0.037386 -0.016450 -0.093754 -0.020937 -0.123869 -0.031656 0.040786 -0.118822 -0.011975 0.200058 0.197191 -0.041061 0.072100 0.086137 0.028536 0.225112 -0.429292 0.052116 0.178361 -0.050258 0.140384 0.208779 -0.019436 -0.074892 0.033237 -0.075060 0.040938 -0.187962 0.041804 0.036370 0.144612 -0.086624 -0.101665 -0.161986 -0.146425 0.057647 0.060528 0.168442 -0.110347 0.022631 0.115646
142 0.016762 0.061073 0.007279 -0.119638 -0.112683 0.155526 -0.009236 -0.077800 0.130665 0.233333 -0.117083 0.103588 -0.017618 0.063181 -0.047485 -0.089102 -0.115197 0.067963 0.052991 0.131361 -0.252493 -0.151990 -0.031635 -0.020370 -0.004292 0.134658 0.070815 0.005512 0.000637 -0.181315 -0.130850 0.175843 -0.102859 -0.121525 -0.032930 0.149052 0.066117 -0.073483 0.016105 -0.127728 -0.117841 0.152789 0.063144 -0.102270 -0.118118 0.101246 0.208969 0.012827 0.088687 0.144160 0.169349 0.208153 -0.126705 0.053796 0.003372 -0.087209 -0.027537 0.238265 0.107651 -0.038931 0.048564 0.061905 -0.142982 -0.358562 -0.073572 0.084170 -0.146216 -0.038185 0.204045 -0.274176 0.277181 0.046680 0.073852 -0.049835 -0.015721 -0.048223 0.327806 -0.071212 0.086349 0.054600 -0.052129 -0.119930 0.126831 0.043192 0.044754 0.010581 0.117398 0.194181 -0.050023 -0.148126 -0.049429 -0.037925 -0.041712 0.036589 -0.084738 0.051059 0.238511 -0.000272 -0.118308 -0.109080 0.125883 -0.150047 0.040863 -0.220178 0.090399 0.043820 -0.039443 0.101113 0.144220 -0.285969 -0.152678 0.041791 -0.086433 -0.251573 0.009412 -0.078908 -0.078101 -0.030395 0.016718 -0.172820 0.039362 0.073591 -0.019268 0.069515 0.058781 -0.171656 0.102304 0.194298
619 0.098046 -0.336392 -0.070281 -0.235217 -0.150160 0.035012 -0.024299 -0.207764 -0.052801 0.049282 0.065940 0.128490 0.183187 -0.400396 -0.069666 0.046221 -0.083745 0.114791 0.166985 0.026147 -0.097668 -0.217518 0.051951 -0.114371 0.006215 0.120065 0.085371 -0.052323 -0.044252 -0.063954 0.064671 0.058683 -0.084995 -0.112462 0.230020 0.019419 0.026128 0.040689 0.094961 -0.102223 -0.056933 0.113552 -0.026489 -0.045441 0.070812 0.029825 0.215717 -0.034728 0.148966 -0.031538 -0.002275 0.023832 0.036672 0.088354 -0.081603 0.011825 -0.034092 -0.015928 -0.110059 0.208031 -0.088352 -0.143610 -0.117490 -0.016970 -0.060971 0.069312 -0.022009 -0.026566 0.207291 -0.256628 0.359869 -0.197309 -0.078506 0.025529 0.021832 -0.039135 0.143202 0.072817 -0.180754 0.220234 0.020910 0.000690 -0.119211 -0.053291 -0.091788 -0.187880 0.064358 0.087764 -0.086146 -0.001277 -0.151531 -0.015183 0.061149 -0.097412 -0.133641 0.114711 0.142062 0.194693 -0.154246 0.042146 0.114831 -0.094117 0.115760 -0.115100 0.132742 0.067628 -0.091615 -0.013372 0.155348 -0.245449 -0.000833 -0.008034 -0.052017 -0.201508 0.038069 0.069126 0.080100 -0.030820 -0.113591 -0.267611 -0.127127 0.080231 0.117367 -0.004574 0.324419 -0.069054 0.263524 0.231182
166 -0.013144 -0.097769 0.089159 -0.142667 -0.104885 0.135831 -0.184733 -0.179417 0.065145 0.129274 0.151656 -0.079500 0.012502 -0.123549 0.092917 -0.106156 -0.260259 0.073327 0.048453 0.012662 0.015593 -0.056173 -0.174615 0.039626 -0.026528 -0.194626 0.041122 0.027753 -0.083454 -0.135179 -0.196929 0.009183 -0.265967 -0.060580 0.118014 -0.053179 0.048209 -0.043159 0.046398 -0.059186 0.006874 0.006322 -0.237335 -0.008016 -0.039646 0.054775 0.010381 -0.010666 0.076804 -0.161932 0.167847 0.097353 0.010631 -0.011773 -0.139462 0.147729 -0.099131 0.242132 -0.054565 0.036509 0.101679 -0.031828 -0.057144 0.054768 -0.090070 -0.075361 0.278389 -0.161295 0.231046 -0.151472 0.164729 0.010891 0.302441 -0.052196 0.180097 -0.156171 0.238418 0.214584 -0.082369 -0.115405 0.025085 -0.088370 -0.166971 -0.081651 0.067062 -0.048481 0.135631 -0.011032 0.133627 0.113251 -0.117160 0.228051 0.093272 0.106136 -0.272728 -0.125167 0.027177 -0.100433 -0.187899 -0.054371 -0.254089 -0.203180 0.275596 -0.072659 -0.053280 -0.125100 -0.033841 0.026441 -0.157267 -0.059218 0.076426 -0.051390 -0.035301 -0.181112 0.003244 -0.019052 0.127257 0.168156 -0.201899 -0.207003 -0.158135 0.320533 0.096490 0.015135 -0.119729 -0.016727 0.254087 0.048702
1238 -0.015146 -0.034150 0.054852 -0.104606 -0.052347 0.017077 0.076515 -0.108393 0.150938 0.150951 0.006866 0.005849 0.278230 -0.123751 -0.028497 -0.013893 0.063836 -0.124328 0.246132 -0.078384 -0.172604 -0.096349 -0.165418 -0.030819 0.037384 0.102213 0.010900 -0.035052 0.015082 -0.148657 0.092002 0.111449 -0.080543 -0.168090 0.187929 0.005241 0.056017 -0.061202 -0.046141 -0.261558 -0.109261 0.050064 -0.023528 0.151620 0.004343 0.021567 -0.177576 -0.162826 -0.074484 -0.166443 0.025286 -0.050516 -0.037511 -0.164183 -0.120871 -0.140223 -0.007085 0.194202 0.187322 0.108331 -0.013015 -0.084500 0.005508 -0.079730 -0.072580 0.059618 -0.121296 0.035532 0.163432 -0.052454 0.098294 -0.177494 0.188634 -0.006737 0.099660 -0.189885 0.290779 -0.101903 0.067811 0.175369 -0.224746 -0.092435 -0.011022 -0.053242 -0.073795 -0.126892 0.094825 -0.055523 0.005170 -0.149432 -0.027959 0.163141 -0.198697 -0.057993 -0.224876 0.052311 0.259995 -0.063376 -0.296757 -0.061620 0.084280 -0.069751 0.000402 -0.263691 0.218993 -0.002819 0.133154 0.157713 0.208460 -0.260143 -0.097553 -0.072389 0.019975 -0.039819 0.002557 0.232248 0.003574 -0.091834 -0.147518 -0.055610 0.021371 0.143774 0.217269 -0.034059 0.234791 -0.148539 0.035499 0.154331
545 0.062705 0.146809 -0.113523 -0.206900 0.054768 0.144404 -0.376902 -0.061085 0.290137 0.140639 -0.089883 0.020099 -0.098490 0.066475 0.001186 -0.178435 -0.440720 0.147283 -0.007757 -0.080744 -0.158970 0.126103 -0.233747 -0.018463 -0.091831 -0.018700 0.057422 -0.072825 0.019069 -0.058024 -0.112867 -0.007036 0.016639 0.017636 -0.101253 0.022046 -0.035589 0.031826 -0.121845 0.260477 -0.068791 0.153232 -0.041011 0.148038 -0.112794 0.217885 -0.050849 0.054565 0.024487 0.110164 -0.208199 0.047127 0.115258 0.005377 0.053483 0.239318 -0.211536 -0.023066 -0.085082 -0.010809 0.022194 -0.119937 -0.018748 0.264722 0.053283 -0.087862 0.230866 -0.237739 0.048088 0.029970 0.012746 0.149081 0.181795 -0.103203 0.290569 -0.279033 0.154449 0.398520 0.112509 0.153864 0.010115 -0.007717 0.043080 -0.159720 -0.073644 -0.238348 0.085495 -0.060822 0.031906 -0.029402 0.025326 -0.048682 -0.078393 0.081408 -0.224725 -0.140479 0.064976 0.221161 -0.085404 -0.273327 -0.229065 -0.063324 -0.040949 -0.096323 0.064065 -0.066125 -0.047164 0.004821 -0.095355 -0.211149 -0.019684 -0.099358 -0.072247 -0.167394 -0.151618 -0.128119 -0.029449 0.095821 -0.367109 0.057643 -0.206385 0.159771 0.083029 0.008859 -0.132313 -0.056228 0.065222 -0.142298
848 0.015151 0.058097 0.010019 0.032519 0.153031 -0.112479 -0.272875 0.175142 0.143578 0.220016 0.071604 0.011203 0.003144 0.101996 0.058590 -0.038172 -0.050934 0.044579 0.093520 -0.092692 -0.094710 -0.015809 -0.033949 0.202290 -0.047269 0.009027 -0.174629 -0.011863 0.036933 -0.242539 -0.071260 0.112687 0.006099 -0.076125 -0.106758 -0.146726 0.075869 -0.275168 -0.110429 0.018288 -0.124716 0.287231 0.254314 0.230710 -0.010617 0.245255 -0.048357 0.140521 0.171645 0.113108 0.027615 0.295514 0.162720 0.061563 -0.099498 0.099740 0.034187 -0.008437 -0.099665 0.062823 -0.089650 -0.143074 -0.054305 0.313371 0.114538 0.293827 -0.147910 -0.073161 0.138540 -0.028707 0.072191 0.084283 0.128960 -0.108285 0.013068 -0.158941 0.125593 0.259704 0.077993 0.121626 -0.125344 -0.050222 0.174050 -0.136308 0.058184 -0.112866 0.012974 0.152479 -0.174814 0.088698 0.160346 -0.038650 -0.070137 -0.030862 -0.327164 -0.084401 0.003073 0.002881 -0.040146 -0.291275 0.082508 0.221422 -0.234634 -0.225610 0.034302 -0.253899 0.122176 0.043010 0.142347 -0.067500 -0.114061 -0.151018 -0.106779 0.220895 0.093769 0.040006 0.207328 0.108442 -0.065423 0.170971 -0.042867 -0.055539 0.086091 0.057339 -0.076602 0.042943 0.101475 0.075207
525 0.195608 -0.105740 0.135566 -0.219427 0.088375 0.068013 -0.007030 -0.016078 0.114878 0.307074 0.068656 0.240664 0.193130 -0.076342 -0.012801 -0.031571 0.112517 -0.015194 0.247848 -0.066157 0.034460 -0.063431 -0.034962 0.026797 -0.053814 0.116393 -0.079480 -0.050548 -0.103930 0.132223 -0.081026 0.172389 -0.026125 -0.037950 0.191530 -0.005382 0.202174 -0.196658 -0.088941 0.037844 -0.051419 -0.029164 -0.023363 0.115979 -0.118516 -0.062501 -0.015072 -0.093925 -0.017335 -0.086739 0.002417 0.033307 0.090064 0.029382 -0.121247 0.045203 -0.036055 -0.164394 -0.135320 0.003870 -0.131609 -0.104735 0.183713 -0.053013 -0.129703 0.176713 -0.015355 0.041841 0.084487 -0.182052 0.360345 0.001251 0.144821 -0.167933 -0.067038 -0.083041 0.291753 0.107965 -0.129132 0.178416 -0.144841 -0.112081 -0.131123 -0.005171 -0.032721 -0.173323 0.072209 0.139672 -0.159192 -0.057630 0.166065 0.057266 -0.189109 -0.116989 -0.205405 -0.131075 0.115121 -0.071369 -0.085906 -0.060603 -0.092317 0.130572 -0.074567 -0.138120 0.278823 0.014278 -0.000879 -0.013086 0.201945 -0.138707 -0.042400 0.089137 -0.079548 -0.035632 0.029799 -0.015041 0.217401 -0.005915 -0.097531 -0.303888 0.016595 0.103024 0.243489 0.005021 0.149676 0.080528 0.094373 0.019979
512 -0.086125 -0.089650 0.124105 -0.029247 -0.040758 0.112633 -0.061799 0.046361 -0.016322 0.074268 0.062993 0.050884 -0.026239 -0.231499 -0.056300 -0.123921 -0.163090 0.073565 0.052882 0.041847 -0.078286 -0.192331 -0.123935 -0.047275 -0.103056 0.018625 -0.000015 -0.028078 0.018933 -0.103071 0.045557 0.066392 -0.052111 0.028822 -0.026050 0.199539 0.233923 0.004907 0.010935 -0.054509 -0.125144 0.196084 0.096590 -0.092316 -0.121961 -0.098836 -0.018286 -0.092288 0.070688 -0.058388 0.078113 -0.022093 -0.012208 0.052825 -0.156506 -0.116860 0.095201 0.159030 -0.025906 -0.001359 -0.094704 -0.022063 0.018875 -0.032334 -0.039137 0.103291 -0.174809 0.021026 0.168379 -0.284738 0.386227 -0.222133 -0.019654 -0.041180 0.088762 -0.122550 0.261298 -0.054533 -0.050819 0.195537 -0.047018 -0.020957 -0.150003 -0.007228 -0.079294 0.044649 0.074237 -0.003114 -0.039301 -0.094052 -0.052360 -0.036678 0.068874 -0.069099 -0.143591 0.090745 0.258491 0.060070 -0.233556 -0.035537 -0.084286 -0.080260 0.065452 -0.352144 -0.044393 0.232123 -0.064962 0.073823 0.063351 -0.123795 -0.062015 -0.055067 0.076387 -0.062057 -0.061790 0.002881 -0.054272 0.089893 -0.051417 -0.128308 -0.112640 -0.027737 0.150076 0.139601 0.347487 0.003442 0.122938 0.154645
1401 0.051743 -0.104093 0.190909 -0.000110 0.013196 0.130398 0.029704 -0.149501 0.113731 0.289992 -0.093811 0.156989 0.225018 0.043999 -0.056265 -0.046787 0.136167 0.047508 0.145415 0.017634 0.061954 -0.158249 -0.003841 -0.088961 0.081676 0.078263 0.040135 -0.060172 -0.000207 -0.009469 -0.029630 0.044647 -0.197054 -0.124726 0.230244 -0.029989 0.132917 -0.175602 -0.067453 0.071678 -0.047577 0.028995 0.066633 -0.068231 -0.031455 0.142329 -0.098790 -0.382328 0.188789 -0.125214 -0.085842 0.131873 -0.037119 -0.118250 -0.154110 -0.164128 0.016303 0.004589 -0.023595 0.163170 -0.002737 -0.004163 0.277757 0.019662 -0.069724 0.218423 -0.101210 -0.022668 0.096348 -0.313726 0.234970 -0.028212 0.094537 -0.000704 -0.073377 -0.128666 0.377973 -0.040198 -0.116537 0.254066 -0.075035 -0.132657 -0.047136 -0.133399 0.003458 -0.135107 0.005159 0.191705 -0.146876 -0.010041 -0.049980 -0.055346 -0.232443 -0.140182 -0.241477 -0.047629 0.175687 -0.127287 -0.155917 -0.024217 -0.185185 -0.021094 0.050464 -0.102416 0.181599 0.033781 0.067897 0.012273 0.075238 -0.204749 0.088232 0.069591 -0.153282 -0.013811 -0.004481 0.007745 0.087841 -0.054069 -0.092968 -0.102569 -0.083166 -0.011521 0.317515 0.108284 0.040859 -0.063908 0.080361 -0.073015
455 -0.108897 0.012472 -0.123567 -0.280750 -0.227283 0.279708 -0.048594 0.055238 0.170565 -0.075573 0.146336 0.195622 0.091836 0.041320 0.106112 -0.093700 0.007749 -0.092667 -0.025384 0.033442 -0.092041 -0.023715 -0.147698 -0.107528 -0.135699 -0.011497 -0.094478 0.129533 0.074947 0.184828 0.040921 0.029958 -0.249020 0.140264 -0.331775 0.263361 0.240106 -0.060432 0.040895 -0.282742 0.188876 0.029012 0.015473 -0.060315 0.069739 0.198587 -0.024586 0.211863 -0.048589 0.005141 0.070054 -0.164142 -0.184503 -0.140242 -0.059733 -0.322138 0.087759 0.275271 -0.011921 0.027241 0.099909 -0.056837 -0.066028 0.269191 -0.056506 0.073258 -0.307076 -0.141559 0.199336 -0.346691 0.354949 -0.080617 0.118721 -0.051731 0.161577 -0.189715 0.028274 0.141718 -0.018912 0.162532 -0.049294 0.003008 -0.302009 -0.036352 -0.114512 -0.402691 0.029440 -0.055271 0.110429 -0.109623 0.205860 -0.132228 0.125800 -0.092057 -0.136235 -0.117661 0.165578 0.019558 -0.276808 -0.097284 -0.184814 -0.082020 -0.129888 -0.207620 0.086307 -0.065580 0.103234 -0.047387 0.048121 -0.009995 -0.119256 0.062919 0.063939 -0.077424 -0.103830 -0.193193 -0.070315 0.070623 -0.078699 -0.040084 -0.205066 -0.261635 -0.181965 0.160025 -0.074050 -0.004554 0.257493 0.168486
1237 -0.110651 0.208094 0.021385 -0.045009 -0.196366 0.036291 -0.173153 -0.044899 0.039873 0.049735 0.015667 0.288758 0.239536 -0.112968 -0.003855 -0.106304 -0.163898 0.001852 0.145159 -0.033994 -0.199217 -0.126597 -0.081909 -0.201013 0.023116 -0.061515 0.093187 -0.144960 -0.008163 -0.101131 0.104333 0.021370 -0.063599 -0.049619 0.082825 -0.041790 0.241767 -0.214500 0.067998 -0.235224 0.080933 0.140435 0.010978 -0.064727 -0.131380 -0.028328 -0.023191 0.190195 0.047455 -0.025868 0.033432 -0.071623 -0.147779 0.026565 -0.041247 -0.057380 0.040665 0.138092 0.062090 0.137393 0.050094 -0.094972 -0.183940 0.027039 -0.082563 0.001107 -0.159637 -0.168492 0.186493 0.007837 0.346214 -0.061181 -0.067362 0.029041 0.160240 -0.158332 0.106511 0.061193 -0.034129 0.141646 -0.008664 -0.091602 -0.210583 -0.167324 0.151570 -0.109799 0.086090 -0.117854 -0.016666 -0.115098 -0.034174 0.138500 -0.033782 0.135369 -0.114933 -0.090776 0.135068 -0.007277 -0.035061 0.026147 0.076213 -0.124695 -0.018567 -0.307318 0.136170 0.126431 -0.121668 0.216702 0.094942 0.052456 -0.071761 -0.059451 0.002894 -0.048422 0.010241 -0.053061 0.053970 0.268468 -0.066797 -0.226117 -0.229754 0.075805 0.058872 0.105688 0.204981 0.047806 0.265151 -0.044845
444 -0.118926 -0.008216 -0.031800 -0.097056 -0.090146 0.360121 -0.159847 0.104455 0.034629 0.173425 0.201227 0.231688 -0.107609 -0.093646 0.046113 -0.008905 0.016321 -0.008182 0.088093 0.074284 -0.058288 0.000860 -0.076854 -0.250860 0.051755 0.006409 -0.009762 0.253229 0.119917 -0.048790 0.039321 -0.088399 -0.146933 0.059148 -0.179323 0.132044 0.273282 -0.138129 -0.055943 -0.109221 0.300934 0.227372 0.045073 -0.165353 0.141147 0.060885 -0.056456 0.250389 -0.017704 0.024387 -0.037218 -0.232040 -0.204270 -0.088072 -0.188501 -0.252868 0.107791 0.514863 0.125434 -0.036712 -0.034738 0.001513 -0.047554 0.257884 0.107482 0.058939 -0.192775 -0.117089 0.111595 -0.229193 0.378267 0.046984 0.125324 -0.031071 0.051389 -0.208172 0.123291 0.065555 0.209087 0.049816 -0.009014 -0.055767 -0.199901 0.014896 -0.126097 -0.198172 0.047476 -0.125639 0.077780 -0.173561 0.131770 -0.013546 0.183218 -0.198837 -0.170327 -0.027034 0.150287 0.004055 -0.166985 -0.096604 -0.143907 0.085432 0.011378 -0.190661 0.193814 0.198472 0.013563 0.113584 -0.057365 -0.166031 -0.007500 -0.011248 -0.077362 -0.169430 -0.121270 -0.278552 -0.170907 0.195333 -0.041955 -0.197455 -0.307809 -0.007189 -0.054847 0.153882 -0.241798 0.041801 0.159263 0.009538
1399 -0.029319 -0.001939 0.000098 0.077211 0.224453 -0.083466 -0.175310 0.066285 0.145939 0.010274 0.113651 -0.035658 -0.169724 0.136137 0.082317 -0.085504 -0.214304 0.009761 -0.035742 -0.057735 -0.090282 0.122345 0.013560 0.198819 -0.016804 0.107455 -0.165190 -0.037739 -0.055878 -0.172039 -0.175102 0.022678 -0.093884 0.048947 -0.028106 -0.070275 0.036330 -0.177989 -0.048136 0.071008 -0.046550 0.058513 0.207649 0.153843 -0.031041 0.237359 -0.020041 0.149944 0.167309 0.126152 -0.058222 0.159327 0.159653 0.224965 0.121303 0.185199 -0.020316 -0.129409 -0.105238 0.017112 -0.006248 -0.113816 -0.073980 0.424842 0.073669 0.240504 0.114700 -0.243254 0.118192 0.079598 -0.015251 0.100706 0.297765 -0.190090 -0.086990 -0.178697 0.176639 0.353527 0.001627 -0.023321 0.061791 -0.076702 0.195843 -0.268589 0.076389 -0.084521 -0.121126 0.029124 -0.126519 0.233031 0.146234 0.086040 -0.027856 0.101580 -0.444064 -0.195955 0.128307 0.213491 -0.103828 -0.354537 0.033144 0.087425 -0.221252 -0.304064 0.068087 -0.194816 0.122438 0.151076 0.128523 -0.212828 -0.104289 -0.283483 -0.232865 0.050007 0.154894 0.111828 0.116828 0.209553 -0.255244 0.138252 -0.283477 0.082102 -0.012635 0.128304 0.032185 -0.030225 0.060002 0.023089
107 -0.071179 -0.191470 0.031454 -0.136254 -0.128470 0.088930 0.081157 0.012881 0.101121 0.171267 0.030861 0.012397 0.219972 -0.089144 0.018009 -0.099865 -0.001095 -0.024108 0.130741 0.072917 -0.197871 -0.206253 -0.054494 0.047648 -0.044230 0.085525 0.066003 -0.061178 0.095561 -0.196198 0.111829 0.176870 -0.194420 -0.046804 0.115954 0.043372 0.088567 -0.000320 -0.018273 -0.136755 -0.183774 0.159053 0.072836 0.053508 0.008481 0.053501 -0.062607 -0.118804 0.028708 -0.132016 0.018298 0.084824 -0.006624 0.047328 0.018957 -0.034062 0.088900 0.177097 -0.086508 0.012463 0.013964 -0.067894 -0.026741 -0.075387 -0.039751 -0.043973 -0.083489 -0.011852 0.190546 -0.243790 0.146993 -0.119832 0.145031 -0.009710 0.019228 -0.143737 0.203051 -0.048858 0.147210 0.012241 -0.190862 -0.129619 -0.084184 0.093699 -0.087590 -0.056884 0.124626 -0.036818 -0.033734 -0.066808 0.106372 0.063250 -0.009735 0.062355 -0.210901 -0.032753 0.327794 -0.053679 -0.203518 0.070970 0.040130 -0.174922 -0.007853 -0.232969 0.048380 0.079700 0.056739 0.026607 0.169161 -0.219056 -0.081463 0.003951 0.054736 -0.185641 -0.102202 0.069467 0.006187 0.028649 -0.056174 -0.161774 0.026332 0.076040 0.110454 0.011466 0.291746 -0.046787 0.157077 0.137632
1199 -0.045148 0.111751 -0.089727 -0.155952 -0.057156 0.114010 -0.081458 0.033834 0.043376 0.123049 -0.007556 -0.047731 -0.089928 -0.096378 0.063498 -0.052213 -0.275428 0.170185 -0.059939 0.006013 -0.148634 0.174800 -0.218348 0.024849 -0.238770 -0.155704 0.121972 -0.027022 -0.169977 -0.007418 -0.257921 0.093358 -0.019327 -0.062894 -0.088827 -0.035077 -0.112763 -0.019147 -0.113872 -0.141045 0.151571 0.056845 -0.188924 0.058168 0.040658 0.077164 0.025985 -0.088859 -0.108736 0.122515 -0.116426 -0.160655 0.053835 0.058992 -0.162244 -0.002392 -0.091552 0.198392 0.169806 0.253659 0.115516 0.026239 0.023057 0.206569 0.061957 0.085708 0.089686 -0.157869 0.143630 0.066389 0.079673 0.148554 0.138861 0.097704 0.263373 -0.165688 0.066317 0.213560 0.091361 0.030352 0.057613 0.047489 -0.196613 -0.062047 0.021483 -0.025638 0.236551 0.168663 -0.003218 -0.138690 0.011411 0.126091 0.001054 0.082328 -0.387823 -0.194419 0.081795 0.149734 -0.028096 0.057296 -0.242243 -0.089344 0.271649 -0.101366 0.044960 -0.033133 0.119942 0.050368 -0.103938 -0.229684 -0.112880 0.012239 -0.174278 -0.282952 -0.248689 0.035291 0.104530 -0.007003 -0.414668 0.013940 -0.239571 0.465827 0.098973 -0.175440 0.069867 -0.058042 0.250560 -0.163369
18 0.143822 -0.060657 -0.067911 -0.178859 0.108360 -0.047866 -0.161501 -0.093405 0.288829 0.239510 0.220752 -0.003890 -0.220367 0.195046 -0.021012 -0.173421 -0.331213 0.107686 0.022290 -0.076166 -0.016870 0.018069 0.173489 0.155800 0.072963 -0.022317 0.103713 -0.008326 0.248855 -0.271101 -0.193696 0.140207 -0.020571 0.143616 -0.008983 0.026422 0.056359 -0.081218 0.043079 0.132302 -0.180669 0.139014 0.107599 -0.088192 -0.037718 0.225498 0.068116 0.078008 0.144801 0.296524 -0.092943 -0.024730 0.236346 0.128988 0.015338 0.142284 0.005692 -0.181144 0.047731 0.058840 0.123181 0.006484 -0.141414 0.261880 0.048855 0.113673 -0.140257 -0.071650 0.088693 -0.033710 0.040249 0.125910 -0.010716 -0.125155 -0.092370 0.008170 0.167067 0.230321 0.080636 0.102024 -0.038716 0.047559 -0.035307 -0.131862 -0.021770 -0.066388 -0.023985 -0.060319 0.126476 0.131855 0.234583 -0.035170 0.112455 -0.135767 -0.374476 0.002352 -0.023426 0.252571 0.003469 -0.117155 -0.056499 0.235956 -0.011435 -0.248883 -0.005611 -0.197108 -0.088649 -0.034888 0.246969 -0.075899 -0.035559 -0.152231 -0.282451 -0.205071 0.288464 -0.003801 0.097838 0.174340 -0.127585 0.077811 -0.357876 0.140574 -0.038785 0.049848 0.188874 -0.043976 -0.017757 0.082703
1179 0.032163 0.001276 0.096050 0.044145 0.047358 -0.143140 -0.240887 0.080156 0.232535 0.136983 0.110825 0.069245 -0.101383 -0.003878 -0.008007 0.100637 -0.140270 0.028401 0.001995 -0.075238 -0.041605 0.128730 0.019655 0.145865 -0.122092 0.028382 -0.162707 -0.001511 -0.018647 -0.097921 -0.106983 0.097285 -0.015384 -0.022149 -0.071640 -0.107710 0.096568 -0.170956 -0.080099 -0.029127 -0.106198 0.344279 0.081024 0.260696 -0.103469 0.259733 -0.058965 0.081309 0.317521 0.148368 -0.066176 0.177721 0.285441 0.099096 -0.052897 0.201078 0.060878 -0.175681 -0.009225 0.108634 -0.114173 -0.058053 -0.048945 0.278930 0.077932 0.356099 0.088161 -0.014644 0.167878 -0.048486 0.092902 0.111530 0.092288 -0.131479 -0.113860 -0.123619 -0.036415 0.280818 0.042698 -0.019301 -0.185152 0.031755 0.161226 -0.203315 0.046679 -0.181448 -0.026545 0.137777 -0.176582 0.163852 0.324167 0.051672 -0.054253 0.059664 -0.258349 -0.262027 0.059038 0.002799 -0.117919 -0.291703 0.079162 0.187443 -0.207127 -0.216081 0.035218 -0.239968 0.163709 0.170023 0.242127 -0.060638 0.033154 -0.172766 -0.086854 0.230929 0.056049 0.056043 0.214823 0.131507 -0.173657 0.037459 -0.293217 -0.042797 0.054248 -0.006930 0.035157 0.094352 0.119826 0.178315
221 -0.152821 0.080450 0.078708 0.173421 -0.142413 0.322458 -0.082051 0.001857 0.018165 0.214333 0.200693 0.022962 0.174401 0.046555 0.296428 -0.062108 -0.103995 0.132321 0.077279 0.125647 -0.029186 0.034011 0.165218 -0.199082 -0.282633 0.056886 -0.025362 -0.081449 0.192532 -0.243413 -0.021653 0.040474 -0.225062 -0.040513 0.120710 0.011389 0.351684 -0.008594 0.155304 -0.226659 -0.037671 0.205891 0.255955 0.221175 0.141463 0.273146 0.020964 0.016408 0.060456 0.066754 0.139133 -0.126428 -0.121743 0.126991 0.044579 -0.008182 0.056466 0.014883 -0.013590 0.048022 -0.042257 -0.130466 -0.001336 0.144834 -0.050479 0.087417 -0.019954 -0.320188 0.165602 0.010336 0.047532 -0.084476 0.101138 0.142200 0.101201 -0.295045 0.141940 0.060071 0.038630 0.088802 0.109247 -0.179076 0.120351 -0.016533 0.029559 -0.020711 -0.212070 -0.004378 -0.141629 0.016736 0.242353 -0.034480 0.183005 -0.047401 -0.119231 0.010238 0.340672 0.035909 -0.151240 -0.133627 -0.156862 -0.012212 -0.087903 -0.156196 -0.094954 -0.032162 0.072534 0.065892 -0.031982 -0.203753 0.050951 -0.075221 -0.079361 0.021613 0.079677 0.011233 -0.047346 0.341463 -0.021689 0.201027 -0.204163 0.040974 -0.003116 0.133111 0.186419 0.136188 0.175070 -0.102939
1257 0.055189 -0.049044 -0.225631 -0.022583 0.014498 -0.164482 -0.073701 0.092401 0.074524 0.048203 0.039364 -0.031439 0.027550 -0.101859 0.133362 -0.246336 -0.295726 0.015929 0.039635 -0.194821 -0.008770 0.005712 -0.138468 -0.033807 0.131247 0.061478 0.086228 0.091645 -0.012238 -0.118657 -0.185978 -0.058868 0.083538 -0.016170 -0.087549 -0.101564 -0.026650 -0.168958 0.101829 -0.080076 -0.021834 0.069184 0.265067 0.084049 0.190635 0.102792 0.089197 0.215121 0.183634 0.243086 -0.214601 -0.091747 0.195303 0.122288 -0.001988 0.315304 -0.102688 -0.088157 -0.001228 0.049837 0.056573 -0.109382 -0.130730 0.317448 -0.006469 0.293882 -0.222638 -0.073246 0.138928 0.040352 -0.003834 0.204635 0.001168 0.082516 -0.038771 -0.224281 0.355713 0.316374 0.129530 0.012430 0.110111 -0.005154 0.011672 -0.214136 -0.070084 -0.128603 -0.023661 -0.056538 -0.237868 0.072711 -0.220876 0.009166 -0.014724 -0.172601 -0.449420 -0.141170 0.017699 0.138958 -0.072447 -0.175554 -0.159111 0.107422 0.137602 -0.121026 0.042650 -0.052636 -0.087554 0.099471 -0.060386 -0.348473 -0.134772 -0.316531 -0.395720 -0.050270 -0.062554 0.064667 0.176461 0.198961 -0.058817 0.126822 -0.218015 0.385481 0.142031 -0.017990 -0.001288 -0.266459 0.096277 0.077666
19 0.078423 -0.029533 -0.081780 -0.177442 -0.039025 0.113763 0.034290 -0.180075 0.258655 0.168497 -0.057238 0.080963 0.255801 -0.053497 -0.039766 -0.117947 -0.142348 -0.050124 0.148662 0.040520 -0.088483 -0.076282 0.002610 -0.190353 0.042872 0.105254 0.036101 -0.079315 -0.018707 -0.094909 -0.026968 0.188804 -0.087135 -0.116781 0.266005 0.125878 0.015098 -0.124335 0.129959 -0.041349 -0.156642 0.011321 -0.004674 0.013959 0.033498 0.174725 -0.041249 -0.252199 -0.054216 -0.056885 -0.082040 -0.059769 -0.017743 -0.096898 -0.108151 -0.268385 -0.062783 0.268350 0.084814 0.024030 0.000481 -0.257104 0.088964 0.063651 -0.091025 0.031763 -0.042387 -0.044518 0.275372 -0.103988 0.184984 -0.171954 -0.001739 -0.105335 0.020618 -0.060631 0.346125 0.060719 0.042084 -0.016104 -0.086965 -0.099991 0.061652 -0.041942 -0.029513 -0.219089 0.189015 0.014554 -0.115914 -0.205157 0.006496 0.051625 -0.020312 -0.074000 -0.181589 -0.097561 0.197668 -0.047764 -0.044366 -0.149953 0.113123 0.005730 0.112755 -0.229669 0.204118 0.145093 -0.064192 0.101578 0.175896 -0.283697 -0.051537 0.022826 -0.054728 -0.109954 -0.097649 0.014577 -0.003335 -0.003470 -0.003368 -0.212563 0.076865 0.008083 0.020549 0.043142 0.228887 -0.033622 -0.214264 0.138918
