34 128
34 -0.117083 -0.209801 0.182848 0.071742 0.108293 -0.144915 0.166488 -0.083802 -0.100522 0.036783 -0.091997 0.085423 0.104782 -0.205303 -0.076482 -0.273402 -0.042127 -0.109364 0.118543 0.099836 0.220821 0.005968 0.186890 0.042787 -0.047078 -0.026530 0.024030 -0.018541 0.044837 0.227115 -0.036697 0.129711 -0.157339 0.119802 -0.103372 -0.089139 0.250970 0.097499 0.043259 -0.067734 -0.193973 0.139207 0.077575 0.126590 -0.051579 0.129660 -0.054999 -0.128057 -0.038531 0.066282 -0.074676 0.141156 0.078010 0.156591 -0.233491 -0.153827 -0.068778 -0.055055 -0.085443 -0.010953 0.104938 -0.062801 -0.128551 0.070052 -0.001246 -0.212061 -0.055938 -0.068888 0.046142 -0.001875 -0.040177 -0.031989 -0.059855 0.035480 0.027849 -0.055659 0.034590 0.114505 0.043136 0.053400 -0.095774 -0.207737 0.020155 -0.308772 -0.041586 0.228741 -0.029375 -0.039891 -0.111866 -0.002663 0.020975 0.107821 0.083530 -0.176727 -0.171628 0.261086 -0.179103 0.072367 0.064525 -0.055326 -0.254693 0.137881 -0.164179 -0.070277 -0.036796 0.044273 0.247832 0.099941 0.000789 -0.093673 0.035722 -0.068774 -0.006246 0.024300 -0.166218 -0.007543 -0.027317 0.221100 -0.116568 0.085038 -0.037301 -0.186750 0.042367 -0.208530 -0.089678 0.193522 0.009810 0.079484
1 -0.089515 -0.234378 0.149323 0.077623 0.093496 -0.146138 0.162240 -0.014665 -0.013661 0.008037 -0.059184 0.107949 0.088267 -0.198305 -0.002058 -0.271949 -0.069259 -0.158915 0.098621 0.039862 0.229849 -0.021549 0.166188 0.062534 0.013351 -0.055671 -0.014812 -0.058081 0.031541 0.190645 -0.020768 0.100121 -0.130784 0.061336 -0.078402 -0.102407 0.227860 0.097877 0.007028 -0.078293 -0.166941 0.122283 0.102527 0.114752 -0.109613 0.146058 -0.012867 -0.103830 0.013129 0.087864 -0.090535 0.162816 0.049673 0.140139 -0.185873 -0.160005 -0.041906 -0.036693 -0.052722 -0.029922 0.132249 -0.074637 -0.054423 0.097928 -0.053909 -0.150026 -0.062160 -0.034297 0.033952 -0.063516 -0.051228 -0.020781 -0.100885 0.015702 0.087221 -0.037006 0.040405 0.070007 0.003357 -0.022826 -0.108990 -0.110843 0.021814 -0.226628 -0.074874 0.110403 0.033250 -0.028769 -0.059147 0.017412 0.064044 0.079451 0.119442 -0.117054 -0.174933 0.228717 -0.113454 -0.019883 0.088278 0.005224 -0.203574 0.130913 -0.167500 -0.059249 -0.070989 0.034332 0.216310 0.095493 0.022752 -0.095464 0.030828 0.001116 -0.014387 0.012623 -0.184845 0.017931 -0.002726 0.191887 -0.115585 0.047719 -0.018829 -0.155346 0.106273 -0.256481 -0.162074 0.138489 0.030814 0.097915
33 -0.114252 -0.218432 0.179182 0.076388 0.107285 -0.149220 0.166829 -0.067224 -0.085245 0.032819 -0.083593 0.088499 0.103064 -0.211534 -0.061999 -0.273081 -0.049273 -0.115612 0.110159 0.090565 0.227455 0.002936 0.188094 0.044235 -0.041000 -0.028039 0.010516 -0.023682 0.045621 0.225918 -0.038013 0.129520 -0.151841 0.114880 -0.107130 -0.100042 0.250659 0.098113 0.033086 -0.064356 -0.194004 0.136237 0.080613 0.123765 -0.063793 0.137990 -0.052431 -0.126148 -0.039553 0.066190 -0.077870 0.149067 0.076462 0.148706 -0.230814 -0.153090 -0.071144 -0.052634 -0.080338 -0.009015 0.114018 -0.072489 -0.115689 0.081405 -0.002925 -0.207765 -0.048258 -0.062764 0.043963 -0.008704 -0.036213 -0.028225 -0.063601 0.031754 0.032604 -0.049947 0.037405 0.104903 0.037495 0.043384 -0.089835 -0.195820 0.017216 -0.300230 -0.049602 0.217898 -0.022546 -0.036291 -0.103488 0.000354 0.035920 0.107017 0.089492 -0.168233 -0.167464 0.257923 -0.171190 0.053981 0.073529 -0.047986 -0.250898 0.130741 -0.170849 -0.062090 -0.035029 0.040845 0.245538 0.099098 0.008126 -0.098549 0.031796 -0.057066 -0.006692 0.016700 -0.175288 -0.000801 -0.026598 0.218602 -0.121989 0.075418 -0.033693 -0.191906 0.060317 -0.228592 -0.103927 0.187052 0.010513 0.083199
3 -0.107730 -0.188460 0.169570 0.063634 0.096529 -0.131717 0.151277 -0.072819 -0.093740 0.032977 -0.081567 0.074070 0.093043 -0.193655 -0.070188 -0.250314 -0.037106 -0.102711 0.104551 0.087468 0.200738 0.006818 0.167981 0.045455 -0.039808 -0.020467 0.018199 -0.011094 0.045813 0.208517 -0.039650 0.115613 -0.143915 0.112199 -0.100045 -0.089164 0.228954 0.088119 0.040602 -0.060845 -0.176795 0.120340 0.068962 0.119262 -0.047230 0.120553 -0.050906 -0.116009 -0.042074 0.060709 -0.064493 0.126136 0.067615 0.141890 -0.215803 -0.137609 -0.066772 -0.049079 -0.082100 -0.003995 0.094730 -0.060765 -0.114017 0.068680 0.001805 -0.194768 -0.044844 -0.057044 0.039254 -0.005675 -0.032793 -0.028115 -0.053282 0.032093 0.026372 -0.050609 0.038547 0.098757 0.042690 0.047128 -0.083557 -0.187908 0.016257 -0.282335 -0.039703 0.211809 -0.028698 -0.035114 -0.101158 -0.004614 0.022221 0.100538 0.074242 -0.160653 -0.158151 0.239694 -0.167063 0.066837 0.062745 -0.051020 -0.235040 0.123718 -0.153226 -0.061222 -0.026999 0.045037 0.225167 0.090456 0.004237 -0.088065 0.032862 -0.063789 -0.006017 0.020761 -0.156064 -0.003905 -0.028740 0.206038 -0.105625 0.075812 -0.036202 -0.178785 0.038752 -0.201691 -0.083361 0.177573 0.010072 0.075901
2 -0.083907 -0.207421 0.142866 0.069740 0.086618 -0.130267 0.151628 -0.030613 -0.042740 0.015154 -0.062838 0.096316 0.085334 -0.184852 -0.021309 -0.251134 -0.061035 -0.128508 0.092429 0.053478 0.208467 -0.010088 0.160311 0.049438 -0.009431 -0.042439 -0.007444 -0.042166 0.034016 0.187784 -0.019661 0.097578 -0.129347 0.076137 -0.082248 -0.086891 0.220693 0.087590 0.015568 -0.067620 -0.158729 0.121206 0.087710 0.106795 -0.086296 0.132100 -0.025119 -0.103874 -0.006238 0.070290 -0.077346 0.138444 0.057372 0.134100 -0.187286 -0.146539 -0.045310 -0.037729 -0.059919 -0.020024 0.112021 -0.063842 -0.068511 0.079749 -0.033490 -0.152587 -0.055222 -0.043055 0.031012 -0.043710 -0.044754 -0.020027 -0.078427 0.018125 0.062711 -0.034217 0.037486 0.075511 0.012365 0.002242 -0.095741 -0.131073 0.014790 -0.228435 -0.057128 0.143585 0.013688 -0.029184 -0.065725 0.006130 0.051340 0.083152 0.100835 -0.126313 -0.163161 0.219067 -0.122370 0.001804 0.070761 -0.008677 -0.196171 0.116023 -0.154964 -0.061002 -0.057723 0.027486 0.210863 0.091770 0.013675 -0.088811 0.024556 -0.013401 -0.010874 0.009343 -0.171317 0.012004 -0.010710 0.189004 -0.111210 0.052062 -0.024430 -0.161633 0.089378 -0.239409 -0.133202 0.147408 0.027380 0.087936
7 -0.021917 -0.292289 0.058789 0.109309 0.066037 -0.139174 0.162702 0.131841 0.173066 -0.062267 0.019484 0.169830 0.040710 -0.179284 0.173976 -0.270383 -0.131239 -0.264961 0.050465 -0.083506 0.248101 -0.082588 0.127386 0.096614 0.146694 -0.145356 -0.114176 -0.172323 -0.010725 0.126919 0.043287 0.030335 -0.080197 -0.072786 -0.014762 -0.113910 0.195741 0.109071 -0.091482 -0.085558 -0.102195 0.106662 0.163460 0.083005 -0.241697 0.193023 0.097049 -0.058890 0.124606 0.131547 -0.115849 0.209988 -0.007208 0.098662 -0.077397 -0.190665 0.025700 -0.004996 0.036967 -0.078963 0.186048 -0.082752 0.113318 0.168645 -0.171647 -0.018734 -0.085358 0.033172 0.031876 -0.201249 -0.079633 0.020815 -0.217651 -0.019408 0.231738 0.012473 0.037654 -0.006811 -0.092495 -0.179632 -0.143492 0.120921 0.026094 -0.034140 -0.142785 -0.144442 0.182156 -0.002511 0.049474 0.064615 0.161338 0.007684 0.208880 0.027704 -0.184045 0.160788 0.046630 -0.237636 0.136430 0.147621 -0.083790 0.114974 -0.187896 -0.040533 -0.174196 -0.009528 0.135863 0.078137 0.083806 -0.103497 0.028682 0.183994 -0.037890 -0.029380 -0.218814 0.082812 0.049430 0.109210 -0.106586 -0.030491 0.026678 -0.080235 0.276543 -0.358004 -0.337532 0.005238 0.088471 0.136452
6 -0.017166 -0.337555 0.058223 0.131826 0.072473 -0.157258 0.184808 0.170519 0.217751 -0.076829 0.041751 0.198097 0.036423 -0.195230 0.220422 -0.301956 -0.161984 -0.318010 0.055829 -0.114705 0.278189 -0.102816 0.135427 0.105001 0.185597 -0.173609 -0.134928 -0.215172 -0.010944 0.141825 0.054359 0.015100 -0.076778 -0.095900 -0.002032 -0.133154 0.218022 0.134171 -0.121520 -0.099163 -0.102524 0.115537 0.192897 0.080716 -0.298487 0.224596 0.125231 -0.065860 0.158065 0.156044 -0.133934 0.240977 -0.020471 0.097256 -0.061801 -0.223392 0.037966 -0.002416 0.055648 -0.106013 0.220856 -0.090037 0.151484 0.196088 -0.206518 -0.006772 -0.100597 0.041774 0.029153 -0.243543 -0.087594 0.023842 -0.258827 -0.024579 0.283520 0.019371 0.044318 -0.017356 -0.119396 -0.221374 -0.172293 0.171216 0.033490 -0.011791 -0.163228 -0.204330 0.235198 -0.002674 0.072807 0.075987 0.196746 0.001218 0.245681 0.056893 -0.207387 0.166797 0.074907 -0.300224 0.170421 0.184571 -0.069435 0.117961 -0.208372 -0.037729 -0.210455 -0.010344 0.140509 0.090783 0.102230 -0.120801 0.032539 0.231630 -0.041537 -0.031189 -0.247508 0.109472 0.069056 0.108465 -0.112031 -0.054274 0.041035 -0.086159 0.334951 -0.423233 -0.407965 -0.006660 0.108354 0.148045
5 -0.029762 -0.328820 0.068189 0.123498 0.080570 -0.159044 0.185235 0.138978 0.189123 -0.069659 0.028555 0.191363 0.042273 -0.194036 0.190382 -0.304908 -0.150998 -0.298845 0.060491 -0.089697 0.277261 -0.086362 0.139489 0.106997 0.160322 -0.160920 -0.120626 -0.195232 -0.007898 0.146441 0.042417 0.029803 -0.090779 -0.072634 -0.009902 -0.130438 0.224341 0.129644 -0.102331 -0.093932 -0.108622 0.117654 0.179194 0.089531 -0.272998 0.213959 0.106386 -0.069273 0.135621 0.143947 -0.128986 0.234964 -0.004908 0.102730 -0.080821 -0.220202 0.029629 -0.006963 0.040304 -0.097749 0.205950 -0.091979 0.124707 0.186734 -0.192047 -0.025655 -0.094307 0.030279 0.036090 -0.221376 -0.087756 0.019910 -0.242174 -0.024757 0.258706 0.008834 0.040240 -0.009223 -0.105868 -0.197975 -0.165514 0.129319 0.030347 -0.046847 -0.158184 -0.159631 0.208379 -0.001897 0.056200 0.069436 0.178283 0.010688 0.231575 0.029838 -0.209528 0.181162 0.044061 -0.260917 0.161194 0.166724 -0.099155 0.127272 -0.208906 -0.047256 -0.197798 -0.006675 0.158727 0.090748 0.087578 -0.119458 0.030327 0.200002 -0.038323 -0.029715 -0.244534 0.096904 0.060038 0.127386 -0.112175 -0.035822 0.032238 -0.094477 0.305657 -0.404527 -0.378797 0.015284 0.093454 0.151907
11 -0.035051 -0.351140 0.075443 0.132359 0.084461 -0.169701 0.189433 0.157608 0.206919 -0.076311 0.026056 0.204936 0.045080 -0.203115 0.207654 -0.325919 -0.161581 -0.318081 0.065862 -0.102902 0.298034 -0.097886 0.155340 0.112657 0.170248 -0.173719 -0.132237 -0.206105 -0.013944 0.150353 0.052683 0.033284 -0.091778 -0.088271 -0.009577 -0.129962 0.242207 0.138322 -0.108604 -0.096750 -0.116513 0.131712 0.199141 0.095400 -0.290543 0.231099 0.119067 -0.066888 0.145550 0.158585 -0.135533 0.249797 -0.008798 0.115143 -0.088801 -0.235906 0.032483 -0.001693 0.037151 -0.099498 0.221132 -0.099635 0.137022 0.199623 -0.209648 -0.023571 -0.109690 0.033596 0.040636 -0.238853 -0.093491 0.020819 -0.260627 -0.025300 0.281037 0.014527 0.046242 -0.011167 -0.114658 -0.212286 -0.172511 0.144536 0.033504 -0.049600 -0.174341 -0.169584 0.226296 -0.004788 0.061179 0.075479 0.184956 0.007538 0.249651 0.035934 -0.220056 0.189920 0.055066 -0.279317 0.166104 0.180671 -0.099972 0.144233 -0.224611 -0.048038 -0.212381 -0.008870 0.172063 0.092664 0.098967 -0.128976 0.034041 0.219365 -0.048302 -0.033142 -0.261692 0.096358 0.057639 0.139397 -0.126072 -0.041228 0.035756 -0.104459 0.332287 -0.435755 -0.406024 0.009783 0.098228 0.162057
28 -0.110380 -0.201558 0.171064 0.066827 0.099419 -0.131573 0.156559 -0.071753 -0.089908 0.029367 -0.080383 0.083961 0.097138 -0.190538 -0.067048 -0.257989 -0.044505 -0.109590 0.109130 0.089089 0.206293 0.004182 0.172621 0.044787 -0.041950 -0.024383 0.009621 -0.018686 0.044469 0.208189 -0.036294 0.123581 -0.141719 0.110140 -0.097766 -0.091320 0.237614 0.091234 0.038418 -0.065044 -0.183198 0.125746 0.076237 0.120047 -0.057724 0.123415 -0.054598 -0.117590 -0.038643 0.058810 -0.075040 0.137295 0.073952 0.141988 -0.213502 -0.145516 -0.065611 -0.055893 -0.084807 -0.007991 0.102207 -0.064613 -0.108682 0.073546 -0.004750 -0.195380 -0.052716 -0.054251 0.035882 -0.012926 -0.039713 -0.024199 -0.062242 0.024825 0.028386 -0.049823 0.034459 0.104353 0.031819 0.047073 -0.088275 -0.191309 0.019793 -0.282375 -0.044081 0.210946 -0.023394 -0.031885 -0.099943 -0.000058 0.028151 0.100402 0.081464 -0.165139 -0.158542 0.240675 -0.163007 0.059901 0.062628 -0.048820 -0.240288 0.132440 -0.161446 -0.067221 -0.032113 0.045260 0.236505 0.098250 0.006659 -0.093063 0.032623 -0.056786 -0.011539 0.016939 -0.165427 -0.005842 -0.027109 0.209725 -0.113922 0.073909 -0.034132 -0.181491 0.050257 -0.211971 -0.099183 0.176872 0.011782 0.082965
24 -0.115253 -0.202382 0.183122 0.070741 0.105126 -0.141136 0.162251 -0.081586 -0.098775 0.039019 -0.087289 0.080165 0.104465 -0.205762 -0.077274 -0.269026 -0.041396 -0.109218 0.115383 0.095544 0.218346 0.009430 0.181318 0.048930 -0.046943 -0.019472 0.019233 -0.016012 0.042907 0.224578 -0.043682 0.127725 -0.154075 0.115535 -0.105275 -0.092823 0.251600 0.092423 0.043420 -0.069783 -0.191999 0.138135 0.071435 0.126817 -0.048061 0.131553 -0.059272 -0.117298 -0.042687 0.060641 -0.066269 0.139081 0.071851 0.156296 -0.228271 -0.144880 -0.067991 -0.054204 -0.089468 -0.007972 0.101700 -0.065737 -0.122692 0.071154 -0.001781 -0.211084 -0.052297 -0.061137 0.041083 0.001360 -0.036028 -0.028251 -0.058884 0.033934 0.023252 -0.055029 0.032355 0.104706 0.042249 0.058087 -0.084829 -0.201637 0.021081 -0.299181 -0.045165 0.225786 -0.035410 -0.034172 -0.106757 -0.004436 0.019876 0.106656 0.080402 -0.173882 -0.162020 0.257463 -0.173144 0.075558 0.061471 -0.059206 -0.252858 0.137105 -0.158981 -0.063523 -0.029847 0.049513 0.243984 0.095443 0.002006 -0.089247 0.037654 -0.072795 -0.007401 0.023571 -0.170071 -0.008601 -0.031879 0.217057 -0.109768 0.085544 -0.036664 -0.191542 0.039963 -0.211778 -0.079398 0.191875 0.007555 0.081614
32 -0.097488 -0.213549 0.151491 0.070804 0.093287 -0.135169 0.159396 -0.047268 -0.056365 0.022015 -0.070680 0.093398 0.087670 -0.189648 -0.033816 -0.256745 -0.053707 -0.131019 0.097027 0.064580 0.214285 -0.004333 0.161798 0.049315 -0.018647 -0.041581 -0.001335 -0.033242 0.036350 0.196719 -0.027310 0.106071 -0.130003 0.085285 -0.089006 -0.090990 0.232445 0.098046 0.021202 -0.070567 -0.171663 0.125724 0.082404 0.111566 -0.080695 0.134001 -0.027723 -0.106380 -0.016105 0.069223 -0.076875 0.144603 0.059429 0.139674 -0.200476 -0.152385 -0.054214 -0.045994 -0.065302 -0.020257 0.112457 -0.064313 -0.084724 0.084539 -0.029156 -0.172047 -0.057822 -0.044722 0.038189 -0.038038 -0.047002 -0.019861 -0.077447 0.020818 0.053508 -0.040995 0.036134 0.085784 0.018406 0.014094 -0.096085 -0.147980 0.021894 -0.247107 -0.056447 0.164216 0.006182 -0.030305 -0.078693 0.002838 0.044075 0.088499 0.098285 -0.137617 -0.160329 0.227052 -0.133603 0.018665 0.067691 -0.026105 -0.208892 0.120996 -0.161682 -0.062634 -0.048180 0.038444 0.220091 0.086383 0.010872 -0.088858 0.030498 -0.029492 -0.009409 0.017657 -0.166472 0.010081 -0.015887 0.197287 -0.104032 0.057878 -0.027861 -0.167522 0.075883 -0.225062 -0.119419 0.152262 0.016684 0.087140
4 -0.103966 -0.196192 0.168506 0.067158 0.098987 -0.139244 0.151784 -0.066062 -0.084748 0.031559 -0.079081 0.084908 0.101691 -0.200996 -0.063577 -0.259836 -0.045249 -0.111779 0.107449 0.090309 0.215487 0.003084 0.170162 0.044765 -0.036597 -0.021417 0.013107 -0.015702 0.046570 0.210449 -0.040732 0.117167 -0.146590 0.108898 -0.103217 -0.094293 0.238166 0.093296 0.038560 -0.065200 -0.181761 0.123714 0.077126 0.125146 -0.053269 0.127554 -0.052131 -0.121407 -0.037365 0.059932 -0.071252 0.132611 0.073046 0.147388 -0.220821 -0.141227 -0.063722 -0.051825 -0.078572 -0.012992 0.110517 -0.068849 -0.109009 0.071914 -0.000051 -0.189756 -0.053941 -0.057236 0.037943 -0.013768 -0.037096 -0.027252 -0.053022 0.024384 0.036702 -0.051024 0.041627 0.102187 0.034581 0.044509 -0.087864 -0.192818 0.015423 -0.281533 -0.044815 0.205739 -0.018525 -0.039758 -0.094711 -0.001275 0.028998 0.099149 0.079846 -0.163799 -0.165152 0.244643 -0.167884 0.051617 0.065124 -0.046869 -0.237346 0.124491 -0.153030 -0.058003 -0.037223 0.042809 0.227807 0.096655 0.000936 -0.093074 0.033925 -0.060736 -0.006072 0.020554 -0.161383 0.001815 -0.027558 0.207571 -0.111828 0.073282 -0.032819 -0.177350 0.043741 -0.215659 -0.093603 0.177413 0.015557 0.080862
14 -0.112676 -0.217582 0.179741 0.068469 0.104428 -0.142559 0.163892 -0.069646 -0.084888 0.033670 -0.087552 0.092249 0.099804 -0.207336 -0.059959 -0.272473 -0.048038 -0.122246 0.113455 0.083950 0.228231 0.004992 0.182065 0.052317 -0.036098 -0.028476 0.013924 -0.021519 0.038860 0.224482 -0.033945 0.125341 -0.152233 0.110624 -0.100494 -0.098264 0.248498 0.098209 0.034114 -0.071345 -0.195644 0.136019 0.082973 0.127755 -0.065243 0.140140 -0.046889 -0.119759 -0.031859 0.073310 -0.079440 0.147213 0.070567 0.155083 -0.226328 -0.157399 -0.069370 -0.049640 -0.084401 -0.015103 0.112777 -0.071365 -0.107819 0.076165 -0.014048 -0.198526 -0.052747 -0.061344 0.040425 -0.018940 -0.044065 -0.025571 -0.070406 0.033351 0.043406 -0.049462 0.039884 0.102297 0.033394 0.034527 -0.097883 -0.186981 0.022380 -0.288694 -0.055111 0.210917 -0.018687 -0.038893 -0.097898 -0.002037 0.033180 0.102783 0.093497 -0.164870 -0.175455 0.258807 -0.167871 0.053890 0.074133 -0.042207 -0.248672 0.134471 -0.170146 -0.064422 -0.043669 0.045553 0.247207 0.102683 0.003991 -0.097570 0.029831 -0.056480 -0.011252 0.020938 -0.174338 0.000247 -0.027498 0.219828 -0.120337 0.077858 -0.034537 -0.191274 0.060042 -0.235926 -0.107168 0.183033 0.012352 0.086683
30 -0.105245 -0.203535 0.168184 0.070760 0.094729 -0.135297 0.162459 -0.078157 -0.093698 0.037047 -0.089649 0.079112 0.099158 -0.201032 -0.072441 -0.263406 -0.040374 -0.106328 0.103310 0.096725 0.212630 0.002887 0.180067 0.040222 -0.041763 -0.024825 0.019450 -0.016249 0.040367 0.215733 -0.039842 0.120497 -0.143351 0.109485 -0.105738 -0.087607 0.236763 0.092586 0.041224 -0.069753 -0.184759 0.129295 0.070148 0.123201 -0.049063 0.127816 -0.055440 -0.122014 -0.040830 0.061330 -0.071605 0.137573 0.076437 0.140512 -0.218389 -0.139033 -0.071395 -0.054356 -0.080219 -0.004710 0.102097 -0.066931 -0.113369 0.070977 0.006165 -0.202946 -0.051140 -0.061002 0.041282 -0.006951 -0.035147 -0.028192 -0.055323 0.029222 0.025131 -0.054555 0.034518 0.107687 0.039572 0.053408 -0.090767 -0.197484 0.013241 -0.289279 -0.041214 0.219515 -0.033431 -0.033912 -0.107377 -0.001397 0.030010 0.097265 0.080029 -0.163842 -0.154239 0.245003 -0.170073 0.068717 0.061717 -0.056741 -0.234539 0.127203 -0.159176 -0.067214 -0.027946 0.041602 0.234000 0.093840 -0.000049 -0.089516 0.029607 -0.068784 -0.009672 0.016234 -0.156214 -0.008627 -0.031243 0.203682 -0.109996 0.080643 -0.039705 -0.176450 0.041830 -0.199801 -0.080364 0.183081 0.013584 0.076633
17 -0.041142 -0.304508 0.086119 0.115883 0.075635 -0.155556 0.178902 0.111167 0.146400 -0.047967 0.011600 0.173706 0.054221 -0.192010 0.146284 -0.288267 -0.131192 -0.268256 0.064938 -0.061472 0.261466 -0.078009 0.147722 0.090763 0.131334 -0.133739 -0.100008 -0.164281 0.003579 0.158552 0.033154 0.042870 -0.092508 -0.046467 -0.027382 -0.125286 0.222889 0.123364 -0.081397 -0.086205 -0.121697 0.112622 0.159112 0.094156 -0.237958 0.196790 0.082910 -0.073318 0.107894 0.132226 -0.120564 0.211794 0.003617 0.104723 -0.098654 -0.204137 0.009573 -0.009626 0.023262 -0.082717 0.189720 -0.085003 0.088954 0.163948 -0.157706 -0.048036 -0.087206 0.016743 0.034282 -0.182737 -0.079924 0.012289 -0.208812 -0.015403 0.222672 0.006063 0.038048 0.007702 -0.079579 -0.160753 -0.148792 0.082107 0.032132 -0.075940 -0.139573 -0.101314 0.172492 -0.011534 0.034167 0.056463 0.150073 0.024515 0.204664 0.004368 -0.197525 0.185204 0.018914 -0.207031 0.145501 0.131935 -0.112108 0.121843 -0.199275 -0.042292 -0.165809 0.000941 0.164912 0.087682 0.074913 -0.109467 0.031325 0.159701 -0.029202 -0.018199 -0.227525 0.078690 0.043988 0.139422 -0.113086 -0.024360 0.024990 -0.105811 0.265849 -0.368149 -0.334812 0.037492 0.081414 0.138039
25 -0.121037 -0.218063 0.183210 0.069529 0.103442 -0.148658 0.167982 -0.083248 -0.092477 0.035937 -0.092804 0.084682 0.106069 -0.210769 -0.073579 -0.283389 -0.043570 -0.118354 0.119761 0.099739 0.231205 0.004079 0.189287 0.051583 -0.043880 -0.029710 0.019771 -0.019144 0.042345 0.231796 -0.039114 0.131705 -0.156215 0.115135 -0.112879 -0.096083 0.251060 0.102170 0.040215 -0.072281 -0.201485 0.140140 0.075571 0.126341 -0.052706 0.141480 -0.053781 -0.123864 -0.037723 0.067991 -0.081437 0.149048 0.079509 0.159254 -0.242116 -0.157514 -0.069728 -0.060770 -0.087703 -0.005738 0.108633 -0.065350 -0.122501 0.074221 -0.005760 -0.216210 -0.054339 -0.062843 0.040589 -0.006862 -0.040912 -0.034292 -0.059103 0.035998 0.028913 -0.060071 0.035020 0.112543 0.043966 0.046488 -0.094125 -0.208817 0.019327 -0.313487 -0.048996 0.226694 -0.028158 -0.043985 -0.114127 -0.007055 0.025949 0.108226 0.090336 -0.179364 -0.176009 0.264077 -0.178249 0.065544 0.068738 -0.051486 -0.259500 0.137720 -0.173004 -0.067134 -0.031407 0.043361 0.251243 0.101279 0.006374 -0.098767 0.032915 -0.066683 -0.005178 0.019963 -0.179481 -0.005011 -0.025956 0.225733 -0.120232 0.081358 -0.036471 -0.188449 0.047270 -0.224294 -0.097909 0.197943 0.007115 0.083584
26 -0.103799 -0.224226 0.171945 0.076021 0.104915 -0.149915 0.172470 -0.058509 -0.071668 0.024019 -0.078643 0.094431 0.102860 -0.212442 -0.046983 -0.278315 -0.055649 -0.134486 0.109135 0.079769 0.234626 -0.004005 0.185376 0.053933 -0.026348 -0.041510 -0.001078 -0.039557 0.039413 0.224820 -0.028587 0.120918 -0.146138 0.094971 -0.102676 -0.103034 0.253610 0.101242 0.025394 -0.074032 -0.187458 0.132481 0.084140 0.121758 -0.081401 0.148972 -0.044250 -0.121488 -0.024716 0.076775 -0.079852 0.156095 0.067489 0.146830 -0.219222 -0.161195 -0.058840 -0.050897 -0.077834 -0.017409 0.121484 -0.072377 -0.096427 0.090196 -0.020948 -0.193478 -0.056973 -0.058233 0.042218 -0.028545 -0.045236 -0.024520 -0.082228 0.025506 0.055368 -0.050910 0.033459 0.099118 0.024191 0.023012 -0.104646 -0.168674 0.021311 -0.278131 -0.054618 0.190304 -0.006351 -0.034736 -0.092587 0.003402 0.045727 0.097703 0.105004 -0.150514 -0.171542 0.249356 -0.155123 0.033110 0.079476 -0.033536 -0.235358 0.134129 -0.172849 -0.063037 -0.047956 0.041472 0.242445 0.100429 0.016813 -0.095606 0.029994 -0.039917 -0.009749 0.018403 -0.181427 0.005105 -0.018334 0.210566 -0.113676 0.064089 -0.030541 -0.185593 0.073378 -0.245118 -0.124367 0.178058 0.017696 0.085567
9 -0.099587 -0.206491 0.151701 0.069100 0.093829 -0.134185 0.152949 -0.045964 -0.051785 0.020705 -0.068023 0.094268 0.089517 -0.192174 -0.039173 -0.255059 -0.054374 -0.120892 0.098468 0.068560 0.206429 -0.002332 0.169242 0.044987 -0.020464 -0.035685 -0.000578 -0.039375 0.034964 0.199713 -0.024728 0.112371 -0.136498 0.084122 -0.084081 -0.091873 0.229870 0.092393 0.019683 -0.061537 -0.173236 0.119688 0.084278 0.115467 -0.076531 0.129171 -0.032786 -0.110678 -0.019441 0.064942 -0.078381 0.141675 0.058705 0.137881 -0.195379 -0.148853 -0.055364 -0.045282 -0.066766 -0.018856 0.109981 -0.064188 -0.088561 0.081640 -0.021511 -0.173387 -0.051338 -0.048453 0.037451 -0.028032 -0.039386 -0.019675 -0.070679 0.022631 0.054678 -0.044258 0.032310 0.091848 0.018669 0.020183 -0.089678 -0.151181 0.015361 -0.255833 -0.056799 0.164561 0.000460 -0.032095 -0.083964 0.006132 0.042232 0.087505 0.098815 -0.134324 -0.162167 0.225412 -0.134026 0.025412 0.070529 -0.021948 -0.218646 0.120492 -0.161173 -0.058541 -0.047486 0.034239 0.214962 0.093195 0.009157 -0.093575 0.033491 -0.030521 -0.006488 0.012530 -0.166894 0.003910 -0.019592 0.198697 -0.111181 0.064656 -0.027788 -0.167008 0.070659 -0.219663 -0.121332 0.159339 0.018190 0.085252
31 -0.089389 -0.205303 0.149546 0.072979 0.089108 -0.135607 0.149582 -0.044146 -0.047108 0.017868 -0.060420 0.097041 0.088501 -0.186761 -0.025705 -0.253517 -0.062034 -0.127176 0.096920 0.058869 0.210419 -0.011369 0.158390 0.052794 -0.010467 -0.040507 -0.000536 -0.038765 0.032673 0.190572 -0.025527 0.107468 -0.132502 0.079100 -0.079591 -0.086246 0.221771 0.091996 0.019103 -0.070863 -0.163565 0.123930 0.084647 0.105763 -0.081849 0.134447 -0.028789 -0.107842 -0.011760 0.073106 -0.082399 0.146859 0.057587 0.130194 -0.187143 -0.148982 -0.047039 -0.046218 -0.063658 -0.024805 0.117147 -0.066143 -0.078306 0.078969 -0.033095 -0.165757 -0.059825 -0.046624 0.034813 -0.037519 -0.042551 -0.023487 -0.080416 0.021267 0.064151 -0.039774 0.038203 0.081973 0.018222 0.010255 -0.093180 -0.138145 0.017110 -0.243363 -0.057160 0.148591 0.006759 -0.033757 -0.074771 0.004905 0.042774 0.086495 0.104584 -0.129401 -0.163497 0.224490 -0.129535 0.011544 0.073071 -0.013350 -0.210859 0.122578 -0.159511 -0.060547 -0.056641 0.033177 0.212860 0.092710 0.019160 -0.090822 0.027512 -0.023632 -0.014505 0.008583 -0.166529 0.012621 -0.016719 0.192946 -0.112098 0.058319 -0.025789 -0.161948 0.079755 -0.232075 -0.129553 0.151990 0.016008 0.085203
29 -0.109869 -0.205901 0.172060 0.066566 0.102149 -0.142352 0.160759 -0.075515 -0.089611 0.035490 -0.083418 0.087647 0.098527 -0.203532 -0.065540 -0.267589 -0.049184 -0.115546 0.112177 0.089411 0.219470 0.002369 0.174195 0.044325 -0.043564 -0.026197 0.015430 -0.020214 0.046919 0.219776 -0.035231 0.121513 -0.144999 0.111073 -0.106166 -0.092272 0.245790 0.095395 0.040353 -0.071138 -0.183543 0.133340 0.070982 0.118008 -0.053763 0.135813 -0.054110 -0.121465 -0.039491 0.064784 -0.075176 0.137584 0.071498 0.148695 -0.227880 -0.143099 -0.063338 -0.050480 -0.081098 -0.008418 0.107789 -0.069867 -0.116436 0.072580 -0.006174 -0.202169 -0.054576 -0.062361 0.041535 -0.006779 -0.041503 -0.029643 -0.061961 0.032325 0.032331 -0.047972 0.040520 0.103454 0.038378 0.043932 -0.094141 -0.191064 0.019983 -0.292916 -0.044505 0.214946 -0.020906 -0.040592 -0.100676 -0.006887 0.030794 0.099594 0.083228 -0.164095 -0.161398 0.250882 -0.170731 0.060786 0.065246 -0.052381 -0.242152 0.130334 -0.162151 -0.063004 -0.032199 0.042500 0.234367 0.093281 0.005085 -0.091217 0.032932 -0.059397 -0.009947 0.018354 -0.169686 -0.005276 -0.027890 0.208604 -0.109979 0.074610 -0.036515 -0.184067 0.045969 -0.218252 -0.089925 0.184394 0.009890 0.075538
20 -0.107509 -0.193282 0.169678 0.063523 0.093737 -0.136231 0.155326 -0.075834 -0.096062 0.033507 -0.086713 0.075193 0.101754 -0.191968 -0.071847 -0.252960 -0.044764 -0.101179 0.106067 0.087957 0.208514 0.004534 0.172820 0.043598 -0.043113 -0.016207 0.024139 -0.013718 0.044010 0.204934 -0.042313 0.119571 -0.142146 0.109767 -0.096565 -0.085088 0.235825 0.086363 0.038806 -0.068822 -0.185024 0.123985 0.066223 0.118106 -0.044012 0.123787 -0.050817 -0.116028 -0.038501 0.057010 -0.074245 0.130772 0.074391 0.141037 -0.218377 -0.139848 -0.066314 -0.057226 -0.085783 -0.006760 0.104091 -0.060199 -0.115271 0.066343 -0.000139 -0.197944 -0.049895 -0.058321 0.036101 -0.000682 -0.038623 -0.028515 -0.053720 0.029271 0.025342 -0.049991 0.037936 0.102240 0.040623 0.051262 -0.085139 -0.198619 0.017958 -0.292425 -0.039618 0.218768 -0.031194 -0.036553 -0.105574 -0.002374 0.025405 0.102395 0.079652 -0.167323 -0.159735 0.242959 -0.165887 0.064889 0.058271 -0.048557 -0.240664 0.124020 -0.159710 -0.060106 -0.030959 0.045577 0.232311 0.094757 0.005272 -0.087161 0.029531 -0.063481 -0.006479 0.023026 -0.163400 -0.006303 -0.024759 0.213996 -0.110660 0.078705 -0.036232 -0.177469 0.041040 -0.209738 -0.084702 0.185212 0.005262 0.078684
27 -0.112339 -0.190340 0.174259 0.055710 0.098206 -0.130230 0.154410 -0.087054 -0.113202 0.042508 -0.093058 0.068389 0.099972 -0.189005 -0.088171 -0.253368 -0.030207 -0.094052 0.110370 0.098037 0.206097 0.014429 0.174471 0.043955 -0.056831 -0.014878 0.023456 0.001584 0.043929 0.214986 -0.043956 0.123056 -0.146721 0.119376 -0.104124 -0.088598 0.232147 0.087078 0.048994 -0.064542 -0.190062 0.125620 0.059567 0.120781 -0.031858 0.122173 -0.060153 -0.118696 -0.051346 0.056156 -0.063475 0.127145 0.075016 0.149306 -0.228320 -0.139808 -0.074438 -0.055734 -0.088124 0.000805 0.089412 -0.055811 -0.132193 0.059317 0.013517 -0.206591 -0.047321 -0.062505 0.037604 0.009621 -0.036565 -0.029493 -0.039534 0.028477 0.006263 -0.059520 0.036449 0.104957 0.045897 0.064774 -0.081928 -0.213707 0.016654 -0.296152 -0.039257 0.237832 -0.040219 -0.040007 -0.116117 -0.008986 0.010522 0.102392 0.068570 -0.174633 -0.157193 0.242096 -0.176889 0.083542 0.056669 -0.067605 -0.247012 0.123517 -0.148256 -0.066350 -0.013387 0.047468 0.237789 0.087437 -0.006429 -0.083654 0.032156 -0.082114 -0.004752 0.022172 -0.153294 -0.013184 -0.032887 0.215208 -0.110348 0.082453 -0.041740 -0.181039 0.026932 -0.194209 -0.069549 0.192883 0.003333 0.072133
13 -0.088995 -0.208428 0.154011 0.067773 0.090458 -0.136219 0.157332 -0.046620 -0.050321 0.023719 -0.071088 0.089755 0.092672 -0.195932 -0.030731 -0.258445 -0.060123 -0.129542 0.096167 0.061515 0.218703 -0.008663 0.160413 0.051625 -0.018269 -0.037578 0.003858 -0.035694 0.036885 0.197078 -0.030293 0.107785 -0.133113 0.079963 -0.087098 -0.094564 0.231136 0.095082 0.021175 -0.069409 -0.165752 0.122421 0.081775 0.114192 -0.075776 0.139248 -0.030502 -0.107050 -0.015552 0.072808 -0.080456 0.143530 0.063712 0.139756 -0.198716 -0.148246 -0.055191 -0.049281 -0.061043 -0.023077 0.116800 -0.065306 -0.082777 0.076467 -0.020552 -0.169642 -0.057092 -0.049656 0.039320 -0.037609 -0.045892 -0.025442 -0.074817 0.017928 0.058899 -0.044638 0.034532 0.081992 0.014902 0.009344 -0.093068 -0.147766 0.017054 -0.245376 -0.059681 0.156334 0.007498 -0.033163 -0.080025 0.010491 0.049822 0.082500 0.093455 -0.136811 -0.159992 0.222133 -0.131501 0.012613 0.066895 -0.020578 -0.201551 0.118681 -0.155863 -0.056486 -0.051503 0.028131 0.213429 0.086168 0.012719 -0.092784 0.033118 -0.027439 -0.010666 0.016275 -0.165843 0.004954 -0.017780 0.188633 -0.102307 0.054351 -0.023960 -0.153615 0.075863 -0.215854 -0.116199 0.151560 0.022306 0.083341
8 -0.076409 -0.229666 0.132032 0.080324 0.082893 -0.133478 0.158383 -0.001799 0.000073 0.004155 -0.048404 0.108479 0.073981 -0.185364 0.017740 -0.258569 -0.070102 -0.159238 0.089709 0.031481 0.217078 -0.024919 0.152001 0.056420 0.024395 -0.058974 -0.026214 -0.065501 0.023594 0.181367 -0.012354 0.086165 -0.116669 0.049208 -0.070201 -0.098403 0.221807 0.096288 -0.002662 -0.067462 -0.152012 0.116548 0.097635 0.106615 -0.115018 0.148246 -0.002658 -0.096017 0.016092 0.086287 -0.086754 0.153804 0.047898 0.126767 -0.167864 -0.156884 -0.038296 -0.036442 -0.041949 -0.036808 0.126193 -0.072044 -0.033368 0.102029 -0.056342 -0.135183 -0.057512 -0.029537 0.034350 -0.076021 -0.053624 -0.014309 -0.110372 0.011505 0.095705 -0.027689 0.033463 0.060695 -0.008175 -0.032267 -0.102927 -0.085717 0.018615 -0.192282 -0.078585 0.090119 0.049424 -0.023164 -0.045686 0.016420 0.073421 0.064858 0.120375 -0.094267 -0.165981 0.205160 -0.091370 -0.044589 0.084383 0.015226 -0.173480 0.113828 -0.166397 -0.054697 -0.075392 0.022103 0.196079 0.081688 0.027011 -0.094179 0.025076 0.023565 -0.013814 0.004794 -0.179981 0.029783 -0.000667 0.169613 -0.105888 0.036023 -0.014643 -0.144817 0.123898 -0.252925 -0.167911 0.113355 0.038177 0.092087
10 -0.102750 -0.205281 0.161875 0.068649 0.098879 -0.133209 0.158606 -0.061331 -0.069765 0.024580 -0.075215 0.090185 0.092612 -0.192229 -0.052861 -0.257051 -0.048888 -0.115121 0.103727 0.078580 0.216824 -0.000710 0.170704 0.052262 -0.032613 -0.032267 0.010312 -0.029596 0.038045 0.204422 -0.035505 0.112449 -0.140255 0.101215 -0.098326 -0.091584 0.238911 0.089113 0.028085 -0.070980 -0.180752 0.127122 0.081929 0.120764 -0.060301 0.136771 -0.038988 -0.114096 -0.023227 0.063822 -0.074450 0.141185 0.070653 0.142989 -0.214078 -0.146360 -0.057620 -0.053055 -0.078790 -0.012856 0.110582 -0.065270 -0.104447 0.076382 -0.014157 -0.184590 -0.056320 -0.056833 0.036211 -0.022409 -0.038102 -0.029894 -0.062836 0.026179 0.046557 -0.045484 0.036616 0.092920 0.026315 0.030749 -0.095097 -0.174762 0.019279 -0.269483 -0.054442 0.190251 -0.014184 -0.038654 -0.091035 -0.001536 0.037838 0.096212 0.092923 -0.149558 -0.164439 0.241398 -0.153003 0.037406 0.068229 -0.033044 -0.230645 0.125549 -0.159648 -0.061108 -0.044178 0.037077 0.231754 0.096593 0.005902 -0.089704 0.035062 -0.049397 -0.007571 0.016141 -0.167066 0.002286 -0.021432 0.208834 -0.112593 0.065998 -0.030875 -0.176041 0.060387 -0.220466 -0.101388 0.169044 0.012402 0.083512
15 -0.114744 -0.211188 0.177882 0.066535 0.103814 -0.137702 0.164207 -0.073480 -0.085843 0.030155 -0.082342 0.086857 0.100621 -0.200451 -0.061989 -0.269764 -0.049975 -0.117958 0.109252 0.083981 0.223224 0.004831 0.178747 0.049694 -0.041097 -0.027502 0.011116 -0.021564 0.043394 0.214536 -0.039052 0.125628 -0.146759 0.109238 -0.100525 -0.093922 0.245155 0.095121 0.041311 -0.066555 -0.191285 0.133422 0.078142 0.124614 -0.056998 0.136636 -0.053261 -0.120987 -0.035211 0.065156 -0.075688 0.142488 0.072577 0.153384 -0.227859 -0.156432 -0.069695 -0.056241 -0.081837 -0.009304 0.111866 -0.063491 -0.112207 0.072114 -0.007351 -0.195839 -0.053169 -0.060386 0.044401 -0.010083 -0.039161 -0.030693 -0.062219 0.025744 0.033288 -0.051919 0.039273 0.101981 0.031437 0.037771 -0.092367 -0.188209 0.020058 -0.293996 -0.052536 0.207607 -0.021118 -0.040483 -0.100191 0.001179 0.031238 0.105102 0.090967 -0.167643 -0.173927 0.253982 -0.164818 0.058878 0.068677 -0.040889 -0.241835 0.133064 -0.167651 -0.065156 -0.036226 0.039808 0.243427 0.097953 0.005037 -0.097657 0.033702 -0.057616 -0.010166 0.017011 -0.176620 0.001598 -0.023733 0.223714 -0.120325 0.079941 -0.031721 -0.189945 0.059159 -0.223149 -0.107220 0.184415 0.014467 0.087657
16 -0.104722 -0.187179 0.163934 0.062513 0.092555 -0.129194 0.150941 -0.073075 -0.086890 0.033955 -0.083097 0.077648 0.091803 -0.183572 -0.063553 -0.246868 -0.043339 -0.104591 0.100069 0.083230 0.199742 0.006518 0.167721 0.040659 -0.039700 -0.021306 0.018401 -0.015371 0.038791 0.199780 -0.038972 0.118415 -0.139588 0.102081 -0.095238 -0.083529 0.229393 0.084283 0.035847 -0.065979 -0.178284 0.125970 0.070348 0.114659 -0.045506 0.119601 -0.048390 -0.109292 -0.040200 0.062591 -0.065148 0.129458 0.070037 0.140518 -0.209176 -0.136838 -0.064692 -0.049875 -0.078066 -0.011115 0.099018 -0.064330 -0.111781 0.062317 0.000845 -0.191001 -0.047404 -0.054318 0.036786 -0.007468 -0.032156 -0.031453 -0.051618 0.027545 0.028244 -0.050940 0.037128 0.096103 0.035691 0.047209 -0.079259 -0.186977 0.018037 -0.277246 -0.041116 0.208702 -0.026375 -0.032186 -0.096761 -0.003141 0.020728 0.098379 0.072684 -0.156043 -0.153149 0.235597 -0.156159 0.059632 0.057635 -0.052517 -0.225035 0.123063 -0.146629 -0.062858 -0.031135 0.037634 0.220779 0.088248 0.005553 -0.084376 0.028847 -0.057689 -0.010470 0.021379 -0.153721 -0.002472 -0.028050 0.204045 -0.105608 0.071922 -0.034677 -0.170811 0.039798 -0.199941 -0.080299 0.175983 0.008971 0.077821
21 -0.108974 -0.195703 0.167111 0.060971 0.093086 -0.135623 0.153685 -0.071601 -0.083056 0.034339 -0.079776 0.083022 0.097424 -0.195862 -0.061633 -0.255887 -0.046186 -0.110400 0.108870 0.084013 0.213397 0.002624 0.169707 0.048769 -0.037087 -0.026851 0.015531 -0.019743 0.041827 0.206865 -0.032818 0.116665 -0.142082 0.106017 -0.099451 -0.091368 0.232770 0.094362 0.038958 -0.064770 -0.182912 0.129826 0.070462 0.114979 -0.058464 0.129904 -0.047204 -0.113847 -0.029918 0.061792 -0.069685 0.137283 0.072255 0.141020 -0.215920 -0.143501 -0.062187 -0.055348 -0.083259 -0.007300 0.102107 -0.061878 -0.107260 0.073832 -0.003922 -0.191205 -0.052278 -0.060575 0.036641 -0.014722 -0.035543 -0.031623 -0.058596 0.028964 0.036300 -0.049307 0.033904 0.095320 0.035484 0.042387 -0.090996 -0.181535 0.016795 -0.283074 -0.049578 0.199025 -0.022131 -0.038802 -0.093602 -0.004582 0.031944 0.099841 0.082289 -0.154873 -0.162390 0.237467 -0.161013 0.054993 0.065326 -0.042710 -0.234297 0.124031 -0.158354 -0.058878 -0.031492 0.043161 0.229202 0.090099 0.004412 -0.092430 0.035028 -0.051878 -0.008750 0.020616 -0.165950 0.002056 -0.027518 0.207431 -0.109745 0.076077 -0.033355 -0.177336 0.050832 -0.215204 -0.093025 0.175906 0.013693 0.075822
19 -0.095132 -0.221540 0.161765 0.072196 0.094664 -0.139438 0.161222 -0.047283 -0.049624 0.020355 -0.073101 0.100044 0.091432 -0.197739 -0.033516 -0.267191 -0.061988 -0.138319 0.105236 0.068931 0.224389 -0.011696 0.172552 0.055358 -0.013938 -0.039792 -0.003075 -0.041618 0.034419 0.203918 -0.025859 0.111637 -0.137891 0.080826 -0.090461 -0.095965 0.234012 0.100304 0.022452 -0.069387 -0.176217 0.127819 0.088407 0.116080 -0.080246 0.143410 -0.027651 -0.115079 -0.014008 0.075584 -0.082946 0.149982 0.059460 0.140120 -0.199894 -0.153969 -0.056747 -0.046180 -0.062785 -0.021704 0.118115 -0.069832 -0.079075 0.089102 -0.028815 -0.178822 -0.055335 -0.049080 0.036850 -0.040453 -0.044134 -0.022676 -0.082154 0.023192 0.060291 -0.047328 0.039409 0.091075 0.014648 0.009600 -0.100905 -0.149029 0.019448 -0.260204 -0.063340 0.162921 0.009201 -0.031598 -0.084352 0.005655 0.047875 0.092196 0.107896 -0.136802 -0.172500 0.240411 -0.137977 0.016851 0.077198 -0.022117 -0.218642 0.130499 -0.170694 -0.063966 -0.056018 0.035521 0.225167 0.095222 0.014742 -0.097419 0.030200 -0.025403 -0.010987 0.011060 -0.173212 0.011991 -0.012245 0.204269 -0.116551 0.064400 -0.027532 -0.170388 0.080440 -0.239525 -0.133757 0.160018 0.018846 0.086326
23 -0.098614 -0.199776 0.155201 0.069250 0.093770 -0.130914 0.153612 -0.054460 -0.067358 0.024267 -0.076967 0.087140 0.093416 -0.193513 -0.051680 -0.252327 -0.049857 -0.113195 0.103714 0.079986 0.209084 -0.003634 0.163741 0.050071 -0.027040 -0.032434 0.003991 -0.031010 0.034251 0.203623 -0.031613 0.112886 -0.137463 0.094344 -0.095789 -0.091375 0.231396 0.088429 0.025841 -0.064844 -0.174097 0.124646 0.078824 0.116178 -0.061477 0.128514 -0.041196 -0.108023 -0.027410 0.064434 -0.072726 0.135731 0.069302 0.135622 -0.205480 -0.148522 -0.060310 -0.049502 -0.072065 -0.018175 0.107004 -0.064824 -0.092949 0.075943 -0.011098 -0.181283 -0.050801 -0.049857 0.039886 -0.018071 -0.040294 -0.024694 -0.062268 0.025307 0.039575 -0.045135 0.037553 0.093594 0.030781 0.030178 -0.086755 -0.168725 0.021466 -0.263444 -0.052110 0.186129 -0.011299 -0.032780 -0.091962 -0.000232 0.036616 0.093367 0.085702 -0.147286 -0.164461 0.229669 -0.145880 0.035978 0.064575 -0.029947 -0.221881 0.121752 -0.153539 -0.064573 -0.042835 0.033038 0.218946 0.088338 0.010668 -0.088231 0.026607 -0.045802 -0.010155 0.012810 -0.163478 0.001015 -0.023107 0.200156 -0.107199 0.066155 -0.028244 -0.165614 0.058050 -0.216050 -0.102015 0.160551 0.013911 0.079551
22 -0.073170 -0.230100 0.127867 0.079698 0.084605 -0.138686 0.153190 -0.000972 0.004842 -0.001029 -0.045132 0.113551 0.078629 -0.187785 0.022783 -0.259583 -0.079515 -0.163952 0.090467 0.029007 0.224068 -0.027189 0.156377 0.061917 0.023650 -0.061068 -0.027764 -0.076397 0.026277 0.180417 -0.009736 0.082806 -0.121349 0.043176 -0.067498 -0.099793 0.216430 0.096822 -0.010480 -0.074680 -0.146301 0.114338 0.100379 0.105916 -0.116758 0.153168 -0.001187 -0.092776 0.024893 0.083884 -0.089939 0.156297 0.039252 0.123972 -0.159741 -0.157346 -0.028995 -0.032354 -0.035530 -0.040078 0.134415 -0.068069 -0.028863 0.104867 -0.063236 -0.129019 -0.066811 -0.025833 0.038905 -0.073047 -0.052573 -0.011261 -0.111442 0.009701 0.107183 -0.026735 0.034576 0.063274 -0.007320 -0.036971 -0.110641 -0.078132 0.023492 -0.197555 -0.079486 0.076301 0.054863 -0.029204 -0.042327 0.020789 0.076434 0.064454 0.125767 -0.095855 -0.168781 0.210190 -0.087863 -0.047437 0.092846 0.020632 -0.177232 0.119830 -0.161954 -0.049018 -0.082525 0.025721 0.192529 0.089993 0.031130 -0.094924 0.032603 0.026833 -0.014670 0.006682 -0.179635 0.028129 -0.000605 0.169473 -0.108219 0.033559 -0.009168 -0.141974 0.126453 -0.259481 -0.174099 0.115369 0.038642 0.095742
18 -0.069525 -0.218045 0.120585 0.075960 0.082617 -0.131280 0.145815 0.000298 0.006880 0.003368 -0.043863 0.109672 0.077046 -0.178734 0.019739 -0.251469 -0.075230 -0.154064 0.079943 0.029655 0.216054 -0.026672 0.152132 0.059402 0.027828 -0.058523 -0.025166 -0.069626 0.024945 0.172069 -0.009236 0.085157 -0.112940 0.043835 -0.062806 -0.093898 0.208298 0.092821 -0.006018 -0.067486 -0.144855 0.117307 0.095651 0.097542 -0.114828 0.145917 -0.002906 -0.092065 0.022042 0.080473 -0.084893 0.149631 0.044796 0.123236 -0.156943 -0.147227 -0.029357 -0.037895 -0.039205 -0.035562 0.128708 -0.070785 -0.029609 0.096802 -0.056674 -0.125388 -0.060343 -0.028958 0.035883 -0.070314 -0.051585 -0.012968 -0.105115 0.007125 0.101405 -0.025477 0.038205 0.061942 -0.008288 -0.034203 -0.107419 -0.073799 0.021151 -0.189967 -0.076973 0.079717 0.050355 -0.024108 -0.046462 0.022799 0.072157 0.061296 0.124420 -0.093079 -0.164459 0.204022 -0.087100 -0.041472 0.086617 0.018890 -0.170437 0.118083 -0.158495 -0.050510 -0.079454 0.022740 0.184296 0.082676 0.029584 -0.093640 0.025528 0.022468 -0.019850 0.000630 -0.170967 0.023997 0.001708 0.159475 -0.099387 0.033093 -0.012249 -0.138348 0.119008 -0.248606 -0.165379 0.108582 0.032486 0.089363
12 -0.092174 -0.226619 0.142959 0.075022 0.089256 -0.138496 0.154550 -0.023695 -0.021953 0.011122 -0.049724 0.109081 0.080861 -0.187210 -0.003993 -0.258659 -0.071201 -0.148305 0.097792 0.039546 0.221489 -0.014198 0.162634 0.055865 0.003609 -0.057294 -0.014498 -0.058752 0.029565 0.191144 -0.014405 0.097633 -0.131901 0.063738 -0.074889 -0.093605 0.226587 0.101000 0.003842 -0.066949 -0.160753 0.123143 0.098842 0.107637 -0.103909 0.148925 -0.010655 -0.102328 0.001819 0.078524 -0.084134 0.156242 0.050115 0.128547 -0.184090 -0.162335 -0.040685 -0.039457 -0.051249 -0.027758 0.126515 -0.065722 -0.056646 0.097294 -0.050964 -0.149900 -0.057524 -0.037141 0.040904 -0.052590 -0.042848 -0.014966 -0.097071 0.018520 0.083796 -0.035193 0.038921 0.075873 0.003413 -0.009239 -0.103252 -0.106980 0.017885 -0.223427 -0.074142 0.119741 0.030644 -0.029552 -0.063300 0.010384 0.059989 0.079640 0.112886 -0.113406 -0.166496 0.218691 -0.106034 -0.021029 0.086188 0.004725 -0.201675 0.120557 -0.164285 -0.055287 -0.070070 0.024545 0.208432 0.089457 0.028264 -0.098823 0.028423 0.003283 -0.014520 0.010156 -0.178936 0.022950 -0.007503 0.189008 -0.113233 0.043431 -0.018305 -0.158321 0.109938 -0.248820 -0.159236 0.136983 0.025982 0.093483
