34 128
34 -0.127419 -0.127197 0.098305 0.152986 0.082692 -0.097263 0.129254 -0.084345 -0.109611 0.000333 0.005234 0.094772 0.089543 -0.100855 -0.145187 -0.103312 -0.022269 0.009190 0.001453 0.133818 0.121597 0.062293 0.278664 -0.061852 -0.124414 -0.092462 -0.109820 -0.074953 -0.087545 0.176401 0.017404 0.199949 -0.118413 -0.003486 -0.100243 -0.013367 0.257779 0.089426 -0.106661 -0.021052 -0.295176 0.157238 0.137136 0.033251 -0.058562 0.059841 -0.002185 -0.153066 -0.187895 -0.040580 0.041974 0.268433 0.069210 -0.049468 -0.089814 -0.130947 -0.076314 -0.091387 -0.074503 0.037143 0.103545 -0.071076 -0.158492 0.127922 0.085295 -0.280646 -0.019417 -0.042503 -0.049239 0.042067 0.159207 0.055511 0.015066 0.026730 -0.054903 -0.132560 -0.054461 0.182910 -0.056635 0.314742 0.086670 -0.243442 -0.062245 -0.240093 0.026308 0.340857 -0.186768 0.045968 -0.181554 -0.037085 -0.075740 0.173629 0.085998 -0.019582 0.058317 0.182010 -0.069748 0.082593 0.037112 -0.152705 -0.316781 0.048083 -0.111829 -0.032120 0.010135 0.019511 0.221604 0.138741 0.050169 -0.026291 0.029943 -0.091292 -0.003982 -0.065404 0.040050 0.012558 -0.090165 0.176000 -0.144837 0.083819 -0.058375 -0.155167 -0.043072 -0.122342 -0.018444 0.274387 -0.102697 0.039007
1 -0.124026 -0.276044 0.084789 -0.041937 0.032754 -0.128083 0.016833 0.112462 -0.005796 0.022014 0.017023 0.156106 0.091685 -0.157109 -0.020820 -0.185528 -0.030187 -0.044106 0.104754 -0.048930 0.170672 0.108878 0.198668 0.037324 -0.058202 0.008514 -0.064354 0.075106 0.078542 0.119093 -0.036561 0.111687 -0.234273 0.127549 -0.074905 -0.133856 0.104295 0.010956 0.005925 -0.010747 -0.172703 -0.039922 0.183156 0.212058 -0.152673 0.107508 -0.036177 -0.075846 -0.026754 -0.042630 -0.143937 0.121058 0.015773 0.169855 -0.254676 -0.139311 -0.031456 0.060827 -0.113649 0.082176 0.111817 -0.064139 -0.092785 0.134664 -0.116204 0.001910 0.036346 0.075310 -0.028900 -0.033236 -0.014652 0.100159 0.070200 -0.053731 0.043763 -0.015675 0.117251 0.058948 0.013723 0.011634 -0.048278 -0.166378 -0.115578 -0.120556 -0.169902 0.141975 0.011318 -0.023624 -0.014169 -0.018206 0.084298 0.078816 0.079423 -0.185344 -0.148109 0.069525 -0.027625 -0.199605 0.098319 0.061673 -0.296746 -0.002407 -0.082873 -0.034534 0.013623 -0.001469 0.232836 0.149034 -0.031441 -0.143382 -0.048917 -0.027530 0.077597 0.038496 -0.145448 -0.006235 -0.043291 0.202966 -0.245724 -0.086923 -0.071267 -0.130844 0.088519 -0.127177 -0.148647 0.021304 -0.003855 0.160997
33 -0.127458 -0.130053 0.092165 0.163945 0.077567 -0.100043 0.132355 -0.076398 -0.090954 -0.000550 0.011095 0.103307 0.088143 -0.100585 -0.135146 -0.097144 -0.030119 0.001818 -0.016087 0.132308 0.124325 0.053681 0.283988 -0.068096 -0.116224 -0.096071 -0.121456 -0.080740 -0.090826 0.170084 0.016230 0.209189 -0.109863 -0.013652 -0.106203 -0.019461 0.257929 0.091462 -0.120199 -0.021891 -0.308577 0.161642 0.143248 0.028963 -0.064243 0.060629 0.004912 -0.154143 -0.194501 -0.037147 0.036628 0.284388 0.071594 -0.062137 -0.084080 -0.130443 -0.086169 -0.094326 -0.060616 0.034370 0.118844 -0.083938 -0.155526 0.131484 0.092470 -0.286126 -0.017696 -0.035495 -0.051375 0.037036 0.168535 0.053853 0.017205 0.023386 -0.051347 -0.129228 -0.051547 0.182079 -0.061435 0.313640 0.101710 -0.244213 -0.062106 -0.242231 0.020728 0.340815 -0.187446 0.046323 -0.179436 -0.033534 -0.071481 0.179315 0.091570 -0.009488 0.064255 0.188485 -0.060546 0.071580 0.043798 -0.153151 -0.319637 0.045437 -0.121898 -0.028098 0.011139 0.011426 0.214998 0.137568 0.058388 -0.026247 0.031523 -0.081392 -0.009719 -0.077383 0.051135 0.018956 -0.093077 0.166917 -0.144933 0.080347 -0.050857 -0.139256 -0.037672 -0.116162 -0.021888 0.263409 -0.104361 0.038915
2 -0.120607 -0.259335 0.095672 -0.049960 0.046695 -0.120513 0.017593 0.093744 -0.054120 0.023075 0.012272 0.140841 0.096676 -0.165514 -0.041126 -0.200564 -0.035898 -0.012281 0.110403 -0.037705 0.166668 0.136428 0.202546 0.033995 -0.097078 0.028743 -0.055128 0.085448 0.088299 0.128369 -0.050121 0.106972 -0.248594 0.155273 -0.072973 -0.124663 0.118922 -0.002592 0.019025 -0.005187 -0.163347 -0.028638 0.170637 0.206992 -0.129652 0.104591 -0.064291 -0.088334 -0.051912 -0.071427 -0.119363 0.100849 0.029391 0.178791 -0.262897 -0.127940 -0.028129 0.051303 -0.138446 0.094045 0.091012 -0.054701 -0.114137 0.119512 -0.089525 -0.020231 0.040772 0.057893 -0.040525 -0.016055 -0.001374 0.099022 0.092744 -0.058141 0.017721 -0.027421 0.118206 0.061715 0.012641 0.055173 -0.040077 -0.209374 -0.136724 -0.153430 -0.149178 0.192198 -0.013048 -0.017987 -0.026435 -0.026353 0.082160 0.092154 0.061669 -0.216528 -0.147532 0.078151 -0.063492 -0.171916 0.084025 0.039149 -0.316114 -0.013955 -0.067326 -0.039004 0.027564 0.002226 0.255743 0.166187 -0.050011 -0.152470 -0.048673 -0.052118 0.080958 0.032906 -0.147457 -0.013724 -0.052951 0.210454 -0.244370 -0.071454 -0.083174 -0.162824 0.063394 -0.135438 -0.102531 0.060905 -0.002804 0.148083
3 -0.128942 -0.271178 0.103167 -0.056564 0.049474 -0.121190 0.013573 0.110467 -0.047176 0.022914 0.017591 0.146228 0.087319 -0.175923 -0.036395 -0.206713 -0.029404 -0.020619 0.116045 -0.053570 0.164635 0.140969 0.201038 0.039541 -0.084827 0.033046 -0.052670 0.097299 0.101528 0.131795 -0.057600 0.102343 -0.260171 0.165530 -0.067650 -0.137725 0.114722 -0.002332 0.024817 0.002967 -0.161910 -0.049534 0.185032 0.231415 -0.136016 0.105606 -0.055921 -0.095938 -0.051577 -0.063893 -0.125504 0.092791 0.018223 0.191313 -0.272845 -0.130912 -0.035582 0.062609 -0.137763 0.097622 0.092434 -0.057292 -0.114755 0.128305 -0.094642 -0.009324 0.050370 0.067109 -0.033787 -0.026276 -0.002679 0.105214 0.090333 -0.056946 0.031947 -0.023594 0.137769 0.058967 0.015950 0.040157 -0.046950 -0.200355 -0.142784 -0.147444 -0.162947 0.183302 -0.000377 -0.020555 -0.024630 -0.021162 0.088861 0.086222 0.059319 -0.215924 -0.161695 0.077941 -0.063601 -0.185175 0.095556 0.050401 -0.320493 -0.015074 -0.070906 -0.037260 0.024223 0.005864 0.247264 0.164547 -0.052747 -0.164275 -0.043151 -0.048221 0.083210 0.039418 -0.148699 -0.010988 -0.054585 0.213746 -0.248026 -0.076197 -0.086551 -0.165759 0.063531 -0.130496 -0.112146 0.052446 0.003304 0.151802
4 -0.130782 -0.304619 0.097890 -0.074516 0.041029 -0.139154 -0.001544 0.144004 -0.021533 0.026211 0.023016 0.171418 0.104077 -0.186645 -0.015903 -0.221945 -0.039251 -0.036760 0.132740 -0.071568 0.187964 0.141045 0.201289 0.047715 -0.074447 0.042407 -0.058307 0.110213 0.121157 0.124629 -0.060087 0.102162 -0.279417 0.175308 -0.071764 -0.157420 0.105357 -0.007015 0.032191 -0.001096 -0.159672 -0.069806 0.200851 0.259397 -0.159840 0.117154 -0.062361 -0.084726 -0.026296 -0.068393 -0.163643 0.088876 0.017848 0.221387 -0.302253 -0.140566 -0.025886 0.080785 -0.139199 0.096331 0.115446 -0.065149 -0.102388 0.137415 -0.131000 0.032558 0.046487 0.089043 -0.030612 -0.035946 -0.031809 0.118136 0.097302 -0.076336 0.051547 -0.004940 0.158355 0.052415 0.020951 0.002317 -0.063601 -0.197567 -0.146029 -0.131540 -0.196835 0.155122 0.032027 -0.033392 0.003374 -0.016340 0.111798 0.076583 0.066873 -0.244710 -0.190357 0.066395 -0.049047 -0.239763 0.104724 0.082115 -0.329878 -0.017311 -0.071143 -0.033909 0.017103 -0.000767 0.257008 0.172220 -0.059375 -0.180698 -0.056420 -0.035493 0.094949 0.054733 -0.182347 -0.010490 -0.048460 0.224192 -0.275217 -0.104833 -0.082843 -0.156892 0.096044 -0.142260 -0.151913 0.008078 0.018575 0.184242
32 -0.132807 -0.152810 0.065014 0.089442 0.071074 -0.121588 0.097778 -0.079611 -0.098235 -0.000185 0.009840 0.094365 0.092150 -0.098601 -0.114751 -0.108877 -0.017008 -0.010630 0.019713 0.108694 0.146846 0.086999 0.241370 -0.029972 -0.132264 -0.088687 -0.102796 -0.038233 -0.050179 0.163537 0.018020 0.176895 -0.115983 0.021275 -0.117988 -0.034693 0.219331 0.094478 -0.086257 -0.038191 -0.259799 0.111278 0.101938 0.030412 -0.091388 0.091702 -0.018343 -0.111486 -0.150940 -0.054170 -0.011555 0.247814 0.047972 -0.005797 -0.150634 -0.142349 -0.033740 -0.067771 -0.103799 0.055387 0.105778 -0.062807 -0.152312 0.147216 -0.003961 -0.221131 -0.015235 -0.018690 -0.041165 0.034396 0.096829 0.070502 0.022407 0.012597 -0.038963 -0.109117 -0.040959 0.161232 -0.028294 0.228350 0.036894 -0.217821 -0.054864 -0.224067 -0.000646 0.302317 -0.144285 0.017413 -0.144540 -0.067310 -0.042905 0.155691 0.113988 -0.068468 0.032326 0.143602 -0.069405 0.029846 0.045819 -0.117126 -0.312096 0.029462 -0.124249 -0.021145 0.037188 0.037656 0.236429 0.132217 0.046763 -0.037093 -0.008788 -0.093653 0.033212 -0.023565 -0.006837 0.011701 -0.062334 0.170963 -0.121122 0.015535 -0.064159 -0.168015 -0.038154 -0.132123 -0.030372 0.230120 -0.134933 0.054308
24 -0.135253 -0.078243 0.099721 0.214182 0.099455 -0.095173 0.163546 -0.161076 -0.146308 -0.005907 0.008554 0.075230 0.094729 -0.086088 -0.190760 -0.080977 -0.023067 0.021131 -0.034507 0.197868 0.115096 0.058538 0.308391 -0.085817 -0.156092 -0.127727 -0.134285 -0.122809 -0.145153 0.201567 0.028526 0.240175 -0.084142 -0.049747 -0.121101 0.019160 0.318170 0.121236 -0.148616 -0.037872 -0.351572 0.227775 0.118235 -0.030313 -0.035727 0.057310 -0.000703 -0.173693 -0.254126 -0.049991 0.101585 0.338765 0.080887 -0.119060 -0.046607 -0.133538 -0.084734 -0.147918 -0.076990 0.028121 0.109857 -0.082076 -0.189433 0.137856 0.138352 -0.389873 -0.038761 -0.072360 -0.066347 0.071006 0.223220 0.047991 0.003063 0.050294 -0.091548 -0.183443 -0.113711 0.228802 -0.079720 0.428682 0.137895 -0.282472 -0.047600 -0.297322 0.086812 0.425034 -0.266437 0.070185 -0.242714 -0.056446 -0.131790 0.217966 0.104160 0.025005 0.132778 0.226899 -0.085959 0.174797 0.021786 -0.233782 -0.352152 0.067091 -0.128796 -0.028432 0.021724 0.038384 0.233642 0.144905 0.084211 0.011516 0.051533 -0.126554 -0.028001 -0.099385 0.098598 0.019884 -0.109001 0.168259 -0.102125 0.133833 -0.057601 -0.174160 -0.101270 -0.129618 0.035191 0.369632 -0.156013 0.000866
14 -0.119602 -0.258770 0.093177 -0.020236 0.036033 -0.116548 0.027703 0.096464 -0.022098 0.024403 0.014717 0.153660 0.089093 -0.155480 -0.033700 -0.176720 -0.032316 -0.035374 0.092640 -0.034518 0.162395 0.106291 0.207252 0.026284 -0.063652 0.008559 -0.067503 0.063323 0.061576 0.129446 -0.032690 0.119621 -0.229802 0.119821 -0.070282 -0.123463 0.123617 0.014068 -0.006826 -0.007483 -0.188243 -0.018577 0.184515 0.204016 -0.138865 0.101342 -0.031213 -0.087343 -0.048963 -0.043034 -0.122030 0.128801 0.022274 0.148686 -0.231036 -0.134789 -0.045777 0.047191 -0.107849 0.074357 0.109465 -0.066539 -0.094189 0.127215 -0.086808 -0.027005 0.034264 0.063238 -0.033728 -0.029138 0.004923 0.102914 0.062412 -0.044540 0.038219 -0.022878 0.106888 0.071637 0.002593 0.050345 -0.029212 -0.179358 -0.114928 -0.128239 -0.155077 0.172724 -0.010898 -0.014295 -0.031096 -0.016303 0.069631 0.089269 0.073230 -0.172476 -0.132772 0.089996 -0.034833 -0.168537 0.092773 0.038619 -0.307216 -0.000059 -0.086119 -0.032988 0.006839 -0.001224 0.233335 0.154950 -0.029665 -0.137673 -0.037781 -0.033858 0.063860 0.023277 -0.122022 -0.004946 -0.058408 0.199541 -0.242962 -0.059903 -0.071129 -0.136359 0.078837 -0.129690 -0.131762 0.047048 -0.003943 0.151339
30 -0.122378 -0.103618 0.088824 0.159085 0.083866 -0.088169 0.132286 -0.113226 -0.129175 -0.000775 0.002033 0.077528 0.081478 -0.090353 -0.157724 -0.095370 -0.019423 0.016113 -0.013389 0.151219 0.112811 0.066198 0.271243 -0.068737 -0.139044 -0.097577 -0.108055 -0.077520 -0.099568 0.176645 0.015030 0.195616 -0.098341 -0.011681 -0.106163 -0.000483 0.263869 0.098552 -0.108814 -0.029915 -0.294379 0.170239 0.118884 0.010541 -0.044900 0.057893 -0.009571 -0.155960 -0.210652 -0.047454 0.062340 0.276408 0.071624 -0.072216 -0.074727 -0.122166 -0.077027 -0.104164 -0.079552 0.038956 0.096088 -0.075298 -0.162674 0.125429 0.103604 -0.308125 -0.025839 -0.052409 -0.054868 0.047413 0.174388 0.052236 0.017921 0.029286 -0.070191 -0.148816 -0.066052 0.191173 -0.061362 0.346276 0.093325 -0.258435 -0.063188 -0.257920 0.048680 0.369825 -0.209807 0.051900 -0.196684 -0.047661 -0.086366 0.178098 0.085403 -0.011008 0.085552 0.188041 -0.087153 0.116947 0.032262 -0.182212 -0.318292 0.048861 -0.112246 -0.033927 0.022534 0.031047 0.225253 0.139341 0.050074 -0.017775 0.030162 -0.111125 -0.014171 -0.075598 0.063931 0.010662 -0.097629 0.161336 -0.117410 0.096259 -0.062409 -0.160109 -0.072499 -0.118518 0.016984 0.300336 -0.117008 0.019050
8 -0.127707 -0.321429 0.101227 -0.091541 0.030084 -0.133021 -0.005946 0.160497 -0.012201 0.032311 0.019304 0.172841 0.095592 -0.188548 -0.001547 -0.228212 -0.036546 -0.038292 0.145870 -0.088921 0.184933 0.144047 0.194165 0.054706 -0.065991 0.054519 -0.051749 0.124004 0.129306 0.123378 -0.063568 0.095169 -0.289278 0.187839 -0.065664 -0.167343 0.090811 -0.017726 0.044508 0.006506 -0.148002 -0.086217 0.200693 0.276582 -0.165241 0.123619 -0.062951 -0.076655 -0.011383 -0.061386 -0.181598 0.072046 0.015937 0.239973 -0.312618 -0.142278 -0.030408 0.092782 -0.141713 0.098626 0.104738 -0.061688 -0.093755 0.135744 -0.145728 0.051675 0.061147 0.096624 -0.029475 -0.046228 -0.048733 0.119403 0.096328 -0.078795 0.056716 0.006011 0.167497 0.037183 0.026521 -0.027766 -0.071287 -0.189889 -0.155088 -0.116678 -0.220833 0.140546 0.049599 -0.034922 0.014114 -0.016790 0.128821 0.066613 0.065620 -0.256291 -0.211471 0.052068 -0.042264 -0.267014 0.107255 0.099927 -0.323915 -0.026391 -0.076320 -0.040376 0.021203 -0.010526 0.262303 0.168211 -0.066850 -0.194171 -0.067753 -0.024805 0.105149 0.060447 -0.203593 -0.010664 -0.047541 0.230401 -0.293464 -0.116923 -0.088382 -0.157743 0.117876 -0.138094 -0.164132 -0.017380 0.031131 0.192828
7 -0.151817 -0.427338 0.095817 -0.062315 -0.002587 -0.174063 0.015560 0.228910 0.079246 0.031445 0.035560 0.258374 0.121346 -0.218687 0.029329 -0.248367 -0.048754 -0.113916 0.144073 -0.113631 0.243326 0.102353 0.268236 0.067992 -0.002382 0.004944 -0.111148 0.094422 0.121047 0.147537 -0.028493 0.143042 -0.327440 0.148727 -0.097868 -0.210711 0.111070 0.009631 -0.004467 -0.014596 -0.232667 -0.095110 0.282360 0.338320 -0.251730 0.164100 -0.005091 -0.081139 0.027382 -0.025435 -0.263556 0.157947 0.002238 0.249868 -0.347982 -0.201525 -0.047684 0.110987 -0.108929 0.103980 0.183314 -0.086917 -0.066140 0.203430 -0.215616 0.083230 0.049064 0.155415 -0.023122 -0.091208 -0.069784 0.161268 0.058630 -0.083880 0.124427 0.031832 0.183910 0.063484 0.021490 -0.085422 -0.089523 -0.150263 -0.145459 -0.080772 -0.297944 0.094986 0.086445 -0.047128 0.019795 0.000029 0.155361 0.074622 0.132534 -0.240233 -0.246810 0.078275 0.033790 -0.368844 0.153400 0.156340 -0.380567 0.000739 -0.147913 -0.043719 -0.013847 -0.031808 0.285827 0.190963 -0.024001 -0.208396 -0.066996 0.032637 0.110639 0.055539 -0.234882 -0.000742 -0.049676 0.272138 -0.378169 -0.153108 -0.081540 -0.125006 0.207401 -0.167831 -0.302598 -0.068599 0.038999 0.268869
6 -0.154119 -0.433413 0.097926 -0.060850 -0.001387 -0.176085 0.013867 0.236457 0.082839 0.033459 0.040400 0.261952 0.119295 -0.216217 0.033039 -0.247186 -0.051153 -0.121119 0.148744 -0.120270 0.241878 0.099295 0.263762 0.064069 0.002948 0.005394 -0.107096 0.093742 0.127088 0.148827 -0.028823 0.134377 -0.322746 0.151363 -0.093197 -0.213703 0.108383 0.017012 -0.005178 -0.015718 -0.226655 -0.099896 0.287047 0.337799 -0.261634 0.163554 -0.001861 -0.080486 0.035057 -0.021473 -0.267112 0.154855 -0.004567 0.249057 -0.342745 -0.206718 -0.047520 0.117285 -0.106424 0.096018 0.188213 -0.085524 -0.061016 0.203993 -0.222567 0.090042 0.044948 0.156590 -0.022755 -0.094666 -0.072091 0.161034 0.057741 -0.084579 0.131585 0.035943 0.190800 0.062447 0.021248 -0.093742 -0.099410 -0.141174 -0.139889 -0.074547 -0.300715 0.082390 0.100705 -0.050685 0.027402 0.000118 0.159050 0.072962 0.133190 -0.237743 -0.250574 0.073165 0.038284 -0.377309 0.162042 0.161726 -0.371571 -0.001036 -0.144362 -0.042051 -0.017821 -0.026368 0.285587 0.192274 -0.026008 -0.211851 -0.067140 0.034798 0.112756 0.063831 -0.235048 0.003357 -0.046064 0.273689 -0.378305 -0.163452 -0.078078 -0.129205 0.214896 -0.173180 -0.314424 -0.075906 0.041320 0.269295
9 -0.121695 -0.194085 0.082888 0.056369 0.050719 -0.105030 0.072946 0.018603 -0.046200 0.009078 0.014974 0.129566 0.085370 -0.128546 -0.078611 -0.137601 -0.031510 -0.017026 0.042860 0.040093 0.135645 0.082539 0.235948 -0.017132 -0.085057 -0.037701 -0.089791 -0.008044 -0.006057 0.142810 -0.007960 0.154962 -0.170780 0.053674 -0.080625 -0.074181 0.181847 0.048158 -0.057839 -0.011810 -0.235585 0.052266 0.160248 0.125046 -0.105111 0.079517 -0.012095 -0.115456 -0.108810 -0.045209 -0.053554 0.191485 0.039257 0.052767 -0.158751 -0.131701 -0.058961 -0.018686 -0.087320 0.054845 0.109240 -0.067269 -0.120878 0.130645 -0.008903 -0.137232 0.011083 0.019546 -0.040742 0.000357 0.075628 0.081156 0.043283 -0.015390 0.003131 -0.070741 0.029915 0.122563 -0.028153 0.162501 0.026349 -0.197845 -0.091139 -0.176452 -0.073771 0.234089 -0.085066 0.011543 -0.097820 -0.023649 0.009454 0.122408 0.085400 -0.089971 -0.044132 0.120906 -0.039705 -0.059937 0.065690 -0.039564 -0.302654 0.015958 -0.104438 -0.029568 0.009657 0.004881 0.213021 0.143758 0.007580 -0.086587 -0.002586 -0.051148 0.035967 -0.019788 -0.046572 0.003947 -0.069592 0.182504 -0.188102 0.004514 -0.061919 -0.133555 0.024244 -0.115957 -0.085348 0.139790 -0.046313 0.099747
26 -0.148280 -0.106586 0.067426 0.146526 0.100401 -0.139124 0.136077 -0.183750 -0.153955 -0.013576 0.007522 0.066102 0.108154 -0.084589 -0.173029 -0.088007 -0.009825 0.004280 -0.004905 0.193442 0.161848 0.088797 0.289301 -0.050805 -0.183165 -0.142609 -0.126246 -0.096391 -0.116374 0.207483 0.046546 0.222919 -0.077528 -0.028105 -0.153839 0.002441 0.285520 0.137850 -0.132293 -0.059124 -0.317556 0.182313 0.065485 -0.053741 -0.069378 0.106286 -0.025790 -0.135717 -0.218743 -0.058722 0.047897 0.331309 0.063572 -0.087670 -0.122072 -0.154572 -0.024202 -0.129325 -0.122880 0.054256 0.112562 -0.070976 -0.193065 0.167659 0.040542 -0.340130 -0.037101 -0.073459 -0.051530 0.079294 0.157802 0.056743 0.001121 0.047973 -0.076559 -0.172216 -0.124447 0.220004 -0.045658 0.341951 0.068660 -0.255967 -0.031830 -0.295480 0.080443 0.397719 -0.236312 0.031412 -0.217696 -0.100886 -0.107619 0.199426 0.145049 -0.017139 0.120833 0.186203 -0.102495 0.143931 0.037043 -0.206289 -0.351355 0.052203 -0.145774 -0.007770 0.054790 0.063912 0.262550 0.142060 0.094592 0.011373 -0.000518 -0.141081 0.017159 -0.047820 0.048934 0.015226 -0.068261 0.160367 -0.065584 0.054610 -0.065111 -0.199230 -0.110557 -0.153874 0.024921 0.352646 -0.213455 -0.002504
11 -0.156855 -0.414948 0.105275 -0.088525 0.017559 -0.173069 -0.003502 0.223719 0.046923 0.031463 0.031849 0.240123 0.116159 -0.217530 0.023811 -0.262845 -0.050145 -0.086686 0.158481 -0.121428 0.237389 0.133113 0.249484 0.071223 -0.034283 0.032098 -0.087497 0.122427 0.140566 0.138722 -0.048470 0.122979 -0.332966 0.182550 -0.082174 -0.205951 0.105954 -0.001556 0.024178 0.000448 -0.195018 -0.103524 0.267137 0.336432 -0.235910 0.157562 -0.032040 -0.076297 0.015941 -0.045953 -0.245917 0.120581 0.005909 0.269007 -0.359420 -0.190944 -0.037496 0.122471 -0.140598 0.109925 0.157662 -0.083636 -0.077958 0.188327 -0.210067 0.089511 0.055249 0.139087 -0.022150 -0.079763 -0.071090 0.153485 0.083126 -0.094891 0.109274 0.028731 0.198755 0.043954 0.025803 -0.077733 -0.094950 -0.173145 -0.163219 -0.103940 -0.296010 0.115071 0.089631 -0.046993 0.030674 -0.006312 0.158869 0.069324 0.110629 -0.270159 -0.255067 0.061873 0.001781 -0.357514 0.147106 0.156154 -0.377670 -0.010559 -0.120453 -0.043433 0.000501 -0.021401 0.300292 0.191027 -0.052306 -0.225127 -0.077068 0.010249 0.116437 0.066956 -0.243778 -0.010088 -0.052848 0.278674 -0.367747 -0.159861 -0.090276 -0.157252 0.187722 -0.173970 -0.264931 -0.061753 0.034195 0.259740
5 -0.148070 -0.389831 0.097498 -0.082472 0.021877 -0.164279 0.004016 0.195150 0.036658 0.028500 0.033965 0.223985 0.109820 -0.205860 0.015038 -0.249052 -0.047901 -0.081843 0.149545 -0.104335 0.225122 0.133991 0.232193 0.070793 -0.036982 0.028526 -0.080889 0.109113 0.130736 0.135712 -0.051618 0.116445 -0.317749 0.177004 -0.078838 -0.198084 0.102244 0.000511 0.020124 -0.004537 -0.185040 -0.096242 0.243079 0.311571 -0.219773 0.148189 -0.036388 -0.076545 0.009845 -0.050721 -0.227638 0.120523 0.009591 0.244723 -0.334699 -0.179576 -0.032135 0.107282 -0.131144 0.100651 0.146189 -0.079065 -0.076826 0.179866 -0.195604 0.073955 0.059130 0.128335 -0.023786 -0.069394 -0.062591 0.145863 0.078238 -0.089060 0.094806 0.016217 0.179769 0.044802 0.022768 -0.063452 -0.090748 -0.170453 -0.153077 -0.104606 -0.269380 0.113041 0.074128 -0.037978 0.024216 -0.009278 0.149147 0.070381 0.103035 -0.255387 -0.236219 0.064964 -0.009119 -0.326825 0.143016 0.138831 -0.368333 -0.011192 -0.112913 -0.043322 0.000713 -0.015624 0.285826 0.185509 -0.051011 -0.208872 -0.074271 0.000251 0.112891 0.061978 -0.227941 -0.004010 -0.043239 0.258970 -0.335677 -0.142823 -0.086004 -0.148322 0.165499 -0.165848 -0.241931 -0.041940 0.026584 0.242174
28 -0.136206 -0.118117 0.091823 0.148456 0.084631 -0.100426 0.128646 -0.116238 -0.124797 -0.003452 0.011881 0.088290 0.091266 -0.091572 -0.154738 -0.097227 -0.021930 0.004969 -0.000438 0.150259 0.126375 0.072006 0.275058 -0.057170 -0.144474 -0.100835 -0.119863 -0.076365 -0.090820 0.182662 0.019829 0.210669 -0.103222 -0.005843 -0.115245 -0.015296 0.267040 0.104420 -0.111906 -0.033539 -0.305680 0.160133 0.118427 0.011390 -0.064232 0.071255 -0.015707 -0.148844 -0.206001 -0.052085 0.039322 0.289149 0.068962 -0.065215 -0.093331 -0.136556 -0.066708 -0.109752 -0.094396 0.043240 0.107043 -0.075127 -0.166017 0.140206 0.075523 -0.301793 -0.025425 -0.043328 -0.058583 0.046653 0.160951 0.060507 0.011734 0.026564 -0.063205 -0.144717 -0.071663 0.195973 -0.059206 0.330954 0.086740 -0.256865 -0.054923 -0.258535 0.038301 0.366059 -0.204136 0.044245 -0.192641 -0.056232 -0.082503 0.184464 0.100965 -0.025020 0.079673 0.183234 -0.081021 0.102236 0.038224 -0.173746 -0.338228 0.051136 -0.127297 -0.026664 0.029649 0.038247 0.237626 0.146739 0.064008 -0.022340 0.025023 -0.107434 -0.003898 -0.065303 0.047192 0.012127 -0.091298 0.166615 -0.119419 0.074711 -0.059768 -0.168155 -0.067637 -0.125925 -0.003200 0.293259 -0.134334 0.027758
25 -0.156506 -0.090466 0.068944 0.163089 0.105107 -0.135181 0.143035 -0.212097 -0.167977 -0.014494 0.004858 0.055620 0.104429 -0.074257 -0.190786 -0.088353 -0.007635 0.014695 -0.009134 0.217012 0.155828 0.089569 0.297250 -0.059966 -0.196317 -0.152808 -0.123322 -0.107389 -0.135548 0.214928 0.049699 0.231535 -0.069699 -0.036680 -0.156493 0.021035 0.298652 0.149621 -0.141479 -0.058584 -0.332005 0.210604 0.058357 -0.077369 -0.051008 0.101417 -0.022580 -0.143145 -0.238513 -0.064836 0.067164 0.345802 0.074557 -0.104367 -0.112338 -0.154584 -0.026623 -0.151235 -0.123502 0.055080 0.102465 -0.066351 -0.205833 0.160460 0.062505 -0.379473 -0.042720 -0.086162 -0.060083 0.091088 0.179988 0.047325 0.005466 0.060280 -0.096509 -0.192034 -0.142520 0.235411 -0.049177 0.383260 0.087819 -0.278170 -0.032829 -0.323219 0.101901 0.427786 -0.260192 0.035258 -0.242615 -0.110360 -0.130963 0.211581 0.142923 -0.010550 0.138538 0.201264 -0.115167 0.178630 0.027712 -0.231552 -0.364552 0.056857 -0.148750 -0.010183 0.059626 0.064799 0.265898 0.143678 0.099136 0.016712 0.007565 -0.152921 0.010828 -0.063236 0.063709 0.015911 -0.073578 0.162485 -0.057937 0.077455 -0.065647 -0.203018 -0.132174 -0.154494 0.046530 0.391179 -0.229175 -0.017887
29 -0.124213 -0.121967 0.083135 0.112275 0.081746 -0.101927 0.107283 -0.091584 -0.116857 0.002832 0.006755 0.085213 0.084916 -0.099568 -0.133853 -0.109277 -0.024572 0.007989 0.012654 0.119302 0.126289 0.079758 0.245019 -0.045568 -0.138248 -0.078418 -0.095565 -0.051090 -0.062516 0.166483 0.009220 0.179529 -0.115812 0.016739 -0.104656 -0.019839 0.236062 0.082926 -0.084389 -0.032356 -0.262754 0.136775 0.108077 0.025591 -0.056938 0.073181 -0.024523 -0.134786 -0.179001 -0.052844 0.026452 0.243126 0.058284 -0.025664 -0.117051 -0.119149 -0.051372 -0.078289 -0.093299 0.049053 0.095151 -0.069744 -0.161132 0.123003 0.053687 -0.256579 -0.017339 -0.037925 -0.048022 0.047922 0.132424 0.055405 0.025320 0.020443 -0.055874 -0.122678 -0.039769 0.165221 -0.041044 0.282958 0.063897 -0.237229 -0.062692 -0.241743 0.023055 0.329016 -0.171642 0.031035 -0.162174 -0.054550 -0.060352 0.159785 0.085416 -0.046831 0.050777 0.165134 -0.085394 0.073354 0.036817 -0.145013 -0.313843 0.038516 -0.104065 -0.026436 0.029640 0.031215 0.221029 0.134118 0.040403 -0.031411 0.013968 -0.101142 0.005447 -0.049199 0.019118 0.005330 -0.079418 0.158050 -0.117753 0.058532 -0.062494 -0.159427 -0.059052 -0.121443 0.004936 0.256863 -0.112489 0.030159
31 -0.116581 -0.153733 0.085337 0.091821 0.061087 -0.103991 0.090468 -0.039510 -0.081795 0.006712 0.012840 0.106990 0.088911 -0.111996 -0.104463 -0.119718 -0.027819 -0.005563 0.025990 0.081662 0.131108 0.072498 0.236019 -0.026637 -0.103180 -0.060833 -0.092392 -0.027126 -0.039332 0.152575 -0.000606 0.170109 -0.140979 0.032223 -0.092379 -0.043144 0.202994 0.066521 -0.070648 -0.026977 -0.249518 0.098917 0.133428 0.069826 -0.082620 0.075062 -0.016788 -0.124409 -0.140998 -0.041610 -0.014794 0.222989 0.050307 0.005889 -0.130412 -0.128122 -0.055632 -0.053507 -0.088783 0.045691 0.105808 -0.067843 -0.137532 0.122899 0.021011 -0.197460 -0.008368 -0.009375 -0.046880 0.020691 0.104195 0.064293 0.031002 0.003337 -0.024930 -0.097241 -0.005684 0.141888 -0.030804 0.221971 0.048209 -0.215566 -0.074191 -0.203173 -0.023506 0.277655 -0.132274 0.020438 -0.130042 -0.040478 -0.032463 0.145842 0.089926 -0.066145 0.001087 0.143823 -0.060577 0.005440 0.051210 -0.090366 -0.304850 0.029196 -0.103905 -0.031531 0.015986 0.018384 0.217209 0.138313 0.031096 -0.053911 0.001698 -0.078383 0.016791 -0.037650 -0.007056 0.010851 -0.075618 0.170631 -0.155126 0.033123 -0.061131 -0.143287 -0.017022 -0.121125 -0.043754 0.198946 -0.084295 0.064083
20 -0.120292 -0.221662 0.089532 0.006696 0.047263 -0.117049 0.046265 0.048472 -0.054396 0.014709 0.012583 0.125077 0.092551 -0.139613 -0.059612 -0.161588 -0.033172 -0.017276 0.077561 0.001232 0.151683 0.103214 0.210878 0.009744 -0.086644 -0.003241 -0.065271 0.036374 0.039010 0.128946 -0.032196 0.125799 -0.197844 0.098176 -0.073255 -0.094153 0.149289 0.024299 -0.021054 -0.015322 -0.194949 0.010706 0.151673 0.155336 -0.109767 0.091920 -0.036168 -0.095723 -0.078190 -0.056580 -0.086004 0.146648 0.033414 0.102575 -0.202837 -0.124634 -0.038940 0.010610 -0.111210 0.071221 0.103386 -0.059819 -0.110769 0.126568 -0.052782 -0.081147 0.023392 0.039595 -0.037633 0.000371 0.032906 0.089455 0.055917 -0.032851 0.007504 -0.047424 0.069032 0.090277 -0.004208 0.109998 -0.006990 -0.197602 -0.103384 -0.162768 -0.102205 0.208518 -0.051674 -0.000934 -0.062927 -0.024217 0.041832 0.103781 0.071334 -0.148714 -0.083331 0.098090 -0.049738 -0.107085 0.072217 -0.004678 -0.303410 0.003101 -0.085744 -0.025867 0.018249 0.012528 0.225613 0.146729 -0.011171 -0.108429 -0.027977 -0.051795 0.054783 0.012526 -0.093403 -0.004120 -0.053718 0.185319 -0.200769 -0.031857 -0.068382 -0.140027 0.038222 -0.123791 -0.086826 0.100424 -0.034095 0.116631
27 -0.127817 -0.065770 0.088153 0.196693 0.099955 -0.088104 0.158691 -0.168812 -0.157701 -0.007976 -0.000066 0.058241 0.085377 -0.070247 -0.188316 -0.074635 -0.015536 0.025721 -0.035776 0.195841 0.111595 0.062291 0.292646 -0.083234 -0.163462 -0.130518 -0.128068 -0.112539 -0.144652 0.193774 0.032455 0.225124 -0.070459 -0.049951 -0.117230 0.024961 0.301556 0.120327 -0.142838 -0.037395 -0.335677 0.222116 0.098090 -0.047028 -0.022654 0.056266 -0.000003 -0.168871 -0.252771 -0.046843 0.107485 0.324258 0.080983 -0.119257 -0.047567 -0.131047 -0.079094 -0.147333 -0.075017 0.031189 0.094992 -0.071089 -0.191149 0.125964 0.142718 -0.383084 -0.040372 -0.079737 -0.064491 0.072346 0.212556 0.040511 0.008310 0.047737 -0.100317 -0.186453 -0.113739 0.219905 -0.077857 0.418520 0.129014 -0.280436 -0.044634 -0.294158 0.096321 0.423362 -0.258345 0.062105 -0.244330 -0.062324 -0.136327 0.207094 0.097484 0.026764 0.132892 0.214770 -0.095550 0.181823 0.018801 -0.238566 -0.336195 0.059549 -0.119909 -0.030953 0.031362 0.039712 0.228960 0.132759 0.078071 0.017489 0.046311 -0.128156 -0.027788 -0.098051 0.105008 0.017842 -0.101965 0.159491 -0.088009 0.127938 -0.059468 -0.167606 -0.110964 -0.127894 0.045824 0.372744 -0.159964 -0.014067
21 -0.133857 -0.135148 0.089748 0.130820 0.073351 -0.106852 0.120769 -0.085323 -0.103337 0.004601 0.007776 0.099226 0.092199 -0.107502 -0.135670 -0.109281 -0.025589 -0.000236 0.005904 0.125587 0.135451 0.070527 0.271289 -0.049435 -0.126880 -0.091817 -0.110530 -0.062728 -0.076301 0.173783 0.017306 0.197319 -0.122047 0.004251 -0.112716 -0.026830 0.249175 0.095243 -0.100192 -0.027409 -0.296642 0.148363 0.128931 0.033888 -0.074305 0.075004 -0.007141 -0.142569 -0.180640 -0.046181 0.025923 0.272341 0.066795 -0.038518 -0.113107 -0.135703 -0.067860 -0.089096 -0.088254 0.047823 0.108288 -0.074346 -0.157226 0.139427 0.064324 -0.269268 -0.016740 -0.034731 -0.053437 0.032984 0.148876 0.057448 0.022698 0.020896 -0.046766 -0.129496 -0.048021 0.175482 -0.049174 0.296003 0.074563 -0.243147 -0.067164 -0.247305 0.010400 0.335947 -0.179561 0.035874 -0.169900 -0.049962 -0.060020 0.175224 0.095806 -0.033268 0.047847 0.174276 -0.072330 0.063067 0.044581 -0.143306 -0.328095 0.040143 -0.121905 -0.027031 0.024203 0.025043 0.231203 0.139683 0.049333 -0.037026 0.020586 -0.088976 0.004573 -0.055706 0.024103 0.017538 -0.088792 0.177036 -0.141268 0.066316 -0.061682 -0.159828 -0.041972 -0.132601 -0.020279 0.264530 -0.109425 0.042866
16 -0.126224 -0.136110 0.087806 0.120274 0.072359 -0.102506 0.113700 -0.070863 -0.097409 0.002035 0.004082 0.097980 0.084490 -0.100402 -0.122863 -0.113192 -0.029131 -0.002189 0.003324 0.109408 0.127577 0.073519 0.262034 -0.047989 -0.118981 -0.078951 -0.101248 -0.053374 -0.067487 0.160053 0.005807 0.187811 -0.124637 0.007281 -0.099924 -0.025198 0.237003 0.079363 -0.094650 -0.027062 -0.278450 0.134593 0.131236 0.043382 -0.065659 0.068552 -0.007176 -0.135071 -0.175528 -0.041064 0.020887 0.250333 0.062285 -0.024081 -0.111911 -0.129509 -0.066255 -0.075416 -0.082932 0.041639 0.106056 -0.075963 -0.152042 0.124969 0.058287 -0.249024 -0.010155 -0.024610 -0.050221 0.030328 0.140087 0.054275 0.028653 0.013001 -0.041379 -0.122577 -0.029956 0.162801 -0.047581 0.274426 0.074367 -0.237531 -0.068641 -0.236073 0.006968 0.324485 -0.163821 0.037597 -0.158671 -0.042920 -0.058082 0.164874 0.086448 -0.040534 0.035945 0.168025 -0.066882 0.049114 0.042363 -0.132942 -0.309563 0.038011 -0.108944 -0.031896 0.017272 0.016927 0.218891 0.136759 0.044721 -0.038733 0.011588 -0.083387 0.004051 -0.050919 0.021702 0.015809 -0.081798 0.174910 -0.139913 0.055303 -0.060494 -0.149139 -0.040340 -0.124225 -0.018602 0.245694 -0.101220 0.050096
23 -0.132535 -0.132340 0.087270 0.141762 0.078977 -0.105038 0.123343 -0.088006 -0.108763 -0.000954 0.006733 0.098689 0.094958 -0.105883 -0.145143 -0.106438 -0.027260 0.005465 0.004369 0.137303 0.135265 0.070945 0.277364 -0.051443 -0.133481 -0.095998 -0.119150 -0.072000 -0.087428 0.182001 0.016528 0.206192 -0.122815 -0.000821 -0.116305 -0.024062 0.261213 0.093560 -0.111448 -0.029219 -0.303854 0.155016 0.132922 0.031461 -0.067230 0.074022 -0.010716 -0.144175 -0.195322 -0.049006 0.030403 0.280340 0.071042 -0.048210 -0.109864 -0.142982 -0.070878 -0.093047 -0.087854 0.041764 0.112809 -0.078420 -0.159624 0.140173 0.070116 -0.282991 -0.016760 -0.033109 -0.052789 0.044977 0.154743 0.062658 0.024970 0.022112 -0.057080 -0.135956 -0.050429 0.186178 -0.050166 0.313120 0.085900 -0.255627 -0.062957 -0.254027 0.016919 0.355947 -0.190507 0.041201 -0.183904 -0.051933 -0.068852 0.181363 0.096107 -0.034445 0.052605 0.180428 -0.072595 0.070237 0.042282 -0.149017 -0.337904 0.043127 -0.118956 -0.032068 0.020851 0.021337 0.233955 0.143675 0.056441 -0.030920 0.014887 -0.099196 0.001062 -0.064748 0.029808 0.013078 -0.092158 0.180705 -0.141989 0.068421 -0.059982 -0.159433 -0.050362 -0.135462 -0.015205 0.274223 -0.119670 0.041646
18 -0.125680 -0.294075 0.090716 -0.039297 0.032754 -0.132377 0.018576 0.122898 -0.007779 0.029227 0.018270 0.172764 0.101662 -0.169803 -0.021257 -0.202853 -0.039499 -0.044072 0.107319 -0.046608 0.183787 0.113332 0.220159 0.037806 -0.057577 0.019017 -0.070855 0.076281 0.084951 0.131220 -0.040830 0.122750 -0.251680 0.138500 -0.074357 -0.144468 0.117722 0.008882 0.004656 -0.006150 -0.188864 -0.035167 0.193540 0.229312 -0.159966 0.118211 -0.042119 -0.085047 -0.032594 -0.050877 -0.152114 0.124246 0.023562 0.179382 -0.263474 -0.143263 -0.039337 0.055728 -0.119882 0.082821 0.122040 -0.071505 -0.094793 0.142268 -0.111316 -0.003658 0.039230 0.079587 -0.029159 -0.032547 -0.014928 0.111492 0.074378 -0.063414 0.050887 -0.012867 0.128775 0.069236 0.011663 0.023949 -0.048815 -0.181627 -0.124418 -0.133102 -0.185728 0.162725 0.012487 -0.021445 -0.022498 -0.013188 0.091748 0.084215 0.086106 -0.203661 -0.163380 0.082243 -0.031679 -0.208409 0.104999 0.058975 -0.326057 -0.000354 -0.093649 -0.037098 0.012319 -0.003804 0.249245 0.160927 -0.034165 -0.160286 -0.050749 -0.030109 0.076329 0.032167 -0.152770 -0.007899 -0.053295 0.214896 -0.265329 -0.085245 -0.076692 -0.144624 0.097682 -0.137494 -0.154173 0.022613 -0.000718 0.169845
17 -0.173614 -0.488030 0.112252 -0.085516 -0.004449 -0.200074 0.007411 0.274553 0.094160 0.041157 0.045095 0.295555 0.135408 -0.243902 0.036991 -0.283679 -0.055784 -0.131007 0.171214 -0.141064 0.270924 0.120884 0.291839 0.078132 0.000269 0.024032 -0.114680 0.123656 0.157802 0.162075 -0.042519 0.146521 -0.372574 0.185212 -0.102460 -0.248565 0.113703 0.006167 0.010198 -0.007247 -0.240612 -0.130670 0.315868 0.395738 -0.288033 0.178927 -0.011914 -0.083241 0.039242 -0.030806 -0.305473 0.151578 -0.001204 0.293984 -0.397151 -0.225960 -0.053771 0.144590 -0.126808 0.112850 0.200996 -0.097150 -0.069606 0.220447 -0.252421 0.120362 0.060177 0.178033 -0.024022 -0.103459 -0.091942 0.179735 0.079145 -0.107124 0.147490 0.047328 0.222749 0.053889 0.030142 -0.119854 -0.110682 -0.168215 -0.167268 -0.082660 -0.352114 0.093305 0.120338 -0.060281 0.044074 0.000046 0.181950 0.075145 0.138850 -0.282265 -0.296875 0.073224 0.037700 -0.430355 0.181438 0.194989 -0.419773 -0.007258 -0.155899 -0.047047 -0.013177 -0.035203 0.324103 0.212484 -0.045155 -0.244058 -0.081614 0.036332 0.137543 0.076734 -0.277080 -0.002213 -0.053421 0.316555 -0.431796 -0.192118 -0.089646 -0.143598 0.240594 -0.186930 -0.349174 -0.096365 0.051894 0.313026
22 -0.125532 -0.309950 0.093704 -0.070433 0.032989 -0.138735 0.002304 0.139409 -0.013200 0.026766 0.018778 0.172095 0.101520 -0.180437 -0.008354 -0.215628 -0.039964 -0.044709 0.131913 -0.069452 0.188232 0.130971 0.203703 0.051431 -0.067610 0.038811 -0.060051 0.099021 0.113261 0.125528 -0.053697 0.101491 -0.273518 0.164891 -0.072504 -0.159080 0.099104 -0.006131 0.023921 -0.009294 -0.158857 -0.069045 0.192767 0.254770 -0.162695 0.124185 -0.057519 -0.073532 -0.014714 -0.059584 -0.171160 0.096185 0.011238 0.210585 -0.287585 -0.141971 -0.025121 0.083017 -0.131011 0.090224 0.115675 -0.063435 -0.092530 0.142969 -0.139757 0.032457 0.043143 0.092699 -0.025593 -0.035766 -0.037390 0.118228 0.084329 -0.072633 0.057504 -0.000184 0.145724 0.050200 0.024561 -0.009677 -0.068199 -0.182978 -0.133972 -0.125509 -0.201441 0.141133 0.034893 -0.033536 0.005735 -0.016512 0.113253 0.072424 0.075642 -0.235925 -0.185406 0.065388 -0.038036 -0.239328 0.110544 0.080926 -0.325594 -0.011280 -0.079050 -0.033961 0.018208 0.001200 0.256843 0.169092 -0.051257 -0.173391 -0.056850 -0.029073 0.094668 0.055551 -0.181015 -0.011449 -0.048499 0.218860 -0.274812 -0.107143 -0.079492 -0.151830 0.106293 -0.140530 -0.156681 0.001782 0.014379 0.184540
15 -0.136696 -0.135406 0.097047 0.139389 0.083985 -0.102142 0.128365 -0.095229 -0.114468 -0.001095 0.006906 0.094672 0.092818 -0.102837 -0.142658 -0.112636 -0.028693 0.004584 -0.001591 0.130129 0.135530 0.075154 0.279997 -0.056062 -0.138580 -0.091920 -0.113992 -0.067654 -0.083160 0.174758 0.010418 0.205494 -0.118868 0.000182 -0.109698 -0.017695 0.257286 0.091807 -0.101947 -0.027184 -0.303551 0.156541 0.130426 0.030331 -0.058259 0.074082 -0.014003 -0.151296 -0.196085 -0.049217 0.034943 0.276259 0.067980 -0.041111 -0.110364 -0.138813 -0.075342 -0.095775 -0.083578 0.047563 0.112227 -0.072410 -0.165835 0.129842 0.077158 -0.281555 -0.016699 -0.039680 -0.049563 0.047908 0.160236 0.054844 0.025812 0.019739 -0.061221 -0.138956 -0.048982 0.183838 -0.057188 0.311687 0.086083 -0.252065 -0.066167 -0.258236 0.022157 0.350116 -0.191998 0.037831 -0.182188 -0.044894 -0.071416 0.181138 0.096094 -0.034536 0.054285 0.186474 -0.075641 0.082255 0.041314 -0.152961 -0.328065 0.043735 -0.119670 -0.029519 0.023580 0.020156 0.234358 0.144746 0.050788 -0.033776 0.021627 -0.099550 -0.001546 -0.066015 0.033185 0.017132 -0.085928 0.179122 -0.140981 0.078131 -0.057985 -0.161755 -0.049056 -0.123257 -0.012158 0.278053 -0.112174 0.039417
19 -0.133179 -0.140808 0.098206 0.144008 0.080281 -0.105123 0.128417 -0.090040 -0.107604 0.000110 0.005112 0.104086 0.090669 -0.105473 -0.145743 -0.109488 -0.030013 -0.000024 0.002540 0.137690 0.134540 0.068667 0.286959 -0.057674 -0.133313 -0.091638 -0.117778 -0.070161 -0.084537 0.179700 0.015122 0.209023 -0.122001 -0.003369 -0.113279 -0.022107 0.260374 0.098466 -0.107812 -0.024875 -0.309006 0.154063 0.139133 0.033922 -0.065507 0.073481 -0.002694 -0.157941 -0.198486 -0.046109 0.029630 0.282018 0.066547 -0.048455 -0.104836 -0.137690 -0.079290 -0.091873 -0.080864 0.044051 0.113147 -0.080834 -0.162965 0.143016 0.075703 -0.291145 -0.013348 -0.037688 -0.056827 0.036748 0.162260 0.061038 0.023564 0.023414 -0.055637 -0.141288 -0.046960 0.191314 -0.060072 0.314096 0.085329 -0.257597 -0.069215 -0.260763 0.017214 0.358606 -0.187620 0.043959 -0.188056 -0.048654 -0.069582 0.185917 0.101387 -0.028213 0.054150 0.189645 -0.075258 0.073205 0.044943 -0.157709 -0.337023 0.045478 -0.128874 -0.033211 0.019098 0.022588 0.236043 0.148450 0.052269 -0.036131 0.021029 -0.095436 0.002214 -0.067329 0.039482 0.018445 -0.087713 0.185068 -0.148366 0.076417 -0.063354 -0.163470 -0.049265 -0.131838 -0.021960 0.279447 -0.117846 0.039869
10 -0.119332 -0.138082 0.087240 0.099233 0.074610 -0.090724 0.098532 -0.053642 -0.095809 0.000864 0.011696 0.095378 0.080874 -0.102862 -0.120203 -0.110819 -0.023487 0.009517 0.018079 0.093938 0.124760 0.080809 0.242594 -0.033641 -0.121963 -0.060674 -0.090753 -0.038447 -0.047283 0.153197 -0.005953 0.166232 -0.131762 0.033007 -0.094033 -0.036061 0.218795 0.062624 -0.078313 -0.023311 -0.255089 0.107949 0.131759 0.063752 -0.060906 0.072275 -0.016498 -0.132159 -0.155872 -0.054678 0.011485 0.221823 0.058213 -0.005814 -0.121973 -0.117354 -0.058547 -0.066247 -0.092953 0.050847 0.096977 -0.065643 -0.149849 0.120272 0.047904 -0.218181 -0.006627 -0.022559 -0.051563 0.029802 0.125887 0.058403 0.038574 0.007154 -0.037975 -0.107654 -0.016393 0.147665 -0.043673 0.253203 0.056074 -0.231829 -0.074611 -0.215285 -0.008612 0.302697 -0.151833 0.026846 -0.143786 -0.040579 -0.037826 0.151395 0.080467 -0.057140 0.020496 0.154313 -0.071440 0.031301 0.044906 -0.110513 -0.304871 0.027421 -0.095646 -0.026030 0.018726 0.019974 0.217323 0.140828 0.024850 -0.046994 0.015738 -0.090427 0.014055 -0.043623 0.008077 0.007766 -0.076189 0.166961 -0.141844 0.044844 -0.060379 -0.151268 -0.033284 -0.114087 -0.014761 0.218649 -0.086592 0.051801
13 -0.130983 -0.328630 0.096806 -0.076649 0.028444 -0.144889 0.005544 0.150438 -0.002539 0.031881 0.019258 0.180849 0.105869 -0.191242 -0.005831 -0.224186 -0.041812 -0.052450 0.132628 -0.082121 0.201432 0.132823 0.209490 0.055241 -0.065393 0.030447 -0.062008 0.108285 0.116369 0.131129 -0.052129 0.111782 -0.286771 0.166245 -0.077461 -0.168052 0.105874 0.001937 0.023943 -0.007158 -0.170625 -0.070574 0.209620 0.268197 -0.179057 0.133067 -0.048178 -0.077694 -0.014711 -0.053011 -0.186678 0.108558 0.016061 0.225993 -0.311772 -0.157946 -0.032945 0.083758 -0.131514 0.096175 0.125051 -0.065157 -0.097127 0.146258 -0.149204 0.036218 0.046686 0.096307 -0.025754 -0.048946 -0.044059 0.122054 0.086239 -0.075584 0.063388 -0.002381 0.155280 0.049779 0.020992 -0.022693 -0.071151 -0.185595 -0.143517 -0.122419 -0.219759 0.142097 0.042603 -0.035945 0.000877 -0.013590 0.123053 0.074600 0.080582 -0.244447 -0.198105 0.064133 -0.031429 -0.264409 0.112040 0.095319 -0.333208 -0.013737 -0.090333 -0.038989 0.013796 -0.011039 0.270098 0.170529 -0.050085 -0.186432 -0.059980 -0.023753 0.098609 0.057722 -0.195870 -0.012864 -0.050465 0.237638 -0.293104 -0.118555 -0.083878 -0.150091 0.123705 -0.146494 -0.181439 -0.000131 0.016621 0.201353
12 -0.130052 -0.292150 0.089786 -0.038959 0.029740 -0.132330 0.018969 0.115551 -0.008194 0.025133 0.025943 0.172369 0.094684 -0.163374 -0.020285 -0.190227 -0.040175 -0.046019 0.109639 -0.053711 0.179381 0.113602 0.214336 0.034174 -0.062048 0.008136 -0.070401 0.071498 0.081119 0.127973 -0.033506 0.118680 -0.250413 0.130699 -0.074075 -0.136043 0.116336 0.014448 0.000193 -0.005321 -0.182576 -0.039719 0.195489 0.223344 -0.159049 0.118589 -0.031718 -0.084274 -0.035095 -0.048474 -0.150136 0.127889 0.016764 0.166740 -0.261799 -0.148995 -0.035437 0.060151 -0.112703 0.084572 0.121820 -0.063365 -0.094814 0.145114 -0.119692 -0.000664 0.039470 0.078640 -0.024778 -0.030805 -0.008583 0.112999 0.068107 -0.055210 0.051915 -0.013773 0.124014 0.069724 0.009815 0.023571 -0.047186 -0.171265 -0.125355 -0.125824 -0.181926 0.155163 0.011664 -0.023726 -0.021209 -0.019268 0.088363 0.086455 0.082218 -0.192257 -0.152694 0.076034 -0.022682 -0.211844 0.103985 0.063590 -0.320064 -0.006315 -0.092459 -0.032914 0.009187 -0.009532 0.242889 0.157689 -0.026104 -0.155370 -0.048798 -0.023977 0.079050 0.036710 -0.149791 -0.001460 -0.050980 0.215724 -0.263966 -0.087980 -0.074815 -0.139985 0.101440 -0.132284 -0.161513 0.025720 -0.003043 0.170424
