34 128
34 -0.098910 -0.234702 0.152195 0.041767 0.016544 -0.126988 0.127337 -0.037779 -0.047323 0.098718 -0.076732 0.181143 0.042045 -0.162488 -0.029158 -0.172377 -0.012703 -0.097341 0.022088 0.042612 0.202083 0.021958 0.212202 0.044697 0.010641 0.008744 0.010484 0.057903 -0.021608 0.216029 0.014066 0.115291 -0.130676 0.117212 -0.057873 -0.132086 0.182422 0.085807 0.018712 -0.001675 -0.200541 0.048663 0.061963 0.180505 -0.131978 0.135747 0.013460 -0.068257 -0.066672 0.134126 -0.085456 0.137180 0.058076 0.011668 -0.113433 -0.156386 -0.159948 0.057669 -0.114843 -0.045006 0.081922 -0.155650 -0.037456 0.087898 -0.001732 -0.089916 0.004333 -0.110372 0.057420 -0.085532 -0.040669 0.006701 -0.074349 0.004894 0.172949 0.029375 0.041505 0.001939 0.032568 -0.021685 -0.091536 -0.095209 -0.012468 -0.141337 -0.180395 0.214502 -0.025481 -0.047079 0.001749 -0.040223 0.020769 0.039084 0.097460 0.002538 -0.152076 0.158316 -0.120252 0.066009 0.149984 0.011433 -0.198408 0.047681 -0.186742 -0.033088 -0.019066 0.032460 0.240211 0.045169 -0.069810 -0.075739 -0.054994 -0.057741 -0.016177 0.005483 -0.014979 0.016591 -0.147584 0.193325 -0.146678 0.030817 -0.062667 -0.167577 0.084466 -0.168444 -0.068287 0.049822 -0.026642 0.078403
1 -0.079465 -0.248592 0.105046 0.065693 0.001932 -0.159127 0.100990 -0.015134 0.054970 0.069707 -0.020998 0.229983 0.014436 -0.133525 0.040596 -0.185744 -0.063552 -0.151139 0.010261 0.017153 0.212913 -0.008898 0.177235 0.066137 0.063982 -0.022170 -0.006455 0.019605 -0.037235 0.187759 0.027757 0.100066 -0.127401 0.064555 -0.028175 -0.115086 0.157673 0.109765 -0.018712 -0.008190 -0.144462 0.054461 0.066287 0.140297 -0.159446 0.145441 0.063190 -0.044656 -0.044175 0.144905 -0.125249 0.161042 0.039487 -0.023601 -0.067237 -0.161101 -0.111191 0.082644 -0.055309 -0.083710 0.098683 -0.175754 0.021316 0.090631 -0.081490 -0.055329 -0.012212 -0.084518 0.055894 -0.113413 -0.055270 0.008149 -0.108497 0.002237 0.223594 0.043892 0.044517 -0.037955 0.018691 -0.090280 -0.074405 -0.022296 -0.017376 -0.102496 -0.205052 0.106143 0.044437 -0.052005 0.048029 -0.052092 0.014616 0.014147 0.135514 0.047773 -0.163778 0.159406 -0.081821 -0.003579 0.175343 0.083985 -0.197316 0.056808 -0.206776 -0.030459 -0.073824 0.001860 0.197154 0.038036 -0.047821 -0.079519 -0.069745 0.000005 -0.017666 -0.040256 -0.036307 0.046283 -0.135912 0.191673 -0.157147 0.011846 -0.043575 -0.123569 0.127217 -0.228485 -0.145436 0.032801 -0.059323 0.113679
33 -0.100000 -0.236378 0.155339 0.040678 0.016961 -0.129553 0.124915 -0.032687 -0.050082 0.100281 -0.076400 0.179861 0.046204 -0.170428 -0.029551 -0.170293 -0.013294 -0.091938 0.017994 0.041962 0.207577 0.024370 0.218397 0.044286 0.005491 0.014216 0.006727 0.063342 -0.017467 0.220243 0.010022 0.121195 -0.130800 0.124303 -0.066124 -0.139828 0.180618 0.082077 0.016525 -0.000176 -0.207781 0.045915 0.062584 0.181120 -0.133202 0.140274 0.007001 -0.071005 -0.072787 0.131926 -0.088512 0.140399 0.060495 0.010796 -0.121857 -0.153918 -0.166711 0.057455 -0.120653 -0.037831 0.088509 -0.162502 -0.041013 0.090915 0.004959 -0.092519 0.011308 -0.110490 0.053523 -0.081843 -0.035291 0.006884 -0.066505 0.005156 0.168668 0.031985 0.046579 0.001632 0.035861 -0.019844 -0.086482 -0.102081 -0.015766 -0.146233 -0.180807 0.223844 -0.032816 -0.049539 0.001231 -0.041309 0.027690 0.044835 0.098864 -0.002355 -0.151020 0.161307 -0.125512 0.064106 0.155283 0.009197 -0.205097 0.040989 -0.190123 -0.026246 -0.010610 0.032994 0.245208 0.050422 -0.067756 -0.079487 -0.059036 -0.061822 -0.014791 0.002870 -0.012704 0.016815 -0.154806 0.195538 -0.155628 0.025907 -0.064868 -0.177023 0.085064 -0.173825 -0.063311 0.049078 -0.031411 0.076329
3 -0.103567 -0.229740 0.160383 0.035188 0.015197 -0.121770 0.130216 -0.034942 -0.065562 0.102000 -0.082005 0.167349 0.044596 -0.174723 -0.042008 -0.172883 -0.001304 -0.091197 0.021717 0.042098 0.196884 0.027915 0.216078 0.046520 0.007046 0.015971 0.009044 0.069801 -0.012058 0.223439 0.005359 0.114605 -0.132120 0.128244 -0.069839 -0.142911 0.183860 0.080882 0.025638 -0.002391 -0.211371 0.038741 0.060261 0.190048 -0.129749 0.136402 0.004187 -0.073952 -0.075212 0.132242 -0.077998 0.131581 0.054852 0.019255 -0.126373 -0.152950 -0.169818 0.053947 -0.129586 -0.029456 0.078594 -0.153346 -0.046677 0.093023 0.012467 -0.097447 0.013212 -0.105311 0.050778 -0.084037 -0.033633 0.007372 -0.064097 0.005912 0.163706 0.025251 0.049665 0.005199 0.040505 -0.011813 -0.091632 -0.105696 -0.016156 -0.149387 -0.175820 0.232954 -0.038474 -0.046912 -0.007153 -0.042117 0.025473 0.045523 0.092854 -0.004244 -0.153164 0.157786 -0.129611 0.074199 0.152493 0.000603 -0.204610 0.042577 -0.189158 -0.031746 -0.001151 0.043587 0.246457 0.048368 -0.068548 -0.078567 -0.053054 -0.067635 -0.013870 0.010543 -0.013423 0.015073 -0.156991 0.200137 -0.148837 0.029714 -0.072093 -0.184914 0.077237 -0.171326 -0.059713 0.053016 -0.022727 0.076231
7 -0.035128 -0.299037 0.008893 0.137999 -0.034278 -0.226912 0.076447 0.005175 0.257471 0.020934 0.090481 0.366319 -0.052389 -0.083505 0.191893 -0.225105 -0.175511 -0.279941 -0.027903 -0.020234 0.250479 -0.072530 0.125351 0.111985 0.183991 -0.104818 -0.047563 -0.074621 -0.088830 0.161335 0.082751 0.079490 -0.145664 -0.042079 0.042850 -0.080952 0.147992 0.184366 -0.110173 -0.008758 -0.041988 0.088515 0.079616 0.079065 -0.237483 0.184268 0.191748 -0.005773 -0.015089 0.185114 -0.210446 0.229309 0.016004 -0.116870 0.039539 -0.202232 -0.029428 0.131851 0.080101 -0.187701 0.132159 -0.224885 0.154826 0.112237 -0.246503 0.001920 -0.052059 -0.051729 0.086419 -0.196086 -0.099809 0.032776 -0.227917 0.000578 0.371778 0.084382 0.031166 -0.109014 -0.019347 -0.227681 -0.052122 0.138381 -0.027145 -0.019164 -0.281037 -0.086720 0.193739 -0.055013 0.134541 -0.076488 -0.003216 -0.040958 0.223572 0.152970 -0.202485 0.190682 -0.009910 -0.127211 0.234675 0.233598 -0.216308 0.087242 -0.290027 -0.039880 -0.217798 -0.076229 0.127743 0.015702 -0.005495 -0.095856 -0.097383 0.130361 -0.033202 -0.146748 -0.073641 0.116691 -0.143167 0.207568 -0.185817 -0.002291 -0.006236 -0.030366 0.239714 -0.349245 -0.319020 0.003945 -0.115950 0.202563
6 -0.036377 -0.310993 0.005961 0.152345 -0.034931 -0.240916 0.074925 0.008338 0.278915 0.019089 0.106585 0.384654 -0.062124 -0.078554 0.209464 -0.235485 -0.192276 -0.300170 -0.024861 -0.025662 0.254844 -0.081303 0.118498 0.109990 0.197585 -0.111568 -0.045553 -0.085165 -0.090783 0.165559 0.085546 0.072590 -0.143694 -0.049609 0.053693 -0.078256 0.153506 0.202944 -0.120097 -0.010102 -0.028222 0.094120 0.083329 0.069493 -0.252040 0.189294 0.205775 -0.004456 -0.012711 0.193543 -0.220821 0.236968 0.010263 -0.130513 0.056112 -0.211311 -0.021946 0.140547 0.093759 -0.208717 0.139460 -0.233067 0.169806 0.113315 -0.265659 0.001450 -0.062135 -0.053053 0.088130 -0.206266 -0.102535 0.030387 -0.242022 0.002676 0.392698 0.088863 0.033416 -0.117091 -0.023229 -0.240789 -0.053071 0.154544 -0.025528 -0.016435 -0.288567 -0.108506 0.219040 -0.058958 0.148310 -0.083085 -0.006233 -0.046842 0.232275 0.168194 -0.206540 0.193250 -0.005211 -0.140802 0.248030 0.248667 -0.215120 0.089492 -0.297923 -0.039021 -0.234726 -0.078456 0.123678 0.015317 -0.003217 -0.101902 -0.099911 0.142924 -0.034736 -0.153641 -0.077824 0.128917 -0.147942 0.215650 -0.190078 -0.008200 -0.001715 -0.033935 0.257427 -0.379080 -0.344708 0.005206 -0.125184 0.210959
11 -0.039727 -0.298476 0.005746 0.141911 -0.030752 -0.233509 0.065742 0.009521 0.272150 0.013879 0.101542 0.370809 -0.061037 -0.069200 0.203563 -0.226414 -0.184698 -0.283920 -0.025290 -0.027365 0.249474 -0.075085 0.118887 0.110175 0.183503 -0.107252 -0.045864 -0.078292 -0.089587 0.150238 0.084399 0.071561 -0.137373 -0.049707 0.053146 -0.070676 0.146991 0.191462 -0.112710 -0.001905 -0.023219 0.091168 0.080239 0.065950 -0.238522 0.182034 0.199236 0.002533 -0.014640 0.183148 -0.209150 0.225812 0.012442 -0.124418 0.049826 -0.202535 -0.018299 0.139262 0.083105 -0.193427 0.129061 -0.225581 0.163432 0.109710 -0.258951 0.007100 -0.059515 -0.053614 0.088096 -0.197177 -0.098350 0.027879 -0.230572 -0.000783 0.377694 0.087907 0.031158 -0.120192 -0.024086 -0.234512 -0.046061 0.149893 -0.027368 -0.018025 -0.283392 -0.102460 0.209629 -0.056480 0.146028 -0.079863 -0.009867 -0.047116 0.223261 0.162457 -0.197000 0.182499 -0.003289 -0.132783 0.234722 0.245124 -0.206293 0.088975 -0.285872 -0.034924 -0.223503 -0.079015 0.121480 0.009237 -0.004078 -0.098072 -0.097708 0.139413 -0.034634 -0.150630 -0.075005 0.118379 -0.142023 0.208444 -0.182250 -0.010320 -0.000106 -0.032113 0.248069 -0.361937 -0.327704 0.000235 -0.127527 0.204756
5 -0.035022 -0.309806 -0.002824 0.146165 -0.031266 -0.239928 0.075577 0.001700 0.281709 0.014160 0.108552 0.386004 -0.064576 -0.072825 0.208654 -0.235396 -0.193092 -0.295221 -0.029606 -0.021255 0.255243 -0.073458 0.114395 0.116602 0.192639 -0.112073 -0.046421 -0.085821 -0.091916 0.157741 0.082086 0.073341 -0.147443 -0.046703 0.056636 -0.078940 0.150280 0.197235 -0.118896 -0.005855 -0.021183 0.090254 0.076796 0.068929 -0.246839 0.186321 0.203918 -0.002190 -0.015545 0.184705 -0.220135 0.235812 0.017642 -0.133725 0.055645 -0.210133 -0.017621 0.138534 0.094443 -0.207809 0.132553 -0.233695 0.167412 0.113696 -0.266580 0.006104 -0.055128 -0.054090 0.091358 -0.203420 -0.104917 0.030995 -0.237125 -0.005026 0.387499 0.085362 0.029100 -0.122748 -0.026355 -0.243543 -0.051967 0.150523 -0.029813 -0.017579 -0.291231 -0.108759 0.216802 -0.053982 0.148433 -0.082747 -0.005394 -0.048782 0.231152 0.165626 -0.208768 0.190918 -0.008836 -0.140612 0.245726 0.253413 -0.220082 0.087942 -0.295859 -0.043967 -0.234886 -0.084452 0.123238 0.012027 -0.009419 -0.100568 -0.103805 0.140116 -0.030904 -0.158482 -0.078538 0.127439 -0.140285 0.213451 -0.182391 -0.007036 -0.002479 -0.026571 0.252332 -0.372032 -0.340286 0.006201 -0.131062 0.215890
2 -0.089825 -0.229021 0.142605 0.037237 0.010026 -0.122158 0.122159 -0.030329 -0.043421 0.095149 -0.073302 0.178804 0.043467 -0.161546 -0.025501 -0.171877 -0.018862 -0.095501 0.018900 0.038118 0.198811 0.022048 0.207082 0.046479 0.008815 0.009691 0.003788 0.055788 -0.019455 0.210501 0.014437 0.109995 -0.126141 0.110259 -0.060811 -0.126281 0.172348 0.077639 0.016369 -0.007129 -0.190160 0.048544 0.059364 0.169859 -0.129268 0.133192 0.009798 -0.061815 -0.062084 0.123834 -0.084329 0.129534 0.054700 0.016357 -0.111997 -0.148096 -0.150283 0.058088 -0.112785 -0.038553 0.078736 -0.149156 -0.031543 0.081614 -0.005784 -0.081937 0.003672 -0.101048 0.045525 -0.085018 -0.040363 0.007506 -0.064793 0.001936 0.163884 0.030599 0.043307 -0.002459 0.030904 -0.024220 -0.087609 -0.092382 -0.016488 -0.134204 -0.176365 0.207307 -0.023820 -0.046740 0.007055 -0.044001 0.026299 0.040420 0.099313 -0.001836 -0.152596 0.154018 -0.115591 0.056235 0.146362 0.017207 -0.192804 0.042364 -0.184178 -0.034873 -0.017187 0.028090 0.239123 0.050066 -0.070209 -0.075433 -0.059411 -0.053456 -0.014318 -0.000908 -0.021798 0.016742 -0.148806 0.194634 -0.151541 0.026405 -0.064987 -0.171866 0.089301 -0.183045 -0.069314 0.050818 -0.025743 0.082633
28 -0.101391 -0.230089 0.156987 0.035574 0.014291 -0.116398 0.125617 -0.037470 -0.060666 0.099144 -0.078007 0.173099 0.044938 -0.161625 -0.038277 -0.167157 -0.008286 -0.092863 0.023028 0.043423 0.193879 0.025583 0.210206 0.044619 0.003040 0.017498 0.003311 0.064823 -0.015216 0.213850 0.008028 0.117934 -0.123929 0.122878 -0.063978 -0.140135 0.182231 0.080441 0.023502 -0.004060 -0.206720 0.039929 0.060109 0.184814 -0.131531 0.133769 -0.000268 -0.067081 -0.074177 0.126892 -0.084616 0.134195 0.058227 0.010823 -0.113102 -0.151280 -0.166372 0.050943 -0.128024 -0.035694 0.080952 -0.156796 -0.036154 0.091273 0.006740 -0.091719 0.007235 -0.101579 0.048208 -0.085532 -0.039022 0.011914 -0.070477 -0.000829 0.162416 0.028839 0.043121 0.006025 0.030642 -0.011617 -0.089480 -0.103802 -0.010289 -0.139977 -0.177529 0.226865 -0.034594 -0.042717 -0.000993 -0.039171 0.025868 0.041524 0.092114 -0.005313 -0.143797 0.152055 -0.121062 0.072817 0.146987 0.000314 -0.198805 0.047471 -0.186148 -0.031901 -0.004203 0.042680 0.244768 0.050438 -0.066607 -0.077410 -0.054535 -0.063197 -0.019549 0.007395 -0.011406 0.010496 -0.152188 0.186242 -0.143756 0.025819 -0.065401 -0.174904 0.077561 -0.162552 -0.059722 0.044663 -0.024686 0.076004
24 -0.110811 -0.229508 0.186210 0.025143 0.023513 -0.112255 0.138386 -0.044027 -0.103709 0.119331 -0.106385 0.153500 0.066484 -0.189321 -0.071778 -0.170015 0.013985 -0.069133 0.030304 0.053519 0.205929 0.043153 0.238441 0.042436 -0.021781 0.036133 0.013206 0.084758 -0.011062 0.238931 -0.003548 0.129907 -0.134897 0.148617 -0.085083 -0.153191 0.197587 0.065153 0.042485 -0.006270 -0.240623 0.045202 0.058106 0.207982 -0.118752 0.139350 -0.027681 -0.074687 -0.080921 0.124651 -0.063063 0.128401 0.063120 0.039503 -0.145886 -0.147859 -0.188924 0.047038 -0.161021 -0.015922 0.077774 -0.153745 -0.068987 0.088728 0.039710 -0.110812 0.017313 -0.117870 0.046957 -0.064686 -0.028612 0.006539 -0.047722 0.004222 0.138876 0.020603 0.043588 0.016584 0.043261 0.018334 -0.095273 -0.139629 -0.010331 -0.165174 -0.174372 0.278508 -0.074502 -0.044197 -0.018485 -0.037025 0.028740 0.058450 0.082244 -0.029031 -0.145562 0.162397 -0.141705 0.104330 0.141674 -0.030283 -0.208257 0.043829 -0.174629 -0.028080 0.021886 0.057464 0.274305 0.055960 -0.081934 -0.073380 -0.050618 -0.098992 -0.014364 0.029807 -0.010790 -0.002493 -0.162695 0.199391 -0.148320 0.037945 -0.077209 -0.210577 0.061335 -0.154016 -0.019485 0.061374 -0.015134 0.064322
32 -0.107927 -0.220666 0.168008 0.022579 0.020094 -0.105329 0.133534 -0.043053 -0.099653 0.111589 -0.102984 0.147640 0.057806 -0.175758 -0.065866 -0.158418 0.015142 -0.068610 0.024219 0.051257 0.191704 0.041705 0.220609 0.035726 -0.021530 0.028094 0.010862 0.083778 -0.009088 0.222677 -0.000098 0.120967 -0.121991 0.141831 -0.082574 -0.143669 0.187831 0.069533 0.037733 -0.007564 -0.230240 0.041519 0.055189 0.194522 -0.118468 0.129399 -0.019026 -0.071359 -0.078163 0.118576 -0.064477 0.123861 0.059736 0.035226 -0.141275 -0.147049 -0.181601 0.043918 -0.150825 -0.016403 0.074544 -0.144858 -0.066652 0.088797 0.033977 -0.104782 0.013439 -0.108184 0.046032 -0.069673 -0.032272 0.009145 -0.045373 0.003034 0.132297 0.021889 0.043865 0.019313 0.041359 0.013645 -0.094496 -0.132896 -0.007492 -0.157035 -0.163852 0.267314 -0.064680 -0.043324 -0.017996 -0.039305 0.029080 0.055660 0.080303 -0.026860 -0.138455 0.150786 -0.135089 0.095899 0.132778 -0.029927 -0.195011 0.037658 -0.173938 -0.031904 0.022616 0.056875 0.261594 0.050364 -0.079175 -0.070521 -0.049937 -0.091566 -0.012729 0.029725 -0.005507 0.001528 -0.156485 0.194210 -0.139280 0.032347 -0.075721 -0.199204 0.058481 -0.144890 -0.022013 0.053713 -0.017444 0.063094
17 -0.039798 -0.288368 0.016184 0.135002 -0.033355 -0.223425 0.073679 0.006655 0.244071 0.026543 0.087735 0.354106 -0.047140 -0.076795 0.177333 -0.214059 -0.167829 -0.269729 -0.023707 -0.015928 0.240364 -0.071396 0.124691 0.100968 0.174113 -0.092860 -0.042100 -0.066810 -0.079706 0.161121 0.076765 0.075168 -0.135146 -0.034424 0.038623 -0.082051 0.147384 0.181064 -0.103009 -0.004821 -0.041553 0.081023 0.073459 0.077881 -0.228939 0.174253 0.180553 -0.003546 -0.018482 0.179142 -0.201609 0.214629 0.016299 -0.116897 0.038972 -0.196357 -0.034423 0.132562 0.072488 -0.185105 0.127825 -0.218704 0.146570 0.103682 -0.231994 0.000843 -0.052156 -0.055482 0.082573 -0.181922 -0.096038 0.026464 -0.212747 -0.001763 0.357573 0.085012 0.030408 -0.107651 -0.014729 -0.216728 -0.049502 0.125742 -0.021217 -0.022693 -0.272505 -0.075079 0.189071 -0.057890 0.134387 -0.077683 -0.009030 -0.037928 0.210052 0.148458 -0.194889 0.180716 -0.011663 -0.114610 0.231279 0.223077 -0.206307 0.081871 -0.276954 -0.033839 -0.203833 -0.069274 0.129214 0.013063 -0.010961 -0.090414 -0.095244 0.119149 -0.027228 -0.134354 -0.067785 0.110761 -0.140313 0.204890 -0.177838 -0.009939 -0.002177 -0.033997 0.228104 -0.334882 -0.303986 0.003675 -0.114891 0.191771
14 -0.099371 -0.225353 0.156437 0.030917 0.017769 -0.116162 0.118764 -0.036082 -0.058256 0.101376 -0.081526 0.169715 0.044915 -0.162518 -0.036704 -0.161826 -0.005999 -0.085028 0.023044 0.040333 0.197192 0.029305 0.206737 0.045801 0.000560 0.021244 0.011730 0.067827 -0.018875 0.213221 0.008119 0.114838 -0.124091 0.125618 -0.062705 -0.135594 0.173332 0.074654 0.023071 -0.003163 -0.204935 0.043534 0.058186 0.180277 -0.122734 0.133852 0.000683 -0.062999 -0.067607 0.126515 -0.081063 0.126893 0.055867 0.018645 -0.117741 -0.145842 -0.163795 0.056052 -0.126397 -0.036003 0.079363 -0.154507 -0.039431 0.080770 0.004923 -0.086746 0.011486 -0.108621 0.048570 -0.077921 -0.038346 0.007800 -0.063089 0.006959 0.160191 0.031712 0.046186 0.001861 0.034935 -0.017352 -0.089029 -0.101994 -0.009140 -0.138478 -0.177871 0.224591 -0.037630 -0.048950 0.002441 -0.042247 0.024455 0.042667 0.092849 -0.006954 -0.149067 0.157275 -0.124684 0.073870 0.148486 0.004779 -0.198065 0.041818 -0.180031 -0.025939 -0.007940 0.039853 0.243684 0.051077 -0.074167 -0.075300 -0.059012 -0.069697 -0.016999 0.008976 -0.011116 0.012258 -0.153083 0.190730 -0.148496 0.029563 -0.065168 -0.180906 0.077556 -0.170214 -0.052750 0.045936 -0.029786 0.073683
26 -0.107280 -0.229382 0.176316 0.023615 0.021853 -0.116236 0.137853 -0.042795 -0.095298 0.111246 -0.103654 0.155845 0.061280 -0.184378 -0.062429 -0.166402 0.012029 -0.075218 0.026131 0.050869 0.207538 0.038603 0.235054 0.044211 -0.015116 0.024617 0.009625 0.078791 -0.015315 0.234857 0.005449 0.126140 -0.130748 0.139658 -0.083501 -0.152465 0.192784 0.070013 0.034515 -0.005448 -0.235480 0.039151 0.057469 0.200478 -0.125485 0.142201 -0.017456 -0.075704 -0.079010 0.133374 -0.068567 0.133373 0.062872 0.027886 -0.142045 -0.154502 -0.183712 0.049392 -0.155286 -0.019514 0.080868 -0.155630 -0.061725 0.093129 0.032422 -0.103487 0.017895 -0.119618 0.049306 -0.073541 -0.032008 0.005816 -0.054383 0.004205 0.150795 0.020375 0.042987 0.014268 0.040747 0.003861 -0.100916 -0.128523 -0.010950 -0.159394 -0.174130 0.268509 -0.065265 -0.047747 -0.015707 -0.039885 0.030722 0.053705 0.089414 -0.015333 -0.148549 0.157487 -0.139924 0.093742 0.149503 -0.019779 -0.205702 0.040825 -0.181506 -0.028267 0.015625 0.052695 0.270472 0.054739 -0.075100 -0.073057 -0.057977 -0.088422 -0.014230 0.026916 -0.007765 0.002996 -0.156528 0.195331 -0.145150 0.029178 -0.075378 -0.199333 0.063931 -0.160190 -0.032782 0.058900 -0.019054 0.061464
30 -0.105698 -0.234587 0.173227 0.029726 0.015139 -0.112736 0.140970 -0.045745 -0.095808 0.116739 -0.108510 0.159028 0.059555 -0.186287 -0.066087 -0.173249 0.010068 -0.075450 0.023455 0.056905 0.204910 0.036043 0.237812 0.036122 -0.014108 0.026888 0.015885 0.080451 -0.016180 0.236141 0.001321 0.124271 -0.131631 0.140760 -0.084100 -0.146379 0.194610 0.074311 0.038448 -0.009382 -0.236123 0.044508 0.060269 0.207024 -0.121725 0.138866 -0.017749 -0.079551 -0.080600 0.130102 -0.071169 0.132265 0.066179 0.027699 -0.139020 -0.151973 -0.190880 0.048723 -0.149747 -0.021281 0.080948 -0.156921 -0.060176 0.090055 0.039023 -0.109392 0.012735 -0.118041 0.051251 -0.075204 -0.030701 0.006490 -0.050416 0.003181 0.148221 0.019469 0.046587 0.021200 0.042302 0.012830 -0.101726 -0.136823 -0.015217 -0.165504 -0.174086 0.274310 -0.066779 -0.045887 -0.019784 -0.038166 0.032382 0.051244 0.086117 -0.019823 -0.147207 0.161218 -0.143238 0.100002 0.146281 -0.024394 -0.203380 0.042938 -0.184932 -0.036484 0.013991 0.050790 0.272309 0.056102 -0.084213 -0.077527 -0.057227 -0.094192 -0.017989 0.022374 -0.006215 0.001471 -0.167731 0.204815 -0.154783 0.039810 -0.081072 -0.203295 0.067650 -0.160756 -0.031574 0.062937 -0.013097 0.069581
9 -0.098270 -0.224330 0.148864 0.033594 0.014934 -0.119790 0.122315 -0.034260 -0.052240 0.098234 -0.078636 0.171198 0.046978 -0.167705 -0.036957 -0.167472 -0.010238 -0.085751 0.020435 0.042944 0.193046 0.029060 0.212631 0.041314 0.002213 0.017837 0.007693 0.058882 -0.019240 0.214065 0.008972 0.117986 -0.128202 0.116034 -0.060445 -0.135715 0.180190 0.077306 0.018193 -0.003003 -0.206603 0.041020 0.059675 0.181818 -0.127603 0.132471 0.003486 -0.067908 -0.070286 0.123406 -0.083005 0.133057 0.053888 0.018980 -0.115966 -0.150021 -0.162926 0.051999 -0.125181 -0.037421 0.081200 -0.152374 -0.045468 0.087678 0.008453 -0.093707 0.009898 -0.105462 0.047982 -0.078958 -0.034484 0.009517 -0.058723 0.002568 0.162057 0.023684 0.041116 0.008452 0.032041 -0.010412 -0.085328 -0.104549 -0.016175 -0.147184 -0.174980 0.222213 -0.036726 -0.046128 -0.005520 -0.038926 0.026509 0.041916 0.097028 -0.002444 -0.147270 0.149411 -0.118643 0.069081 0.143245 0.003680 -0.198233 0.039500 -0.181285 -0.028638 -0.005042 0.038140 0.237770 0.051539 -0.071887 -0.076762 -0.051633 -0.065644 -0.011632 0.008416 -0.014881 0.010278 -0.151723 0.193509 -0.146223 0.031416 -0.067382 -0.176427 0.074143 -0.164696 -0.057118 0.054303 -0.025737 0.074831
4 -0.093534 -0.230061 0.142720 0.045080 0.011887 -0.132146 0.117517 -0.027533 -0.032374 0.093332 -0.063527 0.189836 0.042097 -0.161907 -0.019864 -0.174091 -0.021715 -0.107777 0.019160 0.040541 0.204802 0.017256 0.203615 0.048259 0.020919 0.008804 0.000529 0.056761 -0.019862 0.211445 0.011510 0.111534 -0.129818 0.108489 -0.059471 -0.133801 0.180029 0.088925 0.013553 -0.003267 -0.193665 0.044427 0.064073 0.177848 -0.134322 0.136093 0.016668 -0.066012 -0.069505 0.130499 -0.089221 0.136434 0.054464 0.007476 -0.109310 -0.153842 -0.152481 0.060939 -0.106820 -0.050840 0.090376 -0.162797 -0.024863 0.089036 -0.009684 -0.080768 0.000190 -0.098868 0.051574 -0.090905 -0.040874 0.010108 -0.071507 -0.000880 0.180148 0.031200 0.049730 -0.002679 0.030307 -0.027076 -0.082723 -0.089068 -0.014963 -0.132429 -0.181484 0.199626 -0.013303 -0.050092 0.011853 -0.044220 0.019112 0.037002 0.100412 0.006322 -0.155879 0.158324 -0.115879 0.050848 0.152690 0.020727 -0.200163 0.045193 -0.184972 -0.028415 -0.025091 0.030435 0.228878 0.046825 -0.065857 -0.077314 -0.057059 -0.051553 -0.016080 -0.003186 -0.018253 0.025784 -0.151682 0.196557 -0.151830 0.025680 -0.059986 -0.163586 0.085015 -0.186204 -0.080200 0.046904 -0.029435 0.086225
25 -0.108028 -0.226869 0.167645 0.025507 0.014815 -0.113827 0.130424 -0.044123 -0.081648 0.109743 -0.099182 0.155776 0.056887 -0.174632 -0.058162 -0.169647 0.008841 -0.078767 0.028210 0.051828 0.203627 0.034735 0.227918 0.046019 -0.009543 0.021408 0.012153 0.075047 -0.019650 0.228887 0.005158 0.123846 -0.129385 0.131525 -0.081499 -0.143009 0.185272 0.073284 0.030631 -0.008398 -0.231105 0.046876 0.056512 0.192112 -0.118587 0.140611 -0.011041 -0.067649 -0.073252 0.127644 -0.073347 0.132535 0.063136 0.031381 -0.139305 -0.151100 -0.175119 0.043823 -0.146371 -0.019780 0.076621 -0.149260 -0.055762 0.085560 0.023578 -0.104149 0.013642 -0.109707 0.043660 -0.072522 -0.032404 0.003677 -0.051483 0.007685 0.146193 0.018409 0.040898 0.014756 0.042167 0.002858 -0.092671 -0.126563 -0.011018 -0.158312 -0.174309 0.256550 -0.059557 -0.049319 -0.017342 -0.043534 0.024301 0.051420 0.089935 -0.020164 -0.148858 0.159027 -0.132605 0.088229 0.143230 -0.014950 -0.205720 0.043765 -0.181255 -0.029525 0.012024 0.046652 0.261110 0.053668 -0.072130 -0.074933 -0.056352 -0.083595 -0.013984 0.019500 -0.014677 0.003611 -0.152824 0.193446 -0.145519 0.031742 -0.071437 -0.187340 0.063538 -0.158322 -0.035112 0.059775 -0.022066 0.065515
31 -0.078932 -0.239821 0.118488 0.064288 0.002967 -0.149880 0.107219 -0.027721 0.022016 0.078868 -0.029728 0.219182 0.024434 -0.144570 0.023169 -0.181957 -0.055717 -0.131021 0.011166 0.025112 0.207152 -0.001404 0.181617 0.062326 0.050103 -0.010205 -0.000250 0.030302 -0.034141 0.196237 0.021446 0.107330 -0.130880 0.081474 -0.031474 -0.115634 0.165067 0.101639 -0.008303 -0.007885 -0.156394 0.055688 0.061660 0.147864 -0.151993 0.144968 0.046032 -0.053191 -0.054233 0.139967 -0.116691 0.155155 0.045234 -0.020305 -0.073218 -0.159894 -0.123370 0.069335 -0.074197 -0.078868 0.096714 -0.169442 0.004524 0.086484 -0.060010 -0.068033 -0.010123 -0.094480 0.056356 -0.104355 -0.050280 0.008902 -0.101952 0.003133 0.214082 0.041985 0.043948 -0.026567 0.024610 -0.066306 -0.074732 -0.040527 -0.018365 -0.112051 -0.196801 0.137228 0.020713 -0.051267 0.033425 -0.051153 0.013856 0.023475 0.129010 0.034575 -0.161458 0.158547 -0.092856 0.017294 0.164645 0.065772 -0.198468 0.051031 -0.202014 -0.031830 -0.061150 0.008961 0.205848 0.041512 -0.049371 -0.078500 -0.067682 -0.019830 -0.020040 -0.033297 -0.027426 0.041663 -0.145936 0.192287 -0.154832 0.020838 -0.050077 -0.138204 0.114536 -0.211483 -0.120925 0.038526 -0.054517 0.102352
29 -0.091116 -0.222554 0.135199 0.038741 0.012499 -0.124740 0.114889 -0.033799 -0.033059 0.092309 -0.062200 0.180665 0.035727 -0.153378 -0.019200 -0.166100 -0.023634 -0.101258 0.019357 0.035030 0.194718 0.016908 0.193076 0.045504 0.011937 0.006711 0.003591 0.050044 -0.017756 0.203452 0.015270 0.106127 -0.119688 0.104537 -0.057275 -0.125265 0.171955 0.082901 0.014754 -0.007356 -0.180720 0.047285 0.053159 0.162161 -0.125922 0.136037 0.013118 -0.060000 -0.065318 0.124511 -0.086376 0.130643 0.048786 0.006092 -0.105591 -0.141397 -0.142440 0.060154 -0.102559 -0.042162 0.081653 -0.154378 -0.028413 0.084039 -0.013194 -0.082153 0.000334 -0.098877 0.052548 -0.079378 -0.041255 0.008101 -0.073908 0.004596 0.168342 0.034411 0.044949 -0.004907 0.030707 -0.027367 -0.084984 -0.079141 -0.011400 -0.131454 -0.174956 0.192979 -0.015457 -0.048918 0.009528 -0.045237 0.022864 0.032441 0.097004 0.007893 -0.141029 0.152715 -0.111995 0.057074 0.147254 0.016261 -0.192794 0.046271 -0.182231 -0.027709 -0.018550 0.028602 0.221603 0.040805 -0.062414 -0.071945 -0.053759 -0.048358 -0.019002 -0.005242 -0.020934 0.016836 -0.148141 0.184419 -0.142588 0.024934 -0.061109 -0.163178 0.085791 -0.179494 -0.071028 0.047621 -0.033456 0.078833
27 -0.090560 -0.241606 0.138973 0.041946 0.009439 -0.129865 0.123908 -0.029346 -0.030772 0.095484 -0.068315 0.189756 0.037389 -0.155736 -0.016116 -0.177582 -0.020658 -0.111693 0.016994 0.033204 0.210505 0.018919 0.210325 0.056374 0.021860 0.000804 -0.000528 0.053860 -0.029596 0.215771 0.016626 0.111410 -0.132426 0.102489 -0.053340 -0.135191 0.177110 0.088899 0.006869 -0.009908 -0.198275 0.049956 0.060824 0.175291 -0.138927 0.146261 0.025291 -0.061034 -0.064000 0.138736 -0.092581 0.148046 0.051508 0.006798 -0.104573 -0.161773 -0.153790 0.062566 -0.104131 -0.049833 0.085022 -0.158722 -0.023807 0.089675 -0.017127 -0.083230 -0.000188 -0.098735 0.051592 -0.093432 -0.046633 0.012676 -0.079719 -0.000852 0.181405 0.028295 0.044149 -0.009652 0.027596 -0.033319 -0.089419 -0.081607 -0.014198 -0.128289 -0.192436 0.197413 -0.011846 -0.048991 0.006895 -0.044207 0.019177 0.031719 0.109998 0.011977 -0.157985 0.159597 -0.110842 0.048852 0.161445 0.023322 -0.206302 0.048551 -0.192865 -0.035746 -0.025318 0.029497 0.240769 0.044268 -0.067264 -0.075118 -0.060396 -0.048278 -0.018249 -0.007591 -0.017725 0.020552 -0.150043 0.194128 -0.152817 0.024732 -0.062485 -0.157126 0.094263 -0.186912 -0.082979 0.048844 -0.033230 0.086184
20 -0.079970 -0.240812 0.112705 0.060573 0.000636 -0.145917 0.112361 -0.023321 0.020298 0.076556 -0.036381 0.213248 0.023631 -0.138047 0.020147 -0.177202 -0.053929 -0.132473 0.007157 0.023018 0.207865 0.000199 0.185782 0.058676 0.047769 -0.010367 -0.001209 0.026456 -0.033097 0.191468 0.022454 0.100398 -0.125123 0.077037 -0.032461 -0.115284 0.169383 0.099418 -0.013227 -0.008541 -0.159679 0.052144 0.059253 0.149718 -0.146971 0.142485 0.051987 -0.049167 -0.052415 0.132817 -0.113271 0.150122 0.048032 -0.020811 -0.075097 -0.157161 -0.124220 0.068258 -0.070942 -0.072100 0.094829 -0.164059 0.009625 0.089142 -0.056261 -0.064416 -0.007540 -0.088302 0.055289 -0.101951 -0.053058 0.013788 -0.101732 0.000279 0.206796 0.043280 0.041369 -0.025861 0.019631 -0.063800 -0.076598 -0.044026 -0.015934 -0.110803 -0.194635 0.142710 0.021460 -0.046541 0.031665 -0.046814 0.019422 0.021054 0.122756 0.032935 -0.155875 0.158195 -0.088796 0.018192 0.161707 0.064165 -0.196088 0.048653 -0.204776 -0.028684 -0.060360 0.009510 0.206967 0.039310 -0.052180 -0.075368 -0.066462 -0.014006 -0.018090 -0.028834 -0.030456 0.037801 -0.141465 0.194479 -0.152528 0.020535 -0.049239 -0.133633 0.117603 -0.212093 -0.119143 0.039606 -0.050700 0.106622
13 -0.070016 -0.249768 0.095730 0.071755 -0.004385 -0.160275 0.103756 -0.022569 0.067744 0.068442 -0.012087 0.239285 0.005966 -0.129588 0.055214 -0.187830 -0.077408 -0.164157 0.002421 0.012368 0.214259 -0.012421 0.166222 0.068546 0.069080 -0.031082 -0.008186 0.010569 -0.043356 0.186746 0.033373 0.097978 -0.129998 0.050425 -0.017191 -0.111508 0.167265 0.123509 -0.028443 -0.006626 -0.130053 0.059062 0.064864 0.136976 -0.166205 0.152537 0.078145 -0.040596 -0.049471 0.149171 -0.131207 0.167992 0.039481 -0.034295 -0.052994 -0.169292 -0.108256 0.081096 -0.038307 -0.099179 0.099709 -0.175814 0.033861 0.090539 -0.090732 -0.056116 -0.019826 -0.084723 0.065717 -0.127357 -0.062610 0.014199 -0.126812 -0.001320 0.240731 0.043488 0.036297 -0.042905 0.007280 -0.099124 -0.072288 -0.008695 -0.019494 -0.094341 -0.215986 0.095103 0.061120 -0.049151 0.049742 -0.050071 0.015460 0.005256 0.138544 0.056088 -0.163167 0.159714 -0.074632 -0.012648 0.174343 0.093062 -0.193954 0.059828 -0.219069 -0.033552 -0.090453 -0.010063 0.193595 0.031282 -0.044135 -0.085667 -0.065569 0.012872 -0.022811 -0.048259 -0.040308 0.050791 -0.147154 0.198190 -0.155429 0.012779 -0.040212 -0.113174 0.142851 -0.234074 -0.161053 0.035308 -0.059340 0.125771
8 -0.090569 -0.251353 0.134178 0.056302 0.004729 -0.144480 0.119784 -0.026780 0.001820 0.091076 -0.050585 0.212107 0.026444 -0.154546 0.008698 -0.186137 -0.038760 -0.126357 0.017378 0.032968 0.211569 0.007768 0.200640 0.052879 0.038132 -0.000600 -0.000085 0.042676 -0.031117 0.212059 0.020064 0.111492 -0.131882 0.096622 -0.046642 -0.129975 0.180657 0.099619 0.002114 -0.000150 -0.179888 0.052715 0.061643 0.168767 -0.148902 0.150135 0.036060 -0.058748 -0.062349 0.143114 -0.109542 0.149705 0.053358 -0.005526 -0.095252 -0.162404 -0.145324 0.069643 -0.090338 -0.067451 0.091013 -0.173645 -0.007020 0.093885 -0.038108 -0.079327 0.000478 -0.101818 0.058355 -0.104826 -0.050613 0.008096 -0.095548 0.002959 0.205046 0.040541 0.042585 -0.019023 0.025676 -0.055501 -0.081449 -0.063816 -0.019006 -0.124973 -0.204080 0.173658 0.011085 -0.050623 0.025533 -0.051365 0.021727 0.025941 0.119927 0.025706 -0.163539 0.161372 -0.105382 0.030561 0.165501 0.044777 -0.201889 0.047789 -0.209566 -0.032207 -0.042414 0.014180 0.227503 0.038941 -0.061976 -0.083990 -0.067720 -0.028598 -0.015769 -0.020372 -0.029617 0.036564 -0.154861 0.201467 -0.161506 0.022319 -0.058534 -0.159103 0.114545 -0.207155 -0.107258 0.039731 -0.042610 0.097924
10 -0.094897 -0.228248 0.147801 0.037698 0.015270 -0.117531 0.124757 -0.034360 -0.046029 0.095465 -0.073612 0.176711 0.041967 -0.160793 -0.031661 -0.164336 -0.012205 -0.088734 0.017923 0.041424 0.200516 0.023571 0.209302 0.048665 0.005156 0.014194 0.008654 0.057323 -0.020344 0.209537 0.005867 0.111613 -0.124772 0.119925 -0.065111 -0.134436 0.179709 0.075208 0.016420 -0.006852 -0.203239 0.043939 0.062268 0.181200 -0.124083 0.140181 0.009882 -0.066451 -0.063910 0.123920 -0.083145 0.133706 0.059195 0.012376 -0.116094 -0.147198 -0.158341 0.050471 -0.122023 -0.037755 0.084333 -0.154308 -0.041209 0.087224 0.003038 -0.087721 0.006353 -0.107409 0.047579 -0.084509 -0.033915 0.003772 -0.061554 0.002610 0.168849 0.030553 0.044579 -0.000212 0.029800 -0.018787 -0.090158 -0.099743 -0.013530 -0.138001 -0.181487 0.216689 -0.033378 -0.049638 0.001153 -0.043095 0.029170 0.042708 0.100538 0.001441 -0.149649 0.157026 -0.119826 0.060508 0.149393 0.011604 -0.198327 0.040605 -0.184933 -0.028773 -0.013378 0.032409 0.243257 0.051382 -0.071478 -0.074937 -0.053905 -0.064957 -0.013635 0.002817 -0.014211 0.017321 -0.150610 0.197177 -0.150832 0.025456 -0.065293 -0.176811 0.083247 -0.172386 -0.058544 0.047484 -0.030161 0.078487
23 -0.098702 -0.222250 0.151417 0.034569 0.013899 -0.115633 0.123442 -0.032378 -0.059815 0.100293 -0.084020 0.168133 0.048867 -0.169987 -0.042267 -0.163107 -0.006209 -0.083755 0.023284 0.046880 0.195720 0.025711 0.209212 0.045667 0.002298 0.017441 0.004377 0.063034 -0.020074 0.218159 0.006582 0.118182 -0.126499 0.122987 -0.071863 -0.140722 0.181707 0.074048 0.020600 -0.004410 -0.210611 0.043717 0.059794 0.184702 -0.123780 0.133843 -0.002373 -0.064002 -0.073777 0.126470 -0.078466 0.130251 0.060277 0.014444 -0.121657 -0.151861 -0.167745 0.051638 -0.127751 -0.036634 0.082154 -0.155852 -0.040602 0.087836 0.014140 -0.093556 0.012174 -0.102244 0.050216 -0.075486 -0.034982 0.007561 -0.057422 0.004109 0.155196 0.027971 0.047325 0.006509 0.039975 -0.009064 -0.083736 -0.108261 -0.008797 -0.144329 -0.174726 0.231308 -0.041825 -0.045195 -0.006019 -0.042263 0.027049 0.045517 0.087738 -0.007003 -0.149234 0.150513 -0.122212 0.070703 0.144604 0.002822 -0.198529 0.040613 -0.178192 -0.032283 -0.002892 0.036271 0.240113 0.046755 -0.066709 -0.073584 -0.059606 -0.070235 -0.017520 0.007123 -0.014222 0.011038 -0.155354 0.192300 -0.145579 0.028000 -0.065345 -0.175155 0.072602 -0.167441 -0.050177 0.046465 -0.025391 0.071904
19 -0.090390 -0.226046 0.148260 0.036010 0.010989 -0.120622 0.118750 -0.034616 -0.042560 0.095887 -0.075972 0.176135 0.042081 -0.158243 -0.028929 -0.164359 -0.016920 -0.097974 0.021722 0.042412 0.197985 0.018318 0.205162 0.047841 0.011040 0.014220 0.004182 0.057939 -0.022025 0.207835 0.011538 0.113488 -0.123390 0.107279 -0.061538 -0.130944 0.169858 0.082264 0.018951 -0.004103 -0.196430 0.044828 0.058237 0.171891 -0.124560 0.135414 0.012093 -0.065018 -0.066441 0.128902 -0.084691 0.131940 0.050532 0.010097 -0.107366 -0.146421 -0.157512 0.057380 -0.109686 -0.041590 0.081432 -0.154497 -0.029603 0.087011 -0.002423 -0.087930 0.008701 -0.101303 0.047201 -0.083623 -0.036960 0.007633 -0.066421 0.004206 0.162063 0.025168 0.045983 0.001888 0.029587 -0.024004 -0.085082 -0.091166 -0.012025 -0.137460 -0.176994 0.207075 -0.024360 -0.044924 0.000765 -0.042859 0.021783 0.042214 0.099869 0.003325 -0.149151 0.155235 -0.115305 0.061405 0.148196 0.009559 -0.192131 0.045574 -0.184868 -0.031788 -0.015215 0.033032 0.232798 0.046545 -0.066113 -0.074688 -0.059092 -0.056837 -0.015402 0.000214 -0.013299 0.019853 -0.144574 0.192845 -0.149339 0.029913 -0.063299 -0.167849 0.080099 -0.174615 -0.068588 0.048671 -0.031518 0.074987
15 -0.097722 -0.210318 0.151506 0.024510 0.016592 -0.102179 0.119662 -0.037761 -0.068013 0.096170 -0.081750 0.150042 0.048205 -0.155831 -0.043191 -0.153038 -0.002169 -0.075863 0.018543 0.039594 0.185821 0.030793 0.202659 0.039020 -0.008130 0.020617 0.006917 0.065645 -0.012934 0.200750 0.003390 0.111054 -0.113411 0.120154 -0.066404 -0.129362 0.165556 0.067533 0.029827 -0.002125 -0.202704 0.039707 0.052971 0.173599 -0.110538 0.127090 -0.009840 -0.065086 -0.067343 0.114055 -0.069105 0.117752 0.054463 0.023149 -0.120591 -0.140496 -0.162417 0.043390 -0.123533 -0.022639 0.076163 -0.136060 -0.046045 0.076018 0.020296 -0.083989 0.012104 -0.101276 0.047708 -0.065287 -0.028781 0.003681 -0.048367 0.000074 0.136501 0.023130 0.043390 0.009269 0.031440 -0.006384 -0.083879 -0.103313 -0.009882 -0.139615 -0.160030 0.218950 -0.045516 -0.046715 -0.007126 -0.034092 0.026316 0.046395 0.083618 -0.014264 -0.138065 0.143865 -0.117099 0.078545 0.134578 -0.004207 -0.178922 0.036886 -0.167097 -0.026043 0.006367 0.037195 0.233178 0.047872 -0.068752 -0.072079 -0.050184 -0.070698 -0.015133 0.011518 -0.011933 0.010969 -0.139662 0.182074 -0.138831 0.030609 -0.061309 -0.174577 0.069565 -0.145676 -0.044293 0.048039 -0.017776 0.065670
21 -0.110319 -0.229096 0.169665 0.024666 0.014514 -0.118591 0.133087 -0.042579 -0.080360 0.114762 -0.095906 0.167333 0.055821 -0.182947 -0.054178 -0.169241 0.003127 -0.081014 0.026942 0.048944 0.207719 0.034161 0.226645 0.044530 -0.008426 0.022543 0.012657 0.076574 -0.014191 0.229648 0.008678 0.122876 -0.131532 0.139337 -0.080442 -0.149400 0.189609 0.078003 0.034232 -0.003206 -0.230840 0.047461 0.057431 0.194898 -0.129346 0.140007 -0.008265 -0.072262 -0.073691 0.129441 -0.072455 0.134281 0.065704 0.023596 -0.137724 -0.151950 -0.180023 0.048641 -0.147400 -0.022951 0.079117 -0.156633 -0.055288 0.092231 0.028009 -0.101532 0.013338 -0.118408 0.047800 -0.080660 -0.031382 0.002410 -0.055043 0.006153 0.157527 0.026545 0.044262 0.007914 0.041578 0.001528 -0.097738 -0.122510 -0.013637 -0.160565 -0.181193 0.254432 -0.056164 -0.050791 -0.006101 -0.044176 0.032637 0.052629 0.087114 -0.010935 -0.152029 0.158728 -0.138842 0.088730 0.150393 -0.011073 -0.208991 0.039671 -0.187143 -0.027481 0.010742 0.048603 0.263751 0.049985 -0.079933 -0.079431 -0.052715 -0.077944 -0.016399 0.020260 -0.013407 0.010769 -0.165869 0.202969 -0.152805 0.036113 -0.075083 -0.198692 0.074050 -0.172697 -0.041052 0.057011 -0.018270 0.069000
22 -0.075896 -0.228877 0.112112 0.055329 0.003729 -0.138552 0.102806 -0.026292 0.011815 0.075477 -0.037401 0.201109 0.024640 -0.137954 0.016552 -0.170956 -0.048277 -0.123816 0.015555 0.029840 0.195973 0.002899 0.179187 0.054621 0.037591 -0.003891 -0.002861 0.025663 -0.027827 0.190249 0.020342 0.096051 -0.123330 0.078186 -0.036369 -0.116489 0.158823 0.094188 -0.008430 -0.008431 -0.148899 0.045844 0.054265 0.148211 -0.137590 0.139533 0.036815 -0.046521 -0.050606 0.126925 -0.106492 0.139294 0.039381 -0.014864 -0.070804 -0.148263 -0.119024 0.069489 -0.070099 -0.071281 0.088422 -0.156475 0.004566 0.088019 -0.049222 -0.065499 -0.010124 -0.085438 0.057902 -0.093274 -0.049162 0.013149 -0.093166 0.000137 0.198431 0.039099 0.036568 -0.018572 0.024087 -0.058112 -0.076909 -0.046046 -0.012009 -0.112688 -0.185704 0.137582 0.020764 -0.048870 0.030080 -0.046075 0.018719 0.019341 0.115234 0.024962 -0.148960 0.149990 -0.090432 0.023743 0.157588 0.049328 -0.186955 0.050143 -0.188325 -0.026431 -0.049320 0.014928 0.198444 0.040228 -0.051603 -0.074410 -0.057696 -0.020944 -0.014997 -0.022065 -0.028349 0.033458 -0.141260 0.182313 -0.146077 0.018043 -0.046940 -0.137350 0.107870 -0.198553 -0.107552 0.038003 -0.043713 0.096906
16 -0.093216 -0.223098 0.142654 0.038676 0.010954 -0.121589 0.121106 -0.033357 -0.039624 0.094353 -0.072540 0.177248 0.037875 -0.152333 -0.021165 -0.167131 -0.019627 -0.100562 0.014686 0.034833 0.194297 0.021767 0.204535 0.044580 0.014069 0.010163 0.006227 0.054347 -0.022337 0.202931 0.009860 0.112309 -0.124858 0.105348 -0.055789 -0.128001 0.176455 0.078818 0.012483 -0.007248 -0.194768 0.048321 0.060323 0.171736 -0.126618 0.132497 0.015176 -0.059009 -0.067666 0.131011 -0.081979 0.133216 0.053732 0.011159 -0.105403 -0.148468 -0.152803 0.056977 -0.108892 -0.046021 0.082977 -0.156042 -0.031259 0.081737 -0.003567 -0.084811 0.005595 -0.097034 0.049646 -0.086499 -0.036164 0.004467 -0.068965 0.000712 0.170678 0.028199 0.045666 -0.003955 0.028784 -0.023479 -0.080905 -0.089359 -0.011717 -0.134508 -0.175576 0.205590 -0.021679 -0.042709 0.006821 -0.040668 0.019211 0.038637 0.094156 0.005443 -0.147428 0.154753 -0.110065 0.057296 0.146684 0.011100 -0.189713 0.046126 -0.180278 -0.032282 -0.019423 0.028145 0.229068 0.044195 -0.062648 -0.073202 -0.057869 -0.049514 -0.019555 0.002469 -0.014655 0.020320 -0.147425 0.190815 -0.143919 0.024000 -0.061789 -0.162411 0.082706 -0.174212 -0.066345 0.048365 -0.029034 0.082714
18 -0.091769 -0.236979 0.137033 0.044142 0.013196 -0.132777 0.117108 -0.029323 -0.023045 0.095475 -0.063977 0.192622 0.039591 -0.157384 -0.012919 -0.177811 -0.026561 -0.105669 0.014336 0.039732 0.207556 0.016583 0.208115 0.051230 0.023012 0.008816 0.004367 0.049687 -0.021881 0.210144 0.013878 0.113830 -0.127034 0.108060 -0.051839 -0.132802 0.175718 0.087934 0.010015 -0.001365 -0.190182 0.051044 0.057943 0.170600 -0.137780 0.143694 0.018263 -0.061029 -0.061959 0.129843 -0.095084 0.138221 0.056039 0.007506 -0.104217 -0.151325 -0.148915 0.057468 -0.106259 -0.051725 0.088233 -0.163686 -0.023449 0.089431 -0.015260 -0.082045 0.003257 -0.103259 0.057032 -0.087771 -0.045234 0.008793 -0.076183 -0.001543 0.185414 0.035193 0.046615 -0.005143 0.029925 -0.036093 -0.089683 -0.078518 -0.012504 -0.135978 -0.191022 0.195326 -0.008894 -0.048182 0.008589 -0.041153 0.023925 0.031658 0.111393 0.007206 -0.158023 0.159898 -0.113405 0.051944 0.157808 0.024634 -0.200439 0.049802 -0.193688 -0.029597 -0.026744 0.027169 0.230012 0.042554 -0.065333 -0.081113 -0.061537 -0.049119 -0.018556 -0.008713 -0.020385 0.020680 -0.149735 0.193112 -0.149011 0.023186 -0.060957 -0.167033 0.094650 -0.187383 -0.081250 0.042094 -0.039273 0.085738
12 -0.095116 -0.246634 0.135421 0.048560 0.006049 -0.140394 0.116893 -0.033117 -0.012971 0.092738 -0.051199 0.208361 0.031161 -0.153178 -0.002188 -0.177249 -0.038496 -0.117770 0.016470 0.029334 0.211215 0.015416 0.203944 0.052992 0.026370 -0.001591 0.002591 0.046068 -0.027487 0.209139 0.019721 0.113260 -0.135434 0.101060 -0.047725 -0.127564 0.177535 0.097510 0.003137 -0.002597 -0.184203 0.051032 0.064883 0.168718 -0.146386 0.148835 0.032764 -0.059582 -0.066780 0.136172 -0.103978 0.150095 0.051781 -0.007917 -0.099751 -0.163808 -0.146065 0.067483 -0.096507 -0.058439 0.093364 -0.166590 -0.015301 0.093606 -0.034003 -0.077766 0.001686 -0.100635 0.059613 -0.094871 -0.042718 0.012508 -0.086790 0.002504 0.197378 0.037285 0.048172 -0.011627 0.027408 -0.042636 -0.084679 -0.068249 -0.018815 -0.129577 -0.198878 0.184624 -0.001602 -0.049936 0.017703 -0.050327 0.020768 0.033676 0.113353 0.017946 -0.157579 0.159679 -0.105124 0.037582 0.164928 0.039459 -0.207908 0.046218 -0.201416 -0.031099 -0.038133 0.017167 0.231153 0.043670 -0.059275 -0.083618 -0.067227 -0.037872 -0.018469 -0.013351 -0.022151 0.032454 -0.155432 0.203778 -0.160636 0.020401 -0.060103 -0.161049 0.106769 -0.197520 -0.098974 0.044001 -0.045306 0.096547
