34 128
34 -0.048509 -0.228030 0.053575 -0.036807 -0.010230 -0.091988 0.130406 0.033447 -0.074203 0.055563 -0.102309 0.179158 0.107952 -0.132606 -0.042662 -0.136430 -0.037795 -0.096889 0.016840 -0.019617 0.254061 0.023040 0.230035 0.033165 -0.038242 -0.045645 -0.043899 0.036584 0.017047 0.118280 0.029974 0.080744 -0.174322 0.049730 -0.106537 -0.098600 0.182355 -0.001384 -0.014020 -0.089301 -0.237240 0.014079 0.136920 0.232279 -0.049064 0.142408 0.041469 -0.079743 -0.028076 0.059171 -0.087424 0.111938 0.081388 0.094475 -0.238803 -0.142870 -0.090651 0.036303 -0.039645 0.037207 0.168339 -0.069052 -0.079060 0.069593 0.005712 0.023183 -0.056723 0.003437 0.053698 -0.053606 -0.069855 0.063863 0.008377 -0.069160 0.126719 0.025213 0.125029 0.070042 -0.007989 0.021768 -0.129751 -0.172004 -0.024550 -0.095948 -0.153232 0.239389 -0.013890 -0.074953 -0.042490 0.009844 0.061945 0.042769 0.031632 -0.099806 -0.153111 0.159540 -0.041690 -0.094196 0.073867 0.005530 -0.223608 0.030629 -0.087167 -0.048075 -0.057347 -0.051426 0.215185 0.077857 -0.038177 -0.034781 -0.016240 -0.008181 -0.025461 0.048613 -0.079223 -0.014025 -0.103128 0.255755 -0.249287 -0.024183 -0.073985 -0.055479 0.108430 -0.175995 -0.121928 0.077185 0.072092 0.170954
1 -0.037935 -0.245375 0.041695 -0.024958 -0.011747 -0.120859 0.120054 0.107299 0.022827 0.031379 -0.063554 0.204512 0.086611 -0.131493 0.032446 -0.117657 -0.049506 -0.136500 0.019704 -0.075810 0.220910 -0.010568 0.201659 0.004814 0.032514 -0.051551 -0.040675 0.000725 0.039357 0.078110 0.048249 0.061142 -0.161920 0.020467 -0.061694 -0.116730 0.162065 -0.008496 -0.034591 -0.074149 -0.185292 -0.047512 0.170732 0.245894 -0.116355 0.112690 0.073948 -0.079187 0.027996 0.100118 -0.135655 0.112999 0.056733 0.081348 -0.195513 -0.127967 -0.062503 0.084496 0.000254 0.001541 0.198417 -0.101938 -0.035286 0.095838 -0.046740 0.093318 -0.043699 0.019153 0.060925 -0.104593 -0.090741 0.065675 -0.051655 -0.069304 0.207873 0.064260 0.118094 0.038625 -0.030912 -0.071792 -0.149167 -0.088690 -0.029461 -0.016766 -0.167835 0.109909 0.061750 -0.063228 0.035281 0.051055 0.112110 -0.003812 0.035869 -0.032090 -0.142469 0.112683 0.013304 -0.189130 0.100563 0.069544 -0.175098 0.026365 -0.092074 -0.019825 -0.105165 -0.060846 0.151707 0.075602 -0.018812 -0.038859 -0.009614 0.082901 -0.011591 0.078073 -0.100804 0.000540 -0.069704 0.208410 -0.247116 -0.070535 -0.051817 -0.001082 0.161520 -0.164850 -0.207958 0.003534 0.109572 0.186396
33 -0.054219 -0.249981 0.059173 -0.040769 -0.012278 -0.102161 0.135697 0.042189 -0.075108 0.057321 -0.104351 0.191895 0.115318 -0.144112 -0.040257 -0.145283 -0.045148 -0.105813 0.013769 -0.029542 0.278320 0.025213 0.246600 0.039845 -0.043468 -0.047812 -0.052197 0.043541 0.020652 0.124769 0.025474 0.088948 -0.180945 0.053936 -0.119008 -0.110878 0.185688 -0.002501 -0.020446 -0.099004 -0.254381 0.012382 0.146324 0.239951 -0.053532 0.157017 0.041750 -0.082869 -0.034254 0.061527 -0.097331 0.126706 0.084287 0.094200 -0.254868 -0.148845 -0.098079 0.038444 -0.043050 0.046621 0.184956 -0.078923 -0.081107 0.074620 0.004866 0.022707 -0.055583 0.009266 0.047924 -0.057129 -0.066587 0.065868 0.014705 -0.073084 0.130074 0.026668 0.139642 0.067187 -0.007663 0.020025 -0.128676 -0.182671 -0.028478 -0.102803 -0.162870 0.250882 -0.018434 -0.081812 -0.041949 0.007362 0.070634 0.049913 0.035713 -0.106586 -0.156612 0.169805 -0.044399 -0.103353 0.083884 0.006433 -0.237792 0.026504 -0.091762 -0.043412 -0.050457 -0.051458 0.225097 0.086475 -0.033297 -0.039118 -0.021159 -0.010482 -0.026598 0.041717 -0.076065 -0.012379 -0.105080 0.253265 -0.255540 -0.032921 -0.072718 -0.055096 0.106701 -0.181250 -0.117353 0.076978 0.063630 0.168575
3 -0.050670 -0.234198 0.056176 -0.035830 -0.011554 -0.100615 0.129022 0.051740 -0.055692 0.048273 -0.089170 0.184774 0.099519 -0.138202 -0.026757 -0.137671 -0.040514 -0.113132 0.016485 -0.037649 0.248524 0.017770 0.224085 0.034102 -0.019907 -0.046839 -0.045242 0.034029 0.028890 0.113330 0.027392 0.073150 -0.175196 0.047341 -0.101695 -0.110991 0.180321 0.000304 -0.018526 -0.087808 -0.225933 -0.008052 0.147615 0.241436 -0.067187 0.140302 0.050288 -0.082084 -0.023081 0.070839 -0.097475 0.113440 0.071836 0.090089 -0.233444 -0.141869 -0.087234 0.048641 -0.036034 0.034797 0.176525 -0.079450 -0.068078 0.081174 -0.006095 0.036924 -0.051023 0.012956 0.051672 -0.072610 -0.069360 0.064726 -0.004003 -0.070141 0.150885 0.031252 0.133018 0.059285 -0.011061 -0.000665 -0.134913 -0.154312 -0.029352 -0.081851 -0.159265 0.214386 0.003634 -0.073747 -0.025035 0.015860 0.075691 0.035134 0.031620 -0.084780 -0.154668 0.152639 -0.034175 -0.114409 0.086325 0.020099 -0.216866 0.028921 -0.090933 -0.039809 -0.062118 -0.046810 0.200063 0.079856 -0.028844 -0.040561 -0.012882 0.010276 -0.021250 0.052296 -0.078994 -0.007301 -0.095486 0.238022 -0.236141 -0.038797 -0.068744 -0.046594 0.112158 -0.173150 -0.137090 0.059828 0.077015 0.170590
2 -0.041089 -0.233825 0.050578 -0.038627 -0.011931 -0.103871 0.125843 0.061558 -0.048619 0.047894 -0.090973 0.193667 0.106724 -0.138705 -0.019790 -0.135681 -0.046283 -0.107331 0.018073 -0.037525 0.249054 0.013920 0.225186 0.024761 -0.021360 -0.043353 -0.045390 0.030333 0.032834 0.105874 0.036806 0.072959 -0.176347 0.047592 -0.099646 -0.105340 0.179012 -0.008923 -0.014863 -0.084480 -0.216877 -0.007930 0.150091 0.240860 -0.071360 0.134320 0.045658 -0.082553 -0.011654 0.067762 -0.103750 0.103806 0.077769 0.096684 -0.235447 -0.134558 -0.078337 0.057000 -0.033363 0.031739 0.178893 -0.081915 -0.066608 0.075399 -0.010284 0.052995 -0.053494 0.005912 0.051849 -0.072395 -0.078499 0.063085 -0.002808 -0.073830 0.154453 0.042557 0.129699 0.057401 -0.014257 -0.010406 -0.139418 -0.152307 -0.032538 -0.071915 -0.157402 0.205679 0.011281 -0.074695 -0.011190 0.019844 0.083190 0.030588 0.030717 -0.086604 -0.156928 0.146083 -0.030131 -0.128163 0.078883 0.029245 -0.206982 0.025871 -0.085730 -0.040116 -0.071433 -0.058423 0.198077 0.081661 -0.036195 -0.038025 -0.017767 0.021153 -0.018537 0.057200 -0.090345 -0.010667 -0.093077 0.242974 -0.252275 -0.044338 -0.068406 -0.041920 0.122254 -0.176097 -0.143870 0.053015 0.088033 0.174701
32 -0.053713 -0.241885 0.051801 -0.039524 -0.013312 -0.097549 0.134098 0.043382 -0.066342 0.055075 -0.098619 0.189352 0.106208 -0.134438 -0.033357 -0.137304 -0.042129 -0.110827 0.012293 -0.032323 0.260240 0.024259 0.229445 0.033670 -0.035653 -0.048445 -0.050788 0.040747 0.022905 0.113836 0.027303 0.081593 -0.170380 0.048150 -0.109369 -0.107768 0.186770 0.002569 -0.019027 -0.096091 -0.240786 0.006501 0.143411 0.236819 -0.063358 0.145137 0.047367 -0.075363 -0.027808 0.061952 -0.096204 0.120331 0.077202 0.094281 -0.241853 -0.147853 -0.092362 0.040833 -0.040377 0.036017 0.178988 -0.077231 -0.075517 0.078656 -0.004837 0.029690 -0.058855 0.014293 0.050345 -0.068070 -0.073679 0.067886 0.004889 -0.075560 0.136422 0.030625 0.131538 0.063608 -0.012962 0.011100 -0.131872 -0.167845 -0.022719 -0.088228 -0.161676 0.233616 -0.004258 -0.074456 -0.031388 0.009808 0.071816 0.042207 0.034444 -0.096937 -0.150811 0.155333 -0.033590 -0.109992 0.077276 0.008417 -0.221867 0.027819 -0.093034 -0.046061 -0.054772 -0.046372 0.216171 0.077720 -0.035179 -0.036692 -0.016034 -0.000473 -0.024210 0.052478 -0.077045 -0.009762 -0.102429 0.250023 -0.241349 -0.037792 -0.071702 -0.053221 0.110822 -0.173954 -0.124737 0.063708 0.067947 0.174383
4 -0.034795 -0.223944 0.043381 -0.024393 -0.007379 -0.112549 0.111813 0.093218 0.001869 0.034097 -0.064292 0.196224 0.090897 -0.129974 0.017289 -0.118489 -0.047477 -0.125608 0.020661 -0.056525 0.220987 -0.005855 0.197363 0.005293 0.019632 -0.042818 -0.042127 0.008984 0.041390 0.082702 0.042258 0.058096 -0.161742 0.027234 -0.069468 -0.110985 0.169964 -0.004478 -0.024542 -0.066574 -0.183981 -0.038604 0.162195 0.244298 -0.095347 0.114138 0.062113 -0.083837 0.010758 0.085687 -0.117335 0.097722 0.063383 0.085601 -0.202513 -0.123400 -0.064466 0.073154 -0.005352 0.003462 0.192602 -0.096326 -0.041136 0.088572 -0.026617 0.082935 -0.050597 0.012882 0.064034 -0.093567 -0.085157 0.065236 -0.036366 -0.074130 0.195561 0.056962 0.122386 0.049288 -0.029116 -0.047062 -0.143143 -0.107427 -0.029618 -0.031755 -0.160151 0.136003 0.055062 -0.068111 0.022182 0.045259 0.098414 0.002296 0.027226 -0.048360 -0.146769 0.122404 -0.004734 -0.168512 0.091922 0.053208 -0.182341 0.028254 -0.085370 -0.019617 -0.100618 -0.059611 0.156443 0.073910 -0.025412 -0.042673 -0.004622 0.063480 -0.014456 0.072452 -0.095320 0.001609 -0.077642 0.214187 -0.240532 -0.059099 -0.052375 -0.015687 0.144205 -0.166911 -0.188797 0.017189 0.108359 0.179294
24 -0.053170 -0.238733 0.061074 -0.042068 -0.012718 -0.092227 0.136348 0.027213 -0.088482 0.061856 -0.106370 0.181338 0.116786 -0.140143 -0.053572 -0.148772 -0.040675 -0.104051 0.014192 -0.023029 0.275580 0.033168 0.243066 0.051267 -0.049720 -0.046130 -0.053475 0.046337 0.013295 0.129443 0.019582 0.087972 -0.181554 0.050719 -0.119777 -0.106820 0.189096 -0.001520 -0.015154 -0.106492 -0.256392 0.025300 0.136327 0.235706 -0.045186 0.158132 0.035437 -0.073032 -0.038656 0.053766 -0.080176 0.125581 0.078749 0.100982 -0.248297 -0.147572 -0.095700 0.030570 -0.051270 0.048170 0.170871 -0.069455 -0.082449 0.068598 0.005794 0.011111 -0.061196 0.012860 0.042040 -0.051470 -0.063951 0.067453 0.017740 -0.073976 0.116070 0.015250 0.131743 0.065430 -0.007428 0.036580 -0.123839 -0.185168 -0.023535 -0.105590 -0.160678 0.259226 -0.030373 -0.075543 -0.050030 0.001729 0.056378 0.054298 0.036293 -0.113303 -0.154258 0.174249 -0.045395 -0.082818 0.075632 -0.005961 -0.240195 0.034872 -0.084758 -0.050164 -0.043751 -0.041190 0.232421 0.083811 -0.037466 -0.032948 -0.015937 -0.025988 -0.029972 0.040168 -0.075330 -0.016608 -0.109327 0.255350 -0.242046 -0.020977 -0.075939 -0.065116 0.096362 -0.183972 -0.101437 0.090047 0.059839 0.170883
14 -0.038612 -0.226956 0.046421 -0.033737 -0.010301 -0.101660 0.112900 0.074386 -0.016454 0.041657 -0.076450 0.189695 0.087763 -0.126367 0.007092 -0.119259 -0.044655 -0.116292 0.019617 -0.054061 0.225874 0.006092 0.199975 0.016837 0.003820 -0.040647 -0.038418 0.018721 0.028278 0.091360 0.040232 0.064345 -0.160447 0.033312 -0.071960 -0.106763 0.162987 -0.006169 -0.024922 -0.074284 -0.195539 -0.024298 0.149668 0.232833 -0.083015 0.123355 0.058140 -0.074472 0.003370 0.082175 -0.113015 0.101280 0.062184 0.085766 -0.202739 -0.126613 -0.072493 0.064968 -0.016563 0.010553 0.179003 -0.088891 -0.046032 0.078339 -0.025274 0.067059 -0.044854 0.010152 0.056191 -0.084272 -0.082325 0.064792 -0.028590 -0.065751 0.175935 0.050185 0.120762 0.047996 -0.023359 -0.037084 -0.136107 -0.113974 -0.025800 -0.041445 -0.159486 0.155588 0.035209 -0.068380 0.007688 0.031608 0.089439 0.010267 0.031604 -0.057574 -0.145400 0.127455 -0.011337 -0.146599 0.088510 0.042510 -0.188269 0.024424 -0.087153 -0.025741 -0.086196 -0.055156 0.169043 0.074941 -0.028976 -0.040737 -0.014417 0.045038 -0.018856 0.063407 -0.085960 -0.002919 -0.083750 0.214131 -0.236896 -0.049662 -0.057365 -0.025373 0.132390 -0.164428 -0.161968 0.026389 0.089832 0.168039
7 -0.019140 -0.247845 0.019395 -0.004782 -0.018158 -0.126210 0.119886 0.149622 0.090750 0.014025 -0.033398 0.217487 0.064460 -0.126683 0.090893 -0.093289 -0.058465 -0.163242 0.008637 -0.110095 0.192088 -0.036614 0.178387 -0.018637 0.085285 -0.067192 -0.047520 -0.042075 0.041107 0.054994 0.072528 0.046625 -0.148720 -0.014108 -0.025152 -0.121914 0.156548 -0.006746 -0.064095 -0.058174 -0.150411 -0.077110 0.188660 0.248482 -0.161220 0.098984 0.107771 -0.077891 0.062833 0.125011 -0.160604 0.118523 0.040346 0.062236 -0.152061 -0.120982 -0.045056 0.102463 0.045088 -0.028689 0.216488 -0.113352 0.003764 0.119084 -0.076081 0.132306 -0.036254 0.030691 0.078540 -0.141014 -0.104992 0.079865 -0.112584 -0.064638 0.266520 0.091862 0.096318 0.027897 -0.055915 -0.126254 -0.155714 -0.014125 -0.028278 0.051127 -0.173030 0.017967 0.112786 -0.046381 0.074286 0.084989 0.146948 -0.039677 0.041143 0.022385 -0.123204 0.082719 0.062002 -0.249564 0.109513 0.105779 -0.134513 0.022144 -0.105575 0.000635 -0.146796 -0.076773 0.098220 0.065255 0.004268 -0.040147 0.005241 0.154547 -0.007972 0.088579 -0.111420 0.013475 -0.051474 0.163488 -0.233231 -0.088742 -0.034454 0.039635 0.213636 -0.152151 -0.271784 -0.045253 0.141754 0.198877
28 -0.058157 -0.243057 0.059246 -0.040295 -0.014154 -0.090737 0.135622 0.034879 -0.076194 0.055755 -0.098650 0.185179 0.107597 -0.131198 -0.044735 -0.140143 -0.040382 -0.111146 0.014700 -0.028584 0.262717 0.026094 0.235871 0.041062 -0.041387 -0.049713 -0.055221 0.041837 0.018942 0.121213 0.024274 0.087109 -0.171624 0.049017 -0.113499 -0.111915 0.184619 0.003322 -0.020130 -0.099992 -0.250369 0.008867 0.143438 0.235929 -0.057331 0.149227 0.041038 -0.076700 -0.036657 0.059982 -0.093541 0.127700 0.079830 0.087781 -0.238015 -0.149469 -0.097859 0.031334 -0.045456 0.043701 0.175497 -0.074568 -0.074296 0.075153 0.003360 0.019438 -0.058129 0.017366 0.041778 -0.063565 -0.066230 0.068692 0.007290 -0.075465 0.125695 0.020796 0.129907 0.067857 -0.014665 0.024745 -0.126333 -0.176045 -0.021864 -0.092990 -0.159189 0.243542 -0.017025 -0.073293 -0.042985 0.007931 0.064568 0.046178 0.032098 -0.100842 -0.145314 0.159592 -0.037397 -0.094451 0.080747 0.000419 -0.230766 0.033140 -0.091189 -0.047249 -0.045962 -0.041658 0.221540 0.084679 -0.029910 -0.038406 -0.014712 -0.009770 -0.030440 0.042409 -0.070700 -0.014806 -0.104788 0.243222 -0.239437 -0.033658 -0.070822 -0.052679 0.102964 -0.172119 -0.120027 0.073821 0.063918 0.169606
6 -0.014064 -0.267414 0.012524 0.013504 -0.018963 -0.145482 0.124710 0.193875 0.142998 0.004368 -0.007604 0.238130 0.051455 -0.123288 0.135339 -0.083125 -0.071067 -0.194053 0.012964 -0.144323 0.177890 -0.059383 0.170251 -0.047633 0.128587 -0.078468 -0.043610 -0.074371 0.052454 0.044837 0.089492 0.029749 -0.142685 -0.032782 0.005364 -0.133033 0.161779 0.002027 -0.087552 -0.051736 -0.129430 -0.106902 0.216273 0.258795 -0.211020 0.089278 0.136767 -0.086354 0.095459 0.154537 -0.190812 0.127659 0.029331 0.046678 -0.124932 -0.129133 -0.033887 0.128297 0.076065 -0.061274 0.245859 -0.128635 0.030019 0.137675 -0.103516 0.167634 -0.037789 0.034449 0.088434 -0.172329 -0.118792 0.085591 -0.156513 -0.065412 0.325450 0.115798 0.093014 0.019806 -0.075769 -0.171909 -0.178114 0.031947 -0.027981 0.096482 -0.183304 -0.049288 0.166933 -0.042722 0.114464 0.110286 0.179291 -0.066432 0.044073 0.066673 -0.119123 0.059633 0.097990 -0.311457 0.133368 0.141265 -0.107418 0.015331 -0.112020 0.017180 -0.184809 -0.084516 0.069996 0.066672 0.016373 -0.045238 0.011375 0.212581 -0.000309 0.111316 -0.124284 0.027390 -0.032300 0.141558 -0.234636 -0.119235 -0.018805 0.068989 0.258983 -0.156533 -0.335792 -0.079280 0.170247 0.207389
30 -0.046636 -0.237235 0.050449 -0.035554 -0.018535 -0.091621 0.133351 0.035283 -0.070305 0.056027 -0.103738 0.180015 0.105929 -0.134475 -0.040107 -0.139568 -0.041717 -0.104678 0.008911 -0.026218 0.260816 0.020366 0.233093 0.036337 -0.035104 -0.049738 -0.045066 0.038577 0.011879 0.116636 0.023977 0.078935 -0.167670 0.041835 -0.109985 -0.099143 0.177211 0.002189 -0.017835 -0.101370 -0.239778 0.013603 0.138968 0.230975 -0.051430 0.147865 0.044166 -0.077764 -0.029863 0.062873 -0.090442 0.123134 0.078286 0.084333 -0.231577 -0.142462 -0.095925 0.036131 -0.038289 0.039674 0.174652 -0.075250 -0.070017 0.071506 0.005499 0.020625 -0.058679 0.010158 0.047208 -0.061043 -0.063341 0.063021 0.010030 -0.070878 0.126781 0.020169 0.130471 0.065916 -0.010019 0.021652 -0.127834 -0.167980 -0.027317 -0.093590 -0.153938 0.233664 -0.018338 -0.072821 -0.042230 0.008925 0.067157 0.040764 0.035563 -0.092279 -0.144408 0.157120 -0.038123 -0.092469 0.076542 0.004501 -0.213409 0.028883 -0.087035 -0.048916 -0.051474 -0.046652 0.210825 0.078950 -0.034866 -0.034486 -0.020400 -0.012588 -0.030167 0.038127 -0.065799 -0.012788 -0.100623 0.235434 -0.232178 -0.023238 -0.071932 -0.048488 0.099327 -0.167791 -0.108423 0.074066 0.064261 0.160222
8 -0.042026 -0.240516 0.050533 -0.032307 -0.014290 -0.105521 0.125883 0.072503 -0.026005 0.045510 -0.081144 0.195405 0.094511 -0.134577 0.000581 -0.130328 -0.045212 -0.119441 0.022331 -0.047331 0.238268 0.006414 0.215429 0.015930 -0.002619 -0.042122 -0.045529 0.021464 0.031373 0.101006 0.037383 0.070871 -0.168998 0.038476 -0.087265 -0.113561 0.179524 -0.005898 -0.020931 -0.076962 -0.210587 -0.022546 0.152159 0.246260 -0.082830 0.135159 0.053715 -0.082047 -0.005028 0.080600 -0.116182 0.108014 0.072307 0.089791 -0.222418 -0.134482 -0.079893 0.059147 -0.022829 0.017840 0.185028 -0.091226 -0.055049 0.087534 -0.018192 0.057876 -0.046739 0.011272 0.058029 -0.084979 -0.083198 0.065291 -0.024648 -0.072539 0.173372 0.047954 0.122660 0.054216 -0.022494 -0.027122 -0.138794 -0.133479 -0.031474 -0.054325 -0.167096 0.179595 0.030673 -0.070358 -0.001024 0.028101 0.094151 0.016082 0.032830 -0.067403 -0.150633 0.133431 -0.015958 -0.149281 0.086168 0.034574 -0.198057 0.023873 -0.095947 -0.031740 -0.077332 -0.059888 0.183629 0.074113 -0.027490 -0.043389 -0.014990 0.041891 -0.015979 0.062555 -0.094417 -0.002182 -0.089351 0.227521 -0.247400 -0.051685 -0.063852 -0.033508 0.137044 -0.168008 -0.162549 0.033416 0.093860 0.173726
9 -0.049862 -0.241605 0.049987 -0.040310 -0.013925 -0.101630 0.130598 0.053872 -0.050115 0.050055 -0.093008 0.194467 0.106420 -0.141792 -0.026235 -0.139075 -0.047613 -0.110484 0.013805 -0.038658 0.256658 0.020838 0.234126 0.031748 -0.025976 -0.045829 -0.049223 0.029033 0.022221 0.113201 0.030748 0.082293 -0.176973 0.041035 -0.099642 -0.111998 0.182349 -0.004071 -0.024282 -0.092548 -0.238544 -0.005677 0.150181 0.243957 -0.068979 0.144673 0.049554 -0.081850 -0.020627 0.066058 -0.105229 0.121611 0.072560 0.091699 -0.232996 -0.144260 -0.088872 0.046399 -0.036624 0.032591 0.184329 -0.081622 -0.071734 0.080366 -0.006408 0.037766 -0.052712 0.012456 0.048423 -0.069498 -0.070429 0.068126 0.002120 -0.074449 0.152143 0.030601 0.130729 0.063009 -0.017049 0.002009 -0.132660 -0.157962 -0.031444 -0.085095 -0.165120 0.214675 -0.000063 -0.076117 -0.026895 0.017291 0.080526 0.034543 0.040375 -0.082789 -0.154518 0.149602 -0.027393 -0.118780 0.084215 0.022616 -0.221519 0.024427 -0.092613 -0.039259 -0.061692 -0.050607 0.202463 0.084821 -0.033983 -0.040457 -0.014147 0.009721 -0.020858 0.049134 -0.081476 -0.011027 -0.099718 0.244972 -0.247574 -0.035864 -0.069835 -0.045705 0.110957 -0.172630 -0.134020 0.063592 0.072701 0.169858
20 -0.046813 -0.228199 0.054249 -0.040726 -0.014430 -0.099571 0.125217 0.046266 -0.064126 0.049973 -0.097165 0.178633 0.108627 -0.134529 -0.032379 -0.135992 -0.045577 -0.100430 0.017761 -0.033348 0.251914 0.017284 0.222787 0.034707 -0.029077 -0.036149 -0.039244 0.037669 0.025862 0.105411 0.022661 0.075265 -0.168031 0.047098 -0.099661 -0.101394 0.175855 -0.008638 -0.014273 -0.093129 -0.227260 -0.001803 0.134613 0.230622 -0.051358 0.139574 0.042654 -0.077078 -0.021511 0.059799 -0.098289 0.106761 0.076737 0.089068 -0.232658 -0.132874 -0.084671 0.039898 -0.042484 0.037066 0.175639 -0.075100 -0.070297 0.071426 -0.001982 0.033471 -0.052863 0.010258 0.045275 -0.057173 -0.071465 0.060772 0.006134 -0.070850 0.134725 0.031940 0.132608 0.058562 -0.007377 0.008528 -0.126946 -0.163180 -0.027251 -0.090595 -0.151364 0.220249 -0.006404 -0.074924 -0.029962 0.013064 0.071977 0.036982 0.031851 -0.092615 -0.150170 0.148494 -0.035690 -0.106673 0.074528 0.017732 -0.215375 0.024316 -0.086662 -0.037507 -0.056572 -0.045994 0.199595 0.078358 -0.031614 -0.034398 -0.019531 0.002671 -0.022813 0.050100 -0.080706 -0.012390 -0.093614 0.241045 -0.239616 -0.032218 -0.069648 -0.045296 0.103067 -0.173288 -0.119663 0.064371 0.067813 0.162952
5 -0.030734 -0.254754 0.026997 -0.012496 -0.013462 -0.123476 0.128636 0.118958 0.052124 0.023498 -0.045343 0.215894 0.074107 -0.126035 0.057563 -0.111040 -0.059373 -0.155548 0.010417 -0.088277 0.216820 -0.017318 0.194075 -0.002105 0.053468 -0.064869 -0.048130 -0.024653 0.036241 0.074172 0.056740 0.053546 -0.157725 0.004829 -0.045192 -0.124405 0.169298 0.000776 -0.054947 -0.069125 -0.173577 -0.057066 0.176966 0.247001 -0.140878 0.114980 0.092168 -0.079960 0.036625 0.107594 -0.146265 0.125821 0.055018 0.062540 -0.173482 -0.135762 -0.057580 0.086610 0.023419 -0.017026 0.209608 -0.108250 -0.014219 0.111518 -0.059319 0.105023 -0.041110 0.023594 0.071629 -0.123068 -0.097099 0.076579 -0.081930 -0.074198 0.236332 0.071154 0.106185 0.034062 -0.049374 -0.091030 -0.155749 -0.059307 -0.029054 0.009968 -0.176524 0.075913 0.086127 -0.052916 0.048433 0.064331 0.130433 -0.018688 0.041301 -0.007071 -0.135265 0.104089 0.032997 -0.214490 0.110879 0.085116 -0.163391 0.022951 -0.102709 -0.014079 -0.125229 -0.068674 0.135307 0.070933 -0.010132 -0.042001 -0.004783 0.111173 -0.010213 0.076602 -0.104062 0.010725 -0.060810 0.189165 -0.232782 -0.078370 -0.042554 0.016001 0.187258 -0.164948 -0.237838 -0.010490 0.118103 0.194274
29 -0.049687 -0.246559 0.051086 -0.040153 -0.010779 -0.106475 0.133322 0.053742 -0.051657 0.052243 -0.093936 0.199822 0.105183 -0.141795 -0.023600 -0.142614 -0.048430 -0.121043 0.017502 -0.040724 0.265347 0.015505 0.231489 0.032012 -0.025006 -0.051864 -0.050191 0.030244 0.028011 0.115437 0.035186 0.078685 -0.176204 0.042637 -0.107133 -0.111970 0.188426 -0.001859 -0.020761 -0.098374 -0.234256 -0.001069 0.150514 0.243497 -0.067790 0.149854 0.050530 -0.082442 -0.020660 0.072579 -0.105140 0.120382 0.074284 0.095218 -0.243762 -0.140390 -0.083748 0.052527 -0.031688 0.035124 0.188244 -0.087792 -0.071306 0.081180 -0.012026 0.040189 -0.059330 0.012408 0.054338 -0.071197 -0.078626 0.067908 -0.007690 -0.072549 0.155951 0.038004 0.137968 0.062161 -0.015289 -0.002752 -0.143397 -0.157261 -0.025836 -0.081920 -0.166333 0.219743 0.007286 -0.079617 -0.022620 0.015767 0.082020 0.031370 0.034844 -0.086430 -0.153800 0.161090 -0.032127 -0.122732 0.086311 0.017624 -0.225728 0.033158 -0.093136 -0.040142 -0.066915 -0.052671 0.205162 0.080698 -0.030491 -0.037140 -0.013177 0.014879 -0.027562 0.052603 -0.087807 -0.013000 -0.100226 0.244558 -0.250141 -0.042328 -0.071339 -0.043545 0.117891 -0.183377 -0.140556 0.062081 0.078530 0.175479
11 -0.033736 -0.263007 0.031725 -0.008962 -0.015242 -0.131097 0.125811 0.138336 0.065097 0.020910 -0.045609 0.223682 0.074143 -0.127899 0.071575 -0.111284 -0.062300 -0.163518 0.013161 -0.103688 0.218244 -0.027653 0.201791 -0.010955 0.063575 -0.068283 -0.049425 -0.028181 0.038137 0.069014 0.067535 0.053545 -0.156761 -0.005262 -0.038962 -0.122606 0.175914 0.001639 -0.059040 -0.065363 -0.174027 -0.061935 0.193451 0.256177 -0.153698 0.115829 0.103731 -0.079903 0.044496 0.121428 -0.154816 0.127918 0.051021 0.066216 -0.175075 -0.139263 -0.056973 0.098248 0.024645 -0.018619 0.221920 -0.114809 -0.007313 0.118220 -0.067650 0.117952 -0.048343 0.025796 0.077176 -0.134939 -0.101510 0.078965 -0.095949 -0.073434 0.258805 0.083223 0.111132 0.033449 -0.054133 -0.103087 -0.159808 -0.045910 -0.029337 0.020445 -0.184016 0.064655 0.101079 -0.055717 0.059011 0.073866 0.136303 -0.027339 0.041956 0.004039 -0.133602 0.098533 0.047422 -0.232861 0.112704 0.095522 -0.155828 0.027424 -0.107323 -0.006439 -0.136298 -0.072665 0.131720 0.069902 -0.001839 -0.045417 -0.000988 0.132873 -0.015157 0.084380 -0.108341 0.008184 -0.064329 0.189604 -0.243768 -0.088556 -0.039573 0.020536 0.205007 -0.169246 -0.257467 -0.025229 0.128227 0.199459
31 -0.044484 -0.228357 0.056054 -0.037953 -0.013951 -0.100396 0.122107 0.045756 -0.059187 0.050547 -0.090145 0.186568 0.106370 -0.136289 -0.026317 -0.138298 -0.047919 -0.104220 0.020347 -0.036039 0.250306 0.014577 0.217067 0.036376 -0.023504 -0.040218 -0.040366 0.039484 0.024320 0.106174 0.024037 0.078346 -0.171371 0.047493 -0.096928 -0.101195 0.171024 -0.005863 -0.011549 -0.095070 -0.224474 -0.000186 0.141099 0.229621 -0.059884 0.139774 0.041863 -0.081503 -0.019828 0.068415 -0.102284 0.112982 0.073560 0.088615 -0.228731 -0.137376 -0.083228 0.042591 -0.041023 0.029856 0.179136 -0.079336 -0.071284 0.069319 -0.007595 0.036004 -0.056993 0.008190 0.044205 -0.065472 -0.070399 0.057569 0.003800 -0.070539 0.143198 0.031131 0.136605 0.057050 -0.007673 0.003187 -0.128707 -0.156897 -0.029648 -0.084838 -0.153984 0.209915 -0.002456 -0.078330 -0.024476 0.010749 0.069918 0.037598 0.036960 -0.087129 -0.155809 0.147339 -0.035835 -0.112819 0.078880 0.021953 -0.213582 0.025810 -0.084529 -0.042959 -0.060483 -0.047042 0.197911 0.080713 -0.030131 -0.036939 -0.020984 0.002789 -0.025544 0.045166 -0.075954 -0.005754 -0.095016 0.235667 -0.239246 -0.032260 -0.069592 -0.046109 0.102860 -0.173295 -0.125936 0.060831 0.067072 0.159346
26 -0.053322 -0.249345 0.056916 -0.044214 -0.013710 -0.099061 0.142577 0.036500 -0.078595 0.055772 -0.105849 0.187592 0.114895 -0.142951 -0.043102 -0.141771 -0.040766 -0.112875 0.011180 -0.030637 0.280417 0.027616 0.247909 0.045485 -0.043535 -0.056601 -0.058486 0.038902 0.014552 0.127807 0.029093 0.088578 -0.178601 0.044731 -0.122695 -0.116751 0.190657 0.000027 -0.024013 -0.105420 -0.259069 0.008276 0.144861 0.242554 -0.060243 0.162806 0.043119 -0.079057 -0.035184 0.067577 -0.093095 0.135618 0.080999 0.089964 -0.252282 -0.155926 -0.097810 0.036674 -0.046965 0.046618 0.185980 -0.078777 -0.078147 0.082142 0.002279 0.023211 -0.057002 0.011526 0.048781 -0.064167 -0.068442 0.069898 0.006752 -0.076479 0.135481 0.019965 0.132192 0.067488 -0.013537 0.018833 -0.136184 -0.176985 -0.024331 -0.095801 -0.165067 0.251767 -0.021521 -0.078134 -0.044102 0.007396 0.072472 0.047659 0.039078 -0.098255 -0.151450 0.164912 -0.039260 -0.102118 0.086485 0.002798 -0.235275 0.029792 -0.092995 -0.045287 -0.048511 -0.046828 0.230166 0.085342 -0.027988 -0.034216 -0.020768 -0.010705 -0.028340 0.046417 -0.073704 -0.013256 -0.104572 0.248515 -0.242506 -0.037105 -0.074374 -0.055364 0.106672 -0.184012 -0.120534 0.079975 0.064146 0.170537
25 -0.058792 -0.244127 0.057154 -0.046350 -0.017421 -0.098469 0.132703 0.030371 -0.080681 0.058312 -0.107002 0.183886 0.114582 -0.136054 -0.049412 -0.150283 -0.039528 -0.107634 0.018545 -0.022056 0.276810 0.028072 0.244949 0.045839 -0.045812 -0.049871 -0.048638 0.047327 0.017073 0.126267 0.024936 0.085597 -0.178412 0.051158 -0.123312 -0.106332 0.184032 0.003107 -0.016441 -0.104249 -0.255933 0.015395 0.138716 0.235408 -0.047901 0.158220 0.040467 -0.076014 -0.033952 0.058073 -0.094773 0.124779 0.084967 0.098273 -0.257080 -0.150374 -0.093232 0.031204 -0.051694 0.051176 0.175283 -0.071501 -0.080386 0.070199 0.001496 0.018326 -0.060455 0.012598 0.039969 -0.057237 -0.067947 0.062617 0.020383 -0.072726 0.123813 0.017499 0.134353 0.069480 -0.004919 0.025159 -0.130392 -0.188754 -0.027226 -0.108195 -0.160564 0.255623 -0.021205 -0.084417 -0.047790 -0.001412 0.061202 0.049456 0.036782 -0.112419 -0.157941 0.168136 -0.046762 -0.094515 0.079717 0.002853 -0.239462 0.030604 -0.091777 -0.046776 -0.044093 -0.046165 0.229583 0.086749 -0.034235 -0.038957 -0.022002 -0.016867 -0.024999 0.042408 -0.078452 -0.014904 -0.102590 0.253136 -0.245135 -0.031850 -0.074465 -0.056072 0.096674 -0.183352 -0.112228 0.085896 0.058924 0.168167
17 -0.026079 -0.260887 0.026787 -0.003639 -0.019511 -0.133943 0.128428 0.147424 0.081470 0.022847 -0.036489 0.229318 0.072149 -0.125527 0.077368 -0.099797 -0.060077 -0.170700 0.010546 -0.103016 0.208028 -0.035609 0.196063 -0.018758 0.078845 -0.065368 -0.049327 -0.036623 0.044120 0.070272 0.071176 0.048509 -0.154549 -0.007171 -0.035288 -0.131122 0.171696 -0.000104 -0.063983 -0.061023 -0.164799 -0.077039 0.190688 0.260338 -0.161916 0.106924 0.107464 -0.079974 0.053551 0.126820 -0.161892 0.121834 0.047826 0.058861 -0.162410 -0.133539 -0.055746 0.107544 0.040231 -0.030504 0.223578 -0.117791 -0.000999 0.117858 -0.070379 0.130393 -0.043100 0.025791 0.079868 -0.136634 -0.108506 0.080242 -0.103964 -0.073771 0.270787 0.092344 0.102885 0.029519 -0.054763 -0.119057 -0.163737 -0.034257 -0.025236 0.040523 -0.185975 0.044709 0.113656 -0.055451 0.072297 0.078615 0.140678 -0.034765 0.039785 0.016776 -0.133717 0.093713 0.055968 -0.243583 0.120891 0.103270 -0.149378 0.023655 -0.107986 -0.001286 -0.144666 -0.076879 0.120123 0.068182 -0.004549 -0.039410 0.001619 0.143803 -0.005331 0.091576 -0.110570 0.011384 -0.059151 0.183929 -0.244074 -0.096322 -0.034398 0.033865 0.214232 -0.162425 -0.274308 -0.034958 0.138541 0.205358
27 -0.048485 -0.248783 0.050347 -0.041321 -0.014207 -0.097115 0.136175 0.053709 -0.060039 0.053898 -0.097393 0.189335 0.104074 -0.132421 -0.027901 -0.141599 -0.041104 -0.118890 0.014254 -0.043224 0.266146 0.021549 0.235035 0.039045 -0.025862 -0.055467 -0.055622 0.035924 0.016553 0.117687 0.031095 0.077443 -0.176640 0.037901 -0.102570 -0.113780 0.181995 -0.000432 -0.026471 -0.100029 -0.245321 0.003423 0.148634 0.240891 -0.064539 0.151968 0.055295 -0.078833 -0.023252 0.072673 -0.096436 0.127957 0.073413 0.094054 -0.236812 -0.151763 -0.092252 0.044474 -0.030264 0.035769 0.181157 -0.075674 -0.070203 0.077610 -0.004328 0.034142 -0.058778 0.017985 0.047971 -0.070858 -0.074451 0.070556 -0.001211 -0.077585 0.142750 0.025018 0.134204 0.058972 -0.018721 0.007459 -0.134408 -0.159569 -0.025614 -0.077087 -0.167152 0.220990 0.002188 -0.075943 -0.033705 0.015433 0.070925 0.033426 0.036035 -0.086100 -0.154604 0.155843 -0.027177 -0.119642 0.088212 0.012359 -0.225779 0.028985 -0.087338 -0.046093 -0.059291 -0.048816 0.212514 0.078074 -0.032818 -0.035272 -0.013971 0.007741 -0.027742 0.045802 -0.075959 -0.010214 -0.098483 0.240372 -0.244377 -0.037116 -0.070419 -0.040499 0.116181 -0.179597 -0.135687 0.066912 0.073990 0.170434
10 -0.049765 -0.230223 0.054458 -0.043149 -0.009674 -0.088863 0.128521 0.035835 -0.070062 0.051348 -0.098662 0.182161 0.105291 -0.132864 -0.043776 -0.135316 -0.038110 -0.096613 0.015050 -0.024649 0.259661 0.024807 0.228902 0.045137 -0.041526 -0.042558 -0.045025 0.040990 0.019073 0.113191 0.019673 0.078595 -0.171497 0.054786 -0.114418 -0.105646 0.177785 -0.009107 -0.014841 -0.098528 -0.240334 0.006146 0.139935 0.235324 -0.044619 0.149291 0.040655 -0.078432 -0.026220 0.055660 -0.089371 0.114544 0.079933 0.092722 -0.241424 -0.135903 -0.089255 0.034461 -0.049573 0.044860 0.171642 -0.074453 -0.082284 0.070653 0.003721 0.025943 -0.055247 0.006858 0.040993 -0.059261 -0.063048 0.058084 0.019286 -0.071009 0.128769 0.024813 0.133437 0.061407 -0.009525 0.017386 -0.130661 -0.175765 -0.026403 -0.094845 -0.158994 0.237883 -0.020276 -0.080362 -0.038650 0.003940 0.068493 0.045898 0.036907 -0.097307 -0.153509 0.161103 -0.044436 -0.099092 0.078612 0.008975 -0.227530 0.026951 -0.084940 -0.044626 -0.050200 -0.046665 0.216874 0.085419 -0.039118 -0.033938 -0.015556 -0.016219 -0.023462 0.042495 -0.073164 -0.012804 -0.100387 0.249773 -0.244419 -0.031388 -0.073739 -0.056986 0.097096 -0.173680 -0.108171 0.072076 0.062457 0.164653
18 -0.040632 -0.233610 0.045103 -0.034154 -0.012296 -0.105340 0.118511 0.069489 -0.025843 0.047549 -0.081265 0.191907 0.099765 -0.130981 -0.002911 -0.129962 -0.048803 -0.115117 0.015148 -0.045192 0.241584 0.005674 0.216039 0.022286 -0.002274 -0.042169 -0.043126 0.020851 0.030830 0.097742 0.035905 0.072130 -0.161910 0.036433 -0.083093 -0.109034 0.168312 -0.004219 -0.021962 -0.079765 -0.208890 -0.012791 0.145380 0.231530 -0.080571 0.134144 0.050842 -0.076584 -0.001847 0.074822 -0.110802 0.107772 0.070391 0.087393 -0.214446 -0.129439 -0.075646 0.052901 -0.023701 0.019773 0.184448 -0.087903 -0.053650 0.081125 -0.015971 0.056436 -0.049649 0.010883 0.057116 -0.074825 -0.079527 0.062742 -0.016612 -0.073899 0.166730 0.045405 0.126272 0.054200 -0.018158 -0.023613 -0.138642 -0.125986 -0.024957 -0.060465 -0.161862 0.174418 0.026177 -0.069965 -0.006858 0.030126 0.087630 0.017780 0.036917 -0.070120 -0.148607 0.134411 -0.016517 -0.135636 0.087143 0.032929 -0.195145 0.028899 -0.088693 -0.030403 -0.074219 -0.053346 0.177050 0.071857 -0.025652 -0.041661 -0.016120 0.032875 -0.022439 0.055930 -0.085063 -0.007031 -0.084865 0.217737 -0.233709 -0.048683 -0.060612 -0.032896 0.127583 -0.166704 -0.152589 0.034688 0.081599 0.165768
22 -0.039376 -0.239405 0.047611 -0.033801 -0.013435 -0.107997 0.123895 0.066456 -0.033394 0.043820 -0.085408 0.194530 0.100855 -0.136354 -0.003343 -0.130598 -0.050015 -0.118646 0.021695 -0.044223 0.245862 0.006881 0.220185 0.022454 -0.010068 -0.042775 -0.045506 0.017923 0.031317 0.102130 0.036758 0.069021 -0.170840 0.036291 -0.089177 -0.111922 0.174420 -0.006380 -0.024901 -0.087079 -0.209195 -0.019766 0.148560 0.242835 -0.077085 0.138402 0.051355 -0.077286 -0.002194 0.075941 -0.114096 0.109719 0.066905 0.086179 -0.217703 -0.134564 -0.075771 0.060507 -0.020886 0.018428 0.188007 -0.085461 -0.055158 0.087021 -0.018683 0.057303 -0.055309 0.013820 0.060921 -0.076397 -0.081807 0.067494 -0.019759 -0.073490 0.171196 0.046246 0.123470 0.056783 -0.016978 -0.022784 -0.141940 -0.134365 -0.024941 -0.063543 -0.162357 0.178775 0.025589 -0.074191 -0.003835 0.027715 0.090741 0.019042 0.034007 -0.073343 -0.148662 0.137791 -0.017951 -0.139097 0.088313 0.031062 -0.200428 0.028142 -0.088684 -0.030386 -0.076015 -0.053146 0.184172 0.078378 -0.026703 -0.038549 -0.011406 0.034261 -0.018116 0.062648 -0.089389 -0.006327 -0.091068 0.228413 -0.245509 -0.048612 -0.061571 -0.033918 0.131995 -0.172194 -0.155554 0.040553 0.089438 0.173831
13 -0.029688 -0.246435 0.041682 -0.026406 -0.013852 -0.121311 0.123849 0.106243 0.022307 0.036808 -0.066389 0.210888 0.089634 -0.139369 0.037811 -0.120305 -0.058810 -0.141857 0.018029 -0.077932 0.232049 -0.013038 0.202760 0.001739 0.029684 -0.051614 -0.040318 -0.000551 0.041371 0.082790 0.050929 0.062906 -0.168315 0.016300 -0.061744 -0.120360 0.178562 -0.002765 -0.035482 -0.071747 -0.186048 -0.045465 0.175383 0.256886 -0.115830 0.124926 0.078525 -0.084867 0.022087 0.104752 -0.139031 0.113326 0.063035 0.086401 -0.204384 -0.133906 -0.068683 0.081304 0.007753 -0.006050 0.210119 -0.104514 -0.036856 0.096573 -0.038505 0.092324 -0.050257 0.013426 0.073249 -0.112183 -0.097029 0.068903 -0.056711 -0.075866 0.222510 0.064989 0.122407 0.044092 -0.039512 -0.072223 -0.154946 -0.093023 -0.032069 -0.018405 -0.178367 0.118777 0.072374 -0.067236 0.029642 0.058363 0.121481 -0.008024 0.032190 -0.036748 -0.149178 0.117403 0.012643 -0.201861 0.098523 0.068059 -0.177445 0.026758 -0.098507 -0.019347 -0.116404 -0.073888 0.157684 0.072799 -0.019124 -0.048259 -0.003062 0.088581 -0.016009 0.081504 -0.107593 0.000725 -0.079412 0.218284 -0.252844 -0.071972 -0.051916 -0.001584 0.173376 -0.169429 -0.215533 0.006107 0.119848 0.191522
21 -0.051995 -0.234587 0.054205 -0.043419 -0.018345 -0.098316 0.128869 0.042380 -0.060100 0.056530 -0.095435 0.186117 0.106304 -0.139614 -0.029957 -0.137763 -0.044670 -0.109422 0.018126 -0.034880 0.259911 0.018937 0.226743 0.038145 -0.028285 -0.047517 -0.045239 0.035698 0.021010 0.112881 0.030641 0.078544 -0.170938 0.045020 -0.105827 -0.107801 0.175287 0.001578 -0.015705 -0.093548 -0.236635 0.006999 0.138591 0.230609 -0.062390 0.146959 0.046508 -0.076483 -0.019828 0.065060 -0.094410 0.119830 0.076089 0.087637 -0.233616 -0.139649 -0.088201 0.038056 -0.040236 0.038804 0.175021 -0.075797 -0.069083 0.077298 -0.000892 0.030278 -0.054718 0.008579 0.046111 -0.067378 -0.066104 0.059999 0.002817 -0.068618 0.140446 0.028296 0.127994 0.058364 -0.010083 0.009775 -0.131084 -0.156719 -0.027543 -0.089561 -0.160415 0.215733 -0.007399 -0.076897 -0.027796 0.009544 0.074999 0.039666 0.033542 -0.086001 -0.150473 0.150906 -0.034510 -0.105701 0.080844 0.013737 -0.217081 0.025758 -0.089202 -0.038433 -0.052750 -0.045647 0.202650 0.075972 -0.031731 -0.039172 -0.013088 0.005813 -0.026129 0.047915 -0.078958 -0.005944 -0.099960 0.236813 -0.237400 -0.028583 -0.069929 -0.048625 0.109519 -0.176892 -0.124041 0.065975 0.072832 0.162640
23 -0.042677 -0.228694 0.043982 -0.031710 -0.014346 -0.098429 0.120382 0.067716 -0.028893 0.042324 -0.082209 0.187056 0.095025 -0.132159 -0.009692 -0.124744 -0.046701 -0.112375 0.018570 -0.044370 0.235114 0.006791 0.207536 0.026193 -0.005850 -0.046715 -0.046072 0.019175 0.023019 0.100275 0.032839 0.070589 -0.163001 0.034295 -0.088788 -0.107874 0.169041 -0.005690 -0.026883 -0.083844 -0.210460 -0.013358 0.149044 0.231682 -0.073407 0.129909 0.053166 -0.073396 -0.008567 0.074595 -0.106389 0.110292 0.068941 0.080728 -0.213319 -0.136323 -0.079527 0.053057 -0.023274 0.018468 0.180639 -0.084383 -0.052569 0.079767 -0.014469 0.050200 -0.047492 0.017137 0.051976 -0.073190 -0.073128 0.062696 -0.011743 -0.067323 0.155690 0.040193 0.126458 0.053436 -0.014922 -0.017019 -0.127423 -0.131575 -0.023671 -0.060417 -0.157120 0.178222 0.017250 -0.068318 -0.011156 0.022368 0.083950 0.023622 0.030674 -0.067149 -0.147155 0.131863 -0.014956 -0.133495 0.082548 0.035532 -0.194823 0.023813 -0.083269 -0.035592 -0.072323 -0.054802 0.174155 0.073161 -0.022738 -0.036820 -0.017404 0.027358 -0.021814 0.050785 -0.082247 -0.005336 -0.086551 0.218420 -0.229648 -0.043970 -0.058471 -0.027689 0.118696 -0.165315 -0.145028 0.038334 0.079403 0.162959
16 -0.049026 -0.240867 0.052576 -0.037218 -0.015641 -0.102148 0.132558 0.054289 -0.048177 0.050998 -0.092840 0.194651 0.102079 -0.133162 -0.016727 -0.138676 -0.051102 -0.120235 0.012587 -0.045230 0.255757 0.016484 0.229561 0.029237 -0.018787 -0.048791 -0.047344 0.028637 0.022213 0.106177 0.030006 0.079741 -0.173109 0.036007 -0.097044 -0.107234 0.183245 -0.003769 -0.024790 -0.095080 -0.233328 0.000216 0.152011 0.239120 -0.068273 0.143034 0.053934 -0.076384 -0.020049 0.075174 -0.101173 0.120209 0.074274 0.091101 -0.229873 -0.143645 -0.086427 0.047945 -0.030335 0.026401 0.187253 -0.085174 -0.065880 0.076154 -0.008467 0.040783 -0.054907 0.016741 0.050749 -0.075146 -0.070438 0.062345 -0.005395 -0.075105 0.156262 0.033065 0.134533 0.057972 -0.018861 -0.001988 -0.130877 -0.151825 -0.026017 -0.077762 -0.162316 0.210524 0.007589 -0.071628 -0.019829 0.019017 0.076249 0.034026 0.031820 -0.080986 -0.151912 0.151672 -0.021425 -0.124456 0.081968 0.018528 -0.208704 0.029199 -0.086463 -0.040796 -0.067991 -0.054953 0.195930 0.078006 -0.025256 -0.037776 -0.016753 0.019902 -0.027933 0.053086 -0.079444 -0.004218 -0.095237 0.237551 -0.239529 -0.041787 -0.066297 -0.039362 0.115839 -0.174360 -0.136276 0.057756 0.076231 0.172244
15 -0.050420 -0.230103 0.054059 -0.042431 -0.013068 -0.090441 0.124892 0.040019 -0.056460 0.048853 -0.089727 0.177602 0.101251 -0.128231 -0.025634 -0.133292 -0.046184 -0.106706 0.013347 -0.038501 0.250244 0.020348 0.217615 0.036617 -0.030565 -0.044092 -0.047201 0.033796 0.019875 0.104406 0.024721 0.078420 -0.160594 0.040425 -0.097656 -0.101901 0.166243 -0.002154 -0.014177 -0.089858 -0.227155 0.002655 0.134547 0.222764 -0.055418 0.144242 0.040493 -0.074495 -0.021512 0.062126 -0.095479 0.114466 0.069587 0.088108 -0.225960 -0.139550 -0.087966 0.036394 -0.034991 0.037028 0.173884 -0.070402 -0.066305 0.068709 -0.004828 0.034497 -0.051026 0.010583 0.048356 -0.059004 -0.065291 0.058855 0.003739 -0.071303 0.131106 0.026010 0.127174 0.057501 -0.015507 0.001756 -0.124912 -0.148604 -0.025056 -0.085269 -0.156284 0.205277 -0.005164 -0.076451 -0.028774 0.013679 0.071292 0.038307 0.038705 -0.087117 -0.147978 0.147111 -0.028669 -0.101032 0.078506 0.017926 -0.203766 0.025413 -0.087263 -0.038181 -0.051006 -0.048339 0.196677 0.076442 -0.029162 -0.039050 -0.016657 0.002491 -0.025270 0.041054 -0.076097 -0.005713 -0.089223 0.229265 -0.230023 -0.028953 -0.063240 -0.047648 0.106886 -0.162657 -0.123997 0.061652 0.066178 0.158220
19 -0.046360 -0.231385 0.056873 -0.041998 -0.014540 -0.091066 0.126024 0.034856 -0.067648 0.054066 -0.100698 0.180755 0.104323 -0.131454 -0.038908 -0.134432 -0.044229 -0.104737 0.017720 -0.024942 0.255274 0.019932 0.225576 0.040014 -0.036379 -0.041203 -0.047836 0.039523 0.017026 0.112592 0.024946 0.081198 -0.167195 0.043189 -0.108045 -0.102546 0.171157 0.000342 -0.013846 -0.094143 -0.235018 0.008903 0.135413 0.224939 -0.049094 0.145961 0.043220 -0.077554 -0.028710 0.060754 -0.091568 0.115023 0.071571 0.088130 -0.229470 -0.137073 -0.091999 0.037810 -0.038518 0.038208 0.169619 -0.074212 -0.070782 0.073113 0.000237 0.020693 -0.052055 0.010040 0.042381 -0.060335 -0.064946 0.062362 0.010287 -0.068607 0.124452 0.020808 0.131898 0.064805 -0.011754 0.014198 -0.126035 -0.165280 -0.024298 -0.095227 -0.155745 0.229613 -0.011013 -0.073155 -0.040085 0.005550 0.065352 0.046009 0.038151 -0.093472 -0.150459 0.157557 -0.038049 -0.096697 0.076574 0.003972 -0.216448 0.029353 -0.088583 -0.046363 -0.050403 -0.044326 0.207493 0.078984 -0.033174 -0.036185 -0.019746 -0.007416 -0.025157 0.041541 -0.070238 -0.008818 -0.095352 0.242133 -0.238464 -0.026262 -0.071781 -0.053642 0.098714 -0.173957 -0.116867 0.071083 0.060321 0.158583
12 -0.040438 -0.230887 0.040180 -0.027399 -0.015258 -0.105901 0.115590 0.077848 -0.005262 0.038526 -0.062545 0.192936 0.084452 -0.123420 0.014485 -0.111876 -0.051268 -0.120920 0.017223 -0.062299 0.220605 0.001505 0.199170 0.009460 0.009029 -0.050823 -0.041037 0.006828 0.031326 0.086170 0.043855 0.063382 -0.159514 0.025191 -0.069094 -0.104790 0.162855 -0.000434 -0.031735 -0.071101 -0.188646 -0.029352 0.154843 0.229036 -0.095581 0.123911 0.065651 -0.076375 0.004832 0.081772 -0.117743 0.110564 0.059660 0.072094 -0.198196 -0.131134 -0.067681 0.064727 -0.007307 0.010742 0.186453 -0.086346 -0.043587 0.089995 -0.032462 0.069462 -0.043113 0.014949 0.062380 -0.084854 -0.075977 0.067960 -0.036575 -0.066041 0.182026 0.051361 0.116778 0.049955 -0.026725 -0.038394 -0.136271 -0.100598 -0.029952 -0.035735 -0.160155 0.141351 0.040357 -0.063072 0.008708 0.034957 0.096757 0.010427 0.031755 -0.047258 -0.133764 0.116452 0.003737 -0.160256 0.089904 0.048589 -0.181693 0.020655 -0.089583 -0.023042 -0.088040 -0.061674 0.158906 0.070513 -0.015264 -0.041969 -0.011891 0.057334 -0.015816 0.065666 -0.088093 0.002082 -0.078149 0.208221 -0.232406 -0.058761 -0.054690 -0.017552 0.144435 -0.155540 -0.176691 0.021776 0.090846 0.171400
